[
    {
        "inputLayer": {
            "neurons": [
                {
                    "weights": [
                        -0.5577632830422752,
                        -0.5992306148398912,
                        0.6623851946727002
                    ],
                    "bias": 0.18358817937699895
                },
                {
                    "weights": [
                        0.14942220216557467,
                        0.9880032626459024,
                        -0.4103865267865878
                    ],
                    "bias": -0.40342407531996166
                },
                {
                    "weights": [
                        -0.1711554734101708,
                        0.13032917875449423,
                        -0.7120917156448252
                    ],
                    "bias": 0.5606988731212448
                }
            ]
        },
        "layers": [
            {
                "neurons": [
                    {
                        "weights": [
                            -0.7395726833866747,
                            0.4062573362012422,
                            -0.724299738067248
                        ],
                        "bias": 0.09628914185671196
                    },
                    {
                        "weights": [
                            -0.20663283778679964,
                            0.8738428980989348,
                            -0.056803000225224
                        ],
                        "bias": -0.5418820836030463
                    },
                    {
                        "weights": [
                            0.2762893097290835,
                            -0.08749429221129024,
                            -0.9512722923634496
                        ],
                        "bias": 0.38520514344131485
                    }
                ]
            }
        ],
        "outputLayer": {
            "neurons": [
                {
                    "weights": [
                        0.7349292307744626,
                        -0.08524586268572776,
                        0.028234281206027223
                    ],
                    "bias": -0.49274257429070073
                },
                {
                    "weights": [
                        0.8225002350400048,
                        0.25245360035392794,
                        -0.04129095037557562
                    ],
                    "bias": -0.1956820527901962
                },
                {
                    "weights": [
                        0.5195586159394454,
                        -0.4862542184968437,
                        0.9211653384061428
                    ],
                    "bias": -0.20728009067248335
                }
            ]
        }
    },
    {
        "inputLayer": {
            "neurons": [
                {
                    "weights": [
                        -0.5577632830422752,
                        -0.5992306148398912,
                        0.6623851946727002
                    ],
                    "bias": 0.2670036298452506
                },
                {
                    "weights": [
                        0.14942220216557467,
                        0.9880032626459024,
                        -0.4103865267865878
                    ],
                    "bias": -0.34794208478735056
                },
                {
                    "weights": [
                        -0.1711554734101708,
                        0.13032917875449423,
                        -0.7120917156448252
                    ],
                    "bias": 0.37846846262757705
                }
            ]
        },
        "layers": [
            {
                "neurons": [
                    {
                        "weights": [
                            -0.7395726833866747,
                            0.4062573362012422,
                            -0.724299738067248
                        ],
                        "bias": 0.22972603437514505
                    },
                    {
                        "weights": [
                            -0.20663283778679964,
                            0.8738428980989348,
                            -0.056803000225224
                        ],
                        "bias": -0.6630141138769353
                    },
                    {
                        "weights": [
                            0.2762893097290835,
                            -0.08749429221129024,
                            -0.9512722923634496
                        ],
                        "bias": 0.2754904696356645
                    }
                ]
            }
        ],
        "outputLayer": {
            "neurons": [
                {
                    "weights": [
                        0.7349292307744626,
                        -0.08524586268572776,
                        0.028234281206027223
                    ],
                    "bias": -0.49538847354981314
                },
                {
                    "weights": [
                        0.8225002350400048,
                        0.25245360035392794,
                        -0.04129095037557562
                    ],
                    "bias": -0.06097942105996429
                },
                {
                    "weights": [
                        0.5195586159394454,
                        -0.4862542184968437,
                        0.9211653384061428
                    ],
                    "bias": -0.21009941905990454
                }
            ]
        }
    },
    {
        "inputLayer": {
            "neurons": [
                {
                    "weights": [
                        -0.5577632830422752,
                        -0.5992306148398912,
                        0.6623851946727002
                    ],
                    "bias": 0.23528627992738044
                },
                {
                    "weights": [
                        0.14942220216557467,
                        0.9880032626459024,
                        -0.4103865267865878
                    ],
                    "bias": -0.40342407531996166
                },
                {
                    "weights": [
                        -0.1711554734101708,
                        0.13032917875449423,
                        -0.7120917156448252
                    ],
                    "bias": 0.4098741901357186
                }
            ]
        },
        "layers": [
            {
                "neurons": [
                    {
                        "weights": [
                            -0.7395726833866747,
                            0.4062573362012422,
                            -0.724299738067248
                        ],
                        "bias": 0.08631941222900194
                    },
                    {
                        "weights": [
                            -0.20663283778679964,
                            0.8738428980989348,
                            -0.056803000225224
                        ],
                        "bias": -0.5903910886169597
                    },
                    {
                        "weights": [
                            0.2762893097290835,
                            -0.08749429221129024,
                            -0.9512722923634496
                        ],
                        "bias": 0.2914510991985293
                    }
                ]
            }
        ],
        "outputLayer": {
            "neurons": [
                {
                    "weights": [
                        0.7349292307744626,
                        -0.08524586268572776,
                        0.028234281206027223
                    ],
                    "bias": -0.4455639319419102
                },
                {
                    "weights": [
                        0.8225002350400048,
                        0.25245360035392794,
                        -0.04129095037557562
                    ],
                    "bias": -0.12041879284762756
                },
                {
                    "weights": [
                        0.5195586159394454,
                        -0.4862542184968437,
                        0.9211653384061428
                    ],
                    "bias": -0.20330942194922558
                }
            ]
        }
    },
    {
        "inputLayer": {
            "neurons": [
                {
                    "weights": [
                        -0.5577632830422752,
                        -0.5992306148398912,
                        0.6623851946727002
                    ],
                    "bias": 0.3254533168865681
                },
                {
                    "weights": [
                        0.14942220216557467,
                        0.9880032626459024,
                        -0.4103865267865878
                    ],
                    "bias": -0.3950096780241116
                },
                {
                    "weights": [
                        -0.1711554734101708,
                        0.13032917875449423,
                        -0.7120917156448252
                    ],
                    "bias": 0.3287919824826555
                }
            ]
        },
        "layers": [
            {
                "neurons": [
                    {
                        "weights": [
                            -0.7395726833866747,
                            0.4062573362012422,
                            -0.724299738067248
                        ],
                        "bias": -0.08347594836142828
                    },
                    {
                        "weights": [
                            -0.20663283778679964,
                            0.8738428980989348,
                            -0.056803000225224
                        ],
                        "bias": -0.5822643556900161
                    },
                    {
                        "weights": [
                            0.2762893097290835,
                            -0.08749429221129024,
                            -0.9512722923634496
                        ],
                        "bias": 0.2271055436095898
                    }
                ]
            }
        ],
        "outputLayer": {
            "neurons": [
                {
                    "weights": [
                        0.7349292307744626,
                        -0.08524586268572776,
                        0.028234281206027223
                    ],
                    "bias": -0.4022238603042293
                },
                {
                    "weights": [
                        0.8225002350400048,
                        0.25245360035392794,
                        -0.04129095037557562
                    ],
                    "bias": -0.08033919171289758
                },
                {
                    "weights": [
                        0.5195586159394454,
                        -0.4862542184968437,
                        0.9211653384061428
                    ],
                    "bias": -0.04418635322050611
                }
            ]
        }
    },
    {
        "inputLayer": {
            "neurons": [
                {
                    "weights": [
                        -0.5577632830422752,
                        -0.5992306148398912,
                        0.6623851946727002
                    ],
                    "bias": 0.2256757101596305
                },
                {
                    "weights": [
                        0.14942220216557467,
                        0.9880032626459024,
                        -0.4103865267865878
                    ],
                    "bias": -0.5207159006930936
                },
                {
                    "weights": [
                        -0.1711554734101708,
                        0.13032917875449423,
                        -0.7120917156448252
                    ],
                    "bias": 0.4098741901357186
                }
            ]
        },
        "layers": [
            {
                "neurons": [
                    {
                        "weights": [
                            -0.7395726833866747,
                            0.4062573362012422,
                            -0.724299738067248
                        ],
                        "bias": 0.2125196746150073
                    },
                    {
                        "weights": [
                            -0.20663283778679964,
                            0.8738428980989348,
                            -0.056803000225224
                        ],
                        "bias": -0.6470044015341768
                    },
                    {
                        "weights": [
                            0.2762893097290835,
                            -0.08749429221129024,
                            -0.9512722923634496
                        ],
                        "bias": 0.4649198889363985
                    }
                ]
            }
        ],
        "outputLayer": {
            "neurons": [
                {
                    "weights": [
                        0.7349292307744626,
                        -0.08524586268572776,
                        0.028234281206027223
                    ],
                    "bias": -0.506903856178161
                },
                {
                    "weights": [
                        0.8225002350400048,
                        0.25245360035392794,
                        -0.04129095037557562
                    ],
                    "bias": -0.21018088780065491
                },
                {
                    "weights": [
                        0.5195586159394454,
                        -0.4862542184968437,
                        0.9211653384061428
                    ],
                    "bias": -0.1811808566506386
                }
            ]
        }
    },
    {
        "inputLayer": {
            "neurons": [
                {
                    "weights": [
                        -0.5577632830422752,
                        -0.5992306148398912,
                        0.6623851946727002
                    ],
                    "bias": 0.16455623323899576
                },
                {
                    "weights": [
                        0.14942220216557467,
                        0.9880032626459024,
                        -0.4103865267865878
                    ],
                    "bias": -0.2969337173359209
                },
                {
                    "weights": [
                        -0.1711554734101708,
                        0.13032917875449423,
                        -0.7120917156448252
                    ],
                    "bias": 0.4906102289460777
                }
            ]
        },
        "layers": [
            {
                "neurons": [
                    {
                        "weights": [
                            -0.7395726833866747,
                            0.4062573362012422,
                            -0.724299738067248
                        ],
                        "bias": 0.11298128785211131
                    },
                    {
                        "weights": [
                            -0.20663283778679964,
                            0.8738428980989348,
                            -0.056803000225224
                        ],
                        "bias": -0.5343943734510975
                    },
                    {
                        "weights": [
                            0.2762893097290835,
                            -0.08749429221129024,
                            -0.9512722923634496
                        ],
                        "bias": 0.3581029901848204
                    }
                ]
            }
        ],
        "outputLayer": {
            "neurons": [
                {
                    "weights": [
                        0.7349292307744626,
                        -0.08524586268572776,
                        0.028234281206027223
                    ],
                    "bias": -0.3654639030347569
                },
                {
                    "weights": [
                        0.8225002350400048,
                        0.25245360035392794,
                        -0.04129095037557562
                    ],
                    "bias": -0.06182189713275172
                },
                {
                    "weights": [
                        0.5195586159394454,
                        -0.4862542184968437,
                        0.9211653384061428
                    ],
                    "bias": -0.28052271245980853
                }
            ]
        }
    },
    {
        "inputLayer": {
            "neurons": [
                {
                    "weights": [
                        -0.5577632830422752,
                        -0.5992306148398912,
                        0.6623851946727002
                    ],
                    "bias": 0.3254533168865681
                },
                {
                    "weights": [
                        0.14942220216557467,
                        0.9880032626459024,
                        -0.4103865267865878
                    ],
                    "bias": -0.4116650563259953
                },
                {
                    "weights": [
                        -0.1711554734101708,
                        0.13032917875449423,
                        -0.7120917156448252
                    ],
                    "bias": 0.45275151211062264
                }
            ]
        },
        "layers": [
            {
                "neurons": [
                    {
                        "weights": [
                            -0.7395726833866747,
                            0.4062573362012422,
                            -0.724299738067248
                        ],
                        "bias": -0.08737058169526786
                    },
                    {
                        "weights": [
                            -0.20663283778679964,
                            0.8738428980989348,
                            -0.056803000225224
                        ],
                        "bias": -0.37676533399586226
                    },
                    {
                        "weights": [
                            0.2762893097290835,
                            -0.08749429221129024,
                            -0.9512722923634496
                        ],
                        "bias": 0.29581929841273386
                    }
                ]
            }
        ],
        "outputLayer": {
            "neurons": [
                {
                    "weights": [
                        0.7349292307744626,
                        -0.08524586268572776,
                        0.028234281206027223
                    ],
                    "bias": -0.38938981674178214
                },
                {
                    "weights": [
                        0.8225002350400048,
                        0.25245360035392794,
                        -0.04129095037557562
                    ],
                    "bias": -0.19071919602460907
                },
                {
                    "weights": [
                        0.5195586159394454,
                        -0.4862542184968437,
                        0.9211653384061428
                    ],
                    "bias": -0.40504194784449493
                }
            ]
        }
    },
    {
        "inputLayer": {
            "neurons": [
                {
                    "weights": [
                        -0.5577632830422752,
                        -0.5992306148398912,
                        0.6623851946727002
                    ],
                    "bias": 0.19568526574469716
                },
                {
                    "weights": [
                        0.14942220216557467,
                        0.9880032626459024,
                        -0.4103865267865878
                    ],
                    "bias": -0.40342407531996166
                },
                {
                    "weights": [
                        -0.1711554734101708,
                        0.13032917875449423,
                        -0.7120917156448252
                    ],
                    "bias": 0.44591789928796366
                }
            ]
        },
        "layers": [
            {
                "neurons": [
                    {
                        "weights": [
                            -0.7395726833866747,
                            0.4062573362012422,
                            -0.724299738067248
                        ],
                        "bias": 0.16752020469747222
                    },
                    {
                        "weights": [
                            -0.20663283778679964,
                            0.8738428980989348,
                            -0.056803000225224
                        ],
                        "bias": -0.5903910886169597
                    },
                    {
                        "weights": [
                            0.2762893097290835,
                            -0.08749429221129024,
                            -0.9512722923634496
                        ],
                        "bias": 0.26054543400010727
                    }
                ]
            }
        ],
        "outputLayer": {
            "neurons": [
                {
                    "weights": [
                        0.7349292307744626,
                        -0.08524586268572776,
                        0.028234281206027223
                    ],
                    "bias": -0.49281291901238017
                },
                {
                    "weights": [
                        0.8225002350400048,
                        0.25245360035392794,
                        -0.04129095037557562
                    ],
                    "bias": -0.2005519589472696
                },
                {
                    "weights": [
                        0.5195586159394454,
                        -0.4862542184968437,
                        0.9211653384061428
                    ],
                    "bias": -0.25689977922314444
                }
            ]
        }
    },
    {
        "inputLayer": {
            "neurons": [
                {
                    "weights": [
                        -0.5577632830422752,
                        -0.5992306148398912,
                        0.6623851946727002
                    ],
                    "bias": 0.16455623323899576
                },
                {
                    "weights": [
                        0.14942220216557467,
                        0.9880032626459024,
                        -0.4103865267865878
                    ],
                    "bias": -0.2969337173359209
                },
                {
                    "weights": [
                        -0.1711554734101708,
                        0.13032917875449423,
                        -0.7120917156448252
                    ],
                    "bias": 0.4906102289460777
                }
            ]
        },
        "layers": [
            {
                "neurons": [
                    {
                        "weights": [
                            -0.7395726833866747,
                            0.4062573362012422,
                            -0.724299738067248
                        ],
                        "bias": 0.11298128785211131
                    },
                    {
                        "weights": [
                            -0.20663283778679964,
                            0.8738428980989348,
                            -0.056803000225224
                        ],
                        "bias": -0.5319160903872494
                    },
                    {
                        "weights": [
                            0.2762893097290835,
                            -0.08749429221129024,
                            -0.9512722923634496
                        ],
                        "bias": 0.3581029901848204
                    }
                ]
            }
        ],
        "outputLayer": {
            "neurons": [
                {
                    "weights": [
                        0.7349292307744626,
                        -0.08524586268572776,
                        0.028234281206027223
                    ],
                    "bias": -0.3654639030347569
                },
                {
                    "weights": [
                        0.8225002350400048,
                        0.25245360035392794,
                        -0.04129095037557562
                    ],
                    "bias": -0.06182189713275172
                },
                {
                    "weights": [
                        0.5195586159394454,
                        -0.4862542184968437,
                        0.9211653384061428
                    ],
                    "bias": -0.28052271245980853
                }
            ]
        }
    },
    {
        "inputLayer": {
            "neurons": [
                {
                    "weights": [
                        -0.5577632830422752,
                        -0.5992306148398912,
                        0.6623851946727002
                    ],
                    "bias": 0.16455623323899576
                },
                {
                    "weights": [
                        0.14942220216557467,
                        0.9880032626459024,
                        -0.4103865267865878
                    ],
                    "bias": -0.2969337173359209
                },
                {
                    "weights": [
                        -0.1711554734101708,
                        0.13032917875449423,
                        -0.7120917156448252
                    ],
                    "bias": 0.4906102289460777
                }
            ]
        },
        "layers": [
            {
                "neurons": [
                    {
                        "weights": [
                            -0.7395726833866747,
                            0.4062573362012422,
                            -0.724299738067248
                        ],
                        "bias": 0.11298128785211131
                    },
                    {
                        "weights": [
                            -0.20663283778679964,
                            0.8738428980989348,
                            -0.056803000225224
                        ],
                        "bias": -0.5343943734510975
                    },
                    {
                        "weights": [
                            0.2762893097290835,
                            -0.08749429221129024,
                            -0.9512722923634496
                        ],
                        "bias": 0.3581029901848204
                    }
                ]
            }
        ],
        "outputLayer": {
            "neurons": [
                {
                    "weights": [
                        0.7349292307744626,
                        -0.08524586268572776,
                        0.028234281206027223
                    ],
                    "bias": -0.3654639030347569
                },
                {
                    "weights": [
                        0.8225002350400048,
                        0.25245360035392794,
                        -0.04129095037557562
                    ],
                    "bias": -0.06182189713275172
                },
                {
                    "weights": [
                        0.5195586159394454,
                        -0.4862542184968437,
                        0.9211653384061428
                    ],
                    "bias": -0.28052271245980853
                }
            ]
        }
    },
    {
        "inputLayer": {
            "neurons": [
                {
                    "weights": [
                        -0.5577632830422752,
                        -0.5992306148398912,
                        0.6623851946727002
                    ],
                    "bias": 0.10786153135313367
                },
                {
                    "weights": [
                        0.14942220216557467,
                        0.9880032626459024,
                        -0.4103865267865878
                    ],
                    "bias": -0.30404774977231747
                },
                {
                    "weights": [
                        -0.1711554734101708,
                        0.13032917875449423,
                        -0.7120917156448252
                    ],
                    "bias": 0.43506479482003796
                }
            ]
        },
        "layers": [
            {
                "neurons": [
                    {
                        "weights": [
                            -0.7395726833866747,
                            0.4062573362012422,
                            -0.724299738067248
                        ],
                        "bias": -0.1644600431285375
                    },
                    {
                        "weights": [
                            -0.20663283778679964,
                            0.8738428980989348,
                            -0.056803000225224
                        ],
                        "bias": -0.6346709296093882
                    },
                    {
                        "weights": [
                            0.2762893097290835,
                            -0.08749429221129024,
                            -0.9512722923634496
                        ],
                        "bias": 0.24944919716999103
                    }
                ]
            }
        ],
        "outputLayer": {
            "neurons": [
                {
                    "weights": [
                        0.7349292307744626,
                        -0.08524586268572776,
                        0.028234281206027223
                    ],
                    "bias": -0.264499229672755
                },
                {
                    "weights": [
                        0.8225002350400048,
                        0.25245360035392794,
                        -0.04129095037557562
                    ],
                    "bias": -0.06210661781203194
                },
                {
                    "weights": [
                        0.5195586159394454,
                        -0.4862542184968437,
                        0.9211653384061428
                    ],
                    "bias": -0.10447821751193986
                }
            ]
        }
    },
    {
        "inputLayer": {
            "neurons": [
                {
                    "weights": [
                        -0.5577632830422752,
                        -0.5992306148398912,
                        0.6623851946727002
                    ],
                    "bias": 0.1557550462934346
                },
                {
                    "weights": [
                        0.14942220216557467,
                        0.9880032626459024,
                        -0.4103865267865878
                    ],
                    "bias": -0.4403790970543765
                },
                {
                    "weights": [
                        -0.1711554734101708,
                        0.13032917875449423,
                        -0.7120917156448252
                    ],
                    "bias": 0.4307970267242802
                }
            ]
        },
        "layers": [
            {
                "neurons": [
                    {
                        "weights": [
                            -0.7395726833866747,
                            0.4062573362012422,
                            -0.724299738067248
                        ],
                        "bias": 0.221974977123454
                    },
                    {
                        "weights": [
                            -0.20663283778679964,
                            0.8738428980989348,
                            -0.056803000225224
                        ],
                        "bias": -0.60762667332217
                    },
                    {
                        "weights": [
                            0.2762893097290835,
                            -0.08749429221129024,
                            -0.9512722923634496
                        ],
                        "bias": 0.4020266660928833
                    }
                ]
            }
        ],
        "outputLayer": {
            "neurons": [
                {
                    "weights": [
                        0.7349292307744626,
                        -0.08524586268572776,
                        0.028234281206027223
                    ],
                    "bias": -0.5246100883134992
                },
                {
                    "weights": [
                        0.8225002350400048,
                        0.25245360035392794,
                        -0.04129095037557562
                    ],
                    "bias": -0.06471539053042011
                },
                {
                    "weights": [
                        0.5195586159394454,
                        -0.4862542184968437,
                        0.9211653384061428
                    ],
                    "bias": -0.027122185179599648
                }
            ]
        }
    },
    {
        "inputLayer": {
            "neurons": [
                {
                    "weights": [
                        -0.5577632830422752,
                        -0.5992306148398912,
                        0.6623851946727002
                    ],
                    "bias": 0.15334358098634593
                },
                {
                    "weights": [
                        0.14942220216557467,
                        0.9880032626459024,
                        -0.4103865267865878
                    ],
                    "bias": -0.3660838105478084
                },
                {
                    "weights": [
                        -0.1711554734101708,
                        0.13032917875449423,
                        -0.7120917156448252
                    ],
                    "bias": 0.549607613702581
                }
            ]
        },
        "layers": [
            {
                "neurons": [
                    {
                        "weights": [
                            -0.7395726833866747,
                            0.4062573362012422,
                            -0.724299738067248
                        ],
                        "bias": 0.18164520126047298
                    },
                    {
                        "weights": [
                            -0.20663283778679964,
                            0.8738428980989348,
                            -0.056803000225224
                        ],
                        "bias": -0.6531536333069858
                    },
                    {
                        "weights": [
                            0.2762893097290835,
                            -0.08749429221129024,
                            -0.9512722923634496
                        ],
                        "bias": 0.2271055436095898
                    }
                ]
            }
        ],
        "outputLayer": {
            "neurons": [
                {
                    "weights": [
                        0.7349292307744626,
                        -0.08524586268572776,
                        0.028234281206027223
                    ],
                    "bias": -0.4022238603042293
                },
                {
                    "weights": [
                        0.8225002350400048,
                        0.25245360035392794,
                        -0.04129095037557562
                    ],
                    "bias": -0.08033919171289758
                },
                {
                    "weights": [
                        0.5195586159394454,
                        -0.4862542184968437,
                        0.9211653384061428
                    ],
                    "bias": -0.12258232158155069
                }
            ]
        }
    },
    {
        "inputLayer": {
            "neurons": [
                {
                    "weights": [
                        -0.5577632830422752,
                        -0.5992306148398912,
                        0.6623851946727002
                    ],
                    "bias": 0.33636537405659134
                },
                {
                    "weights": [
                        0.14942220216557467,
                        0.9880032626459024,
                        -0.4103865267865878
                    ],
                    "bias": -0.3950096780241116
                },
                {
                    "weights": [
                        -0.1711554734101708,
                        0.13032917875449423,
                        -0.7120917156448252
                    ],
                    "bias": 0.32361397465403313
                }
            ]
        },
        "layers": [
            {
                "neurons": [
                    {
                        "weights": [
                            -0.7395726833866747,
                            0.4062573362012422,
                            -0.724299738067248
                        ],
                        "bias": 0.10292384936374926
                    },
                    {
                        "weights": [
                            -0.20663283778679964,
                            0.8738428980989348,
                            -0.056803000225224
                        ],
                        "bias": -0.5875043523335598
                    },
                    {
                        "weights": [
                            0.2762893097290835,
                            -0.08749429221129024,
                            -0.9512722923634496
                        ],
                        "bias": 0.2082270477326161
                    }
                ]
            }
        ],
        "outputLayer": {
            "neurons": [
                {
                    "weights": [
                        0.7349292307744626,
                        -0.08524586268572776,
                        0.028234281206027223
                    ],
                    "bias": -0.37820859783571187
                },
                {
                    "weights": [
                        0.8225002350400048,
                        0.25245360035392794,
                        -0.04129095037557562
                    ],
                    "bias": -0.04610835496239864
                },
                {
                    "weights": [
                        0.5195586159394454,
                        -0.4862542184968437,
                        0.9211653384061428
                    ],
                    "bias": -0.04418635322050611
                }
            ]
        }
    },
    {
        "inputLayer": {
            "neurons": [
                {
                    "weights": [
                        -0.5577632830422752,
                        -0.5992306148398912,
                        0.6623851946727002
                    ],
                    "bias": 0.2256757101596305
                },
                {
                    "weights": [
                        0.14942220216557467,
                        0.9880032626459024,
                        -0.4103865267865878
                    ],
                    "bias": -0.5236308913748012
                },
                {
                    "weights": [
                        -0.1711554734101708,
                        0.13032917875449423,
                        -0.7120917156448252
                    ],
                    "bias": 0.4098741901357186
                }
            ]
        },
        "layers": [
            {
                "neurons": [
                    {
                        "weights": [
                            -0.7395726833866747,
                            0.4062573362012422,
                            -0.724299738067248
                        ],
                        "bias": 0.20447514681200418
                    },
                    {
                        "weights": [
                            -0.20663283778679964,
                            0.8738428980989348,
                            -0.056803000225224
                        ],
                        "bias": -0.6536680962745182
                    },
                    {
                        "weights": [
                            0.2762893097290835,
                            -0.08749429221129024,
                            -0.9512722923634496
                        ],
                        "bias": 0.46023564463158123
                    }
                ]
            }
        ],
        "outputLayer": {
            "neurons": [
                {
                    "weights": [
                        0.7349292307744626,
                        -0.08524586268572776,
                        0.028234281206027223
                    ],
                    "bias": -0.5026812742186535
                },
                {
                    "weights": [
                        0.8225002350400048,
                        0.25245360035392794,
                        -0.04129095037557562
                    ],
                    "bias": -0.21018088780065491
                },
                {
                    "weights": [
                        0.5195586159394454,
                        -0.4862542184968437,
                        0.9211653384061428
                    ],
                    "bias": -0.1811808566506386
                }
            ]
        }
    },
    {
        "inputLayer": {
            "neurons": [
                {
                    "weights": [
                        -0.5577632830422752,
                        -0.5992306148398912,
                        0.6623851946727002
                    ],
                    "bias": 0.15334358098634593
                },
                {
                    "weights": [
                        0.14942220216557467,
                        0.9880032626459024,
                        -0.4103865267865878
                    ],
                    "bias": -0.3660838105478084
                },
                {
                    "weights": [
                        -0.1711554734101708,
                        0.13032917875449423,
                        -0.7120917156448252
                    ],
                    "bias": 0.5535717951909674
                }
            ]
        },
        "layers": [
            {
                "neurons": [
                    {
                        "weights": [
                            -0.7395726833866747,
                            0.4062573362012422,
                            -0.724299738067248
                        ],
                        "bias": 0.17422131307209565
                    },
                    {
                        "weights": [
                            -0.20663283778679964,
                            0.8738428980989348,
                            -0.056803000225224
                        ],
                        "bias": -0.6531536333069858
                    },
                    {
                        "weights": [
                            0.2762893097290835,
                            -0.08749429221129024,
                            -0.9512722923634496
                        ],
                        "bias": 0.2263863457522978
                    }
                ]
            }
        ],
        "outputLayer": {
            "neurons": [
                {
                    "weights": [
                        0.7349292307744626,
                        -0.08524586268572776,
                        0.028234281206027223
                    ],
                    "bias": -0.4022238603042293
                },
                {
                    "weights": [
                        0.8225002350400048,
                        0.25245360035392794,
                        -0.04129095037557562
                    ],
                    "bias": -0.08033919171289758
                },
                {
                    "weights": [
                        0.5195586159394454,
                        -0.4862542184968437,
                        0.9211653384061428
                    ],
                    "bias": -0.12258232158155069
                }
            ]
        }
    },
    {
        "inputLayer": {
            "neurons": [
                {
                    "weights": [
                        -0.5577632830422752,
                        -0.5992306148398912,
                        0.6623851946727002
                    ],
                    "bias": 0.0971313326788581
                },
                {
                    "weights": [
                        0.14942220216557467,
                        0.9880032626459024,
                        -0.4103865267865878
                    ],
                    "bias": -0.3660838105478084
                },
                {
                    "weights": [
                        -0.1711554734101708,
                        0.13032917875449423,
                        -0.7120917156448252
                    ],
                    "bias": 0.5121668055645495
                }
            ]
        },
        "layers": [
            {
                "neurons": [
                    {
                        "weights": [
                            -0.7395726833866747,
                            0.4062573362012422,
                            -0.724299738067248
                        ],
                        "bias": 0.16398059811022117
                    },
                    {
                        "weights": [
                            -0.20663283778679964,
                            0.8738428980989348,
                            -0.056803000225224
                        ],
                        "bias": -0.6531536333069858
                    },
                    {
                        "weights": [
                            0.2762893097290835,
                            -0.08749429221129024,
                            -0.9512722923634496
                        ],
                        "bias": 0.2271055436095898
                    }
                ]
            }
        ],
        "outputLayer": {
            "neurons": [
                {
                    "weights": [
                        0.7349292307744626,
                        -0.08524586268572776,
                        0.028234281206027223
                    ],
                    "bias": -0.30802433841351445
                },
                {
                    "weights": [
                        0.8225002350400048,
                        0.25245360035392794,
                        -0.04129095037557562
                    ],
                    "bias": -0.12005073105038372
                },
                {
                    "weights": [
                        0.5195586159394454,
                        -0.4862542184968437,
                        0.9211653384061428
                    ],
                    "bias": -0.11355052043443833
                }
            ]
        }
    },
    {
        "inputLayer": {
            "neurons": [
                {
                    "weights": [
                        -0.5577632830422752,
                        -0.5992306148398912,
                        0.6623851946727002
                    ],
                    "bias": 0.14744431482621542
                },
                {
                    "weights": [
                        0.14942220216557467,
                        0.9880032626459024,
                        -0.4103865267865878
                    ],
                    "bias": -0.3660838105478084
                },
                {
                    "weights": [
                        -0.1711554734101708,
                        0.13032917875449423,
                        -0.7120917156448252
                    ],
                    "bias": 0.48523748415561746
                }
            ]
        },
        "layers": [
            {
                "neurons": [
                    {
                        "weights": [
                            -0.7395726833866747,
                            0.4062573362012422,
                            -0.724299738067248
                        ],
                        "bias": 0.18164520126047298
                    },
                    {
                        "weights": [
                            -0.20663283778679964,
                            0.8738428980989348,
                            -0.056803000225224
                        ],
                        "bias": -0.6608085635208051
                    },
                    {
                        "weights": [
                            0.2762893097290835,
                            -0.08749429221129024,
                            -0.9512722923634496
                        ],
                        "bias": 0.2271055436095898
                    }
                ]
            }
        ],
        "outputLayer": {
            "neurons": [
                {
                    "weights": [
                        0.7349292307744626,
                        -0.08524586268572776,
                        0.028234281206027223
                    ],
                    "bias": -0.32956860149636374
                },
                {
                    "weights": [
                        0.8225002350400048,
                        0.25245360035392794,
                        -0.04129095037557562
                    ],
                    "bias": -0.03201443965198395
                },
                {
                    "weights": [
                        0.5195586159394454,
                        -0.4862542184968437,
                        0.9211653384061428
                    ],
                    "bias": -0.13809377590892158
                }
            ]
        }
    },
    {
        "inputLayer": {
            "neurons": [
                {
                    "weights": [
                        -0.5577632830422752,
                        -0.5992306148398912,
                        0.6623851946727002
                    ],
                    "bias": 0.2670036298452506
                },
                {
                    "weights": [
                        0.14942220216557467,
                        0.9880032626459024,
                        -0.4103865267865878
                    ],
                    "bias": -0.34794208478735056
                },
                {
                    "weights": [
                        -0.1711554734101708,
                        0.13032917875449423,
                        -0.7120917156448252
                    ],
                    "bias": 0.4661037737099427
                }
            ]
        },
        "layers": [
            {
                "neurons": [
                    {
                        "weights": [
                            -0.7395726833866747,
                            0.4062573362012422,
                            -0.724299738067248
                        ],
                        "bias": 0.13310212711774122
                    },
                    {
                        "weights": [
                            -0.20663283778679964,
                            0.8738428980989348,
                            -0.056803000225224
                        ],
                        "bias": -0.6592903132707337
                    },
                    {
                        "weights": [
                            0.2762893097290835,
                            -0.08749429221129024,
                            -0.9512722923634496
                        ],
                        "bias": 0.2754904696356645
                    }
                ]
            }
        ],
        "outputLayer": {
            "neurons": [
                {
                    "weights": [
                        0.7349292307744626,
                        -0.08524586268572776,
                        0.028234281206027223
                    ],
                    "bias": -0.5173115574188664
                },
                {
                    "weights": [
                        0.8225002350400048,
                        0.25245360035392794,
                        -0.04129095037557562
                    ],
                    "bias": -0.03168870793122715
                },
                {
                    "weights": [
                        0.5195586159394454,
                        -0.4862542184968437,
                        0.9211653384061428
                    ],
                    "bias": -0.22502879416246896
                }
            ]
        }
    },
    {
        "inputLayer": {
            "neurons": [
                {
                    "weights": [
                        -0.5577632830422752,
                        -0.5992306148398912,
                        0.6623851946727002
                    ],
                    "bias": 0.32810428310157136
                },
                {
                    "weights": [
                        0.14942220216557467,
                        0.9880032626459024,
                        -0.4103865267865878
                    ],
                    "bias": -0.4610301612207747
                },
                {
                    "weights": [
                        -0.1711554734101708,
                        0.13032917875449423,
                        -0.7120917156448252
                    ],
                    "bias": 0.32361397465403313
                }
            ]
        },
        "layers": [
            {
                "neurons": [
                    {
                        "weights": [
                            -0.7395726833866747,
                            0.4062573362012422,
                            -0.724299738067248
                        ],
                        "bias": 0.14267937828887672
                    },
                    {
                        "weights": [
                            -0.20663283778679964,
                            0.8738428980989348,
                            -0.056803000225224
                        ],
                        "bias": -0.5875043523335598
                    },
                    {
                        "weights": [
                            0.2762893097290835,
                            -0.08749429221129024,
                            -0.9512722923634496
                        ],
                        "bias": 0.17966857904294617
                    }
                ]
            }
        ],
        "outputLayer": {
            "neurons": [
                {
                    "weights": [
                        0.7349292307744626,
                        -0.08524586268572776,
                        0.028234281206027223
                    ],
                    "bias": -0.4768859017220757
                },
                {
                    "weights": [
                        0.8225002350400048,
                        0.25245360035392794,
                        -0.04129095037557562
                    ],
                    "bias": -0.13142343272027723
                },
                {
                    "weights": [
                        0.5195586159394454,
                        -0.4862542184968437,
                        0.9211653384061428
                    ],
                    "bias": -0.09491267802553618
                }
            ]
        }
    },
    {
        "inputLayer": {
            "neurons": [
                {
                    "weights": [
                        -0.5577632830422752,
                        -0.5992306148398912,
                        0.6623851946727002
                    ],
                    "bias": 0.15334358098634593
                },
                {
                    "weights": [
                        0.14942220216557467,
                        0.9880032626459024,
                        -0.4103865267865878
                    ],
                    "bias": -0.3660838105478084
                },
                {
                    "weights": [
                        -0.1711554734101708,
                        0.13032917875449423,
                        -0.7120917156448252
                    ],
                    "bias": 0.5535717951909674
                }
            ]
        },
        "layers": [
            {
                "neurons": [
                    {
                        "weights": [
                            -0.7395726833866747,
                            0.4062573362012422,
                            -0.724299738067248
                        ],
                        "bias": 0.25428714898585075
                    },
                    {
                        "weights": [
                            -0.20663283778679964,
                            0.8738428980989348,
                            -0.056803000225224
                        ],
                        "bias": -0.6531536333069858
                    },
                    {
                        "weights": [
                            0.2762893097290835,
                            -0.08749429221129024,
                            -0.9512722923634496
                        ],
                        "bias": 0.29572604739620617
                    }
                ]
            }
        ],
        "outputLayer": {
            "neurons": [
                {
                    "weights": [
                        0.7349292307744626,
                        -0.08524586268572776,
                        0.028234281206027223
                    ],
                    "bias": -0.4720296122082568
                },
                {
                    "weights": [
                        0.8225002350400048,
                        0.25245360035392794,
                        -0.04129095037557562
                    ],
                    "bias": -0.01084594721610363
                },
                {
                    "weights": [
                        0.5195586159394454,
                        -0.4862542184968437,
                        0.9211653384061428
                    ],
                    "bias": -0.10449040784855576
                }
            ]
        }
    },
    {
        "inputLayer": {
            "neurons": [
                {
                    "weights": [
                        -0.5577632830422752,
                        -0.5992306148398912,
                        0.6623851946727002
                    ],
                    "bias": 0.23528627992738044
                },
                {
                    "weights": [
                        0.14942220216557467,
                        0.9880032626459024,
                        -0.4103865267865878
                    ],
                    "bias": -0.40342407531996166
                },
                {
                    "weights": [
                        -0.1711554734101708,
                        0.13032917875449423,
                        -0.7120917156448252
                    ],
                    "bias": 0.49939112789826456
                }
            ]
        },
        "layers": [
            {
                "neurons": [
                    {
                        "weights": [
                            -0.7395726833866747,
                            0.4062573362012422,
                            -0.724299738067248
                        ],
                        "bias": 0.1300652554861317
                    },
                    {
                        "weights": [
                            -0.20663283778679964,
                            0.8738428980989348,
                            -0.056803000225224
                        ],
                        "bias": -0.5903910886169597
                    },
                    {
                        "weights": [
                            0.2762893097290835,
                            -0.08749429221129024,
                            -0.9512722923634496
                        ],
                        "bias": 0.33008786869663076
                    }
                ]
            }
        ],
        "outputLayer": {
            "neurons": [
                {
                    "weights": [
                        0.7349292307744626,
                        -0.08524586268572776,
                        0.028234281206027223
                    ],
                    "bias": -0.4695642512082237
                },
                {
                    "weights": [
                        0.8225002350400048,
                        0.25245360035392794,
                        -0.04129095037557562
                    ],
                    "bias": -0.19113242292857424
                },
                {
                    "weights": [
                        0.5195586159394454,
                        -0.4862542184968437,
                        0.9211653384061428
                    ],
                    "bias": -0.10785800097151066
                }
            ]
        }
    },
    {
        "inputLayer": {
            "neurons": [
                {
                    "weights": [
                        -0.5577632830422752,
                        -0.5992306148398912,
                        0.6623851946727002
                    ],
                    "bias": 0.23528627992738044
                },
                {
                    "weights": [
                        0.14942220216557467,
                        0.9880032626459024,
                        -0.4103865267865878
                    ],
                    "bias": -0.3350645724610933
                },
                {
                    "weights": [
                        -0.1711554734101708,
                        0.13032917875449423,
                        -0.7120917156448252
                    ],
                    "bias": 0.4098741901357186
                }
            ]
        },
        "layers": [
            {
                "neurons": [
                    {
                        "weights": [
                            -0.7395726833866747,
                            0.4062573362012422,
                            -0.724299738067248
                        ],
                        "bias": 0.07235285191954467
                    },
                    {
                        "weights": [
                            -0.20663283778679964,
                            0.8738428980989348,
                            -0.056803000225224
                        ],
                        "bias": -0.5903910886169597
                    },
                    {
                        "weights": [
                            0.2762893097290835,
                            -0.08749429221129024,
                            -0.9512722923634496
                        ],
                        "bias": 0.308965550364359
                    }
                ]
            }
        ],
        "outputLayer": {
            "neurons": [
                {
                    "weights": [
                        0.7349292307744626,
                        -0.08524586268572776,
                        0.028234281206027223
                    ],
                    "bias": -0.4266241827719857
                },
                {
                    "weights": [
                        0.8225002350400048,
                        0.25245360035392794,
                        -0.04129095037557562
                    ],
                    "bias": -0.19481690219833198
                },
                {
                    "weights": [
                        0.5195586159394454,
                        -0.4862542184968437,
                        0.9211653384061428
                    ],
                    "bias": -0.14774163928512385
                }
            ]
        }
    },
    {
        "inputLayer": {
            "neurons": [
                {
                    "weights": [
                        -0.5577632830422752,
                        -0.5992306148398912,
                        0.6623851946727002
                    ],
                    "bias": 0.15334358098634593
                },
                {
                    "weights": [
                        0.14942220216557467,
                        0.9880032626459024,
                        -0.4103865267865878
                    ],
                    "bias": -0.3660838105478084
                },
                {
                    "weights": [
                        -0.1711554734101708,
                        0.13032917875449423,
                        -0.7120917156448252
                    ],
                    "bias": 0.5137766484991629
                }
            ]
        },
        "layers": [
            {
                "neurons": [
                    {
                        "weights": [
                            -0.7395726833866747,
                            0.4062573362012422,
                            -0.724299738067248
                        ],
                        "bias": 0.18164520126047298
                    },
                    {
                        "weights": [
                            -0.20663283778679964,
                            0.8738428980989348,
                            -0.056803000225224
                        ],
                        "bias": -0.6531536333069858
                    },
                    {
                        "weights": [
                            0.2762893097290835,
                            -0.08749429221129024,
                            -0.9512722923634496
                        ],
                        "bias": 0.2271055436095898
                    }
                ]
            }
        ],
        "outputLayer": {
            "neurons": [
                {
                    "weights": [
                        0.7349292307744626,
                        -0.08524586268572776,
                        0.028234281206027223
                    ],
                    "bias": -0.4030721331109377
                },
                {
                    "weights": [
                        0.8225002350400048,
                        0.25245360035392794,
                        -0.04129095037557562
                    ],
                    "bias": -0.12314461183920053
                },
                {
                    "weights": [
                        0.5195586159394454,
                        -0.4862542184968437,
                        0.9211653384061428
                    ],
                    "bias": -0.203376602513392
                }
            ]
        }
    },
    {
        "inputLayer": {
            "neurons": [
                {
                    "weights": [
                        -0.5577632830422752,
                        -0.5992306148398912,
                        0.6623851946727002
                    ],
                    "bias": 0.2256757101596305
                },
                {
                    "weights": [
                        0.14942220216557467,
                        0.9880032626459024,
                        -0.4103865267865878
                    ],
                    "bias": -0.5268353132978923
                },
                {
                    "weights": [
                        -0.1711554734101708,
                        0.13032917875449423,
                        -0.7120917156448252
                    ],
                    "bias": 0.4098741901357186
                }
            ]
        },
        "layers": [
            {
                "neurons": [
                    {
                        "weights": [
                            -0.7395726833866747,
                            0.4062573362012422,
                            -0.724299738067248
                        ],
                        "bias": 0.2125196746150073
                    },
                    {
                        "weights": [
                            -0.20663283778679964,
                            0.8738428980989348,
                            -0.056803000225224
                        ],
                        "bias": -0.6470044015341768
                    },
                    {
                        "weights": [
                            0.2762893097290835,
                            -0.08749429221129024,
                            -0.9512722923634496
                        ],
                        "bias": 0.4649198889363985
                    }
                ]
            }
        ],
        "outputLayer": {
            "neurons": [
                {
                    "weights": [
                        0.7349292307744626,
                        -0.08524586268572776,
                        0.028234281206027223
                    ],
                    "bias": -0.5086236808543867
                },
                {
                    "weights": [
                        0.8225002350400048,
                        0.25245360035392794,
                        -0.04129095037557562
                    ],
                    "bias": -0.21018088780065491
                },
                {
                    "weights": [
                        0.5195586159394454,
                        -0.4862542184968437,
                        0.9211653384061428
                    ],
                    "bias": -0.1811808566506386
                }
            ]
        }
    },
    {
        "inputLayer": {
            "neurons": [
                {
                    "weights": [
                        -0.5577632830422752,
                        -0.5992306148398912,
                        0.6623851946727002
                    ],
                    "bias": 0.2256757101596305
                },
                {
                    "weights": [
                        0.14942220216557467,
                        0.9880032626459024,
                        -0.4103865267865878
                    ],
                    "bias": -0.5207159006930936
                },
                {
                    "weights": [
                        -0.1711554734101708,
                        0.13032917875449423,
                        -0.7120917156448252
                    ],
                    "bias": 0.4098741901357186
                }
            ]
        },
        "layers": [
            {
                "neurons": [
                    {
                        "weights": [
                            -0.7395726833866747,
                            0.4062573362012422,
                            -0.724299738067248
                        ],
                        "bias": 0.2125196746150073
                    },
                    {
                        "weights": [
                            -0.20663283778679964,
                            0.8738428980989348,
                            -0.056803000225224
                        ],
                        "bias": -0.6470044015341768
                    },
                    {
                        "weights": [
                            0.2762893097290835,
                            -0.08749429221129024,
                            -0.9512722923634496
                        ],
                        "bias": 0.4649198889363985
                    }
                ]
            }
        ],
        "outputLayer": {
            "neurons": [
                {
                    "weights": [
                        0.7349292307744626,
                        -0.08524586268572776,
                        0.028234281206027223
                    ],
                    "bias": -0.506903856178161
                },
                {
                    "weights": [
                        0.8225002350400048,
                        0.25245360035392794,
                        -0.04129095037557562
                    ],
                    "bias": -0.21018088780065491
                },
                {
                    "weights": [
                        0.5195586159394454,
                        -0.4862542184968437,
                        0.9211653384061428
                    ],
                    "bias": -0.1811808566506386
                }
            ]
        }
    },
    {
        "inputLayer": {
            "neurons": [
                {
                    "weights": [
                        -0.5577632830422752,
                        -0.5992306148398912,
                        0.6623851946727002
                    ],
                    "bias": 0.337297540101837
                },
                {
                    "weights": [
                        0.14942220216557467,
                        0.9880032626459024,
                        -0.4103865267865878
                    ],
                    "bias": -0.3950096780241116
                },
                {
                    "weights": [
                        -0.1711554734101708,
                        0.13032917875449423,
                        -0.7120917156448252
                    ],
                    "bias": 0.32361397465403313
                }
            ]
        },
        "layers": [
            {
                "neurons": [
                    {
                        "weights": [
                            -0.7395726833866747,
                            0.4062573362012422,
                            -0.724299738067248
                        ],
                        "bias": 0.10720437667998343
                    },
                    {
                        "weights": [
                            -0.20663283778679964,
                            0.8738428980989348,
                            -0.056803000225224
                        ],
                        "bias": -0.5875043523335598
                    },
                    {
                        "weights": [
                            0.2762893097290835,
                            -0.08749429221129024,
                            -0.9512722923634496
                        ],
                        "bias": 0.20353280767522564
                    }
                ]
            }
        ],
        "outputLayer": {
            "neurons": [
                {
                    "weights": [
                        0.7349292307744626,
                        -0.08524586268572776,
                        0.028234281206027223
                    ],
                    "bias": -0.37820859783571187
                },
                {
                    "weights": [
                        0.8225002350400048,
                        0.25245360035392794,
                        -0.04129095037557562
                    ],
                    "bias": -0.04610835496239864
                },
                {
                    "weights": [
                        0.5195586159394454,
                        -0.4862542184968437,
                        0.9211653384061428
                    ],
                    "bias": -0.04418635322050611
                }
            ]
        }
    },
    {
        "inputLayer": {
            "neurons": [
                {
                    "weights": [
                        -0.5577632830422752,
                        -0.5992306148398912,
                        0.6623851946727002
                    ],
                    "bias": 0.33269069525424044
                },
                {
                    "weights": [
                        0.14942220216557467,
                        0.9880032626459024,
                        -0.4103865267865878
                    ],
                    "bias": -0.35634348820358225
                },
                {
                    "weights": [
                        -0.1711554734101708,
                        0.13032917875449423,
                        -0.7120917156448252
                    ],
                    "bias": 0.5100176781626343
                }
            ]
        },
        "layers": [
            {
                "neurons": [
                    {
                        "weights": [
                            -0.7395726833866747,
                            0.4062573362012422,
                            -0.724299738067248
                        ],
                        "bias": -0.11124114777275858
                    },
                    {
                        "weights": [
                            -0.20663283778679964,
                            0.8738428980989348,
                            -0.056803000225224
                        ],
                        "bias": -0.4155914865864738
                    },
                    {
                        "weights": [
                            0.2762893097290835,
                            -0.08749429221129024,
                            -0.9512722923634496
                        ],
                        "bias": 0.2091886313299201
                    }
                ]
            }
        ],
        "outputLayer": {
            "neurons": [
                {
                    "weights": [
                        0.7349292307744626,
                        -0.08524586268572776,
                        0.028234281206027223
                    ],
                    "bias": -0.5777200011208478
                },
                {
                    "weights": [
                        0.8225002350400048,
                        0.25245360035392794,
                        -0.04129095037557562
                    ],
                    "bias": -0.1920266426137009
                },
                {
                    "weights": [
                        0.5195586159394454,
                        -0.4862542184968437,
                        0.9211653384061428
                    ],
                    "bias": -0.35435830483860187
                }
            ]
        }
    },
    {
        "inputLayer": {
            "neurons": [
                {
                    "weights": [
                        -0.5577632830422752,
                        -0.5992306148398912,
                        0.6623851946727002
                    ],
                    "bias": 0.3254533168865681
                },
                {
                    "weights": [
                        0.14942220216557467,
                        0.9880032626459024,
                        -0.4103865267865878
                    ],
                    "bias": -0.4205906539156788
                },
                {
                    "weights": [
                        -0.1711554734101708,
                        0.13032917875449423,
                        -0.7120917156448252
                    ],
                    "bias": 0.51652730094948
                }
            ]
        },
        "layers": [
            {
                "neurons": [
                    {
                        "weights": [
                            -0.7395726833866747,
                            0.4062573362012422,
                            -0.724299738067248
                        ],
                        "bias": -0.0850968368974579
                    },
                    {
                        "weights": [
                            -0.20663283778679964,
                            0.8738428980989348,
                            -0.056803000225224
                        ],
                        "bias": -0.40674558505939756
                    },
                    {
                        "weights": [
                            0.2762893097290835,
                            -0.08749429221129024,
                            -0.9512722923634496
                        ],
                        "bias": 0.21604497390698532
                    }
                ]
            }
        ],
        "outputLayer": {
            "neurons": [
                {
                    "weights": [
                        0.7349292307744626,
                        -0.08524586268572776,
                        0.028234281206027223
                    ],
                    "bias": -0.535884252915325
                },
                {
                    "weights": [
                        0.8225002350400048,
                        0.25245360035392794,
                        -0.04129095037557562
                    ],
                    "bias": -0.166616427825878
                },
                {
                    "weights": [
                        0.5195586159394454,
                        -0.4862542184968437,
                        0.9211653384061428
                    ],
                    "bias": -0.38601496518313505
                }
            ]
        }
    },
    {
        "inputLayer": {
            "neurons": [
                {
                    "weights": [
                        -0.5577632830422752,
                        -0.5992306148398912,
                        0.6623851946727002
                    ],
                    "bias": 0.3254533168865681
                },
                {
                    "weights": [
                        0.14942220216557467,
                        0.9880032626459024,
                        -0.4103865267865878
                    ],
                    "bias": -0.42054368410025794
                },
                {
                    "weights": [
                        -0.1711554734101708,
                        0.13032917875449423,
                        -0.7120917156448252
                    ],
                    "bias": 0.5085847946169479
                }
            ]
        },
        "layers": [
            {
                "neurons": [
                    {
                        "weights": [
                            -0.7395726833866747,
                            0.4062573362012422,
                            -0.724299738067248
                        ],
                        "bias": -0.08347594836142828
                    },
                    {
                        "weights": [
                            -0.20663283778679964,
                            0.8738428980989348,
                            -0.056803000225224
                        ],
                        "bias": -0.40674558505939756
                    },
                    {
                        "weights": [
                            0.2762893097290835,
                            -0.08749429221129024,
                            -0.9512722923634496
                        ],
                        "bias": 0.21528900322347053
                    }
                ]
            }
        ],
        "outputLayer": {
            "neurons": [
                {
                    "weights": [
                        0.7349292307744626,
                        -0.08524586268572776,
                        0.028234281206027223
                    ],
                    "bias": -0.527717240902286
                },
                {
                    "weights": [
                        0.8225002350400048,
                        0.25245360035392794,
                        -0.04129095037557562
                    ],
                    "bias": -0.16512287534550726
                },
                {
                    "weights": [
                        0.5195586159394454,
                        -0.4862542184968437,
                        0.9211653384061428
                    ],
                    "bias": -0.38067467693206675
                }
            ]
        }
    }
]