[
    {
        "inputLayer": {
            "neurons": [
                {
                    "weights": [
                        -0.2966836434440938,
                        0.5971451400020462,
                        -0.25866132178132006
                    ],
                    "bias": 0.3259572808605593
                },
                {
                    "weights": [
                        -0.9725459291019849,
                        0.3307739017591924,
                        -0.7851529844733947
                    ],
                    "bias": 0.7914551419862663
                },
                {
                    "weights": [
                        0.34591964786551044,
                        -0.5778977831973688,
                        0.15535427037140992
                    ],
                    "bias": 0.23777227078195007
                }
            ]
        },
        "layers": [
            {
                "neurons": [
                    {
                        "weights": [
                            -0.7678562036813732,
                            0.9867472154046988,
                            0.35899384136671864
                        ],
                        "bias": -0.6787718413560266
                    },
                    {
                        "weights": [
                            0.8252370352116141,
                            -0.01711340309985565,
                            0.07613971626005434
                        ],
                        "bias": 0.4626912852087226
                    },
                    {
                        "weights": [
                            -0.27264939082553497,
                            -0.7318078930153988,
                            0.7408992364952911
                        ],
                        "bias": -0.45754749968672415
                    }
                ]
            }
        ],
        "outputLayer": {
            "neurons": [
                {
                    "weights": [
                        -0.8630686208654834,
                        0.6779076725777149,
                        0.9354761103116955
                    ],
                    "bias": -0.7844181292693044
                },
                {
                    "weights": [
                        -0.524904715754738,
                        -0.004758710225025942,
                        -0.5574814127187697
                    ],
                    "bias": 0.5499906308178393
                },
                {
                    "weights": [
                        -0.3697291201059325,
                        -0.7249103266388286,
                        -0.564317639572018
                    ],
                    "bias": 0.5330108441192334
                }
            ]
        }
    },
    {
        "inputLayer": {
            "neurons": [
                {
                    "weights": [
                        -0.4123421632144417,
                        -0.8276741401379877,
                        -0.2624692885951887
                    ],
                    "bias": -0.32709808719529954
                },
                {
                    "weights": [
                        -0.8609397928295133,
                        0.5914638914851158,
                        0.3810940782948782
                    ],
                    "bias": 0.061203673234781375
                },
                {
                    "weights": [
                        0.8061666647852737,
                        0.02300790248507356,
                        0.6527792721167853
                    ],
                    "bias": -0.445815982656832
                }
            ]
        },
        "layers": [
            {
                "neurons": [
                    {
                        "weights": [
                            -0.6257582681429279,
                            0.7397467149195087,
                            -0.8678887172195677
                        ],
                        "bias": -0.1587287831888513
                    },
                    {
                        "weights": [
                            -0.1515909999859355,
                            0.3310174882487533,
                            -0.5754044199159714
                        ],
                        "bias": -0.5049464842138855
                    },
                    {
                        "weights": [
                            -0.35222852957364426,
                            0.9688572161039943,
                            -0.04876188265979753
                        ],
                        "bias": -0.7772282357167752
                    }
                ]
            }
        ],
        "outputLayer": {
            "neurons": [
                {
                    "weights": [
                        0.729848477191481,
                        -0.3227333203399443,
                        -0.7515574504434606
                    ],
                    "bias": 0.5590038917020292
                },
                {
                    "weights": [
                        0.1734606208915188,
                        0.6244376332870087,
                        0.7902840943654044
                    ],
                    "bias": -0.7926980667229828
                },
                {
                    "weights": [
                        -0.8478646599921578,
                        -0.2500792968329031,
                        0.909029655971584
                    ],
                    "bias": -0.6628158074550663
                }
            ]
        }
    },
    {
        "inputLayer": {
            "neurons": [
                {
                    "weights": [
                        -0.9867978042074674,
                        0.10376870578660857,
                        0.45795803368239896
                    ],
                    "bias": 0.9029625370550338
                },
                {
                    "weights": [
                        0.10257227211737985,
                        0.5707879598477965,
                        0.708937077378607
                    ],
                    "bias": -0.021935631611174955
                },
                {
                    "weights": [
                        -0.06532927759771812,
                        -0.2638717565839619,
                        0.7682687750077017
                    ],
                    "bias": 0.08846559458188441
                }
            ]
        },
        "layers": [
            {
                "neurons": [
                    {
                        "weights": [
                            0.9679428242092452,
                            -0.8655615979952869,
                            0.4285848997947168
                        ],
                        "bias": -0.15492396031550748
                    },
                    {
                        "weights": [
                            -0.21790919267703135,
                            0.6240594096291066,
                            -0.013572016986691748
                        ],
                        "bias": -0.4121940314509558
                    },
                    {
                        "weights": [
                            0.35167956346671914,
                            -0.9752479943423953,
                            0.6201216348362091
                        ],
                        "bias": -0.6508770910359145
                    }
                ]
            }
        ],
        "outputLayer": {
            "neurons": [
                {
                    "weights": [
                        0.885826679141233,
                        0.6078711455774863,
                        0.6369380775551821
                    ],
                    "bias": -0.27954588785168766
                },
                {
                    "weights": [
                        -0.34393558327362506,
                        0.5383550059834943,
                        0.6332226452505141
                    ],
                    "bias": -0.8045484970313197
                },
                {
                    "weights": [
                        0.7888902366035553,
                        -0.40483000435855865,
                        0.7396131665415975
                    ],
                    "bias": -0.4032820821560692
                }
            ]
        }
    },
    {
        "inputLayer": {
            "neurons": [
                {
                    "weights": [
                        0.795563901016132,
                        0.2877833408433872,
                        -0.7035230650152406
                    ],
                    "bias": 0.12754143823667108
                },
                {
                    "weights": [
                        -0.16493066169478077,
                        -0.6904686316043884,
                        0.8604053588235552
                    ],
                    "bias": 0.7923406104666131
                },
                {
                    "weights": [
                        0.4503471726631829,
                        -0.5664853641963377,
                        -0.05049706314239821
                    ],
                    "bias": 0.29000316246600955
                }
            ]
        },
        "layers": [
            {
                "neurons": [
                    {
                        "weights": [
                            0.6231579366946132,
                            -0.9437225636387783,
                            -0.6845414931042446
                        ],
                        "bias": -0.20419951234074274
                    },
                    {
                        "weights": [
                            0.4277415825288018,
                            -0.6273312002111238,
                            0.5128959052580917
                        ],
                        "bias": 0.29415572709004567
                    },
                    {
                        "weights": [
                            0.9738087947744496,
                            0.18532688319470614,
                            0.7672239627331419
                        ],
                        "bias": -0.7303345682408291
                    }
                ]
            }
        ],
        "outputLayer": {
            "neurons": [
                {
                    "weights": [
                        -0.6190732172370677,
                        -0.9483408051309876,
                        0.24761239619388253
                    ],
                    "bias": -0.18362853122276213
                },
                {
                    "weights": [
                        -0.225279048739486,
                        -0.14877939482443847,
                        -0.8037865142030569
                    ],
                    "bias": 0.6550231678212382
                },
                {
                    "weights": [
                        -0.0027447362085242233,
                        0.6188231518310456,
                        0.5789076039015288
                    ],
                    "bias": 0.7135023313948681
                }
            ]
        }
    },
    {
        "inputLayer": {
            "neurons": [
                {
                    "weights": [
                        0.04116592628072202,
                        0.22161971897185784,
                        0.509339684581984
                    ],
                    "bias": -0.5788567463656824
                },
                {
                    "weights": [
                        0.38652557642306107,
                        0.33073751449715916,
                        0.17832149378592188
                    ],
                    "bias": 0.41579888046830615
                },
                {
                    "weights": [
                        -0.7568690943610801,
                        0.4073523998960493,
                        -0.71996366150198
                    ],
                    "bias": -0.1886366946983944
                }
            ]
        },
        "layers": [
            {
                "neurons": [
                    {
                        "weights": [
                            -0.11457081613006403,
                            -0.3352684116518432,
                            0.835386945566672
                        ],
                        "bias": -0.05942083932844433
                    },
                    {
                        "weights": [
                            0.937254550198249,
                            0.4368610077609756,
                            0.23439523401775575
                        ],
                        "bias": 0.24469068708368447
                    },
                    {
                        "weights": [
                            0.23785260070673742,
                            0.8014825338219549,
                            -0.2794398918180869
                        ],
                        "bias": -0.7723874554145209
                    }
                ]
            }
        ],
        "outputLayer": {
            "neurons": [
                {
                    "weights": [
                        -0.6879328052957958,
                        0.6486270743460909,
                        0.9925484768911199
                    ],
                    "bias": 0.6645785418700016
                },
                {
                    "weights": [
                        0.5712204457814067,
                        0.8809321490905166,
                        -0.2771247873585876
                    ],
                    "bias": -0.9586665245892869
                },
                {
                    "weights": [
                        0.8396381100666102,
                        0.37101901342789345,
                        0.3723704625634823
                    ],
                    "bias": 0.5953255598095704
                }
            ]
        }
    },
    {
        "inputLayer": {
            "neurons": [
                {
                    "weights": [
                        0.7306744586438214,
                        0.21041030709784825,
                        0.0009655425947707741
                    ],
                    "bias": 0.105672366312479
                },
                {
                    "weights": [
                        -0.9979766844119822,
                        0.8970973681211709,
                        0.5622463723469191
                    ],
                    "bias": 0.8031072581548062
                },
                {
                    "weights": [
                        -0.963192199880285,
                        0.22333842615474953,
                        0.8991824194977245
                    ],
                    "bias": 0.6968307309507966
                }
            ]
        },
        "layers": [
            {
                "neurons": [
                    {
                        "weights": [
                            -0.8344364499754806,
                            0.9749161786271989,
                            0.6080158093541368
                        ],
                        "bias": -0.5460864700441588
                    },
                    {
                        "weights": [
                            0.45223268490053314,
                            0.6339874928847169,
                            0.6974698766235725
                        ],
                        "bias": -0.6268050383160724
                    },
                    {
                        "weights": [
                            0.37984107533516887,
                            0.7852434635101888,
                            -0.33174824567290817
                        ],
                        "bias": 0.19407047398079813
                    }
                ]
            }
        ],
        "outputLayer": {
            "neurons": [
                {
                    "weights": [
                        -0.3737236029849782,
                        0.29892216163618457,
                        0.42912870694653504
                    ],
                    "bias": 0.2303193029397237
                },
                {
                    "weights": [
                        0.27631071192966483,
                        -0.1304135858579345,
                        -0.4643019358587326
                    ],
                    "bias": -0.9188644636450065
                },
                {
                    "weights": [
                        0.4110750770908198,
                        -0.005238312447751525,
                        -0.4014912775536388
                    ],
                    "bias": -0.6944434523931382
                }
            ]
        }
    },
    {
        "inputLayer": {
            "neurons": [
                {
                    "weights": [
                        -0.5462598373269545,
                        -0.9449261623207768,
                        0.7530164397113839
                    ],
                    "bias": -0.31286370435029687
                },
                {
                    "weights": [
                        -0.72754113414505,
                        -0.7935736872311621,
                        0.03722899820497805
                    ],
                    "bias": 0.10289059045874471
                },
                {
                    "weights": [
                        0.003142650521195778,
                        0.865112618726676,
                        -0.867598892974293
                    ],
                    "bias": -0.5007084298149473
                }
            ]
        },
        "layers": [
            {
                "neurons": [
                    {
                        "weights": [
                            -0.5758633607790646,
                            -0.5694317450357322,
                            -0.1637674771503408
                        ],
                        "bias": -0.7019095789540473
                    },
                    {
                        "weights": [
                            -0.597941317842722,
                            -0.912666031536749,
                            0.5839826938628083
                        ],
                        "bias": -0.8846666041412423
                    },
                    {
                        "weights": [
                            0.778739687167215,
                            0.7218956749649326,
                            -0.30419602351805697
                        ],
                        "bias": 0.6644587708822107
                    }
                ]
            }
        ],
        "outputLayer": {
            "neurons": [
                {
                    "weights": [
                        0.4126876692987629,
                        -0.5293202550050355,
                        0.982988466738282
                    ],
                    "bias": -0.19517424474252554
                },
                {
                    "weights": [
                        0.2703577587884656,
                        -0.6388143423093366,
                        -0.17852094254979245
                    ],
                    "bias": 0.9864612218574322
                },
                {
                    "weights": [
                        -0.2426466659359221,
                        -0.5560597631786433,
                        0.6907323601562287
                    ],
                    "bias": -0.8163325035743001
                }
            ]
        }
    },
    {
        "inputLayer": {
            "neurons": [
                {
                    "weights": [
                        0.7118323429640465,
                        -0.14012050552992372,
                        0.3883616968245023
                    ],
                    "bias": 0.41998517509232447
                },
                {
                    "weights": [
                        0.22830848649266722,
                        -0.7730072457218076,
                        0.3174786945611896
                    ],
                    "bias": -0.7640343293853895
                },
                {
                    "weights": [
                        -0.6366005545380802,
                        -0.580771891039862,
                        0.5699679440518113
                    ],
                    "bias": -0.5524409889295252
                }
            ]
        },
        "layers": [
            {
                "neurons": [
                    {
                        "weights": [
                            0.9967226348513254,
                            -0.40130418573570625,
                            0.6499498784809852
                        ],
                        "bias": 0.09837828743240506
                    },
                    {
                        "weights": [
                            -0.034287156658569184,
                            -0.36814266623775227,
                            -0.777861543858922
                        ],
                        "bias": 0.16758609831105287
                    },
                    {
                        "weights": [
                            0.14452837112509997,
                            -0.6747696761938429,
                            0.03903800168219984
                        ],
                        "bias": -0.22838731268835422
                    }
                ]
            }
        ],
        "outputLayer": {
            "neurons": [
                {
                    "weights": [
                        0.8032176157273239,
                        -0.13971300316444024,
                        -0.7817374289644974
                    ],
                    "bias": 0.4528603746187714
                },
                {
                    "weights": [
                        -0.8421739955956984,
                        0.6151382705252812,
                        -0.12076123615421563
                    ],
                    "bias": -0.6087557599181932
                },
                {
                    "weights": [
                        -0.45581828988648376,
                        -0.2300504259528764,
                        0.9911212566915721
                    ],
                    "bias": 0.39978195457089205
                }
            ]
        }
    },
    {
        "inputLayer": {
            "neurons": [
                {
                    "weights": [
                        0.26337711740412817,
                        -0.9687680754234471,
                        0.5616253369161204
                    ],
                    "bias": 0.10840686772526253
                },
                {
                    "weights": [
                        -0.8986494825034246,
                        -0.7357695030937759,
                        0.8966891466912006
                    ],
                    "bias": -0.6670212908526387
                },
                {
                    "weights": [
                        -0.9149922458049076,
                        0.6817542245202226,
                        -0.49486694015494126
                    ],
                    "bias": 0.2904127745156999
                }
            ]
        },
        "layers": [
            {
                "neurons": [
                    {
                        "weights": [
                            -0.4185647864039437,
                            -0.06143875209769356,
                            0.8664815096653191
                        ],
                        "bias": -0.9996117130814213
                    },
                    {
                        "weights": [
                            0.06758052808418902,
                            0.1940918427903484,
                            0.33034151253678345
                        ],
                        "bias": -0.7406249717118396
                    },
                    {
                        "weights": [
                            0.392524709540379,
                            -0.6337651151765236,
                            0.6249121009737988
                        ],
                        "bias": 0.8584289247529537
                    }
                ]
            }
        ],
        "outputLayer": {
            "neurons": [
                {
                    "weights": [
                        0.5753116724885095,
                        0.2823000916155609,
                        0.09207842339208039
                    ],
                    "bias": -0.9157490918110345
                },
                {
                    "weights": [
                        -0.8170015011450029,
                        0.2632409329951386,
                        0.6615804158625427
                    ],
                    "bias": 0.5729448560051522
                },
                {
                    "weights": [
                        0.7728205100833809,
                        -0.20358715089435253,
                        0.9369617560479935
                    ],
                    "bias": -0.7628752186231746
                }
            ]
        }
    },
    {
        "inputLayer": {
            "neurons": [
                {
                    "weights": [
                        -0.49862415151755735,
                        0.7386428260875544,
                        0.3684461578368061
                    ],
                    "bias": -0.8595960792705428
                },
                {
                    "weights": [
                        0.7782220235324986,
                        0.1670316507152927,
                        -0.6874381611134828
                    ],
                    "bias": 0.9039155264085608
                },
                {
                    "weights": [
                        0.8479631985662461,
                        -0.4966106340940397,
                        0.582022047234126
                    ],
                    "bias": 0.33627750576202864
                }
            ]
        },
        "layers": [
            {
                "neurons": [
                    {
                        "weights": [
                            -0.06410828633891241,
                            0.8418065147419069,
                            0.6258833536923605
                        ],
                        "bias": 0.7970443778519201
                    },
                    {
                        "weights": [
                            0.2889071485142649,
                            -0.3217418358503443,
                            -0.7934952003232658
                        ],
                        "bias": -0.7775041687782318
                    },
                    {
                        "weights": [
                            -0.6394563974125644,
                            -0.7255298493319637,
                            0.22349323482546657
                        ],
                        "bias": -0.39692425582998214
                    }
                ]
            }
        ],
        "outputLayer": {
            "neurons": [
                {
                    "weights": [
                        0.063380330844927,
                        0.5017934410632459,
                        0.21778555565966307
                    ],
                    "bias": -0.0894828334522828
                },
                {
                    "weights": [
                        -0.7881130916637176,
                        -0.21975353051891156,
                        -0.14571330919907233
                    ],
                    "bias": 0.21530646116897256
                },
                {
                    "weights": [
                        0.7537960853411898,
                        -0.6502822209017012,
                        -0.18581351215545383
                    ],
                    "bias": -0.22863640242456396
                }
            ]
        }
    },
    {
        "inputLayer": {
            "neurons": [
                {
                    "weights": [
                        -0.30121047039728155,
                        0.3327659052752756,
                        -0.7481625491429653
                    ],
                    "bias": 0.35894432500316653
                },
                {
                    "weights": [
                        0.5484894917982195,
                        -0.22621729186612738,
                        0.7058976883022436
                    ],
                    "bias": -0.3957937285785562
                },
                {
                    "weights": [
                        0.436637063663057,
                        0.8207034231154955,
                        0.8231403154347883
                    ],
                    "bias": 0.9419119970456675
                }
            ]
        },
        "layers": [
            {
                "neurons": [
                    {
                        "weights": [
                            -0.5024178051225787,
                            0.2511905925321207,
                            0.09461070927405513
                        ],
                        "bias": -0.6608719423205345
                    },
                    {
                        "weights": [
                            -0.8340261651418672,
                            -0.5635349713878179,
                            -0.26702773645708144
                        ],
                        "bias": -0.7417137499845778
                    },
                    {
                        "weights": [
                            -0.6173702125803926,
                            -0.8088987167269044,
                            0.8807177173123004
                        ],
                        "bias": 0.5699488250256575
                    }
                ]
            }
        ],
        "outputLayer": {
            "neurons": [
                {
                    "weights": [
                        0.0717356549485888,
                        0.2184315450508072,
                        0.8315027049063068
                    ],
                    "bias": -0.27025873433366243
                },
                {
                    "weights": [
                        -0.8618579349927473,
                        0.5955014140842769,
                        -0.6762504680984682
                    ],
                    "bias": -0.6632556072382998
                },
                {
                    "weights": [
                        -0.06946870278359363,
                        -0.02548612508387138,
                        0.3216878497420925
                    ],
                    "bias": -0.045176119084692656
                }
            ]
        }
    },
    {
        "inputLayer": {
            "neurons": [
                {
                    "weights": [
                        0.2332559043964606,
                        0.5077143642475692,
                        -0.9627391454877661
                    ],
                    "bias": -0.5103135673156074
                },
                {
                    "weights": [
                        -0.5865336441937288,
                        0.30018310773906487,
                        -0.9171343817322521
                    ],
                    "bias": 0.30575880697606794
                },
                {
                    "weights": [
                        -0.13581279203603858,
                        0.03746228312244804,
                        -0.2979493753622564
                    ],
                    "bias": 0.4448938556204074
                }
            ]
        },
        "layers": [
            {
                "neurons": [
                    {
                        "weights": [
                            0.004788256478555741,
                            -0.6491477321446626,
                            0.8948505809475533
                        ],
                        "bias": 0.4882472487291707
                    },
                    {
                        "weights": [
                            0.7464888956967672,
                            -0.93273504974667,
                            0.4591334888986103
                        ],
                        "bias": -0.11374409583199308
                    },
                    {
                        "weights": [
                            0.34461255584830797,
                            -0.8351484559569846,
                            -0.3583989337994631
                        ],
                        "bias": 0.5357259426171264
                    }
                ]
            }
        ],
        "outputLayer": {
            "neurons": [
                {
                    "weights": [
                        0.41108321587003416,
                        -0.3672194546986338,
                        -0.25421292047694055
                    ],
                    "bias": -0.7771097761518597
                },
                {
                    "weights": [
                        0.9236663416736257,
                        -0.3195160868694811,
                        -0.4755358975331587
                    ],
                    "bias": 0.5563606701246722
                },
                {
                    "weights": [
                        -0.8319672512135043,
                        0.16097348331535177,
                        -0.49988442556300305
                    ],
                    "bias": -0.5581059039530294
                }
            ]
        }
    },
    {
        "inputLayer": {
            "neurons": [
                {
                    "weights": [
                        0.25470671237559883,
                        0.18203410465351477,
                        -0.23022405303070892
                    ],
                    "bias": -0.18477827517002887
                },
                {
                    "weights": [
                        0.9026907937972355,
                        0.3194974224229079,
                        0.13970441609827744
                    ],
                    "bias": -0.9183361532943897
                },
                {
                    "weights": [
                        -0.21921613573885113,
                        -0.10444331000340101,
                        -0.7585160585809743
                    ],
                    "bias": -0.8701500505178537
                }
            ]
        },
        "layers": [
            {
                "neurons": [
                    {
                        "weights": [
                            -0.7719836184315494,
                            -0.11504401745074588,
                            0.4253267888878618
                        ],
                        "bias": -0.9475974040233424
                    },
                    {
                        "weights": [
                            -0.3465051007279596,
                            -0.8573015023252688,
                            -0.6685522985261314
                        ],
                        "bias": 0.25618968158082245
                    },
                    {
                        "weights": [
                            -0.34401288178421296,
                            0.3641042412611175,
                            -0.5604405950923577
                        ],
                        "bias": -0.771027530187137
                    }
                ]
            }
        ],
        "outputLayer": {
            "neurons": [
                {
                    "weights": [
                        0.8114386671184359,
                        0.8875848610242194,
                        -0.5559072060519439
                    ],
                    "bias": 0.3584280565601057
                },
                {
                    "weights": [
                        -0.6480290051226454,
                        -0.8007155700369399,
                        -0.7975618416453423
                    ],
                    "bias": -0.3760467706242916
                },
                {
                    "weights": [
                        0.7931915773523739,
                        -0.7402444743981682,
                        -0.3479896562145224
                    ],
                    "bias": -0.19231524408157963
                }
            ]
        }
    },
    {
        "inputLayer": {
            "neurons": [
                {
                    "weights": [
                        -0.749159018935182,
                        -0.5627353441332288,
                        0.1908031846976641
                    ],
                    "bias": 0.8968068506750784
                },
                {
                    "weights": [
                        -0.7082063617948349,
                        -0.08151535254027786,
                        0.3867189598156582
                    ],
                    "bias": 0.03430609026701492
                },
                {
                    "weights": [
                        0.24039544195800655,
                        -0.2692958150731233,
                        -0.8165171553889967
                    ],
                    "bias": 0.4927076054793633
                }
            ]
        },
        "layers": [
            {
                "neurons": [
                    {
                        "weights": [
                            0.5551372420232825,
                            0.8352033265755752,
                            -0.23788683451960435
                        ],
                        "bias": 0.08302801880710797
                    },
                    {
                        "weights": [
                            0.7609429558594436,
                            -0.16810247433979852,
                            0.41550236772448534
                        ],
                        "bias": 0.16822603241312017
                    },
                    {
                        "weights": [
                            0.86711633245713,
                            0.7856132553978936,
                            -0.7098586118661674
                        ],
                        "bias": 0.7166886375368307
                    }
                ]
            }
        ],
        "outputLayer": {
            "neurons": [
                {
                    "weights": [
                        -0.2973875427021899,
                        0.22177136336779735,
                        0.8892581950617848
                    ],
                    "bias": -0.48649394503692456
                },
                {
                    "weights": [
                        -0.38152665468577807,
                        0.02728373863557776,
                        -0.7595034068331858
                    ],
                    "bias": 0.05558965604561639
                },
                {
                    "weights": [
                        -0.8440113569196461,
                        -0.02450998854789077,
                        0.07263967991369924
                    ],
                    "bias": 0.5555232415707017
                }
            ]
        }
    },
    {
        "inputLayer": {
            "neurons": [
                {
                    "weights": [
                        -0.6663448201611737,
                        -0.360108526888127,
                        0.7334424617713009
                    ],
                    "bias": -0.696699623297167
                },
                {
                    "weights": [
                        -0.8455146783208884,
                        0.5515578951921754,
                        0.9014764188200515
                    ],
                    "bias": 0.3218953955988515
                },
                {
                    "weights": [
                        -0.36613947688657467,
                        -0.6213768784267957,
                        0.3993069699813889
                    ],
                    "bias": -0.8086416297425931
                }
            ]
        },
        "layers": [
            {
                "neurons": [
                    {
                        "weights": [
                            -0.2866025425343639,
                            -0.138959390934148,
                            -0.054844068724214434
                        ],
                        "bias": -0.691528405930576
                    },
                    {
                        "weights": [
                            -0.18925729747560105,
                            -0.8728360640516539,
                            -0.12888810783577553
                        ],
                        "bias": -0.4762975370797531
                    },
                    {
                        "weights": [
                            0.08199891776064083,
                            0.5554148657921658,
                            0.7375167785792334
                        ],
                        "bias": 0.05064916027874222
                    }
                ]
            }
        ],
        "outputLayer": {
            "neurons": [
                {
                    "weights": [
                        -0.4353665146845447,
                        0.15422611096102523,
                        0.5927686841749189
                    ],
                    "bias": 0.8303532481374112
                },
                {
                    "weights": [
                        0.956013754227397,
                        0.0496328154046799,
                        0.26801916797823844
                    ],
                    "bias": -0.23649329520122553
                },
                {
                    "weights": [
                        -0.6607785291487414,
                        0.32884834754639725,
                        -0.8610464178879675
                    ],
                    "bias": -0.10938850983914894
                }
            ]
        }
    },
    {
        "inputLayer": {
            "neurons": [
                {
                    "weights": [
                        -0.9498946813746103,
                        -0.2569031749210342,
                        -0.7069977550230775
                    ],
                    "bias": 0.2903503993318701
                },
                {
                    "weights": [
                        0.3564342813314516,
                        0.04570438994964232,
                        0.750497766153285
                    ],
                    "bias": -0.5995547083543211
                },
                {
                    "weights": [
                        -0.6719998085104091,
                        0.03455231303083495,
                        0.9840729985210217
                    ],
                    "bias": -0.42156787238569193
                }
            ]
        },
        "layers": [
            {
                "neurons": [
                    {
                        "weights": [
                            -0.13932375924579476,
                            -0.6608333345450135,
                            0.436841237043053
                        ],
                        "bias": -0.255795204226021
                    },
                    {
                        "weights": [
                            -0.33334320516228,
                            -0.9102156797208001,
                            -0.3183668022778785
                        ],
                        "bias": 0.25297885843036405
                    },
                    {
                        "weights": [
                            -0.3206158682484921,
                            -0.5627277008403171,
                            0.9411007403224896
                        ],
                        "bias": 0.16490144408679974
                    }
                ]
            }
        ],
        "outputLayer": {
            "neurons": [
                {
                    "weights": [
                        0.3593579435722074,
                        -0.1742649338823976,
                        -0.13485058122190763
                    ],
                    "bias": -0.7478573473230343
                },
                {
                    "weights": [
                        0.9261708936245339,
                        -0.42837895528491554,
                        -0.1012535573231037
                    ],
                    "bias": 0.6295885663521499
                },
                {
                    "weights": [
                        -0.5752099289797652,
                        0.9399791313031163,
                        -0.2774368352759633
                    ],
                    "bias": 0.913863613130528
                }
            ]
        }
    },
    {
        "inputLayer": {
            "neurons": [
                {
                    "weights": [
                        0.8866548257910529,
                        -0.9391210530776601,
                        0.1070760442083829
                    ],
                    "bias": -0.5530521887203657
                },
                {
                    "weights": [
                        -0.5281180968736245,
                        0.6839383816099187,
                        -0.10748062112707735
                    ],
                    "bias": 0.17731168567900535
                },
                {
                    "weights": [
                        0.7821678401176793,
                        0.9908128378405163,
                        -0.43366138386359565
                    ],
                    "bias": -0.7074471704860905
                }
            ]
        },
        "layers": [
            {
                "neurons": [
                    {
                        "weights": [
                            0.8779655734956098,
                            -0.32117900733528804,
                            -0.42852737042666855
                        ],
                        "bias": -0.5285793440675017
                    },
                    {
                        "weights": [
                            -0.20350835891740449,
                            -0.37221409750076195,
                            -0.23508648704822832
                        ],
                        "bias": -0.5026125605801988
                    },
                    {
                        "weights": [
                            0.09442790413986302,
                            0.3570438868931567,
                            -0.38216914358531917
                        ],
                        "bias": 0.4685639238818107
                    }
                ]
            }
        ],
        "outputLayer": {
            "neurons": [
                {
                    "weights": [
                        0.5377314522040053,
                        -0.8504258519982861,
                        0.9787958066157367
                    ],
                    "bias": 0.2934199042217662
                },
                {
                    "weights": [
                        0.1150318131725252,
                        -0.0356452737388504,
                        0.10220157425713738
                    ],
                    "bias": -0.8196771205668045
                },
                {
                    "weights": [
                        0.6895447737101408,
                        0.2087601280141287,
                        -0.370660526249746
                    ],
                    "bias": -0.6066225132626126
                }
            ]
        }
    },
    {
        "inputLayer": {
            "neurons": [
                {
                    "weights": [
                        -0.8571106715181886,
                        0.6030282280161738,
                        -0.008627264181666261
                    ],
                    "bias": -0.17177701384802524
                },
                {
                    "weights": [
                        -0.011834953094296496,
                        0.667564437226781,
                        0.6307383735644985
                    ],
                    "bias": 0.2146499535764057
                },
                {
                    "weights": [
                        0.20800989708311768,
                        -0.20872424941097978,
                        0.9903624068714765
                    ],
                    "bias": 0.9087471828064742
                }
            ]
        },
        "layers": [
            {
                "neurons": [
                    {
                        "weights": [
                            -0.8413723534351105,
                            -0.8655205988400749,
                            -0.4357101197753652
                        ],
                        "bias": -0.06229617861998582
                    },
                    {
                        "weights": [
                            0.366981448290691,
                            -0.6969753062795299,
                            -0.7731421988234233
                        ],
                        "bias": -0.6920543923958173
                    },
                    {
                        "weights": [
                            -0.7140741421636483,
                            0.25979541553661467,
                            0.09814975309999907
                        ],
                        "bias": 0.5122010654886024
                    }
                ]
            }
        ],
        "outputLayer": {
            "neurons": [
                {
                    "weights": [
                        0.5891528178763408,
                        -0.8898020910456095,
                        -0.9178457707464798
                    ],
                    "bias": -0.4789711391719289
                },
                {
                    "weights": [
                        -0.2149743197402414,
                        0.925982629697474,
                        0.8000713480499302
                    ],
                    "bias": -0.5688259120278656
                },
                {
                    "weights": [
                        0.019294726678035,
                        -0.9258098340804073,
                        -0.6105116057527318
                    ],
                    "bias": 0.18032587317712334
                }
            ]
        }
    },
    {
        "inputLayer": {
            "neurons": [
                {
                    "weights": [
                        0.375945576505049,
                        -0.6989138463091689,
                        0.31011276054250225
                    ],
                    "bias": -0.39602210474180866
                },
                {
                    "weights": [
                        -0.983545359647835,
                        -0.9283577380064891,
                        0.21326412305833586
                    ],
                    "bias": -0.20211627418224976
                },
                {
                    "weights": [
                        -0.07467733201732529,
                        0.12982454394191945,
                        0.8351080529766841
                    ],
                    "bias": -0.02775980710528092
                }
            ]
        },
        "layers": [
            {
                "neurons": [
                    {
                        "weights": [
                            0.6789974964531067,
                            0.48761576307793475,
                            -0.40683218516809205
                        ],
                        "bias": 0.6745778733253678
                    },
                    {
                        "weights": [
                            0.5933596067179163,
                            -0.639239795831771,
                            0.8116240522264229
                        ],
                        "bias": -0.8557040914932068
                    },
                    {
                        "weights": [
                            0.4843849202369761,
                            -0.5472237413558279,
                            0.45010191053896453
                        ],
                        "bias": 0.5168137661266758
                    }
                ]
            }
        ],
        "outputLayer": {
            "neurons": [
                {
                    "weights": [
                        -0.9233638785366807,
                        0.33453014826748295,
                        -0.5982185448989608
                    ],
                    "bias": 0.004272223347881576
                },
                {
                    "weights": [
                        0.7018435381676718,
                        -0.9366223629164216,
                        0.27420626843957696
                    ],
                    "bias": 0.5189927479456031
                },
                {
                    "weights": [
                        -0.8411481170136372,
                        0.8634966267673334,
                        -0.674338382212363
                    ],
                    "bias": 0.2644372087550477
                }
            ]
        }
    },
    {
        "inputLayer": {
            "neurons": [
                {
                    "weights": [
                        0.0756302897786687,
                        0.7139714108932922,
                        -0.7165373652041584
                    ],
                    "bias": -0.06416625791374031
                },
                {
                    "weights": [
                        0.4851212336475339,
                        -0.4203084705051072,
                        0.5673933593025797
                    ],
                    "bias": -0.09301816370705507
                },
                {
                    "weights": [
                        -0.8472643760690539,
                        -0.6182312117304336,
                        0.8357123822555332
                    ],
                    "bias": -0.060509209686757215
                }
            ]
        },
        "layers": [
            {
                "neurons": [
                    {
                        "weights": [
                            -0.9252356321615689,
                            -0.27795129069427915,
                            0.4870385934285979
                        ],
                        "bias": 0.24878484568422032
                    },
                    {
                        "weights": [
                            0.1300993893636908,
                            0.8061178278711223,
                            0.4467005269999449
                        ],
                        "bias": -0.3959086691830269
                    },
                    {
                        "weights": [
                            -0.5204872803856,
                            0.33724356835347424,
                            -0.02221514714564443
                        ],
                        "bias": 0.20695203961414133
                    }
                ]
            }
        ],
        "outputLayer": {
            "neurons": [
                {
                    "weights": [
                        0.8842667506367998,
                        0.9196329351032793,
                        0.5088776999465794
                    ],
                    "bias": -0.7676795015648954
                },
                {
                    "weights": [
                        -0.09963548707355563,
                        0.47042738692880026,
                        -0.5571982915298141
                    ],
                    "bias": 0.5645189255822376
                },
                {
                    "weights": [
                        -0.9309527789882213,
                        -0.43638933309646744,
                        0.2355620552122446
                    ],
                    "bias": -0.551171364349184
                }
            ]
        }
    },
    {
        "inputLayer": {
            "neurons": [
                {
                    "weights": [
                        -0.10899359127593855,
                        -0.7060493136854493,
                        -0.3440487344257728
                    ],
                    "bias": 0.7322655677715757
                },
                {
                    "weights": [
                        -0.1640180950674246,
                        0.0539012724797987,
                        0.10646999106515653
                    ],
                    "bias": -0.9406274689258005
                },
                {
                    "weights": [
                        0.9853087641248834,
                        -0.28225572788586084,
                        -0.5563722578479773
                    ],
                    "bias": -0.8894600818135507
                }
            ]
        },
        "layers": [
            {
                "neurons": [
                    {
                        "weights": [
                            0.03530369003497502,
                            -0.7313367257477617,
                            0.6326428559749733
                        ],
                        "bias": 0.6622428221878425
                    },
                    {
                        "weights": [
                            -0.5241132334337124,
                            -0.2959613072166478,
                            -0.45857068549380764
                        ],
                        "bias": -0.6810376995334939
                    },
                    {
                        "weights": [
                            0.3146206543773957,
                            -0.14622556857239344,
                            -0.35986767254235175
                        ],
                        "bias": -0.4510366087047286
                    }
                ]
            }
        ],
        "outputLayer": {
            "neurons": [
                {
                    "weights": [
                        -0.9819731993906358,
                        -0.5737506089325881,
                        0.08157652494594259
                    ],
                    "bias": 0.393722428717431
                },
                {
                    "weights": [
                        0.8368034133777209,
                        0.9294792673348442,
                        -0.2171381769524492
                    ],
                    "bias": 0.047046239471631335
                },
                {
                    "weights": [
                        0.8267772838549439,
                        -0.17762153434976957,
                        0.670116980873912
                    ],
                    "bias": 0.5715852639550583
                }
            ]
        }
    },
    {
        "inputLayer": {
            "neurons": [
                {
                    "weights": [
                        0.12635217798719012,
                        0.5347881993517265,
                        -0.707337274061778
                    ],
                    "bias": -0.77344143326929
                },
                {
                    "weights": [
                        0.5037410261365514,
                        0.8859011718687271,
                        -0.12054771039993861
                    ],
                    "bias": 0.7906858960169947
                },
                {
                    "weights": [
                        0.7279645072512801,
                        -0.3551516738107596,
                        -0.004120261591490815
                    ],
                    "bias": 0.7221225179749162
                }
            ]
        },
        "layers": [
            {
                "neurons": [
                    {
                        "weights": [
                            -0.848262720167152,
                            -0.7665757788135077,
                            0.43078129895424344
                        ],
                        "bias": -0.659877532643186
                    },
                    {
                        "weights": [
                            -0.9509041714667281,
                            -0.1426477293539461,
                            0.4943043782262462
                        ],
                        "bias": -0.21040110306498283
                    },
                    {
                        "weights": [
                            -0.9425251249401694,
                            -0.5891405167190731,
                            -0.5106258267202735
                        ],
                        "bias": 0.25928746516308365
                    }
                ]
            }
        ],
        "outputLayer": {
            "neurons": [
                {
                    "weights": [
                        -0.91715850702788,
                        -0.011670313869807103,
                        -0.5567652465514068
                    ],
                    "bias": -0.3438376544145485
                },
                {
                    "weights": [
                        0.17439850311878335,
                        0.07502887394461832,
                        -0.17082274899328387
                    ],
                    "bias": 0.9394015651344136
                },
                {
                    "weights": [
                        0.29175616446105157,
                        0.9614240202244595,
                        0.049675665840816174
                    ],
                    "bias": 0.525740892582613
                }
            ]
        }
    },
    {
        "inputLayer": {
            "neurons": [
                {
                    "weights": [
                        0.2693927017294364,
                        0.3399246863166081,
                        0.879976981649663
                    ],
                    "bias": -0.11483900816083548
                },
                {
                    "weights": [
                        -0.5669187444405857,
                        -0.3325760769456223,
                        -0.8482779400273908
                    ],
                    "bias": 0.42592952926232575
                },
                {
                    "weights": [
                        -0.9515922858353629,
                        -0.43847870828990265,
                        0.4568288285105626
                    ],
                    "bias": 0.4849944040831493
                }
            ]
        },
        "layers": [
            {
                "neurons": [
                    {
                        "weights": [
                            0.49605786842362853,
                            0.539964675058217,
                            0.9958647537100511
                        ],
                        "bias": 0.042631500234108666
                    },
                    {
                        "weights": [
                            0.934729323162979,
                            -0.6581282272374038,
                            0.5462353467451866
                        ],
                        "bias": 0.9432203200362392
                    },
                    {
                        "weights": [
                            -0.3998030137597661,
                            -0.1825084206245553,
                            0.82863445428829
                        ],
                        "bias": -0.8126242218317448
                    }
                ]
            }
        ],
        "outputLayer": {
            "neurons": [
                {
                    "weights": [
                        0.2921563098325384,
                        -0.9842330132689603,
                        -0.23860436111502392
                    ],
                    "bias": -0.6369949162269144
                },
                {
                    "weights": [
                        0.35290697094363765,
                        -0.12364123764782398,
                        0.8334522765888837
                    ],
                    "bias": 0.6481878026613452
                },
                {
                    "weights": [
                        -0.5003355727546133,
                        -0.47013040630674885,
                        0.8426066860463732
                    ],
                    "bias": -0.34264044589507736
                }
            ]
        }
    },
    {
        "inputLayer": {
            "neurons": [
                {
                    "weights": [
                        0.5614673692458991,
                        -0.8813228563492015,
                        0.9685299872302222
                    ],
                    "bias": 0.5966242243130881
                },
                {
                    "weights": [
                        0.9979391873224275,
                        -0.5631798215403521,
                        0.6049895334505451
                    ],
                    "bias": -0.3166368867384586
                },
                {
                    "weights": [
                        0.9881836828472439,
                        0.44770400429586443,
                        0.2913179122672971
                    ],
                    "bias": 0.9149739886791839
                }
            ]
        },
        "layers": [
            {
                "neurons": [
                    {
                        "weights": [
                            0.502221336273605,
                            0.8234674274252392,
                            0.10937992407556107
                        ],
                        "bias": 0.13014854181894808
                    },
                    {
                        "weights": [
                            -0.2057241813057884,
                            0.9812243709256405,
                            0.8141532987518492
                        ],
                        "bias": 0.6716372246130331
                    },
                    {
                        "weights": [
                            0.9868697108719908,
                            0.4379455478568002,
                            -0.835098189052516
                        ],
                        "bias": 0.03910173539653816
                    }
                ]
            }
        ],
        "outputLayer": {
            "neurons": [
                {
                    "weights": [
                        -0.7044908533590832,
                        0.5932044805192818,
                        0.7920749293402951
                    ],
                    "bias": -0.9777904304117309
                },
                {
                    "weights": [
                        0.5779861824351571,
                        -0.6639256331817411,
                        -0.43970211848259133
                    ],
                    "bias": 0.854479495272858
                },
                {
                    "weights": [
                        0.18676211400642062,
                        -0.5590850308840891,
                        -0.5357729002001845
                    ],
                    "bias": 0.5362168923651935
                }
            ]
        }
    },
    {
        "inputLayer": {
            "neurons": [
                {
                    "weights": [
                        0.6520250734228508,
                        -0.2804088103624516,
                        0.13903477662002617
                    ],
                    "bias": 0.4614490716580064
                },
                {
                    "weights": [
                        0.587763491855771,
                        0.7896100114324136,
                        -0.42102542259387343
                    ],
                    "bias": 0.1963916616052499
                },
                {
                    "weights": [
                        -0.3812916888730713,
                        -0.5012269510791241,
                        0.1286437218705505
                    ],
                    "bias": 0.46609761252840975
                }
            ]
        },
        "layers": [
            {
                "neurons": [
                    {
                        "weights": [
                            0.2979883050248424,
                            0.15844835162151805,
                            0.4697755708400566
                        ],
                        "bias": 0.47241355837089594
                    },
                    {
                        "weights": [
                            -0.04088338263377023,
                            0.6910922066185115,
                            -0.7619891792762294
                        ],
                        "bias": -0.14998048111387785
                    },
                    {
                        "weights": [
                            -0.8062864033506687,
                            0.2188561455617104,
                            -0.46360689366649743
                        ],
                        "bias": 0.37614070452248494
                    }
                ]
            }
        ],
        "outputLayer": {
            "neurons": [
                {
                    "weights": [
                        -0.8941793003795342,
                        0.937122967428931,
                        -0.1280675922637997
                    ],
                    "bias": -0.2020230902724789
                },
                {
                    "weights": [
                        -0.35429672670843737,
                        0.512093659935706,
                        0.9901043005005778
                    ],
                    "bias": 0.8696321167245857
                },
                {
                    "weights": [
                        0.608985972008441,
                        0.28440811346504025,
                        0.8430684828113515
                    ],
                    "bias": -0.007101476073685609
                }
            ]
        }
    },
    {
        "inputLayer": {
            "neurons": [
                {
                    "weights": [
                        0.9934974210946701,
                        0.8577848490985918,
                        0.5449746894070477
                    ],
                    "bias": -0.4729600633475699
                },
                {
                    "weights": [
                        0.2599164464763908,
                        0.5899871821419933,
                        -0.970518968044422
                    ],
                    "bias": 0.9049856326195469
                },
                {
                    "weights": [
                        -0.8299831903109098,
                        0.5045521073462875,
                        -0.1070986621897374
                    ],
                    "bias": -0.5518288750919833
                }
            ]
        },
        "layers": [
            {
                "neurons": [
                    {
                        "weights": [
                            -0.36405098358334564,
                            0.9354679632682583,
                            -0.7263592426994689
                        ],
                        "bias": 0.28099204707694647
                    },
                    {
                        "weights": [
                            0.08428628350536771,
                            0.019283513287851495,
                            -0.5857946297812864
                        ],
                        "bias": 0.7657821688282982
                    },
                    {
                        "weights": [
                            -0.7384343086923946,
                            -0.3531364484726085,
                            -0.08947991650613507
                        ],
                        "bias": -0.8592301258189066
                    }
                ]
            }
        ],
        "outputLayer": {
            "neurons": [
                {
                    "weights": [
                        0.2933853109159146,
                        -0.7758333023145314,
                        -0.2716975472666334
                    ],
                    "bias": 0.9992258191385055
                },
                {
                    "weights": [
                        -0.9958610987935084,
                        -0.5455461365414982,
                        0.2519372949152885
                    ],
                    "bias": 0.14777513163457723
                },
                {
                    "weights": [
                        0.8914202089991823,
                        0.639335670289561,
                        0.1498023726868256
                    ],
                    "bias": -0.9136839945827775
                }
            ]
        }
    },
    {
        "inputLayer": {
            "neurons": [
                {
                    "weights": [
                        -0.10383477348325632,
                        0.6968004420661842,
                        0.5422168810701198
                    ],
                    "bias": -0.4207275081134221
                },
                {
                    "weights": [
                        -0.8624188107886377,
                        0.8076611673861762,
                        -0.7297628331783605
                    ],
                    "bias": 0.01533379930296852
                },
                {
                    "weights": [
                        0.8521555878776113,
                        0.04637770376070649,
                        0.08073231825802663
                    ],
                    "bias": -0.3064540352782139
                }
            ]
        },
        "layers": [
            {
                "neurons": [
                    {
                        "weights": [
                            0.3469339868837904,
                            0.5215675416024939,
                            -0.6540998789253161
                        ],
                        "bias": 0.4833826296004309
                    },
                    {
                        "weights": [
                            -0.1926518259083303,
                            -0.6010611780389388,
                            0.1693837064420558
                        ],
                        "bias": 0.7977407058675179
                    },
                    {
                        "weights": [
                            -0.11860860664062911,
                            -0.616527595649518,
                            0.6859888043642646
                        ],
                        "bias": 0.18072967381257832
                    }
                ]
            }
        ],
        "outputLayer": {
            "neurons": [
                {
                    "weights": [
                        -0.04270790893793941,
                        0.8653390882261212,
                        -0.7091334597763954
                    ],
                    "bias": 0.3023644093499249
                },
                {
                    "weights": [
                        -0.7567269989580327,
                        -0.4272593188399072,
                        0.03159995600930676
                    ],
                    "bias": 0.6388721710483021
                },
                {
                    "weights": [
                        -0.08718951763263028,
                        -0.10502448791454855,
                        0.11950147997287952
                    ],
                    "bias": -0.30809603088415827
                }
            ]
        }
    },
    {
        "inputLayer": {
            "neurons": [
                {
                    "weights": [
                        0.23858174334167237,
                        -0.06607674002005326,
                        -0.15676343168779283
                    ],
                    "bias": 0.9504010627372497
                },
                {
                    "weights": [
                        0.251706835057812,
                        0.2098653437702529,
                        0.5018863629916448
                    ],
                    "bias": -0.5632059168521928
                },
                {
                    "weights": [
                        -0.23028846367229372,
                        0.9857583222060906,
                        -0.0869722585524959
                    ],
                    "bias": 0.11134072079342183
                }
            ]
        },
        "layers": [
            {
                "neurons": [
                    {
                        "weights": [
                            -0.011576011394999863,
                            -0.9099950736964757,
                            0.12868213942189577
                        ],
                        "bias": 0.4546554542653345
                    },
                    {
                        "weights": [
                            0.8680209122384879,
                            -0.28757611023457175,
                            -0.9908693535232802
                        ],
                        "bias": 0.8354614833871665
                    },
                    {
                        "weights": [
                            -0.6760173009182875,
                            0.8618893634735421,
                            -0.9167607300412057
                        ],
                        "bias": 0.5474461578164647
                    }
                ]
            }
        ],
        "outputLayer": {
            "neurons": [
                {
                    "weights": [
                        0.03286998931753948,
                        0.90181500046171,
                        0.779394288171535
                    ],
                    "bias": -0.5870819537086014
                },
                {
                    "weights": [
                        -0.5340007281526851,
                        -0.1450798338645103,
                        0.8285354941854606
                    ],
                    "bias": -0.4666616125833314
                },
                {
                    "weights": [
                        0.9558574131503188,
                        0.12808487581703631,
                        -0.39829751176785777
                    ],
                    "bias": 0.01621675997857408
                }
            ]
        }
    },
    {
        "inputLayer": {
            "neurons": [
                {
                    "weights": [
                        0.23962481605877328,
                        0.4671314331886385,
                        0.9010500518615163
                    ],
                    "bias": -0.8088351143610593
                },
                {
                    "weights": [
                        -0.8670530346488909,
                        0.9238431379483742,
                        0.944429903900494
                    ],
                    "bias": -0.7557431833246393
                },
                {
                    "weights": [
                        0.3454998175784101,
                        -0.00449353096150773,
                        -0.6546564107928636
                    ],
                    "bias": -0.8707492070674816
                }
            ]
        },
        "layers": [
            {
                "neurons": [
                    {
                        "weights": [
                            -0.9494108774599623,
                            0.938286301301805,
                            0.5776281874266371
                        ],
                        "bias": -0.9767946436741755
                    },
                    {
                        "weights": [
                            0.22681030761752097,
                            0.6462854092890546,
                            -0.5574203812604821
                        ],
                        "bias": -0.5820043045441519
                    },
                    {
                        "weights": [
                            0.8353670434306328,
                            -0.13077521041514606,
                            -0.9944964599722907
                        ],
                        "bias": 0.05198178879862425
                    }
                ]
            }
        ],
        "outputLayer": {
            "neurons": [
                {
                    "weights": [
                        0.028823268375325117,
                        -0.570307318621549,
                        0.2958293123436717
                    ],
                    "bias": -0.8767584858551032
                },
                {
                    "weights": [
                        0.665262947322508,
                        -0.7860768542042069,
                        -0.7497909234362294
                    ],
                    "bias": -0.04278781232932616
                },
                {
                    "weights": [
                        0.19448713795002792,
                        -0.8191433231598395,
                        0.23417445974339657
                    ],
                    "bias": 0.1786286064684124
                }
            ]
        }
    },
    {
        "inputLayer": {
            "neurons": [
                {
                    "weights": [
                        0.6086709690367833,
                        0.13013703953623534,
                        0.9942208845248708
                    ],
                    "bias": -0.8480436593547345
                },
                {
                    "weights": [
                        -0.5882976853182043,
                        0.804935382698668,
                        0.36183774277170033
                    ],
                    "bias": -0.23632858848853222
                },
                {
                    "weights": [
                        -0.5295549058839997,
                        0.2790180897156245,
                        0.149531376208897
                    ],
                    "bias": -0.6321462632136299
                }
            ]
        },
        "layers": [
            {
                "neurons": [
                    {
                        "weights": [
                            -0.8542556324921478,
                            -0.6799076601373832,
                            -0.6291341584597423
                        ],
                        "bias": 0.3634463828655634
                    },
                    {
                        "weights": [
                            0.9738383605012091,
                            -0.990186438644137,
                            0.1769250438161758
                        ],
                        "bias": 0.8955693143734766
                    },
                    {
                        "weights": [
                            -0.5594213937483412,
                            0.2271608337630957,
                            -0.18362240769728455
                        ],
                        "bias": -0.605131710473297
                    }
                ]
            }
        ],
        "outputLayer": {
            "neurons": [
                {
                    "weights": [
                        -0.8175125514515587,
                        -0.8379817818105186,
                        0.9143884097432089
                    ],
                    "bias": 0.3357041772276921
                },
                {
                    "weights": [
                        -0.5155554324386962,
                        0.6288966954917297,
                        -0.1631892869445113
                    ],
                    "bias": -0.9799435407370025
                },
                {
                    "weights": [
                        0.6583558674493568,
                        0.26317559115605005,
                        -0.6213192291830332
                    ],
                    "bias": -0.7915836257814672
                }
            ]
        }
    }
]