[
    {
        "inputLayer": {
            "neurons": [
                {
                    "weights": [
                        -0.5577632830422752,
                        -0.5992306148398912,
                        0.6623851946727002
                    ],
                    "bias": 0.40342153467277514
                },
                {
                    "weights": [
                        0.14942220216557467,
                        0.9880032626459024,
                        -0.4103865267865878
                    ],
                    "bias": -0.3332474348350368
                },
                {
                    "weights": [
                        -0.1711554734101708,
                        0.13032917875449423,
                        -0.7120917156448252
                    ],
                    "bias": 0.1766045254238076
                }
            ]
        },
        "layers": [
            {
                "neurons": [
                    {
                        "weights": [
                            -0.7395726833866747,
                            0.4062573362012422,
                            -0.724299738067248
                        ],
                        "bias": 0.09493963181968303
                    },
                    {
                        "weights": [
                            -0.20663283778679964,
                            0.8738428980989348,
                            -0.056803000225224
                        ],
                        "bias": -0.34103868822165245
                    },
                    {
                        "weights": [
                            0.2762893097290835,
                            -0.08749429221129024,
                            -0.9512722923634496
                        ],
                        "bias": 0.5661106989660172
                    }
                ]
            }
        ],
        "outputLayer": {
            "neurons": [
                {
                    "weights": [
                        0.7349292307744626,
                        -0.08524586268572776,
                        0.028234281206027223
                    ],
                    "bias": -0.1672675838032993
                },
                {
                    "weights": [
                        0.8225002350400048,
                        0.25245360035392794,
                        -0.04129095037557562
                    ],
                    "bias": -0.10199011782242187
                },
                {
                    "weights": [
                        0.5195586159394454,
                        -0.4862542184968437,
                        0.9211653384061428
                    ],
                    "bias": -0.41089790417983374
                }
            ]
        }
    },
    {
        "inputLayer": {
            "neurons": [
                {
                    "weights": [
                        -0.5577632830422752,
                        -0.5992306148398912,
                        0.6623851946727002
                    ],
                    "bias": -0.013806480835590967
                },
                {
                    "weights": [
                        0.14942220216557467,
                        0.9880032626459024,
                        -0.4103865267865878
                    ],
                    "bias": -0.2059881380233704
                },
                {
                    "weights": [
                        -0.1711554734101708,
                        0.13032917875449423,
                        -0.7120917156448252
                    ],
                    "bias": 0.3239085815686083
                }
            ]
        },
        "layers": [
            {
                "neurons": [
                    {
                        "weights": [
                            -0.7395726833866747,
                            0.4062573362012422,
                            -0.724299738067248
                        ],
                        "bias": 0.05566982214151432
                    },
                    {
                        "weights": [
                            -0.20663283778679964,
                            0.8738428980989348,
                            -0.056803000225224
                        ],
                        "bias": -0.49588310725062984
                    },
                    {
                        "weights": [
                            0.2762893097290835,
                            -0.08749429221129024,
                            -0.9512722923634496
                        ],
                        "bias": 0.5693648599377908
                    }
                ]
            }
        ],
        "outputLayer": {
            "neurons": [
                {
                    "weights": [
                        0.7349292307744626,
                        -0.08524586268572776,
                        0.028234281206027223
                    ],
                    "bias": -0.5310378629956203
                },
                {
                    "weights": [
                        0.8225002350400048,
                        0.25245360035392794,
                        -0.04129095037557562
                    ],
                    "bias": -0.04386815362075743
                },
                {
                    "weights": [
                        0.5195586159394454,
                        -0.4862542184968437,
                        0.9211653384061428
                    ],
                    "bias": -0.13804461091159545
                }
            ]
        }
    },
    {
        "inputLayer": {
            "neurons": [
                {
                    "weights": [
                        -0.5577632830422752,
                        -0.5992306148398912,
                        0.6623851946727002
                    ],
                    "bias": 0.4473076620994922
                },
                {
                    "weights": [
                        0.14942220216557467,
                        0.9880032626459024,
                        -0.4103865267865878
                    ],
                    "bias": -0.4400160340690329
                },
                {
                    "weights": [
                        -0.1711554734101708,
                        0.13032917875449423,
                        -0.7120917156448252
                    ],
                    "bias": 0.31499079901892324
                }
            ]
        },
        "layers": [
            {
                "neurons": [
                    {
                        "weights": [
                            -0.7395726833866747,
                            0.4062573362012422,
                            -0.724299738067248
                        ],
                        "bias": -0.14323086984574704
                    },
                    {
                        "weights": [
                            -0.20663283778679964,
                            0.8738428980989348,
                            -0.056803000225224
                        ],
                        "bias": -0.4430980166357804
                    },
                    {
                        "weights": [
                            0.2762893097290835,
                            -0.08749429221129024,
                            -0.9512722923634496
                        ],
                        "bias": 0.3439026144070917
                    }
                ]
            }
        ],
        "outputLayer": {
            "neurons": [
                {
                    "weights": [
                        0.7349292307744626,
                        -0.08524586268572776,
                        0.028234281206027223
                    ],
                    "bias": -0.2391433039522406
                },
                {
                    "weights": [
                        0.8225002350400048,
                        0.25245360035392794,
                        -0.04129095037557562
                    ],
                    "bias": -0.11180893387550607
                },
                {
                    "weights": [
                        0.5195586159394454,
                        -0.4862542184968437,
                        0.9211653384061428
                    ],
                    "bias": -0.06502095030533905
                }
            ]
        }
    },
    {
        "inputLayer": {
            "neurons": [
                {
                    "weights": [
                        -0.5577632830422752,
                        -0.5992306148398912,
                        0.6623851946727002
                    ],
                    "bias": 0.36188544947116646
                },
                {
                    "weights": [
                        0.14942220216557467,
                        0.9880032626459024,
                        -0.4103865267865878
                    ],
                    "bias": -0.39665910765852974
                },
                {
                    "weights": [
                        -0.1711554734101708,
                        0.13032917875449423,
                        -0.7120917156448252
                    ],
                    "bias": 0.241587119153435
                }
            ]
        },
        "layers": [
            {
                "neurons": [
                    {
                        "weights": [
                            -0.7395726833866747,
                            0.4062573362012422,
                            -0.724299738067248
                        ],
                        "bias": -0.0038733976153091515
                    },
                    {
                        "weights": [
                            -0.20663283778679964,
                            0.8738428980989348,
                            -0.056803000225224
                        ],
                        "bias": -0.34103868822165245
                    },
                    {
                        "weights": [
                            0.2762893097290835,
                            -0.08749429221129024,
                            -0.9512722923634496
                        ],
                        "bias": 0.5261254075610129
                    }
                ]
            }
        ],
        "outputLayer": {
            "neurons": [
                {
                    "weights": [
                        0.7349292307744626,
                        -0.08524586268572776,
                        0.028234281206027223
                    ],
                    "bias": -0.12171667247631336
                },
                {
                    "weights": [
                        0.8225002350400048,
                        0.25245360035392794,
                        -0.04129095037557562
                    ],
                    "bias": -0.01074302911232014
                },
                {
                    "weights": [
                        0.5195586159394454,
                        -0.4862542184968437,
                        0.9211653384061428
                    ],
                    "bias": -0.07423060893966682
                }
            ]
        }
    },
    {
        "inputLayer": {
            "neurons": [
                {
                    "weights": [
                        -0.5577632830422752,
                        -0.5992306148398912,
                        0.6623851946727002
                    ],
                    "bias": 0.40342153467277514
                },
                {
                    "weights": [
                        0.14942220216557467,
                        0.9880032626459024,
                        -0.4103865267865878
                    ],
                    "bias": -0.3332474348350368
                },
                {
                    "weights": [
                        -0.1711554734101708,
                        0.13032917875449423,
                        -0.7120917156448252
                    ],
                    "bias": 0.1766045254238076
                }
            ]
        },
        "layers": [
            {
                "neurons": [
                    {
                        "weights": [
                            -0.7395726833866747,
                            0.4062573362012422,
                            -0.724299738067248
                        ],
                        "bias": -0.0038733976153091515
                    },
                    {
                        "weights": [
                            -0.20663283778679964,
                            0.8738428980989348,
                            -0.056803000225224
                        ],
                        "bias": -0.34103868822165245
                    },
                    {
                        "weights": [
                            0.2762893097290835,
                            -0.08749429221129024,
                            -0.9512722923634496
                        ],
                        "bias": 0.4721927378203096
                    }
                ]
            }
        ],
        "outputLayer": {
            "neurons": [
                {
                    "weights": [
                        0.7349292307744626,
                        -0.08524586268572776,
                        0.028234281206027223
                    ],
                    "bias": -0.2506115946649723
                },
                {
                    "weights": [
                        0.8225002350400048,
                        0.25245360035392794,
                        -0.04129095037557562
                    ],
                    "bias": -0.06412813975575858
                },
                {
                    "weights": [
                        0.5195586159394454,
                        -0.4862542184968437,
                        0.9211653384061428
                    ],
                    "bias": -0.36946821684171843
                }
            ]
        }
    },
    {
        "inputLayer": {
            "neurons": [
                {
                    "weights": [
                        -0.5577632830422752,
                        -0.5992306148398912,
                        0.6623851946727002
                    ],
                    "bias": 0.40342153467277514
                },
                {
                    "weights": [
                        0.14942220216557467,
                        0.9880032626459024,
                        -0.4103865267865878
                    ],
                    "bias": -0.3933071208177405
                },
                {
                    "weights": [
                        -0.1711554734101708,
                        0.13032917875449423,
                        -0.7120917156448252
                    ],
                    "bias": 0.24714824059552282
                }
            ]
        },
        "layers": [
            {
                "neurons": [
                    {
                        "weights": [
                            -0.7395726833866747,
                            0.4062573362012422,
                            -0.724299738067248
                        ],
                        "bias": -0.0038733976153091515
                    },
                    {
                        "weights": [
                            -0.20663283778679964,
                            0.8738428980989348,
                            -0.056803000225224
                        ],
                        "bias": -0.34103868822165245
                    },
                    {
                        "weights": [
                            0.2762893097290835,
                            -0.08749429221129024,
                            -0.9512722923634496
                        ],
                        "bias": 0.5349631275878634
                    }
                ]
            }
        ],
        "outputLayer": {
            "neurons": [
                {
                    "weights": [
                        0.7349292307744626,
                        -0.08524586268572776,
                        0.028234281206027223
                    ],
                    "bias": -0.17430462322875298
                },
                {
                    "weights": [
                        0.8225002350400048,
                        0.25245360035392794,
                        -0.04129095037557562
                    ],
                    "bias": -0.08377036596853268
                },
                {
                    "weights": [
                        0.5195586159394454,
                        -0.4862542184968437,
                        0.9211653384061428
                    ],
                    "bias": -0.2699038511910703
                }
            ]
        }
    },
    {
        "inputLayer": {
            "neurons": [
                {
                    "weights": [
                        -0.5577632830422752,
                        -0.5992306148398912,
                        0.6623851946727002
                    ],
                    "bias": 0.4451142106497317
                },
                {
                    "weights": [
                        0.14942220216557467,
                        0.9880032626459024,
                        -0.4103865267865878
                    ],
                    "bias": -0.4400160340690329
                },
                {
                    "weights": [
                        -0.1711554734101708,
                        0.13032917875449423,
                        -0.7120917156448252
                    ],
                    "bias": 0.3094342268397542
                }
            ]
        },
        "layers": [
            {
                "neurons": [
                    {
                        "weights": [
                            -0.7395726833866747,
                            0.4062573362012422,
                            -0.724299738067248
                        ],
                        "bias": -0.1520206471394939
                    },
                    {
                        "weights": [
                            -0.20663283778679964,
                            0.8738428980989348,
                            -0.056803000225224
                        ],
                        "bias": -0.4391122152945693
                    },
                    {
                        "weights": [
                            0.2762893097290835,
                            -0.08749429221129024,
                            -0.9512722923634496
                        ],
                        "bias": 0.3285122025065858
                    }
                ]
            }
        ],
        "outputLayer": {
            "neurons": [
                {
                    "weights": [
                        0.7349292307744626,
                        -0.08524586268572776,
                        0.028234281206027223
                    ],
                    "bias": -0.28480225154927513
                },
                {
                    "weights": [
                        0.8225002350400048,
                        0.25245360035392794,
                        -0.04129095037557562
                    ],
                    "bias": -0.18938074406089422
                },
                {
                    "weights": [
                        0.5195586159394454,
                        -0.4862542184968437,
                        0.9211653384061428
                    ],
                    "bias": -0.028319236177608478
                }
            ]
        }
    },
    {
        "inputLayer": {
            "neurons": [
                {
                    "weights": [
                        -0.5577632830422752,
                        -0.5992306148398912,
                        0.6623851946727002
                    ],
                    "bias": 0.36861555692897846
                },
                {
                    "weights": [
                        0.14942220216557467,
                        0.9880032626459024,
                        -0.4103865267865878
                    ],
                    "bias": -0.5552275129940121
                },
                {
                    "weights": [
                        -0.1711554734101708,
                        0.13032917875449423,
                        -0.7120917156448252
                    ],
                    "bias": 0.5105108599254781
                }
            ]
        },
        "layers": [
            {
                "neurons": [
                    {
                        "weights": [
                            -0.7395726833866747,
                            0.4062573362012422,
                            -0.724299738067248
                        ],
                        "bias": -0.004204597515118328
                    },
                    {
                        "weights": [
                            -0.20663283778679964,
                            0.8738428980989348,
                            -0.056803000225224
                        ],
                        "bias": -0.41040839421354025
                    },
                    {
                        "weights": [
                            0.2762893097290835,
                            -0.08749429221129024,
                            -0.9512722923634496
                        ],
                        "bias": 0.625560486176327
                    }
                ]
            }
        ],
        "outputLayer": {
            "neurons": [
                {
                    "weights": [
                        0.7349292307744626,
                        -0.08524586268572776,
                        0.028234281206027223
                    ],
                    "bias": -0.4092401936208834
                },
                {
                    "weights": [
                        0.8225002350400048,
                        0.25245360035392794,
                        -0.04129095037557562
                    ],
                    "bias": -0.1163389604637616
                },
                {
                    "weights": [
                        0.5195586159394454,
                        -0.4862542184968437,
                        0.9211653384061428
                    ],
                    "bias": -0.04682188615330458
                }
            ]
        }
    },
    {
        "inputLayer": {
            "neurons": [
                {
                    "weights": [
                        -0.5577632830422752,
                        -0.5992306148398912,
                        0.6623851946727002
                    ],
                    "bias": 0.08316845708005542
                },
                {
                    "weights": [
                        0.14942220216557467,
                        0.9880032626459024,
                        -0.4103865267865878
                    ],
                    "bias": -0.2008611262239426
                },
                {
                    "weights": [
                        -0.1711554734101708,
                        0.13032917875449423,
                        -0.7120917156448252
                    ],
                    "bias": 0.32285614775727245
                }
            ]
        },
        "layers": [
            {
                "neurons": [
                    {
                        "weights": [
                            -0.7395726833866747,
                            0.4062573362012422,
                            -0.724299738067248
                        ],
                        "bias": 0.05009515639420006
                    },
                    {
                        "weights": [
                            -0.20663283778679964,
                            0.8738428980989348,
                            -0.056803000225224
                        ],
                        "bias": -0.5549007814306788
                    },
                    {
                        "weights": [
                            0.2762893097290835,
                            -0.08749429221129024,
                            -0.9512722923634496
                        ],
                        "bias": 0.5693648599377908
                    }
                ]
            }
        ],
        "outputLayer": {
            "neurons": [
                {
                    "weights": [
                        0.7349292307744626,
                        -0.08524586268572776,
                        0.028234281206027223
                    ],
                    "bias": -0.46288209028358984
                },
                {
                    "weights": [
                        0.8225002350400048,
                        0.25245360035392794,
                        -0.04129095037557562
                    ],
                    "bias": -0.03737936550351005
                },
                {
                    "weights": [
                        0.5195586159394454,
                        -0.4862542184968437,
                        0.9211653384061428
                    ],
                    "bias": -0.1557362872483781
                }
            ]
        }
    },
    {
        "inputLayer": {
            "neurons": [
                {
                    "weights": [
                        -0.5577632830422752,
                        -0.5992306148398912,
                        0.6623851946727002
                    ],
                    "bias": 0.3649251140229087
                },
                {
                    "weights": [
                        0.14942220216557467,
                        0.9880032626459024,
                        -0.4103865267865878
                    ],
                    "bias": -0.5628434657714837
                },
                {
                    "weights": [
                        -0.1711554734101708,
                        0.13032917875449423,
                        -0.7120917156448252
                    ],
                    "bias": 0.5105108599254781
                }
            ]
        },
        "layers": [
            {
                "neurons": [
                    {
                        "weights": [
                            -0.7395726833866747,
                            0.4062573362012422,
                            -0.724299738067248
                        ],
                        "bias": 0.001662565525301093
                    },
                    {
                        "weights": [
                            -0.20663283778679964,
                            0.8738428980989348,
                            -0.056803000225224
                        ],
                        "bias": -0.41834852283128143
                    },
                    {
                        "weights": [
                            0.2762893097290835,
                            -0.08749429221129024,
                            -0.9512722923634496
                        ],
                        "bias": 0.6237047443717859
                    }
                ]
            }
        ],
        "outputLayer": {
            "neurons": [
                {
                    "weights": [
                        0.7349292307744626,
                        -0.08524586268572776,
                        0.028234281206027223
                    ],
                    "bias": -0.4092401936208834
                },
                {
                    "weights": [
                        0.8225002350400048,
                        0.25245360035392794,
                        -0.04129095037557562
                    ],
                    "bias": -0.12080399027012273
                },
                {
                    "weights": [
                        0.5195586159394454,
                        -0.4862542184968437,
                        0.9211653384061428
                    ],
                    "bias": -0.05297035324624648
                }
            ]
        }
    },
    {
        "inputLayer": {
            "neurons": [
                {
                    "weights": [
                        -0.5577632830422752,
                        -0.5992306148398912,
                        0.6623851946727002
                    ],
                    "bias": 0.0766168332544628
                },
                {
                    "weights": [
                        0.14942220216557467,
                        0.9880032626459024,
                        -0.4103865267865878
                    ],
                    "bias": -0.2059881380233704
                },
                {
                    "weights": [
                        -0.1711554734101708,
                        0.13032917875449423,
                        -0.7120917156448252
                    ],
                    "bias": 0.3239085815686083
                }
            ]
        },
        "layers": [
            {
                "neurons": [
                    {
                        "weights": [
                            -0.7395726833866747,
                            0.4062573362012422,
                            -0.724299738067248
                        ],
                        "bias": 0.05566982214151432
                    },
                    {
                        "weights": [
                            -0.20663283778679964,
                            0.8738428980989348,
                            -0.056803000225224
                        ],
                        "bias": -0.5506620378097924
                    },
                    {
                        "weights": [
                            0.2762893097290835,
                            -0.08749429221129024,
                            -0.9512722923634496
                        ],
                        "bias": 0.5693648599377908
                    }
                ]
            }
        ],
        "outputLayer": {
            "neurons": [
                {
                    "weights": [
                        0.7349292307744626,
                        -0.08524586268572776,
                        0.028234281206027223
                    ],
                    "bias": -0.46288209028358984
                },
                {
                    "weights": [
                        0.8225002350400048,
                        0.25245360035392794,
                        -0.04129095037557562
                    ],
                    "bias": -0.03737936550351005
                },
                {
                    "weights": [
                        0.5195586159394454,
                        -0.4862542184968437,
                        0.9211653384061428
                    ],
                    "bias": -0.16117861105312176
                }
            ]
        }
    },
    {
        "inputLayer": {
            "neurons": [
                {
                    "weights": [
                        -0.5577632830422752,
                        -0.5992306148398912,
                        0.6623851946727002
                    ],
                    "bias": 0.4451142106497317
                },
                {
                    "weights": [
                        0.14942220216557467,
                        0.9880032626459024,
                        -0.4103865267865878
                    ],
                    "bias": -0.4400160340690329
                },
                {
                    "weights": [
                        -0.1711554734101708,
                        0.13032917875449423,
                        -0.7120917156448252
                    ],
                    "bias": 0.3094342268397542
                }
            ]
        },
        "layers": [
            {
                "neurons": [
                    {
                        "weights": [
                            -0.7395726833866747,
                            0.4062573362012422,
                            -0.724299738067248
                        ],
                        "bias": -0.15299446854353282
                    },
                    {
                        "weights": [
                            -0.20663283778679964,
                            0.8738428980989348,
                            -0.056803000225224
                        ],
                        "bias": -0.4391122152945693
                    },
                    {
                        "weights": [
                            0.2762893097290835,
                            -0.08749429221129024,
                            -0.9512722923634496
                        ],
                        "bias": 0.3285122025065858
                    }
                ]
            }
        ],
        "outputLayer": {
            "neurons": [
                {
                    "weights": [
                        0.7349292307744626,
                        -0.08524586268572776,
                        0.028234281206027223
                    ],
                    "bias": -0.28480225154927513
                },
                {
                    "weights": [
                        0.8225002350400048,
                        0.25245360035392794,
                        -0.04129095037557562
                    ],
                    "bias": -0.18938074406089422
                },
                {
                    "weights": [
                        0.5195586159394454,
                        -0.4862542184968437,
                        0.9211653384061428
                    ],
                    "bias": -0.028319236177608478
                }
            ]
        }
    },
    {
        "inputLayer": {
            "neurons": [
                {
                    "weights": [
                        -0.5577632830422752,
                        -0.5992306148398912,
                        0.6623851946727002
                    ],
                    "bias": 0.4513908647698277
                },
                {
                    "weights": [
                        0.14942220216557467,
                        0.9880032626459024,
                        -0.4103865267865878
                    ],
                    "bias": -0.40148204948698335
                },
                {
                    "weights": [
                        -0.1711554734101708,
                        0.13032917875449423,
                        -0.7120917156448252
                    ],
                    "bias": 0.24643258534987536
                }
            ]
        },
        "layers": [
            {
                "neurons": [
                    {
                        "weights": [
                            -0.7395726833866747,
                            0.4062573362012422,
                            -0.724299738067248
                        ],
                        "bias": -0.0038733976153091515
                    },
                    {
                        "weights": [
                            -0.20663283778679964,
                            0.8738428980989348,
                            -0.056803000225224
                        ],
                        "bias": -0.4184014631238166
                    },
                    {
                        "weights": [
                            0.2762893097290835,
                            -0.08749429221129024,
                            -0.9512722923634496
                        ],
                        "bias": 0.4754581927303332
                    }
                ]
            }
        ],
        "outputLayer": {
            "neurons": [
                {
                    "weights": [
                        0.7349292307744626,
                        -0.08524586268572776,
                        0.028234281206027223
                    ],
                    "bias": -0.19284626546377165
                },
                {
                    "weights": [
                        0.8225002350400048,
                        0.25245360035392794,
                        -0.04129095037557562
                    ],
                    "bias": -0.0733669464895994
                },
                {
                    "weights": [
                        0.5195586159394454,
                        -0.4862542184968437,
                        0.9211653384061428
                    ],
                    "bias": -0.37933004864398967
                }
            ]
        }
    },
    {
        "inputLayer": {
            "neurons": [
                {
                    "weights": [
                        -0.5577632830422752,
                        -0.5992306148398912,
                        0.6623851946727002
                    ],
                    "bias": 0.40342153467277514
                },
                {
                    "weights": [
                        0.14942220216557467,
                        0.9880032626459024,
                        -0.4103865267865878
                    ],
                    "bias": -0.3933071208177405
                },
                {
                    "weights": [
                        -0.1711554734101708,
                        0.13032917875449423,
                        -0.7120917156448252
                    ],
                    "bias": 0.24714824059552282
                }
            ]
        },
        "layers": [
            {
                "neurons": [
                    {
                        "weights": [
                            -0.7395726833866747,
                            0.4062573362012422,
                            -0.724299738067248
                        ],
                        "bias": -0.0038733976153091515
                    },
                    {
                        "weights": [
                            -0.20663283778679964,
                            0.8738428980989348,
                            -0.056803000225224
                        ],
                        "bias": -0.34103868822165245
                    },
                    {
                        "weights": [
                            0.2762893097290835,
                            -0.08749429221129024,
                            -0.9512722923634496
                        ],
                        "bias": 0.5349631275878634
                    }
                ]
            }
        ],
        "outputLayer": {
            "neurons": [
                {
                    "weights": [
                        0.7349292307744626,
                        -0.08524586268572776,
                        0.028234281206027223
                    ],
                    "bias": -0.17430462322875298
                },
                {
                    "weights": [
                        0.8225002350400048,
                        0.25245360035392794,
                        -0.04129095037557562
                    ],
                    "bias": -0.08377036596853268
                },
                {
                    "weights": [
                        0.5195586159394454,
                        -0.4862542184968437,
                        0.9211653384061428
                    ],
                    "bias": -0.2754010446528642
                }
            ]
        }
    },
    {
        "inputLayer": {
            "neurons": [
                {
                    "weights": [
                        -0.5577632830422752,
                        -0.5992306148398912,
                        0.6623851946727002
                    ],
                    "bias": 0.38191457689527275
                },
                {
                    "weights": [
                        0.14942220216557467,
                        0.9880032626459024,
                        -0.4103865267865878
                    ],
                    "bias": -0.16153714758300353
                },
                {
                    "weights": [
                        -0.1711554734101708,
                        0.13032917875449423,
                        -0.7120917156448252
                    ],
                    "bias": 0.4816891278036294
                }
            ]
        },
        "layers": [
            {
                "neurons": [
                    {
                        "weights": [
                            -0.7395726833866747,
                            0.4062573362012422,
                            -0.724299738067248
                        ],
                        "bias": 0.02421883699733984
                    },
                    {
                        "weights": [
                            -0.20663283778679964,
                            0.8738428980989348,
                            -0.056803000225224
                        ],
                        "bias": -0.3048940732855127
                    },
                    {
                        "weights": [
                            0.2762893097290835,
                            -0.08749429221129024,
                            -0.9512722923634496
                        ],
                        "bias": 0.4968979897811818
                    }
                ]
            }
        ],
        "outputLayer": {
            "neurons": [
                {
                    "weights": [
                        0.7349292307744626,
                        -0.08524586268572776,
                        0.028234281206027223
                    ],
                    "bias": -0.48992387591652986
                },
                {
                    "weights": [
                        0.8225002350400048,
                        0.25245360035392794,
                        -0.04129095037557562
                    ],
                    "bias": -0.11712831324884003
                },
                {
                    "weights": [
                        0.5195586159394454,
                        -0.4862542184968437,
                        0.9211653384061428
                    ],
                    "bias": -0.3473163795525648
                }
            ]
        }
    },
    {
        "inputLayer": {
            "neurons": [
                {
                    "weights": [
                        -0.5577632830422752,
                        -0.5992306148398912,
                        0.6623851946727002
                    ],
                    "bias": 0.44548033681552063
                },
                {
                    "weights": [
                        0.14942220216557467,
                        0.9880032626459024,
                        -0.4103865267865878
                    ],
                    "bias": -0.49144097538517595
                },
                {
                    "weights": [
                        -0.1711554734101708,
                        0.13032917875449423,
                        -0.7120917156448252
                    ],
                    "bias": 0.5105108599254781
                }
            ]
        },
        "layers": [
            {
                "neurons": [
                    {
                        "weights": [
                            -0.7395726833866747,
                            0.4062573362012422,
                            -0.724299738067248
                        ],
                        "bias": 0.052237307348204996
                    },
                    {
                        "weights": [
                            -0.20663283778679964,
                            0.8738428980989348,
                            -0.056803000225224
                        ],
                        "bias": -0.41928317848310437
                    },
                    {
                        "weights": [
                            0.2762893097290835,
                            -0.08749429221129024,
                            -0.9512722923634496
                        ],
                        "bias": 0.5973628173632951
                    }
                ]
            }
        ],
        "outputLayer": {
            "neurons": [
                {
                    "weights": [
                        0.7349292307744626,
                        -0.08524586268572776,
                        0.028234281206027223
                    ],
                    "bias": -0.4726120216163352
                },
                {
                    "weights": [
                        0.8225002350400048,
                        0.25245360035392794,
                        -0.04129095037557562
                    ],
                    "bias": -0.15513135134473874
                },
                {
                    "weights": [
                        0.5195586159394454,
                        -0.4862542184968437,
                        0.9211653384061428
                    ],
                    "bias": -0.09192177589311527
                }
            ]
        }
    },
    {
        "inputLayer": {
            "neurons": [
                {
                    "weights": [
                        -0.5577632830422752,
                        -0.5992306148398912,
                        0.6623851946727002
                    ],
                    "bias": 0.35695075667196074
                },
                {
                    "weights": [
                        0.14942220216557467,
                        0.9880032626459024,
                        -0.4103865267865878
                    ],
                    "bias": -0.48514193255058885
                },
                {
                    "weights": [
                        -0.1711554734101708,
                        0.13032917875449423,
                        -0.7120917156448252
                    ],
                    "bias": 0.24142606008905892
                }
            ]
        },
        "layers": [
            {
                "neurons": [
                    {
                        "weights": [
                            -0.7395726833866747,
                            0.4062573362012422,
                            -0.724299738067248
                        ],
                        "bias": -0.0038733976153091515
                    },
                    {
                        "weights": [
                            -0.20663283778679964,
                            0.8738428980989348,
                            -0.056803000225224
                        ],
                        "bias": -0.34103868822165245
                    },
                    {
                        "weights": [
                            0.2762893097290835,
                            -0.08749429221129024,
                            -0.9512722923634496
                        ],
                        "bias": 0.5261254075610129
                    }
                ]
            }
        ],
        "outputLayer": {
            "neurons": [
                {
                    "weights": [
                        0.7349292307744626,
                        -0.08524586268572776,
                        0.028234281206027223
                    ],
                    "bias": -0.11990804136097481
                },
                {
                    "weights": [
                        0.8225002350400048,
                        0.25245360035392794,
                        -0.04129095037557562
                    ],
                    "bias": -0.04785026430105805
                },
                {
                    "weights": [
                        0.5195586159394454,
                        -0.4862542184968437,
                        0.9211653384061428
                    ],
                    "bias": -0.13882823729434426
                }
            ]
        }
    },
    {
        "inputLayer": {
            "neurons": [
                {
                    "weights": [
                        -0.5577632830422752,
                        -0.5992306148398912,
                        0.6623851946727002
                    ],
                    "bias": 0.40342153467277514
                },
                {
                    "weights": [
                        0.14942220216557467,
                        0.9880032626459024,
                        -0.4103865267865878
                    ],
                    "bias": -0.3933071208177405
                },
                {
                    "weights": [
                        -0.1711554734101708,
                        0.13032917875449423,
                        -0.7120917156448252
                    ],
                    "bias": 0.24714824059552282
                }
            ]
        },
        "layers": [
            {
                "neurons": [
                    {
                        "weights": [
                            -0.7395726833866747,
                            0.4062573362012422,
                            -0.724299738067248
                        ],
                        "bias": -0.0038733976153091515
                    },
                    {
                        "weights": [
                            -0.20663283778679964,
                            0.8738428980989348,
                            -0.056803000225224
                        ],
                        "bias": -0.34103868822165245
                    },
                    {
                        "weights": [
                            0.2762893097290835,
                            -0.08749429221129024,
                            -0.9512722923634496
                        ],
                        "bias": 0.5349631275878634
                    }
                ]
            }
        ],
        "outputLayer": {
            "neurons": [
                {
                    "weights": [
                        0.7349292307744626,
                        -0.08524586268572776,
                        0.028234281206027223
                    ],
                    "bias": -0.17430462322875298
                },
                {
                    "weights": [
                        0.8225002350400048,
                        0.25245360035392794,
                        -0.04129095037557562
                    ],
                    "bias": -0.08018038591758417
                },
                {
                    "weights": [
                        0.5195586159394454,
                        -0.4862542184968437,
                        0.9211653384061428
                    ],
                    "bias": -0.2699038511910703
                }
            ]
        }
    },
    {
        "inputLayer": {
            "neurons": [
                {
                    "weights": [
                        -0.5577632830422752,
                        -0.5992306148398912,
                        0.6623851946727002
                    ],
                    "bias": 0.0766168332544628
                },
                {
                    "weights": [
                        0.14942220216557467,
                        0.9880032626459024,
                        -0.4103865267865878
                    ],
                    "bias": -0.2059881380233704
                },
                {
                    "weights": [
                        -0.1711554734101708,
                        0.13032917875449423,
                        -0.7120917156448252
                    ],
                    "bias": 0.3504607187269126
                }
            ]
        },
        "layers": [
            {
                "neurons": [
                    {
                        "weights": [
                            -0.7395726833866747,
                            0.4062573362012422,
                            -0.724299738067248
                        ],
                        "bias": 0.11591149945233521
                    },
                    {
                        "weights": [
                            -0.20663283778679964,
                            0.8738428980989348,
                            -0.056803000225224
                        ],
                        "bias": -0.5573448143242621
                    },
                    {
                        "weights": [
                            0.2762893097290835,
                            -0.08749429221129024,
                            -0.9512722923634496
                        ],
                        "bias": 0.541276959961475
                    }
                ]
            }
        ],
        "outputLayer": {
            "neurons": [
                {
                    "weights": [
                        0.7349292307744626,
                        -0.08524586268572776,
                        0.028234281206027223
                    ],
                    "bias": -0.37380043266824503
                },
                {
                    "weights": [
                        0.8225002350400048,
                        0.25245360035392794,
                        -0.04129095037557562
                    ],
                    "bias": -0.06455172182612337
                },
                {
                    "weights": [
                        0.5195586159394454,
                        -0.4862542184968437,
                        0.9211653384061428
                    ],
                    "bias": -0.2532132502394613
                }
            ]
        }
    },
    {
        "inputLayer": {
            "neurons": [
                {
                    "weights": [
                        -0.5577632830422752,
                        -0.5992306148398912,
                        0.6623851946727002
                    ],
                    "bias": 0.38191457689527275
                },
                {
                    "weights": [
                        0.14942220216557467,
                        0.9880032626459024,
                        -0.4103865267865878
                    ],
                    "bias": -0.17031658082864898
                },
                {
                    "weights": [
                        -0.1711554734101708,
                        0.13032917875449423,
                        -0.7120917156448252
                    ],
                    "bias": 0.4816891278036294
                }
            ]
        },
        "layers": [
            {
                "neurons": [
                    {
                        "weights": [
                            -0.7395726833866747,
                            0.4062573362012422,
                            -0.724299738067248
                        ],
                        "bias": 0.019803199942005585
                    },
                    {
                        "weights": [
                            -0.20663283778679964,
                            0.8738428980989348,
                            -0.056803000225224
                        ],
                        "bias": -0.30338828717665145
                    },
                    {
                        "weights": [
                            0.2762893097290835,
                            -0.08749429221129024,
                            -0.9512722923634496
                        ],
                        "bias": 0.4968979897811818
                    }
                ]
            }
        ],
        "outputLayer": {
            "neurons": [
                {
                    "weights": [
                        0.7349292307744626,
                        -0.08524586268572776,
                        0.028234281206027223
                    ],
                    "bias": -0.48992387591652986
                },
                {
                    "weights": [
                        0.8225002350400048,
                        0.25245360035392794,
                        -0.04129095037557562
                    ],
                    "bias": -0.11252516889219481
                },
                {
                    "weights": [
                        0.5195586159394454,
                        -0.4862542184968437,
                        0.9211653384061428
                    ],
                    "bias": -0.3473163795525648
                }
            ]
        }
    },
    {
        "inputLayer": {
            "neurons": [
                {
                    "weights": [
                        -0.5577632830422752,
                        -0.5992306148398912,
                        0.6623851946727002
                    ],
                    "bias": 0.0766168332544628
                },
                {
                    "weights": [
                        0.14942220216557467,
                        0.9880032626459024,
                        -0.4103865267865878
                    ],
                    "bias": -0.2059881380233704
                },
                {
                    "weights": [
                        -0.1711554734101708,
                        0.13032917875449423,
                        -0.7120917156448252
                    ],
                    "bias": 0.34749291660623155
                }
            ]
        },
        "layers": [
            {
                "neurons": [
                    {
                        "weights": [
                            -0.7395726833866747,
                            0.4062573362012422,
                            -0.724299738067248
                        ],
                        "bias": 0.10689418818998542
                    },
                    {
                        "weights": [
                            -0.20663283778679964,
                            0.8738428980989348,
                            -0.056803000225224
                        ],
                        "bias": -0.5573448143242621
                    },
                    {
                        "weights": [
                            0.2762893097290835,
                            -0.08749429221129024,
                            -0.9512722923634496
                        ],
                        "bias": 0.541276959961475
                    }
                ]
            }
        ],
        "outputLayer": {
            "neurons": [
                {
                    "weights": [
                        0.7349292307744626,
                        -0.08524586268572776,
                        0.028234281206027223
                    ],
                    "bias": -0.37380043266824503
                },
                {
                    "weights": [
                        0.8225002350400048,
                        0.25245360035392794,
                        -0.04129095037557562
                    ],
                    "bias": -0.06455172182612337
                },
                {
                    "weights": [
                        0.5195586159394454,
                        -0.4862542184968437,
                        0.9211653384061428
                    ],
                    "bias": -0.2532132502394613
                }
            ]
        }
    },
    {
        "inputLayer": {
            "neurons": [
                {
                    "weights": [
                        -0.5577632830422752,
                        -0.5992306148398912,
                        0.6623851946727002
                    ],
                    "bias": 0.08620261288588882
                },
                {
                    "weights": [
                        0.14942220216557467,
                        0.9880032626459024,
                        -0.4103865267865878
                    ],
                    "bias": -0.2428365844468264
                },
                {
                    "weights": [
                        -0.1711554734101708,
                        0.13032917875449423,
                        -0.7120917156448252
                    ],
                    "bias": 0.354504352806184
                }
            ]
        },
        "layers": [
            {
                "neurons": [
                    {
                        "weights": [
                            -0.7395726833866747,
                            0.4062573362012422,
                            -0.724299738067248
                        ],
                        "bias": 0.0007990393821592362
                    },
                    {
                        "weights": [
                            -0.20663283778679964,
                            0.8738428980989348,
                            -0.056803000225224
                        ],
                        "bias": -0.4740713494919009
                    },
                    {
                        "weights": [
                            0.2762893097290835,
                            -0.08749429221129024,
                            -0.9512722923634496
                        ],
                        "bias": 0.666052074267218
                    }
                ]
            }
        ],
        "outputLayer": {
            "neurons": [
                {
                    "weights": [
                        0.7349292307744626,
                        -0.08524586268572776,
                        0.028234281206027223
                    ],
                    "bias": -0.6088047602406383
                },
                {
                    "weights": [
                        0.8225002350400048,
                        0.25245360035392794,
                        -0.04129095037557562
                    ],
                    "bias": -0.07581803498626465
                },
                {
                    "weights": [
                        0.5195586159394454,
                        -0.4862542184968437,
                        0.9211653384061428
                    ],
                    "bias": -0.09454165127639727
                }
            ]
        }
    },
    {
        "inputLayer": {
            "neurons": [
                {
                    "weights": [
                        -0.5577632830422752,
                        -0.5992306148398912,
                        0.6623851946727002
                    ],
                    "bias": 0.36861555692897846
                },
                {
                    "weights": [
                        0.14942220216557467,
                        0.9880032626459024,
                        -0.4103865267865878
                    ],
                    "bias": -0.5628434657714837
                },
                {
                    "weights": [
                        -0.1711554734101708,
                        0.13032917875449423,
                        -0.7120917156448252
                    ],
                    "bias": 0.5105108599254781
                }
            ]
        },
        "layers": [
            {
                "neurons": [
                    {
                        "weights": [
                            -0.7395726833866747,
                            0.4062573362012422,
                            -0.724299738067248
                        ],
                        "bias": 0.001662565525301093
                    },
                    {
                        "weights": [
                            -0.20663283778679964,
                            0.8738428980989348,
                            -0.056803000225224
                        ],
                        "bias": -0.41928317848310437
                    },
                    {
                        "weights": [
                            0.2762893097290835,
                            -0.08749429221129024,
                            -0.9512722923634496
                        ],
                        "bias": 0.625560486176327
                    }
                ]
            }
        ],
        "outputLayer": {
            "neurons": [
                {
                    "weights": [
                        0.7349292307744626,
                        -0.08524586268572776,
                        0.028234281206027223
                    ],
                    "bias": -0.4092401936208834
                },
                {
                    "weights": [
                        0.8225002350400048,
                        0.25245360035392794,
                        -0.04129095037557562
                    ],
                    "bias": -0.12542070464995858
                },
                {
                    "weights": [
                        0.5195586159394454,
                        -0.4862542184968437,
                        0.9211653384061428
                    ],
                    "bias": -0.05297035324624648
                }
            ]
        }
    },
    {
        "inputLayer": {
            "neurons": [
                {
                    "weights": [
                        -0.5577632830422752,
                        -0.5992306148398912,
                        0.6623851946727002
                    ],
                    "bias": 0.35695075667196074
                },
                {
                    "weights": [
                        0.14942220216557467,
                        0.9880032626459024,
                        -0.4103865267865878
                    ],
                    "bias": -0.39930896322673365
                },
                {
                    "weights": [
                        -0.1711554734101708,
                        0.13032917875449423,
                        -0.7120917156448252
                    ],
                    "bias": 0.23650069621226213
                }
            ]
        },
        "layers": [
            {
                "neurons": [
                    {
                        "weights": [
                            -0.7395726833866747,
                            0.4062573362012422,
                            -0.724299738067248
                        ],
                        "bias": -0.0038733976153091515
                    },
                    {
                        "weights": [
                            -0.20663283778679964,
                            0.8738428980989348,
                            -0.056803000225224
                        ],
                        "bias": -0.34103868822165245
                    },
                    {
                        "weights": [
                            0.2762893097290835,
                            -0.08749429221129024,
                            -0.9512722923634496
                        ],
                        "bias": 0.5261254075610129
                    }
                ]
            }
        ],
        "outputLayer": {
            "neurons": [
                {
                    "weights": [
                        0.7349292307744626,
                        -0.08524586268572776,
                        0.028234281206027223
                    ],
                    "bias": -0.12171667247631336
                },
                {
                    "weights": [
                        0.8225002350400048,
                        0.25245360035392794,
                        -0.04129095037557562
                    ],
                    "bias": -0.01074302911232014
                },
                {
                    "weights": [
                        0.5195586159394454,
                        -0.4862542184968437,
                        0.9211653384061428
                    ],
                    "bias": -0.07423060893966682
                }
            ]
        }
    },
    {
        "inputLayer": {
            "neurons": [
                {
                    "weights": [
                        -0.5577632830422752,
                        -0.5992306148398912,
                        0.6623851946727002
                    ],
                    "bias": 0.40342153467277514
                },
                {
                    "weights": [
                        0.14942220216557467,
                        0.9880032626459024,
                        -0.4103865267865878
                    ],
                    "bias": -0.3933071208177405
                },
                {
                    "weights": [
                        -0.1711554734101708,
                        0.13032917875449423,
                        -0.7120917156448252
                    ],
                    "bias": 0.24714824059552282
                }
            ]
        },
        "layers": [
            {
                "neurons": [
                    {
                        "weights": [
                            -0.7395726833866747,
                            0.4062573362012422,
                            -0.724299738067248
                        ],
                        "bias": -0.0038733976153091515
                    },
                    {
                        "weights": [
                            -0.20663283778679964,
                            0.8738428980989348,
                            -0.056803000225224
                        ],
                        "bias": -0.34103868822165245
                    },
                    {
                        "weights": [
                            0.2762893097290835,
                            -0.08749429221129024,
                            -0.9512722923634496
                        ],
                        "bias": 0.5349631275878634
                    }
                ]
            }
        ],
        "outputLayer": {
            "neurons": [
                {
                    "weights": [
                        0.7349292307744626,
                        -0.08524586268572776,
                        0.028234281206027223
                    ],
                    "bias": -0.17430462322875298
                },
                {
                    "weights": [
                        0.8225002350400048,
                        0.25245360035392794,
                        -0.04129095037557562
                    ],
                    "bias": -0.08018038591758417
                },
                {
                    "weights": [
                        0.5195586159394454,
                        -0.4862542184968437,
                        0.9211653384061428
                    ],
                    "bias": -0.2699038511910703
                }
            ]
        }
    },
    {
        "inputLayer": {
            "neurons": [
                {
                    "weights": [
                        -0.5577632830422752,
                        -0.5992306148398912,
                        0.6623851946727002
                    ],
                    "bias": 0.3877921060734413
                },
                {
                    "weights": [
                        0.14942220216557467,
                        0.9880032626459024,
                        -0.4103865267865878
                    ],
                    "bias": -0.38975329665761255
                },
                {
                    "weights": [
                        -0.1711554734101708,
                        0.13032917875449423,
                        -0.7120917156448252
                    ],
                    "bias": 0.22809836294686264
                }
            ]
        },
        "layers": [
            {
                "neurons": [
                    {
                        "weights": [
                            -0.7395726833866747,
                            0.4062573362012422,
                            -0.724299738067248
                        ],
                        "bias": -0.013833308730923366
                    },
                    {
                        "weights": [
                            -0.20663283778679964,
                            0.8738428980989348,
                            -0.056803000225224
                        ],
                        "bias": -0.34103868822165245
                    },
                    {
                        "weights": [
                            0.2762893097290835,
                            -0.08749429221129024,
                            -0.9512722923634496
                        ],
                        "bias": 0.4296136195961359
                    }
                ]
            }
        ],
        "outputLayer": {
            "neurons": [
                {
                    "weights": [
                        0.7349292307744626,
                        -0.08524586268572776,
                        0.028234281206027223
                    ],
                    "bias": -0.1687006388574757
                },
                {
                    "weights": [
                        0.8225002350400048,
                        0.25245360035392794,
                        -0.04129095037557562
                    ],
                    "bias": -0.050438560061223145
                },
                {
                    "weights": [
                        0.5195586159394454,
                        -0.4862542184968437,
                        0.9211653384061428
                    ],
                    "bias": -0.024189067871838325
                }
            ]
        }
    },
    {
        "inputLayer": {
            "neurons": [
                {
                    "weights": [
                        -0.5577632830422752,
                        -0.5992306148398912,
                        0.6623851946727002
                    ],
                    "bias": 0.25865951982305135
                },
                {
                    "weights": [
                        0.14942220216557467,
                        0.9880032626459024,
                        -0.4103865267865878
                    ],
                    "bias": -0.41165081253654434
                },
                {
                    "weights": [
                        -0.1711554734101708,
                        0.13032917875449423,
                        -0.7120917156448252
                    ],
                    "bias": 0.35211618352923946
                }
            ]
        },
        "layers": [
            {
                "neurons": [
                    {
                        "weights": [
                            -0.7395726833866747,
                            0.4062573362012422,
                            -0.724299738067248
                        ],
                        "bias": -0.022637317942071633
                    },
                    {
                        "weights": [
                            -0.20663283778679964,
                            0.8738428980989348,
                            -0.056803000225224
                        ],
                        "bias": -0.367214283762807
                    },
                    {
                        "weights": [
                            0.2762893097290835,
                            -0.08749429221129024,
                            -0.9512722923634496
                        ],
                        "bias": 0.6379282212564553
                    }
                ]
            }
        ],
        "outputLayer": {
            "neurons": [
                {
                    "weights": [
                        0.7349292307744626,
                        -0.08524586268572776,
                        0.028234281206027223
                    ],
                    "bias": -0.3628710234813363
                },
                {
                    "weights": [
                        0.8225002350400048,
                        0.25245360035392794,
                        -0.04129095037557562
                    ],
                    "bias": -0.11422026231070966
                },
                {
                    "weights": [
                        0.5195586159394454,
                        -0.4862542184968437,
                        0.9211653384061428
                    ],
                    "bias": -0.07663115028606728
                }
            ]
        }
    },
    {
        "inputLayer": {
            "neurons": [
                {
                    "weights": [
                        -0.5577632830422752,
                        -0.5992306148398912,
                        0.6623851946727002
                    ],
                    "bias": 0.4554300897571312
                },
                {
                    "weights": [
                        0.14942220216557467,
                        0.9880032626459024,
                        -0.4103865267865878
                    ],
                    "bias": -0.1746232323679518
                },
                {
                    "weights": [
                        -0.1711554734101708,
                        0.13032917875449423,
                        -0.7120917156448252
                    ],
                    "bias": 0.4741223509143673
                }
            ]
        },
        "layers": [
            {
                "neurons": [
                    {
                        "weights": [
                            -0.7395726833866747,
                            0.4062573362012422,
                            -0.724299738067248
                        ],
                        "bias": 0.06467999396865869
                    },
                    {
                        "weights": [
                            -0.20663283778679964,
                            0.8738428980989348,
                            -0.056803000225224
                        ],
                        "bias": -0.20606963781597976
                    },
                    {
                        "weights": [
                            0.2762893097290835,
                            -0.08749429221129024,
                            -0.9512722923634496
                        ],
                        "bias": 0.498331574589461
                    }
                ]
            }
        ],
        "outputLayer": {
            "neurons": [
                {
                    "weights": [
                        0.7349292307744626,
                        -0.08524586268572776,
                        0.028234281206027223
                    ],
                    "bias": -0.6028349105462734
                },
                {
                    "weights": [
                        0.8225002350400048,
                        0.25245360035392794,
                        -0.04129095037557562
                    ],
                    "bias": -0.1687055541024195
                },
                {
                    "weights": [
                        0.5195586159394454,
                        -0.4862542184968437,
                        0.9211653384061428
                    ],
                    "bias": -0.416221284194468
                }
            ]
        }
    },
    {
        "inputLayer": {
            "neurons": [
                {
                    "weights": [
                        -0.5577632830422752,
                        -0.5992306148398912,
                        0.6623851946727002
                    ],
                    "bias": 0.08620261288588882
                },
                {
                    "weights": [
                        0.14942220216557467,
                        0.9880032626459024,
                        -0.4103865267865878
                    ],
                    "bias": -0.21538811200292549
                },
                {
                    "weights": [
                        -0.1711554734101708,
                        0.13032917875449423,
                        -0.7120917156448252
                    ],
                    "bias": 0.4985588456836541
                }
            ]
        },
        "layers": [
            {
                "neurons": [
                    {
                        "weights": [
                            -0.7395726833866747,
                            0.4062573362012422,
                            -0.724299738067248
                        ],
                        "bias": -0.0770176682857672
                    },
                    {
                        "weights": [
                            -0.20663283778679964,
                            0.8738428980989348,
                            -0.056803000225224
                        ],
                        "bias": -0.5338902664409938
                    },
                    {
                        "weights": [
                            0.2762893097290835,
                            -0.08749429221129024,
                            -0.9512722923634496
                        ],
                        "bias": 0.5693648599377908
                    }
                ]
            }
        ],
        "outputLayer": {
            "neurons": [
                {
                    "weights": [
                        0.7349292307744626,
                        -0.08524586268572776,
                        0.028234281206027223
                    ],
                    "bias": -0.5941343970997108
                },
                {
                    "weights": [
                        0.8225002350400048,
                        0.25245360035392794,
                        -0.04129095037557562
                    ],
                    "bias": -0.16659266191079186
                },
                {
                    "weights": [
                        0.5195586159394454,
                        -0.4862542184968437,
                        0.9211653384061428
                    ],
                    "bias": -0.12309575231347704
                }
            ]
        }
    },
    {
        "inputLayer": {
            "neurons": [
                {
                    "weights": [
                        -0.5577632830422752,
                        -0.5992306148398912,
                        0.6623851946727002
                    ],
                    "bias": 0.3528520846831463
                },
                {
                    "weights": [
                        0.14942220216557467,
                        0.9880032626459024,
                        -0.4103865267865878
                    ],
                    "bias": -0.49873017729202307
                },
                {
                    "weights": [
                        -0.1711554734101708,
                        0.13032917875449423,
                        -0.7120917156448252
                    ],
                    "bias": 0.3408046278926209
                }
            ]
        },
        "layers": [
            {
                "neurons": [
                    {
                        "weights": [
                            -0.7395726833866747,
                            0.4062573362012422,
                            -0.724299738067248
                        ],
                        "bias": -0.08693836097862115
                    },
                    {
                        "weights": [
                            -0.20663283778679964,
                            0.8738428980989348,
                            -0.056803000225224
                        ],
                        "bias": -0.38910440246262923
                    },
                    {
                        "weights": [
                            0.2762893097290835,
                            -0.08749429221129024,
                            -0.9512722923634496
                        ],
                        "bias": 0.5469685838996029
                    }
                ]
            }
        ],
        "outputLayer": {
            "neurons": [
                {
                    "weights": [
                        0.7349292307744626,
                        -0.08524586268572776,
                        0.028234281206027223
                    ],
                    "bias": -0.17243183499498718
                },
                {
                    "weights": [
                        0.8225002350400048,
                        0.25245360035392794,
                        -0.04129095037557562
                    ],
                    "bias": -0.07218577023125886
                },
                {
                    "weights": [
                        0.5195586159394454,
                        -0.4862542184968437,
                        0.9211653384061428
                    ],
                    "bias": -0.18027252884846454
                }
            ]
        }
    }
]