[
    {
        "inputLayer": {
            "neurons": [
                {
                    "weights": [
                        -0.872042177772085,
                        -0.5080192239671912,
                        -0.9461583714090296,
                        0.4617570666876889,
                        -0.9925141958100456
                    ],
                    "bias": 0.4325583365463735
                },
                {
                    "weights": [
                        0.7243176252597401,
                        0.8989090061527034,
                        0.8405358234293991,
                        0.1040893996073402,
                        -0.7708333771987685
                    ],
                    "bias": -0.5562453276135256
                },
                {
                    "weights": [
                        0.6276578274987548,
                        0.7036453446485009,
                        0.47059338398130923,
                        0.3127779496290264,
                        0.3272284845294524
                    ],
                    "bias": -0.6604615390990938
                }
            ]
        },
        "layers": [
            {
                "neurons": [
                    {
                        "weights": [
                            -0.20928062543811787,
                            -0.5705437803655782,
                            -0.07134601002265684
                        ],
                        "bias": 0.6242646312638199
                    },
                    {
                        "weights": [
                            0.5493138608921668,
                            -0.8205871108506297,
                            0.1939237792211661
                        ],
                        "bias": 1.2918770951291882
                    },
                    {
                        "weights": [
                            -0.8949871081619418,
                            -0.12410280966367626,
                            0.8638676591194832
                        ],
                        "bias": -0.451690452020977
                    }
                ]
            },
            {
                "neurons": [
                    {
                        "weights": [
                            -0.1680452560387926,
                            -0.7062044522742368,
                            0.8157526622994045
                        ],
                        "bias": 0.10174319343722742
                    },
                    {
                        "weights": [
                            0.9999020304562125,
                            -0.7611241629593695,
                            0.940974735764448
                        ],
                        "bias": -0.5606230483536206
                    },
                    {
                        "weights": [
                            -0.550570691637174,
                            0.3241239677855705,
                            -0.9693542541118374
                        ],
                        "bias": 1.7010121988781939
                    }
                ]
            },
            {
                "neurons": [
                    {
                        "weights": [
                            0.6092851513744475,
                            -0.9667787231407821,
                            -0.9814880379584101
                        ],
                        "bias": 0.4293639720216427
                    },
                    {
                        "weights": [
                            0.5014719567423747,
                            0.8523316930649134,
                            0.07877150851786374
                        ],
                        "bias": -1.1120541340591528
                    },
                    {
                        "weights": [
                            -0.3512358897973764,
                            -0.15224075166494955,
                            0.057640963150495494
                        ],
                        "bias": -0.54059261061618
                    }
                ]
            }
        ],
        "outputLayer": {
            "neurons": [
                {
                    "weights": [
                        -0.2576501246555236,
                        -0.41630774653431724,
                        0.9814174647797234
                    ],
                    "bias": 0.9214048675878131
                },
                {
                    "weights": [
                        0.32026315189269927,
                        -0.5426636302970729,
                        0.8516396279058294
                    ],
                    "bias": -0.08445978942264709
                },
                {
                    "weights": [
                        -0.7730925792415664,
                        0.09994359506593042,
                        -0.9665177859976217
                    ],
                    "bias": -0.6460208694541784
                },
                {
                    "weights": [
                        0.6486015943299503,
                        0.20338412811097473,
                        -0.2683369920919787
                    ],
                    "bias": 1.2309708288078942
                },
                {
                    "weights": [
                        0.6330880414871842,
                        0.7531728834577838,
                        0.9758674628387556
                    ],
                    "bias": -0.4349819957829344
                }
            ]
        }
    },
    {
        "inputLayer": {
            "neurons": [
                {
                    "weights": [
                        0.7881457406733399,
                        -0.5338920985685376,
                        0.9581320639004529,
                        0.7762775740704739,
                        -0.22479379665682253
                    ],
                    "bias": 0.7737751554365955
                },
                {
                    "weights": [
                        0.6746545364280765,
                        -0.7059248703355723,
                        -0.13795218089682848,
                        -0.5791164653621359,
                        0.9058994431860776
                    ],
                    "bias": 0.10842992134593743
                },
                {
                    "weights": [
                        -0.2377645094759948,
                        0.7743762256709934,
                        0.321561138751449,
                        0.05477280654586125,
                        -0.22579758130032168
                    ],
                    "bias": 0.6215162367106271
                }
            ]
        },
        "layers": [
            {
                "neurons": [
                    {
                        "weights": [
                            -0.7619040654644618,
                            -0.9496655777276644,
                            0.9225950074584981
                        ],
                        "bias": 0.5501001201993079
                    },
                    {
                        "weights": [
                            0.0874006251461048,
                            -0.789840900950066,
                            -0.76424203823049
                        ],
                        "bias": 0.4341283514775238
                    },
                    {
                        "weights": [
                            0.617213956955663,
                            0.12204298960108018,
                            -0.7963880649182902
                        ],
                        "bias": -0.6963796298145233
                    }
                ]
            },
            {
                "neurons": [
                    {
                        "weights": [
                            0.21615929368488862,
                            0.06229098857162563,
                            0.8788158709038911
                        ],
                        "bias": -0.4071541144986237
                    },
                    {
                        "weights": [
                            0.3842878319760503,
                            0.9056925756924175,
                            0.38207219748597776
                        ],
                        "bias": 0.47585768571643583
                    },
                    {
                        "weights": [
                            -0.7943510472237858,
                            0.6171346378467601,
                            0.7617064023616384
                        ],
                        "bias": 0.14933033296037568
                    }
                ]
            },
            {
                "neurons": [
                    {
                        "weights": [
                            -0.511959328867611,
                            -0.7784216280153446,
                            0.3696314221768937
                        ],
                        "bias": -0.6294088354979535
                    },
                    {
                        "weights": [
                            -0.0748189509259094,
                            0.3047451036696849,
                            0.6322649865214509
                        ],
                        "bias": -0.42121697114843415
                    },
                    {
                        "weights": [
                            0.432648059479007,
                            -0.5810342787065288,
                            -0.2327113440572448
                        ],
                        "bias": -0.7888315812732007
                    }
                ]
            }
        ],
        "outputLayer": {
            "neurons": [
                {
                    "weights": [
                        0.08417582158341119,
                        -0.00041320739317129984,
                        -0.8529689536457647
                    ],
                    "bias": -0.8377420275251433
                },
                {
                    "weights": [
                        -0.20494518731911904,
                        0.10609508676198298,
                        0.22754298657141958
                    ],
                    "bias": 0.7786468402813613
                },
                {
                    "weights": [
                        0.6719299527361475,
                        -0.15270696920544613,
                        -0.9281111478114832
                    ],
                    "bias": -0.5767614482028762
                },
                {
                    "weights": [
                        0.24278283955398638,
                        -0.5623948035859694,
                        0.9266713425078204
                    ],
                    "bias": 0.24105596133959972
                },
                {
                    "weights": [
                        -0.19571103558614955,
                        0.4043403108960657,
                        0.11231550139081792
                    ],
                    "bias": 0.966915180316843
                }
            ]
        }
    },
    {
        "inputLayer": {
            "neurons": [
                {
                    "weights": [
                        -0.872042177772085,
                        -0.5080192239671912,
                        -0.9461583714090296,
                        0.4617570666876889,
                        -0.9925141958100456
                    ],
                    "bias": 0.478373813592935
                },
                {
                    "weights": [
                        0.7243176252597401,
                        0.8989090061527034,
                        0.8405358234293991,
                        0.1040893996073402,
                        -0.7708333771987685
                    ],
                    "bias": -0.5562453276135256
                },
                {
                    "weights": [
                        0.6276578274987548,
                        0.7036453446485009,
                        0.47059338398130923,
                        0.3127779496290264,
                        0.3272284845294524
                    ],
                    "bias": -0.6604615390990938
                }
            ]
        },
        "layers": [
            {
                "neurons": [
                    {
                        "weights": [
                            -0.20928062543811787,
                            -0.5705437803655782,
                            -0.07134601002265684
                        ],
                        "bias": 0.6242646312638199
                    },
                    {
                        "weights": [
                            0.5493138608921668,
                            -0.8205871108506297,
                            0.1939237792211661
                        ],
                        "bias": 1.23327935984193
                    },
                    {
                        "weights": [
                            -0.8949871081619418,
                            -0.12410280966367626,
                            0.8638676591194832
                        ],
                        "bias": -0.42280013470169914
                    }
                ]
            },
            {
                "neurons": [
                    {
                        "weights": [
                            -0.1680452560387926,
                            -0.7062044522742368,
                            0.8157526622994045
                        ],
                        "bias": 0.10174319343722742
                    },
                    {
                        "weights": [
                            0.9999020304562125,
                            -0.7611241629593695,
                            0.940974735764448
                        ],
                        "bias": -0.640182325740434
                    },
                    {
                        "weights": [
                            -0.550570691637174,
                            0.3241239677855705,
                            -0.9693542541118374
                        ],
                        "bias": 1.7505707210740915
                    }
                ]
            },
            {
                "neurons": [
                    {
                        "weights": [
                            0.6092851513744475,
                            -0.9667787231407821,
                            -0.9814880379584101
                        ],
                        "bias": 0.4293639720216427
                    },
                    {
                        "weights": [
                            0.5014719567423747,
                            0.8523316930649134,
                            0.07877150851786374
                        ],
                        "bias": -1.1513631359060668
                    },
                    {
                        "weights": [
                            -0.3512358897973764,
                            -0.15224075166494955,
                            0.057640963150495494
                        ],
                        "bias": -0.6032741724434639
                    }
                ]
            }
        ],
        "outputLayer": {
            "neurons": [
                {
                    "weights": [
                        -0.2576501246555236,
                        -0.41630774653431724,
                        0.9814174647797234
                    ],
                    "bias": 1.0035151855046847
                },
                {
                    "weights": [
                        0.32026315189269927,
                        -0.5426636302970729,
                        0.8516396279058294
                    ],
                    "bias": -0.08445978942264709
                },
                {
                    "weights": [
                        -0.7730925792415664,
                        0.09994359506593042,
                        -0.9665177859976217
                    ],
                    "bias": -0.6460208694541784
                },
                {
                    "weights": [
                        0.6486015943299503,
                        0.20338412811097473,
                        -0.2683369920919787
                    ],
                    "bias": 1.2959971850865168
                },
                {
                    "weights": [
                        0.6330880414871842,
                        0.7531728834577838,
                        0.9758674628387556
                    ],
                    "bias": -0.4349819957829344
                }
            ]
        }
    },
    {
        "inputLayer": {
            "neurons": [
                {
                    "weights": [
                        -0.872042177772085,
                        -0.5080192239671912,
                        -0.9461583714090296,
                        0.4617570666876889,
                        -0.9925141958100456
                    ],
                    "bias": -0.49346528833727715
                },
                {
                    "weights": [
                        0.7243176252597401,
                        0.8989090061527034,
                        0.8405358234293991,
                        0.1040893996073402,
                        -0.7708333771987685
                    ],
                    "bias": -1.0012266723736594
                },
                {
                    "weights": [
                        0.6276578274987548,
                        0.7036453446485009,
                        0.47059338398130923,
                        0.3127779496290264,
                        0.3272284845294524
                    ],
                    "bias": -0.6076075564881214
                }
            ]
        },
        "layers": [
            {
                "neurons": [
                    {
                        "weights": [
                            -0.20928062543811787,
                            -0.5705437803655782,
                            -0.07134601002265684
                        ],
                        "bias": 0.27508629844190746
                    },
                    {
                        "weights": [
                            0.5493138608921668,
                            -0.8205871108506297,
                            0.1939237792211661
                        ],
                        "bias": 0.7708408694846116
                    },
                    {
                        "weights": [
                            -0.8949871081619418,
                            -0.12410280966367626,
                            0.8638676591194832
                        ],
                        "bias": -0.8897102374121217
                    }
                ]
            },
            {
                "neurons": [
                    {
                        "weights": [
                            -0.1680452560387926,
                            -0.7062044522742368,
                            0.8157526622994045
                        ],
                        "bias": 0.6781067638860668
                    },
                    {
                        "weights": [
                            0.9999020304562125,
                            -0.7611241629593695,
                            0.940974735764448
                        ],
                        "bias": -0.08509872108103333
                    },
                    {
                        "weights": [
                            -0.550570691637174,
                            0.3241239677855705,
                            -0.9693542541118374
                        ],
                        "bias": 1.022372020329938
                    }
                ]
            },
            {
                "neurons": [
                    {
                        "weights": [
                            0.6092851513744475,
                            -0.9667787231407821,
                            -0.9814880379584101
                        ],
                        "bias": 0.7369946265472496
                    },
                    {
                        "weights": [
                            0.5014719567423747,
                            0.8523316930649134,
                            0.07877150851786374
                        ],
                        "bias": -0.6970802601247115
                    },
                    {
                        "weights": [
                            -0.3512358897973764,
                            -0.15224075166494955,
                            0.057640963150495494
                        ],
                        "bias": 0.10431817869882254
                    }
                ]
            }
        ],
        "outputLayer": {
            "neurons": [
                {
                    "weights": [
                        -0.2576501246555236,
                        -0.41630774653431724,
                        0.9814174647797234
                    ],
                    "bias": 0.6463961822181344
                },
                {
                    "weights": [
                        0.32026315189269927,
                        -0.5426636302970729,
                        0.8516396279058294
                    ],
                    "bias": -0.2873987767010109
                },
                {
                    "weights": [
                        -0.7730925792415664,
                        0.09994359506593042,
                        -0.9665177859976217
                    ],
                    "bias": -1.3060715876528572
                },
                {
                    "weights": [
                        0.6486015943299503,
                        0.20338412811097473,
                        -0.2683369920919787
                    ],
                    "bias": 0.6781625457250997
                },
                {
                    "weights": [
                        0.6330880414871842,
                        0.7531728834577838,
                        0.9758674628387556
                    ],
                    "bias": -1.1660461151916135
                }
            ]
        }
    },
    {
        "inputLayer": {
            "neurons": [
                {
                    "weights": [
                        -0.872042177772085,
                        -0.5080192239671912,
                        -0.9461583714090296,
                        0.4617570666876889,
                        -0.9925141958100456
                    ],
                    "bias": 0.4178554567168063
                },
                {
                    "weights": [
                        0.7243176252597401,
                        0.8989090061527034,
                        0.8405358234293991,
                        0.1040893996073402,
                        -0.7708333771987685
                    ],
                    "bias": -0.5246572183610457
                },
                {
                    "weights": [
                        0.6276578274987548,
                        0.7036453446485009,
                        0.47059338398130923,
                        0.3127779496290264,
                        0.3272284845294524
                    ],
                    "bias": -0.6604615390990938
                }
            ]
        },
        "layers": [
            {
                "neurons": [
                    {
                        "weights": [
                            -0.20928062543811787,
                            -0.5705437803655782,
                            -0.07134601002265684
                        ],
                        "bias": 0.6242646312638199
                    },
                    {
                        "weights": [
                            0.5493138608921668,
                            -0.8205871108506297,
                            0.1939237792211661
                        ],
                        "bias": 1.361251375583627
                    },
                    {
                        "weights": [
                            -0.8949871081619418,
                            -0.12410280966367626,
                            0.8638676591194832
                        ],
                        "bias": -0.5255862728172125
                    }
                ]
            },
            {
                "neurons": [
                    {
                        "weights": [
                            -0.1680452560387926,
                            -0.7062044522742368,
                            0.8157526622994045
                        ],
                        "bias": 0.07562178451313115
                    },
                    {
                        "weights": [
                            0.9999020304562125,
                            -0.7611241629593695,
                            0.940974735764448
                        ],
                        "bias": -0.5622410330139218
                    },
                    {
                        "weights": [
                            -0.550570691637174,
                            0.3241239677855705,
                            -0.9693542541118374
                        ],
                        "bias": 1.7010121988781939
                    }
                ]
            },
            {
                "neurons": [
                    {
                        "weights": [
                            0.6092851513744475,
                            -0.9667787231407821,
                            -0.9814880379584101
                        ],
                        "bias": 0.38507295011547416
                    },
                    {
                        "weights": [
                            0.5014719567423747,
                            0.8523316930649134,
                            0.07877150851786374
                        ],
                        "bias": -1.1120541340591528
                    },
                    {
                        "weights": [
                            -0.3512358897973764,
                            -0.15224075166494955,
                            0.057640963150495494
                        ],
                        "bias": -0.54059261061618
                    }
                ]
            }
        ],
        "outputLayer": {
            "neurons": [
                {
                    "weights": [
                        -0.2576501246555236,
                        -0.41630774653431724,
                        0.9814174647797234
                    ],
                    "bias": 0.9214048675878131
                },
                {
                    "weights": [
                        0.32026315189269927,
                        -0.5426636302970729,
                        0.8516396279058294
                    ],
                    "bias": -0.11562365549301219
                },
                {
                    "weights": [
                        -0.7730925792415664,
                        0.09994359506593042,
                        -0.9665177859976217
                    ],
                    "bias": -0.650555356682123
                },
                {
                    "weights": [
                        0.6486015943299503,
                        0.20338412811097473,
                        -0.2683369920919787
                    ],
                    "bias": 1.3116310523246995
                },
                {
                    "weights": [
                        0.6330880414871842,
                        0.7531728834577838,
                        0.9758674628387556
                    ],
                    "bias": -0.4349819957829344
                }
            ]
        }
    },
    {
        "inputLayer": {
            "neurons": [
                {
                    "weights": [
                        -0.872042177772085,
                        -0.5080192239671912,
                        -0.9461583714090296,
                        0.4617570666876889,
                        -0.9925141958100456
                    ],
                    "bias": 0.4325583365463735
                },
                {
                    "weights": [
                        0.7243176252597401,
                        0.8989090061527034,
                        0.8405358234293991,
                        0.1040893996073402,
                        -0.7708333771987685
                    ],
                    "bias": -0.4833617859653455
                },
                {
                    "weights": [
                        0.6276578274987548,
                        0.7036453446485009,
                        0.47059338398130923,
                        0.3127779496290264,
                        0.3272284845294524
                    ],
                    "bias": -0.7085570277956748
                }
            ]
        },
        "layers": [
            {
                "neurons": [
                    {
                        "weights": [
                            -0.20928062543811787,
                            -0.5705437803655782,
                            -0.07134601002265684
                        ],
                        "bias": 0.6045308772844153
                    },
                    {
                        "weights": [
                            0.5493138608921668,
                            -0.8205871108506297,
                            0.1939237792211661
                        ],
                        "bias": 1.2144217014822223
                    },
                    {
                        "weights": [
                            -0.8949871081619418,
                            -0.12410280966367626,
                            0.8638676591194832
                        ],
                        "bias": -0.451690452020977
                    }
                ]
            },
            {
                "neurons": [
                    {
                        "weights": [
                            -0.1680452560387926,
                            -0.7062044522742368,
                            0.8157526622994045
                        ],
                        "bias": 0.05711997263541619
                    },
                    {
                        "weights": [
                            0.9999020304562125,
                            -0.7611241629593695,
                            0.940974735764448
                        ],
                        "bias": -0.5606230483536206
                    },
                    {
                        "weights": [
                            -0.550570691637174,
                            0.3241239677855705,
                            -0.9693542541118374
                        ],
                        "bias": 1.7931224024038284
                    }
                ]
            },
            {
                "neurons": [
                    {
                        "weights": [
                            0.6092851513744475,
                            -0.9667787231407821,
                            -0.9814880379584101
                        ],
                        "bias": 0.4188565770929416
                    },
                    {
                        "weights": [
                            0.5014719567423747,
                            0.8523316930649134,
                            0.07877150851786374
                        ],
                        "bias": -1.0392403278314284
                    },
                    {
                        "weights": [
                            -0.3512358897973764,
                            -0.15224075166494955,
                            0.057640963150495494
                        ],
                        "bias": -0.5561156164858099
                    }
                ]
            }
        ],
        "outputLayer": {
            "neurons": [
                {
                    "weights": [
                        -0.2576501246555236,
                        -0.41630774653431724,
                        0.9814174647797234
                    ],
                    "bias": 0.9214048675878131
                },
                {
                    "weights": [
                        0.32026315189269927,
                        -0.5426636302970729,
                        0.8516396279058294
                    ],
                    "bias": -0.08445978942264709
                },
                {
                    "weights": [
                        -0.7730925792415664,
                        0.09994359506593042,
                        -0.9665177859976217
                    ],
                    "bias": -0.6460208694541784
                },
                {
                    "weights": [
                        0.6486015943299503,
                        0.20338412811097473,
                        -0.2683369920919787
                    ],
                    "bias": 1.3079184020902073
                },
                {
                    "weights": [
                        0.6330880414871842,
                        0.7531728834577838,
                        0.9758674628387556
                    ],
                    "bias": -0.3542565375037853
                }
            ]
        }
    },
    {
        "inputLayer": {
            "neurons": [
                {
                    "weights": [
                        0.7881457406733399,
                        -0.5338920985685376,
                        0.9581320639004529,
                        0.7762775740704739,
                        -0.22479379665682253
                    ],
                    "bias": 0.7737751554365955
                },
                {
                    "weights": [
                        0.6746545364280765,
                        -0.7059248703355723,
                        -0.13795218089682848,
                        -0.5791164653621359,
                        0.9058994431860776
                    ],
                    "bias": 0.1486809369199707
                },
                {
                    "weights": [
                        -0.2377645094759948,
                        0.7743762256709934,
                        0.321561138751449,
                        0.05477280654586125,
                        -0.22579758130032168
                    ],
                    "bias": 0.5705181598565401
                }
            ]
        },
        "layers": [
            {
                "neurons": [
                    {
                        "weights": [
                            -0.7619040654644618,
                            -0.9496655777276644,
                            0.9225950074584981
                        ],
                        "bias": 0.6135058080414576
                    },
                    {
                        "weights": [
                            0.0874006251461048,
                            -0.789840900950066,
                            -0.76424203823049
                        ],
                        "bias": 0.4341283514775238
                    },
                    {
                        "weights": [
                            0.617213956955663,
                            0.12204298960108018,
                            -0.7963880649182902
                        ],
                        "bias": -0.6414359387299409
                    }
                ]
            },
            {
                "neurons": [
                    {
                        "weights": [
                            0.21615929368488862,
                            0.06229098857162563,
                            0.8788158709038911
                        ],
                        "bias": -0.3931803092703496
                    },
                    {
                        "weights": [
                            0.3842878319760503,
                            0.9056925756924175,
                            0.38207219748597776
                        ],
                        "bias": 0.47585768571643583
                    },
                    {
                        "weights": [
                            -0.7943510472237858,
                            0.6171346378467601,
                            0.7617064023616384
                        ],
                        "bias": 0.19276701460832907
                    }
                ]
            },
            {
                "neurons": [
                    {
                        "weights": [
                            -0.511959328867611,
                            -0.7784216280153446,
                            0.3696314221768937
                        ],
                        "bias": -0.7218812570774411
                    },
                    {
                        "weights": [
                            -0.0748189509259094,
                            0.3047451036696849,
                            0.6322649865214509
                        ],
                        "bias": -0.3780857532102193
                    },
                    {
                        "weights": [
                            0.432648059479007,
                            -0.5810342787065288,
                            -0.2327113440572448
                        ],
                        "bias": -0.8394518565361608
                    }
                ]
            }
        ],
        "outputLayer": {
            "neurons": [
                {
                    "weights": [
                        0.08417582158341119,
                        -0.00041320739317129984,
                        -0.8529689536457647
                    ],
                    "bias": -0.7478856356365526
                },
                {
                    "weights": [
                        -0.20494518731911904,
                        0.10609508676198298,
                        0.22754298657141958
                    ],
                    "bias": 0.7786468402813613
                },
                {
                    "weights": [
                        0.6719299527361475,
                        -0.15270696920544613,
                        -0.9281111478114832
                    ],
                    "bias": -0.5512591870213354
                },
                {
                    "weights": [
                        0.24278283955398638,
                        -0.5623948035859694,
                        0.9266713425078204
                    ],
                    "bias": 0.1525298470729239
                },
                {
                    "weights": [
                        -0.19571103558614955,
                        0.4043403108960657,
                        0.11231550139081792
                    ],
                    "bias": 0.9116703745484778
                }
            ]
        }
    },
    {
        "inputLayer": {
            "neurons": [
                {
                    "weights": [
                        -0.872042177772085,
                        -0.5080192239671912,
                        -0.9461583714090296,
                        0.4617570666876889,
                        -0.9925141958100456
                    ],
                    "bias": 0.5272140617386434
                },
                {
                    "weights": [
                        0.7243176252597401,
                        0.8989090061527034,
                        0.8405358234293991,
                        0.1040893996073402,
                        -0.7708333771987685
                    ],
                    "bias": -0.5562453276135256
                },
                {
                    "weights": [
                        0.6276578274987548,
                        0.7036453446485009,
                        0.47059338398130923,
                        0.3127779496290264,
                        0.3272284845294524
                    ],
                    "bias": -0.6483697031332382
                }
            ]
        },
        "layers": [
            {
                "neurons": [
                    {
                        "weights": [
                            -0.20928062543811787,
                            -0.5705437803655782,
                            -0.07134601002265684
                        ],
                        "bias": 0.6242646312638199
                    },
                    {
                        "weights": [
                            0.5493138608921668,
                            -0.8205871108506297,
                            0.1939237792211661
                        ],
                        "bias": 1.2549606802462316
                    },
                    {
                        "weights": [
                            -0.8949871081619418,
                            -0.12410280966367626,
                            0.8638676591194832
                        ],
                        "bias": -0.460110322291721
                    }
                ]
            },
            {
                "neurons": [
                    {
                        "weights": [
                            -0.1680452560387926,
                            -0.7062044522742368,
                            0.8157526622994045
                        ],
                        "bias": 0.10174319343722742
                    },
                    {
                        "weights": [
                            0.9999020304562125,
                            -0.7611241629593695,
                            0.940974735764448
                        ],
                        "bias": -0.640182325740434
                    },
                    {
                        "weights": [
                            -0.550570691637174,
                            0.3241239677855705,
                            -0.9693542541118374
                        ],
                        "bias": 1.7844831545812772
                    }
                ]
            },
            {
                "neurons": [
                    {
                        "weights": [
                            0.6092851513744475,
                            -0.9667787231407821,
                            -0.9814880379584101
                        ],
                        "bias": 0.3445867377988434
                    },
                    {
                        "weights": [
                            0.5014719567423747,
                            0.8523316930649134,
                            0.07877150851786374
                        ],
                        "bias": -1.1513631359060668
                    },
                    {
                        "weights": [
                            -0.3512358897973764,
                            -0.15224075166494955,
                            0.057640963150495494
                        ],
                        "bias": -0.6032741724434639
                    }
                ]
            }
        ],
        "outputLayer": {
            "neurons": [
                {
                    "weights": [
                        -0.2576501246555236,
                        -0.41630774653431724,
                        0.9814174647797234
                    ],
                    "bias": 1.0035151855046847
                },
                {
                    "weights": [
                        0.32026315189269927,
                        -0.5426636302970729,
                        0.8516396279058294
                    ],
                    "bias": -0.0362562193584732
                },
                {
                    "weights": [
                        -0.7730925792415664,
                        0.09994359506593042,
                        -0.9665177859976217
                    ],
                    "bias": -0.6915096828580485
                },
                {
                    "weights": [
                        0.6486015943299503,
                        0.20338412811097473,
                        -0.2683369920919787
                    ],
                    "bias": 1.2959971850865168
                },
                {
                    "weights": [
                        0.6330880414871842,
                        0.7531728834577838,
                        0.9758674628387556
                    ],
                    "bias": -0.3661400522410041
                }
            ]
        }
    },
    {
        "inputLayer": {
            "neurons": [
                {
                    "weights": [
                        -0.872042177772085,
                        -0.5080192239671912,
                        -0.9461583714090296,
                        0.4617570666876889,
                        -0.9925141958100456
                    ],
                    "bias": -0.49346528833727715
                },
                {
                    "weights": [
                        0.7243176252597401,
                        0.8989090061527034,
                        0.8405358234293991,
                        0.1040893996073402,
                        -0.7708333771987685
                    ],
                    "bias": -1.0170356707710915
                },
                {
                    "weights": [
                        0.6276578274987548,
                        0.7036453446485009,
                        0.47059338398130923,
                        0.3127779496290264,
                        0.3272284845294524
                    ],
                    "bias": -0.6076075564881214
                }
            ]
        },
        "layers": [
            {
                "neurons": [
                    {
                        "weights": [
                            -0.20928062543811787,
                            -0.5705437803655782,
                            -0.07134601002265684
                        ],
                        "bias": 0.27508629844190746
                    },
                    {
                        "weights": [
                            0.5493138608921668,
                            -0.8205871108506297,
                            0.1939237792211661
                        ],
                        "bias": 0.7708408694846116
                    },
                    {
                        "weights": [
                            -0.8949871081619418,
                            -0.12410280966367626,
                            0.8638676591194832
                        ],
                        "bias": -0.8897102374121217
                    }
                ]
            },
            {
                "neurons": [
                    {
                        "weights": [
                            -0.1680452560387926,
                            -0.7062044522742368,
                            0.8157526622994045
                        ],
                        "bias": 0.7681599748504546
                    },
                    {
                        "weights": [
                            0.9999020304562125,
                            -0.7611241629593695,
                            0.940974735764448
                        ],
                        "bias": -0.08509872108103333
                    },
                    {
                        "weights": [
                            -0.550570691637174,
                            0.3241239677855705,
                            -0.9693542541118374
                        ],
                        "bias": 1.022372020329938
                    }
                ]
            },
            {
                "neurons": [
                    {
                        "weights": [
                            0.6092851513744475,
                            -0.9667787231407821,
                            -0.9814880379584101
                        ],
                        "bias": 0.7369946265472496
                    },
                    {
                        "weights": [
                            0.5014719567423747,
                            0.8523316930649134,
                            0.07877150851786374
                        ],
                        "bias": -0.722515379669497
                    },
                    {
                        "weights": [
                            -0.3512358897973764,
                            -0.15224075166494955,
                            0.057640963150495494
                        ],
                        "bias": 0.10431817869882254
                    }
                ]
            }
        ],
        "outputLayer": {
            "neurons": [
                {
                    "weights": [
                        -0.2576501246555236,
                        -0.41630774653431724,
                        0.9814174647797234
                    ],
                    "bias": 0.6463961822181344
                },
                {
                    "weights": [
                        0.32026315189269927,
                        -0.5426636302970729,
                        0.8516396279058294
                    ],
                    "bias": -0.2873987767010109
                },
                {
                    "weights": [
                        -0.7730925792415664,
                        0.09994359506593042,
                        -0.9665177859976217
                    ],
                    "bias": -1.2184260468216146
                },
                {
                    "weights": [
                        0.6486015943299503,
                        0.20338412811097473,
                        -0.2683369920919787
                    ],
                    "bias": 0.77381868634575
                },
                {
                    "weights": [
                        0.6330880414871842,
                        0.7531728834577838,
                        0.9758674628387556
                    ],
                    "bias": -1.2127305985603716
                }
            ]
        }
    },
    {
        "inputLayer": {
            "neurons": [
                {
                    "weights": [
                        -0.872042177772085,
                        -0.5080192239671912,
                        -0.9461583714090296,
                        0.4617570666876889,
                        -0.9925141958100456
                    ],
                    "bias": 0.4178554567168063
                },
                {
                    "weights": [
                        0.7243176252597401,
                        0.8989090061527034,
                        0.8405358234293991,
                        0.1040893996073402,
                        -0.7708333771987685
                    ],
                    "bias": -0.5246572183610457
                },
                {
                    "weights": [
                        0.6276578274987548,
                        0.7036453446485009,
                        0.47059338398130923,
                        0.3127779496290264,
                        0.3272284845294524
                    ],
                    "bias": -0.5786715430680904
                }
            ]
        },
        "layers": [
            {
                "neurons": [
                    {
                        "weights": [
                            -0.20928062543811787,
                            -0.5705437803655782,
                            -0.07134601002265684
                        ],
                        "bias": 0.6242646312638199
                    },
                    {
                        "weights": [
                            0.5493138608921668,
                            -0.8205871108506297,
                            0.1939237792211661
                        ],
                        "bias": 1.3404236186229654
                    },
                    {
                        "weights": [
                            -0.8949871081619418,
                            -0.12410280966367626,
                            0.8638676591194832
                        ],
                        "bias": -0.5255862728172125
                    }
                ]
            },
            {
                "neurons": [
                    {
                        "weights": [
                            -0.1680452560387926,
                            -0.7062044522742368,
                            0.8157526622994045
                        ],
                        "bias": 0.07562178451313115
                    },
                    {
                        "weights": [
                            0.9999020304562125,
                            -0.7611241629593695,
                            0.940974735764448
                        ],
                        "bias": -0.47870590035062305
                    },
                    {
                        "weights": [
                            -0.550570691637174,
                            0.3241239677855705,
                            -0.9693542541118374
                        ],
                        "bias": 1.7623153149934434
                    }
                ]
            },
            {
                "neurons": [
                    {
                        "weights": [
                            0.6092851513744475,
                            -0.9667787231407821,
                            -0.9814880379584101
                        ],
                        "bias": 0.38507295011547416
                    },
                    {
                        "weights": [
                            0.5014719567423747,
                            0.8523316930649134,
                            0.07877150851786374
                        ],
                        "bias": -1.1120541340591528
                    },
                    {
                        "weights": [
                            -0.3512358897973764,
                            -0.15224075166494955,
                            0.057640963150495494
                        ],
                        "bias": -0.6029697822917361
                    }
                ]
            }
        ],
        "outputLayer": {
            "neurons": [
                {
                    "weights": [
                        -0.2576501246555236,
                        -0.41630774653431724,
                        0.9814174647797234
                    ],
                    "bias": 0.9833194984454293
                },
                {
                    "weights": [
                        0.32026315189269927,
                        -0.5426636302970729,
                        0.8516396279058294
                    ],
                    "bias": -0.11562365549301219
                },
                {
                    "weights": [
                        -0.7730925792415664,
                        0.09994359506593042,
                        -0.9665177859976217
                    ],
                    "bias": -0.650555356682123
                },
                {
                    "weights": [
                        0.6486015943299503,
                        0.20338412811097473,
                        -0.2683369920919787
                    ],
                    "bias": 1.3444737217769869
                },
                {
                    "weights": [
                        0.6330880414871842,
                        0.7531728834577838,
                        0.9758674628387556
                    ],
                    "bias": -0.4349819957829344
                }
            ]
        }
    },
    {
        "inputLayer": {
            "neurons": [
                {
                    "weights": [
                        -0.872042177772085,
                        -0.5080192239671912,
                        -0.9461583714090296,
                        0.4617570666876889,
                        -0.9925141958100456
                    ],
                    "bias": 0.4126033275171524
                },
                {
                    "weights": [
                        0.7243176252597401,
                        0.8989090061527034,
                        0.8405358234293991,
                        0.1040893996073402,
                        -0.7708333771987685
                    ],
                    "bias": -0.5965943394054257
                },
                {
                    "weights": [
                        0.6276578274987548,
                        0.7036453446485009,
                        0.47059338398130923,
                        0.3127779496290264,
                        0.3272284845294524
                    ],
                    "bias": -1.053061028832252
                }
            ]
        },
        "layers": [
            {
                "neurons": [
                    {
                        "weights": [
                            -0.20928062543811787,
                            -0.5705437803655782,
                            -0.07134601002265684
                        ],
                        "bias": 0.46622780246581275
                    },
                    {
                        "weights": [
                            0.5493138608921668,
                            -0.8205871108506297,
                            0.1939237792211661
                        ],
                        "bias": 0.7550190045459932
                    },
                    {
                        "weights": [
                            -0.8949871081619418,
                            -0.12410280966367626,
                            0.8638676591194832
                        ],
                        "bias": -0.3197376481271188
                    }
                ]
            },
            {
                "neurons": [
                    {
                        "weights": [
                            -0.1680452560387926,
                            -0.7062044522742368,
                            0.8157526622994045
                        ],
                        "bias": 0.8598627733834622
                    },
                    {
                        "weights": [
                            0.9999020304562125,
                            -0.7611241629593695,
                            0.940974735764448
                        ],
                        "bias": -1.228583515839012
                    },
                    {
                        "weights": [
                            -0.550570691637174,
                            0.3241239677855705,
                            -0.9693542541118374
                        ],
                        "bias": 0.7332639087079185
                    }
                ]
            },
            {
                "neurons": [
                    {
                        "weights": [
                            0.6092851513744475,
                            -0.9667787231407821,
                            -0.9814880379584101
                        ],
                        "bias": -0.05118851369519767
                    },
                    {
                        "weights": [
                            0.5014719567423747,
                            0.8523316930649134,
                            0.07877150851786374
                        ],
                        "bias": -1.527523151672628
                    },
                    {
                        "weights": [
                            -0.3512358897973764,
                            -0.15224075166494955,
                            0.057640963150495494
                        ],
                        "bias": 0.3307170197950675
                    }
                ]
            }
        ],
        "outputLayer": {
            "neurons": [
                {
                    "weights": [
                        -0.2576501246555236,
                        -0.41630774653431724,
                        0.9814174647797234
                    ],
                    "bias": 1.602010835068533
                },
                {
                    "weights": [
                        0.32026315189269927,
                        -0.5426636302970729,
                        0.8516396279058294
                    ],
                    "bias": 0.20177415123311881
                },
                {
                    "weights": [
                        -0.7730925792415664,
                        0.09994359506593042,
                        -0.9665177859976217
                    ],
                    "bias": -1.5521975132555643
                },
                {
                    "weights": [
                        0.6486015943299503,
                        0.20338412811097473,
                        -0.2683369920919787
                    ],
                    "bias": 0.9507392735043816
                },
                {
                    "weights": [
                        0.6330880414871842,
                        0.7531728834577838,
                        0.9758674628387556
                    ],
                    "bias": -1.4040309053474136
                }
            ]
        }
    },
    {
        "inputLayer": {
            "neurons": [
                {
                    "weights": [
                        -0.872042177772085,
                        -0.5080192239671912,
                        -0.9461583714090296,
                        0.4617570666876889,
                        -0.9925141958100456
                    ],
                    "bias": 0.3129949899233247
                },
                {
                    "weights": [
                        0.7243176252597401,
                        0.8989090061527034,
                        0.8405358234293991,
                        0.1040893996073402,
                        -0.7708333771987685
                    ],
                    "bias": -0.5876162850589174
                },
                {
                    "weights": [
                        0.6276578274987548,
                        0.7036453446485009,
                        0.47059338398130923,
                        0.3127779496290264,
                        0.3272284845294524
                    ],
                    "bias": 0.15054504015424564
                }
            ]
        },
        "layers": [
            {
                "neurons": [
                    {
                        "weights": [
                            -0.20928062543811787,
                            -0.5705437803655782,
                            -0.07134601002265684
                        ],
                        "bias": 1.265533509372362
                    },
                    {
                        "weights": [
                            0.5493138608921668,
                            -0.8205871108506297,
                            0.1939237792211661
                        ],
                        "bias": 1.3108303857723922
                    },
                    {
                        "weights": [
                            -0.8949871081619418,
                            -0.12410280966367626,
                            0.8638676591194832
                        ],
                        "bias": -0.7000666422357462
                    }
                ]
            },
            {
                "neurons": [
                    {
                        "weights": [
                            -0.1680452560387926,
                            -0.7062044522742368,
                            0.8157526622994045
                        ],
                        "bias": -0.6465598009259109
                    },
                    {
                        "weights": [
                            0.9999020304562125,
                            -0.7611241629593695,
                            0.940974735764448
                        ],
                        "bias": -0.3790312982342986
                    },
                    {
                        "weights": [
                            -0.550570691637174,
                            0.3241239677855705,
                            -0.9693542541118374
                        ],
                        "bias": 1.7999681226992135
                    }
                ]
            },
            {
                "neurons": [
                    {
                        "weights": [
                            0.6092851513744475,
                            -0.9667787231407821,
                            -0.9814880379584101
                        ],
                        "bias": -0.3127606711505921
                    },
                    {
                        "weights": [
                            0.5014719567423747,
                            0.8523316930649134,
                            0.07877150851786374
                        ],
                        "bias": -1.780620490222645
                    },
                    {
                        "weights": [
                            -0.3512358897973764,
                            -0.15224075166494955,
                            0.057640963150495494
                        ],
                        "bias": -1.070438706273971
                    }
                ]
            }
        ],
        "outputLayer": {
            "neurons": [
                {
                    "weights": [
                        -0.2576501246555236,
                        -0.41630774653431724,
                        0.9814174647797234
                    ],
                    "bias": 0.28831968767729876
                },
                {
                    "weights": [
                        0.32026315189269927,
                        -0.5426636302970729,
                        0.8516396279058294
                    ],
                    "bias": -0.4506925983922099
                },
                {
                    "weights": [
                        -0.7730925792415664,
                        0.09994359506593042,
                        -0.9665177859976217
                    ],
                    "bias": -0.888118616457965
                },
                {
                    "weights": [
                        0.6486015943299503,
                        0.20338412811097473,
                        -0.2683369920919787
                    ],
                    "bias": 1.2506279450269153
                },
                {
                    "weights": [
                        0.6330880414871842,
                        0.7531728834577838,
                        0.9758674628387556
                    ],
                    "bias": -0.1339131515008154
                }
            ]
        }
    },
    {
        "inputLayer": {
            "neurons": [
                {
                    "weights": [
                        0.7881457406733399,
                        -0.5338920985685376,
                        0.9581320639004529,
                        0.7762775740704739,
                        -0.22479379665682253
                    ],
                    "bias": 0.9979841154085891
                },
                {
                    "weights": [
                        0.6746545364280765,
                        -0.7059248703355723,
                        -0.13795218089682848,
                        -0.5791164653621359,
                        0.9058994431860776
                    ],
                    "bias": -0.11804090098775943
                },
                {
                    "weights": [
                        -0.2377645094759948,
                        0.7743762256709934,
                        0.321561138751449,
                        0.05477280654586125,
                        -0.22579758130032168
                    ],
                    "bias": 0.5961978677244584
                }
            ]
        },
        "layers": [
            {
                "neurons": [
                    {
                        "weights": [
                            -0.7619040654644618,
                            -0.9496655777276644,
                            0.9225950074584981
                        ],
                        "bias": 0.5240463518650289
                    },
                    {
                        "weights": [
                            0.0874006251461048,
                            -0.789840900950066,
                            -0.76424203823049
                        ],
                        "bias": 0.09187340869839344
                    },
                    {
                        "weights": [
                            0.617213956955663,
                            0.12204298960108018,
                            -0.7963880649182902
                        ],
                        "bias": 0.12894557452936706
                    }
                ]
            },
            {
                "neurons": [
                    {
                        "weights": [
                            0.21615929368488862,
                            0.06229098857162563,
                            0.8788158709038911
                        ],
                        "bias": -0.37786869458573213
                    },
                    {
                        "weights": [
                            0.3842878319760503,
                            0.9056925756924175,
                            0.38207219748597776
                        ],
                        "bias": -0.15117648892481572
                    },
                    {
                        "weights": [
                            -0.7943510472237858,
                            0.6171346378467601,
                            0.7617064023616384
                        ],
                        "bias": -0.21802047381406053
                    }
                ]
            },
            {
                "neurons": [
                    {
                        "weights": [
                            -0.511959328867611,
                            -0.7784216280153446,
                            0.3696314221768937
                        ],
                        "bias": -0.7039785113494155
                    },
                    {
                        "weights": [
                            -0.0748189509259094,
                            0.3047451036696849,
                            0.6322649865214509
                        ],
                        "bias": 0.5044146455324017
                    },
                    {
                        "weights": [
                            0.432648059479007,
                            -0.5810342787065288,
                            -0.2327113440572448
                        ],
                        "bias": -0.5433346886353434
                    }
                ]
            }
        ],
        "outputLayer": {
            "neurons": [
                {
                    "weights": [
                        0.08417582158341119,
                        -0.00041320739317129984,
                        -0.8529689536457647
                    ],
                    "bias": -0.44503675484821525
                },
                {
                    "weights": [
                        -0.20494518731911904,
                        0.10609508676198298,
                        0.22754298657141958
                    ],
                    "bias": -0.01604814961381451
                },
                {
                    "weights": [
                        0.6719299527361475,
                        -0.15270696920544613,
                        -0.9281111478114832
                    ],
                    "bias": -0.7144104472045163
                },
                {
                    "weights": [
                        0.24278283955398638,
                        -0.5623948035859694,
                        0.9266713425078204
                    ],
                    "bias": -0.5495990554205754
                },
                {
                    "weights": [
                        -0.19571103558614955,
                        0.4043403108960657,
                        0.11231550139081792
                    ],
                    "bias": 1.0109231445231304
                }
            ]
        }
    },
    {
        "inputLayer": {
            "neurons": [
                {
                    "weights": [
                        0.7881457406733399,
                        -0.5338920985685376,
                        0.9581320639004529,
                        0.7762775740704739,
                        -0.22479379665682253
                    ],
                    "bias": 1.6306215138450175
                },
                {
                    "weights": [
                        0.6746545364280765,
                        -0.7059248703355723,
                        -0.13795218089682848,
                        -0.5791164653621359,
                        0.9058994431860776
                    ],
                    "bias": -0.8191860959342383
                },
                {
                    "weights": [
                        -0.2377645094759948,
                        0.7743762256709934,
                        0.321561138751449,
                        0.05477280654586125,
                        -0.22579758130032168
                    ],
                    "bias": 0.1220868644952835
                }
            ]
        },
        "layers": [
            {
                "neurons": [
                    {
                        "weights": [
                            -0.7619040654644618,
                            -0.9496655777276644,
                            0.9225950074584981
                        ],
                        "bias": 0.37334491337374254
                    },
                    {
                        "weights": [
                            0.0874006251461048,
                            -0.789840900950066,
                            -0.76424203823049
                        ],
                        "bias": 0.9147856752322627
                    },
                    {
                        "weights": [
                            0.617213956955663,
                            0.12204298960108018,
                            -0.7963880649182902
                        ],
                        "bias": -0.024303579783145013
                    }
                ]
            },
            {
                "neurons": [
                    {
                        "weights": [
                            0.21615929368488862,
                            0.06229098857162563,
                            0.8788158709038911
                        ],
                        "bias": -0.4851260037035485
                    },
                    {
                        "weights": [
                            0.3842878319760503,
                            0.9056925756924175,
                            0.38207219748597776
                        ],
                        "bias": 0.4882082145436113
                    },
                    {
                        "weights": [
                            -0.7943510472237858,
                            0.6171346378467601,
                            0.7617064023616384
                        ],
                        "bias": -0.5343156186895506
                    }
                ]
            },
            {
                "neurons": [
                    {
                        "weights": [
                            -0.511959328867611,
                            -0.7784216280153446,
                            0.3696314221768937
                        ],
                        "bias": -0.49772928195746524
                    },
                    {
                        "weights": [
                            -0.0748189509259094,
                            0.3047451036696849,
                            0.6322649865214509
                        ],
                        "bias": -1.0723011881235618
                    },
                    {
                        "weights": [
                            0.432648059479007,
                            -0.5810342787065288,
                            -0.2327113440572448
                        ],
                        "bias": -0.6854856955512432
                    }
                ]
            }
        ],
        "outputLayer": {
            "neurons": [
                {
                    "weights": [
                        0.08417582158341119,
                        -0.00041320739317129984,
                        -0.8529689536457647
                    ],
                    "bias": -0.2252766882228623
                },
                {
                    "weights": [
                        -0.20494518731911904,
                        0.10609508676198298,
                        0.22754298657141958
                    ],
                    "bias": 0.44205853601498224
                },
                {
                    "weights": [
                        0.6719299527361475,
                        -0.15270696920544613,
                        -0.9281111478114832
                    ],
                    "bias": -0.7711920528173029
                },
                {
                    "weights": [
                        0.24278283955398638,
                        -0.5623948035859694,
                        0.9266713425078204
                    ],
                    "bias": 0.7220426419633885
                },
                {
                    "weights": [
                        -0.19571103558614955,
                        0.4043403108960657,
                        0.11231550139081792
                    ],
                    "bias": 1.471175224354901
                }
            ]
        }
    },
    {
        "inputLayer": {
            "neurons": [
                {
                    "weights": [
                        -0.872042177772085,
                        -0.5080192239671912,
                        -0.9461583714090296,
                        0.4617570666876889,
                        -0.9925141958100456
                    ],
                    "bias": 0.07964988233431863
                },
                {
                    "weights": [
                        0.7243176252597401,
                        0.8989090061527034,
                        0.8405358234293991,
                        0.1040893996073402,
                        -0.7708333771987685
                    ],
                    "bias": 0.3907398897332447
                },
                {
                    "weights": [
                        0.6276578274987548,
                        0.7036453446485009,
                        0.47059338398130923,
                        0.3127779496290264,
                        0.3272284845294524
                    ],
                    "bias": -1.2264254163366968
                }
            ]
        },
        "layers": [
            {
                "neurons": [
                    {
                        "weights": [
                            -0.20928062543811787,
                            -0.5705437803655782,
                            -0.07134601002265684
                        ],
                        "bias": 0.2731251125485702
                    },
                    {
                        "weights": [
                            0.5493138608921668,
                            -0.8205871108506297,
                            0.1939237792211661
                        ],
                        "bias": 1.8890650200407253
                    },
                    {
                        "weights": [
                            -0.8949871081619418,
                            -0.12410280966367626,
                            0.8638676591194832
                        ],
                        "bias": -1.141320856383078
                    }
                ]
            },
            {
                "neurons": [
                    {
                        "weights": [
                            -0.1680452560387926,
                            -0.7062044522742368,
                            0.8157526622994045
                        ],
                        "bias": 0.10536972731818565
                    },
                    {
                        "weights": [
                            0.9999020304562125,
                            -0.7611241629593695,
                            0.940974735764448
                        ],
                        "bias": -0.619761496261686
                    },
                    {
                        "weights": [
                            -0.550570691637174,
                            0.3241239677855705,
                            -0.9693542541118374
                        ],
                        "bias": 1.493328175588964
                    }
                ]
            },
            {
                "neurons": [
                    {
                        "weights": [
                            0.6092851513744475,
                            -0.9667787231407821,
                            -0.9814880379584101
                        ],
                        "bias": -0.28837078965394886
                    },
                    {
                        "weights": [
                            0.5014719567423747,
                            0.8523316930649134,
                            0.07877150851786374
                        ],
                        "bias": -1.9368376726220202
                    },
                    {
                        "weights": [
                            -0.3512358897973764,
                            -0.15224075166494955,
                            0.057640963150495494
                        ],
                        "bias": -1.5137540901078177
                    }
                ]
            }
        ],
        "outputLayer": {
            "neurons": [
                {
                    "weights": [
                        -0.2576501246555236,
                        -0.41630774653431724,
                        0.9814174647797234
                    ],
                    "bias": 1.5129074767629807
                },
                {
                    "weights": [
                        0.32026315189269927,
                        -0.5426636302970729,
                        0.8516396279058294
                    ],
                    "bias": 0.694743320690149
                },
                {
                    "weights": [
                        -0.7730925792415664,
                        0.09994359506593042,
                        -0.9665177859976217
                    ],
                    "bias": -0.9931959267470704
                },
                {
                    "weights": [
                        0.6486015943299503,
                        0.20338412811097473,
                        -0.2683369920919787
                    ],
                    "bias": 1.2109780293955141
                },
                {
                    "weights": [
                        0.6330880414871842,
                        0.7531728834577838,
                        0.9758674628387556
                    ],
                    "bias": 0.13558600986468838
                }
            ]
        }
    },
    {
        "inputLayer": {
            "neurons": [
                {
                    "weights": [
                        -0.872042177772085,
                        -0.5080192239671912,
                        -0.9461583714090296,
                        0.4617570666876889,
                        -0.9925141958100456
                    ],
                    "bias": -0.5096526352899549
                },
                {
                    "weights": [
                        0.7243176252597401,
                        0.8989090061527034,
                        0.8405358234293991,
                        0.1040893996073402,
                        -0.7708333771987685
                    ],
                    "bias": 0.4414364761769506
                },
                {
                    "weights": [
                        0.6276578274987548,
                        0.7036453446485009,
                        0.47059338398130923,
                        0.3127779496290264,
                        0.3272284845294524
                    ],
                    "bias": -0.42395030610178486
                }
            ]
        },
        "layers": [
            {
                "neurons": [
                    {
                        "weights": [
                            -0.20928062543811787,
                            -0.5705437803655782,
                            -0.07134601002265684
                        ],
                        "bias": 1.407212178315175
                    },
                    {
                        "weights": [
                            0.5493138608921668,
                            -0.8205871108506297,
                            0.1939237792211661
                        ],
                        "bias": 1.3079063171031724
                    },
                    {
                        "weights": [
                            -0.8949871081619418,
                            -0.12410280966367626,
                            0.8638676591194832
                        ],
                        "bias": -0.7977760727603482
                    }
                ]
            },
            {
                "neurons": [
                    {
                        "weights": [
                            -0.1680452560387926,
                            -0.7062044522742368,
                            0.8157526622994045
                        ],
                        "bias": -0.3820035950599932
                    },
                    {
                        "weights": [
                            0.9999020304562125,
                            -0.7611241629593695,
                            0.940974735764448
                        ],
                        "bias": -1.2624971163598517
                    },
                    {
                        "weights": [
                            -0.550570691637174,
                            0.3241239677855705,
                            -0.9693542541118374
                        ],
                        "bias": 2.5245843145871927
                    }
                ]
            },
            {
                "neurons": [
                    {
                        "weights": [
                            0.6092851513744475,
                            -0.9667787231407821,
                            -0.9814880379584101
                        ],
                        "bias": -0.39867229047343716
                    },
                    {
                        "weights": [
                            0.5014719567423747,
                            0.8523316930649134,
                            0.07877150851786374
                        ],
                        "bias": -0.2335032874648817
                    },
                    {
                        "weights": [
                            -0.3512358897973764,
                            -0.15224075166494955,
                            0.057640963150495494
                        ],
                        "bias": -0.3749966369064911
                    }
                ]
            }
        ],
        "outputLayer": {
            "neurons": [
                {
                    "weights": [
                        -0.2576501246555236,
                        -0.41630774653431724,
                        0.9814174647797234
                    ],
                    "bias": 1.6473210880343894
                },
                {
                    "weights": [
                        0.32026315189269927,
                        -0.5426636302970729,
                        0.8516396279058294
                    ],
                    "bias": -0.044899534390373086
                },
                {
                    "weights": [
                        -0.7730925792415664,
                        0.09994359506593042,
                        -0.9665177859976217
                    ],
                    "bias": 0.23610903581139475
                },
                {
                    "weights": [
                        0.6486015943299503,
                        0.20338412811097473,
                        -0.2683369920919787
                    ],
                    "bias": 1.7239487770486464
                },
                {
                    "weights": [
                        0.6330880414871842,
                        0.7531728834577838,
                        0.9758674628387556
                    ],
                    "bias": -0.9825595122682385
                }
            ]
        }
    },
    {
        "inputLayer": {
            "neurons": [
                {
                    "weights": [
                        -0.872042177772085,
                        -0.5080192239671912,
                        -0.9461583714090296,
                        0.4617570666876889,
                        -0.9925141958100456
                    ],
                    "bias": -0.8555218248088965
                },
                {
                    "weights": [
                        0.7243176252597401,
                        0.8989090061527034,
                        0.8405358234293991,
                        0.1040893996073402,
                        -0.7708333771987685
                    ],
                    "bias": -1.9590453870584044
                },
                {
                    "weights": [
                        0.6276578274987548,
                        0.7036453446485009,
                        0.47059338398130923,
                        0.3127779496290264,
                        0.3272284845294524
                    ],
                    "bias": -0.8966107612054568
                }
            ]
        },
        "layers": [
            {
                "neurons": [
                    {
                        "weights": [
                            -0.20928062543811787,
                            -0.5705437803655782,
                            -0.07134601002265684
                        ],
                        "bias": 0.30505924455280586
                    },
                    {
                        "weights": [
                            0.5493138608921668,
                            -0.8205871108506297,
                            0.1939237792211661
                        ],
                        "bias": -0.11929644342302459
                    },
                    {
                        "weights": [
                            -0.8949871081619418,
                            -0.12410280966367626,
                            0.8638676591194832
                        ],
                        "bias": -1.0701560222291775
                    }
                ]
            },
            {
                "neurons": [
                    {
                        "weights": [
                            -0.1680452560387926,
                            -0.7062044522742368,
                            0.8157526622994045
                        ],
                        "bias": 0.5269331921617272
                    },
                    {
                        "weights": [
                            0.9999020304562125,
                            -0.7611241629593695,
                            0.940974735764448
                        ],
                        "bias": 0.6617998030073339
                    },
                    {
                        "weights": [
                            -0.550570691637174,
                            0.3241239677855705,
                            -0.9693542541118374
                        ],
                        "bias": 0.04187169826901105
                    }
                ]
            },
            {
                "neurons": [
                    {
                        "weights": [
                            0.6092851513744475,
                            -0.9667787231407821,
                            -0.9814880379584101
                        ],
                        "bias": 0.7230229969599871
                    },
                    {
                        "weights": [
                            0.5014719567423747,
                            0.8523316930649134,
                            0.07877150851786374
                        ],
                        "bias": 0.14613405127714874
                    },
                    {
                        "weights": [
                            -0.3512358897973764,
                            -0.15224075166494955,
                            0.057640963150495494
                        ],
                        "bias": 0.9679477050765881
                    }
                ]
            }
        ],
        "outputLayer": {
            "neurons": [
                {
                    "weights": [
                        -0.2576501246555236,
                        -0.41630774653431724,
                        0.9814174647797234
                    ],
                    "bias": 0.07948089171102246
                },
                {
                    "weights": [
                        0.32026315189269927,
                        -0.5426636302970729,
                        0.8516396279058294
                    ],
                    "bias": 0.4663295846606821
                },
                {
                    "weights": [
                        -0.7730925792415664,
                        0.09994359506593042,
                        -0.9665177859976217
                    ],
                    "bias": -0.6961370973932692
                },
                {
                    "weights": [
                        0.6486015943299503,
                        0.20338412811097473,
                        -0.2683369920919787
                    ],
                    "bias": -0.26823312984841086
                },
                {
                    "weights": [
                        0.6330880414871842,
                        0.7531728834577838,
                        0.9758674628387556
                    ],
                    "bias": -1.5984126652381723
                }
            ]
        }
    },
    {
        "inputLayer": {
            "neurons": [
                {
                    "weights": [
                        -0.872042177772085,
                        -0.5080192239671912,
                        -0.9461583714090296,
                        0.4617570666876889,
                        -0.9925141958100456
                    ],
                    "bias": -0.8228640095956767
                },
                {
                    "weights": [
                        0.7243176252597401,
                        0.8989090061527034,
                        0.8405358234293991,
                        0.1040893996073402,
                        -0.7708333771987685
                    ],
                    "bias": -0.5000362937808269
                },
                {
                    "weights": [
                        0.6276578274987548,
                        0.7036453446485009,
                        0.47059338398130923,
                        0.3127779496290264,
                        0.3272284845294524
                    ],
                    "bias": -0.16228583328769797
                }
            ]
        },
        "layers": [
            {
                "neurons": [
                    {
                        "weights": [
                            -0.20928062543811787,
                            -0.5705437803655782,
                            -0.07134601002265684
                        ],
                        "bias": -0.3374480932273155
                    },
                    {
                        "weights": [
                            0.5493138608921668,
                            -0.8205871108506297,
                            0.1939237792211661
                        ],
                        "bias": 0.5013188607886336
                    },
                    {
                        "weights": [
                            -0.8949871081619418,
                            -0.12410280966367626,
                            0.8638676591194832
                        ],
                        "bias": -1.6993653685183068
                    }
                ]
            },
            {
                "neurons": [
                    {
                        "weights": [
                            -0.1680452560387926,
                            -0.7062044522742368,
                            0.8157526622994045
                        ],
                        "bias": 0.5114360983175718
                    },
                    {
                        "weights": [
                            0.9999020304562125,
                            -0.7611241629593695,
                            0.940974735764448
                        ],
                        "bias": -1.0546894696427644
                    },
                    {
                        "weights": [
                            -0.550570691637174,
                            0.3241239677855705,
                            -0.9693542541118374
                        ],
                        "bias": 0.04649076108019856
                    }
                ]
            },
            {
                "neurons": [
                    {
                        "weights": [
                            0.6092851513744475,
                            -0.9667787231407821,
                            -0.9814880379584101
                        ],
                        "bias": 0.6012366487646332
                    },
                    {
                        "weights": [
                            0.5014719567423747,
                            0.8523316930649134,
                            0.07877150851786374
                        ],
                        "bias": -0.14598883484551162
                    },
                    {
                        "weights": [
                            -0.3512358897973764,
                            -0.15224075166494955,
                            0.057640963150495494
                        ],
                        "bias": -0.20460978362464055
                    }
                ]
            }
        ],
        "outputLayer": {
            "neurons": [
                {
                    "weights": [
                        -0.2576501246555236,
                        -0.41630774653431724,
                        0.9814174647797234
                    ],
