[
    {
        "inputLayer": {
            "neurons": [
                {
                    "weights": [
                        0.7362460066699539,
                        0.7335652371212915,
                        -0.9583222805029583,
                        -0.9205537265083483,
                        0.041655907560269156,
                        0.4031377405843177,
                        0.07024711202847334,
                        -0.3840006685392938,
                        0.612442262704157,
                        -0.43763356723392954,
                        -0.8303950762682963,
                        -0.12764114336687382,
                        -0.7619718570081118,
                        0.6819428564890455,
                        -0.9347076999064161,
                        0.5768697473837592,
                        -0.8263953107328212,
                        0.9972095790237203
                    ],
                    "bias": 0.20335983880495895
                },
                {
                    "weights": [
                        0.9052788714202094,
                        0.6443400154737549,
                        -0.2436384546674315,
                        0.2917969449774229,
                        -0.2778147217136757,
                        -0.0212837416333318,
                        -0.3545657511148712,
                        0.9496085255808526,
                        0.7294677405669185,
                        0.017796433140607526,
                        0.33934544442879955,
                        -0.6634988764021712,
                        -0.9689222541354516,
                        0.3820353970467958,
                        -0.9104145239870876,
                        0.873739559465081,
                        0.16795717353976602,
                        -0.15623996531478102
                    ],
                    "bias": 0.5233650516841006
                },
                {
                    "weights": [
                        0.617010184837731,
                        0.038460882057270496,
                        0.6821564708615675,
                        0.891635330035979,
                        0.7392451725262821,
                        -0.1098333920294523,
                        -0.8292380024622679,
                        0.7721506422334814,
                        -0.980689058578972,
                        0.24159657792825295,
                        0.8428711054580851,
                        -0.6010375706451347,
                        0.6572761655108408,
                        -0.00013098791774401874,
                        -0.7898224133628884,
                        0.6685876106234008,
                        0.1073783066155305,
                        0.14098901499921035
                    ],
                    "bias": 0.8164710506754825
                },
                {
                    "weights": [
                        -0.7927171256591514,
                        0.08841502182851091,
                        -0.816626900219064,
                        -0.0952534825514959,
                        0.7125241155943329,
                        0.9175101197830928,
                        -0.8923148777841645,
                        0.3028183863312408,
                        0.2681329337360021,
                        0.9627349373551111,
                        -0.2182254218720472,
                        0.31059651907063524,
                        0.5544693518028758,
                        0.29000729709422557,
                        -0.3542019861648069,
                        0.616518789309713,
                        0.021709232141862378,
                        0.13681098602836173
                    ],
                    "bias": 0.7634648522695385
                },
                {
                    "weights": [
                        0.6075818333309693,
                        -0.12565920538880393,
                        -0.049981151048125616,
                        -0.8875746502756308,
                        0.8215650607051439,
                        0.3232064974303064,
                        -0.12427873874415507,
                        0.4867166048120528,
                        0.042396377038147914,
                        0.5058715305130492,
                        0.3703815739347691,
                        0.06036255514865796,
                        0.7533182583209148,
                        0.004568553765442962,
                        0.9189666708463613,
                        0.28747482783643186,
                        -0.7735728495137757,
                        -0.17114262082107956
                    ],
                    "bias": 0.30560713127045913
                },
                {
                    "weights": [
                        -0.19912485101048794,
                        -0.14585570988555374,
                        0.22605933921313426,
                        0.9825916406660216,
                        -0.1460332755053242,
                        -0.8158408337273029,
                        0.9549561747133379,
                        -0.31071693675543277,
                        -0.4017865820042541,
                        0.5066742491420277,
                        -0.37699657309656387,
                        0.9150358387105864,
                        -0.1441967867581342,
                        -0.382557191314836,
                        0.29336465062170247,
                        0.2970119235130442,
                        -0.6579217535846147,
                        0.8428174890210596
                    ],
                    "bias": 0.8640096821670602
                },
                {
                    "weights": [
                        0.4067487464605779,
                        -0.7360238593262836,
                        0.27177052857776274,
                        -0.38864545780228354,
                        -0.8606193090128849,
                        0.6101285382737067,
                        0.2123788044586592,
                        -0.9171480241447276,
                        -0.20604206241115697,
                        0.3104011495652692,
                        -0.029465021444421424,
                        -0.0002931016813865206,
                        -0.5637466422222184,
                        0.844375524863046,
                        0.7660639824365281,
                        0.24640979018387799,
                        -0.15269587753412028,
                        -0.7448554454939647
                    ],
                    "bias": 0.44942879103422084
                },
                {
                    "weights": [
                        0.5221706479074764,
                        -0.9918209777369169,
                        0.9287744064060315,
                        -0.17805704581041937,
                        -0.501412242627113,
                        0.42969605502993247,
                        0.7368303150935618,
                        0.28607220743294315,
                        -0.15570471540712094,
                        0.24744900235898037,
                        -0.8561675829520436,
                        -0.320031915980419,
                        -0.9177464694684787,
                        0.7592317430565825,
                        0.6812737552473669,
                        0.24935928914921712,
                        -0.42960357493530843,
                        -0.8666837737212671
                    ],
                    "bias": 0.12292202283240211
                },
                {
                    "weights": [
                        -0.6215310297978041,
                        -0.9541032326703953,
                        0.6466638812985535,
                        0.08725866320743858,
                        -0.45477030040431154,
                        -0.6129033570856264,
                        -0.18962286041554255,
                        0.33687281343962816,
                        0.13021620740754414,
                        -0.5475342251658799,
                        -0.4680867368973938,
                        0.9694842117893954,
                        0.6801634868695634,
                        0.8198840058411163,
                        -0.2731651338158607,
                        -0.4095575824217359,
                        -0.6223201390360749,
                        0.031155817416584908
                    ],
                    "bias": 0.5253363979118005
                },
                {
                    "weights": [
                        0.8230611577238665,
                        0.7151765643655181,
                        0.5978379234042572,
                        -0.7216519818758802,
                        -0.13744819042965095,
                        -0.7785378555223212,
                        -0.237924641110838,
                        -0.7743517447333323,
                        -0.47937554140558114,
                        0.21802944472284502,
                        -0.7661188201598608,
                        0.3974936501140778,
                        -0.9201341520834063,
                        -0.5303789332799871,
                        -0.38374937254105146,
                        0.3296713464054213,
                        0.8904116350844213,
                        -0.8728191148949971
                    ],
                    "bias": 0.5441388931000142
                }
            ]
        },
        "layers": [
            {
                "neurons": [
                    {
                        "weights": [
                            -0.07521321609319642,
                            -0.3115936215501678,
                            -0.48565997221462753,
                            -0.7720217659143689,
                            0.5690649935738963,
                            -0.44676123264948187,
                            -0.2590198955742731,
                            -0.817919478495035,
                            -0.08568400459468206,
                            0.6812338134795679
                        ],
                        "bias": 0.07906599772819403
                    },
                    {
                        "weights": [
                            -0.7465515025169194,
                            -0.5914826611884354,
                            -0.773677102510536,
                            -0.5083572656280966,
                            0.6819424530256528,
                            0.9236192997726833,
                            0.7545167821403256,
                            0.5771510296516371,
                            -0.35346186560579085,
                            0.908314331792071
                        ],
                        "bias": 1.1610821546022432
                    },
                    {
                        "weights": [
                            -0.5931110104105421,
                            0.9636540587604281,
                            0.9853156072322504,
                            0.5093938749779072,
                            0.5936033621771577,
                            -0.8909485272688014,
                            0.8708055405613022,
                            0.030776114624613493,
                            -0.47921271791016307,
                            0.2598901690112836
                        ],
                        "bias": 0.8199885526932102
                    },
                    {
                        "weights": [
                            -0.4818168643197207,
                            0.3499075367903006,
                            0.1837814982146646,
                            -0.8287522358421595,
                            -0.5300875322027014,
                            0.5432147795999933,
                            -0.8368442232743178,
                            0.17506701407078018,
                            -0.4073994668987433,
                            -0.4843388500610657
                        ],
                        "bias": 0.011683613688036484
                    },
                    {
                        "weights": [
                            -0.014933028966633177,
                            -0.43614879617179536,
                            -0.11128895731335464,
                            0.6966576285231143,
                            0.005331792183729922,
                            0.31818340832504877,
                            -0.5160078993477932,
                            -0.026178493841220396,
                            0.9432722869400882,
                            0.5369530326048721
                        ],
                        "bias": -0.10415578751337992
                    },
                    {
                        "weights": [
                            -0.8413379066536275,
                            -0.7718005589656953,
                            -0.6941546961921101,
                            -0.6041607775457167,
                            0.13617170311484794,
                            0.23420101240780333,
                            0.5969373592967115,
                            -0.7104605542346303,
                            0.9943762031620904,
                            -0.14403183027694855
                        ],
                        "bias": 0.736150178020233
                    },
                    {
                        "weights": [
                            0.6062105170583831,
                            0.5184663809973891,
                            -0.14414158250442766,
                            -0.9516485539428265,
                            0.5248929640042816,
                            -0.8501620681988546,
                            0.0000620633370878032,
                            0.1783959921232947,
                            0.517253835579855,
                            -0.03738518074468211
                        ],
                        "bias": 0.15380092851801816
                    },
                    {
                        "weights": [
                            0.5716154659568595,
                            -0.8143333438846136,
                            -0.8346512804161501,
                            -0.8686263391534506,
                            -0.38768928162312677,
                            -0.0780522444305567,
                            -0.8993815886665786,
                            -0.8468162031175326,
                            -0.5845646463916789,
                            -0.058496625903793786
                        ],
                        "bias": 0.48736589700538097
                    },
                    {
                        "weights": [
                            0.12830194903425962,
                            -0.838752734562983,
                            0.7830120036016477,
                            -0.05947672485095645,
                            0.8857003273597459,
                            -0.30805425190066016,
                            -0.3340504197893148,
                            -0.03907121035523953,
                            -0.6366429317275659,
                            0.19209594737721503
                        ],
                        "bias": -0.04744613727541029
                    },
                    {
                        "weights": [
                            0.6934826418202582,
                            0.4609303836075682,
                            0.01880356699929142,
                            0.7500204672954329,
                            0.35425515397410656,
                            0.8962947725140087,
                            -0.05792733332766353,
                            0.0958893358847519,
                            0.7957148710640092,
                            0.5311147369366658
                        ],
                        "bias": -0.27523703250641035
                    }
                ]
            },
            {
                "neurons": [
                    {
                        "weights": [
                            0.34209734231689093,
                            0.5793810575328555,
                            -0.3232464273492506,
                            0.5327778686938984,
                            -0.6764283568103611,
                            -0.4087593889028025,
                            -0.9533223144291063,
                            0.2658171470470949,
                            -0.2523803782589882,
                            0.35123475013290695
                        ],
                        "bias": -0.774180796829695
                    },
                    {
                        "weights": [
                            -0.9531832199761885,
                            -0.025801868638644088,
                            0.3242926158082855,
                            0.4630082682246828,
                            -0.14581048526570162,
                            0.6728165150106973,
                            0.10762029006609453,
                            0.7257427044581373,
                            0.8097335607992968,
                            -0.9441999826664826
                        ],
                        "bias": -0.300261139948677
                    },
                    {
                        "weights": [
                            0.5030850871776462,
                            0.17346772010942546,
                            -0.9961349161470352,
                            0.8647130661564659,
                            0.2893057575848217,
                            -0.35790703296814774,
                            0.2715910281582339,
                            -0.325949275210071,
                            0.4724343502783359,
                            0.863419775600262
                        ],
                        "bias": -0.8869264620328071
                    },
                    {
                        "weights": [
                            0.41901064047556846,
                            -0.7826368918500444,
                            0.4591732218061535,
                            0.5423553925904183,
                            0.9978810549636139,
                            -0.48524702042768686,
                            -0.0012202844895727871,
                            -0.43192161009309027,
                            -0.012569121045312048,
                            0.558418260570035
                        ],
                        "bias": -0.07497332154007068
                    },
                    {
                        "weights": [
                            0.8227598968856047,
                            0.057128995945395555,
                            0.03986428221924787,
                            -0.7986144762934921,
                            -0.42819050893004196,
                            0.5071176440655851,
                            0.18223860724507412,
                            -0.3891384363733035,
                            -0.564913288851451,
                            0.8403057028163234
                        ],
                        "bias": -0.7993263947204122
                    },
                    {
                        "weights": [
                            -0.9922122349064812,
                            -0.41950204889060827,
                            0.8008720094228083,
                            -0.0572405267622369,
                            -0.5593107582303574,
                            0.9402272036447239,
                            0.6510193528561989,
                            0.25380576722602566,
                            -0.9645878154535072,
                            0.7116693257248625
                        ],
                        "bias": 0.3431793058508596
                    },
                    {
                        "weights": [
                            -0.905533571259054,
                            -0.6166794285818704,
                            0.41429171158211386,
                            -0.5510637628483508,
                            -0.6938579870663415,
                            -0.32555644954409524,
                            -0.8656305370068413,
                            0.43771672190661226,
                            -0.19850496981538757,
                            -0.030798522177541754
                        ],
                        "bias": -0.5379480072104944
                    },
                    {
                        "weights": [
                            0.022012130823487075,
                            -0.9370544203554958,
                            0.006730088975467119,
                            0.46265988416470716,
                            -0.5626838094426645,
                            -0.29917744783867706,
                            0.3902263340994414,
                            -0.9984545926974167,
                            -0.47920299748720074,
                            -0.3325474039122971
                        ],
                        "bias": -0.23472976619898756
                    },
                    {
                        "weights": [
                            -0.1680692050329644,
                            0.5082982157842948,
                            0.10538438526496807,
                            -0.09262055871678343,
                            -0.09804474360487925,
                            0.4808480095604415,
                            0.4556847705268843,
                            0.3684200429995179,
                            -0.9204315847427287,
                            -0.3624715911065264
                        ],
                        "bias": 0.2710938710177302
                    },
                    {
                        "weights": [
                            0.7704897392206032,
                            0.9059120599157917,
                            -0.5978679339655524,
                            0.5649969660309924,
                            -0.9872384122188007,
                            0.5502476837613273,
                            0.2576864726982384,
                            0.6297976281798137,
                            -0.4685494411960207,
                            0.15616465304210192
                        ],
                        "bias": 0.16751328041300634
                    }
                ]
            },
            {
                "neurons": [
                    {
                        "weights": [
                            0.31345411799818823,
                            0.22622295044004082,
                            -0.37354364547265795,
                            0.2401860527658597,
                            -0.558305987997856,
                            -0.32690836483184094,
                            -0.2092974077851104,
                            -0.00456564457228148,
                            0.26536792112262875,
                            0.16292793515927584
                        ],
                        "bias": 0.8979968861781177
                    },
                    {
                        "weights": [
                            -0.42342232593858675,
                            -0.6821265900287663,
                            0.14962600391160885,
                            -0.7729361890567055,
                            -0.6081476843722158,
                            -0.4128841421377072,
                            -0.44523805561437735,
                            0.4376754054149765,
                            -0.7017789248651094,
                            -0.48556044703291734
                        ],
                        "bias": 0.3237838491767463
                    },
                    {
                        "weights": [
                            -0.965221542662831,
                            -0.7341945335863982,
                            -0.016462956020653507,
                            0.5628386958645373,
                            0.4888007747897416,
                            -0.5476979468979157,
                            0.7222596062612969,
                            0.4466188817630783,
                            0.028884864337715754,
                            -0.2651955144583722
                        ],
                        "bias": 0.4452575592799747
                    },
                    {
                        "weights": [
                            0.8024363003176105,
                            -0.2521839653743396,
                            0.8162461085768227,
                            0.499955900233473,
                            0.18667048251047702,
                            0.8962156425021994,
                            -0.27464074497673874,
                            -0.45794989629187643,
                            -0.7741684864105398,
                            0.6499067644831489
                        ],
                        "bias": -0.0513428002971438
                    },
                    {
                        "weights": [
                            0.5018386221300963,
                            -0.46033068434543667,
                            -0.4718771514377502,
                            0.17852534384129615,
                            0.43932018939680884,
                            -0.6114985650921967,
                            -0.8189433527392243,
                            0.45885577441887127,
                            -0.0027931163086341027,
                            0.5503244431996852
                        ],
                        "bias": 0.23761890428972104
                    },
                    {
                        "weights": [
                            0.7505102626834346,
                            -0.5274255793260549,
                            0.6791024305906013,
                            -0.1924697032196736,
                            0.5708457162866585,
                            0.7812228926453086,
                            -0.24902002997103967,
                            -0.07276845961763367,
                            -0.6817166226026026,
                            0.2636539933055446
                        ],
                        "bias": -0.729623068485288
                    },
                    {
                        "weights": [
                            -0.574554252277999,
                            -0.9997660102507577,
                            0.12352984560634228,
                            0.853079888014785,
                            -0.7948697872928108,
                            -0.15263233051887348,
                            -0.9627848985093959,
                            0.09193560801671619,
                            -0.99359951928634,
                            -0.9791463522774357
                        ],
                        "bias": -0.5014398780819042
                    },
                    {
                        "weights": [
                            -0.1797493857747139,
                            0.8193258092034876,
                            0.2571204014066344,
                            0.007641502469495354,
                            -0.7824959198331449,
                            -0.797857401009261,
                            0.45210355132583424,
                            -0.3331697086262906,
                            0.018147571794203232,
                            -0.9189986576416744
                        ],
                        "bias": -0.8055272037211494
                    },
                    {
                        "weights": [
                            0.5429560484671654,
                            -0.5676196768648727,
                            -0.8970921048466409,
                            0.3715561833053427,
                            0.6106637535025563,
                            0.898495333868712,
                            0.5836403291886074,
                            0.49445903952868053,
                            -0.7932669077678309,
                            -0.9788156379575523
                        ],
                        "bias": 0.14818120119445724
                    },
                    {
                        "weights": [
                            0.2209507620607849,
                            0.750989981762924,
                            0.9186471793742732,
                            -0.7989711649240478,
                            0.6523752805517999,
                            -0.6162095115497732,
                            -0.16594254189442714,
                            0.24114770186017886,
                            0.07843339264912141,
                            0.29260151241047594
                        ],
                        "bias": -0.5842512924918307
                    }
                ]
            },
            {
                "neurons": [
                    {
                        "weights": [
                            0.13353520009663744,
                            0.06704785368859456,
                            0.2468186673555366,
                            0.8871216537081537,
                            0.6358954305751545,
                            0.215447123613153,
                            0.010693978200134069,
                            -0.5628687914057482,
                            -0.9972451413354979,
                            -0.05887381744323528
                        ],
                        "bias": -1.0516057492549415
                    },
                    {
                        "weights": [
                            -0.9871048129652624,
                            -0.6210069383306971,
                            -0.1597019781668405,
                            0.3674800284407378,
                            0.01998979414957658,
                            0.6950404545698408,
                            -0.4799952274489334,
                            -0.4790959723026267,
                            0.7207982208360906,
                            -0.15754343082442368
                        ],
                        "bias": -0.817788365819209
                    },
                    {
                        "weights": [
                            -0.42694958806076455,
                            0.28621230830446076,
                            0.08556518613692554,
                            0.9352645519247555,
                            0.3879026890627766,
                            0.7051302458344566,
                            -0.6974257702329967,
                            -0.5294857614107353,
                            0.33463685245947095,
                            -0.35456066909995054
                        ],
                        "bias": 0.07977230237496072
                    },
                    {
                        "weights": [
                            0.6140023474211234,
                            -0.06278022646965886,
                            -0.3746926994818238,
                            -0.6584935073817717,
                            -0.4209048285716437,
                            0.2530562298402861,
                            0.5634796939393807,
                            -0.07146532046647147,
                            0.9625285479978809,
                            -0.8437722641352798
                        ],
                        "bias": -0.7508381170697618
                    },
                    {
                        "weights": [
                            -0.1060823064444738,
                            -0.21524406106134975,
                            0.419272575249902,
                            0.009852484432156361,
                            -0.8420312099036389,
                            -0.8637431822349226,
                            -0.4574021694885828,
                            -0.7969290483849107,
                            0.11991472899015299,
                            0.1820316332595595
                        ],
                        "bias": 0.7336208697831234
                    },
                    {
                        "weights": [
                            -0.990184784363402,
                            -0.3791920769131538,
                            0.2051345896571073,
                            0.2506221431665905,
                            -0.16084925715067477,
                            0.424911615550813,
                            -0.4919422604046164,
                            0.5639203184017574,
                            0.5704262854032633,
                            -0.059117681099839725
                        ],
                        "bias": -0.36583947670028016
                    },
                    {
                        "weights": [
                            -0.294494599659781,
                            0.8003498329496452,
                            0.6382950372504546,
                            0.8831672135638584,
                            0.4421555028553146,
                            -0.5504709630291029,
                            -0.5739041049067706,
                            0.8409156544493865,
                            0.7222530854485858,
                            0.9695543756664264
                        ],
                        "bias": -0.5212271885444807
                    },
                    {
                        "weights": [
                            -0.35741902864967834,
                            0.5987479095605379,
                            0.45145086121455935,
                            0.8130888021316938,
                            0.5167368836633914,
                            0.9217769799723858,
                            -0.6935989699537202,
                            0.013759213522836156,
                            -0.4884178866589639,
                            0.1573170019394119
                        ],
                        "bias": -0.20157113510462454
                    },
                    {
                        "weights": [
                            -0.9220705186587939,
                            -0.5336377016384444,
                            0.8822273636637865,
                            -0.2775074027891873,
                            -0.7427664878955238,
                            0.4185659373326287,
                            0.21041132469005697,
                            -0.35607755457282164,
                            -0.6036431843186383,
                            -0.5017472812275539
                        ],
                        "bias": 0.06823548611787521
                    },
                    {
                        "weights": [
                            0.46358435315747903,
                            0.3114242972436463,
                            -0.1346274741847009,
                            -0.3988994304927598,
                            -0.9396471627481067,
                            0.3109171029423061,
                            -0.6309810998235146,
                            -0.089478019175248,
                            0.20155471794486401,
                            0.6724598960287913
                        ],
                        "bias": -0.6200854788690222
                    }
                ]
            },
            {
                "neurons": [
                    {
                        "weights": [
                            -0.5739719949387172,
                            0.6763980311722286,
                            -0.7671899815871974,
                            -0.21397931895369204,
                            -0.04034375815950764,
                            -0.085734267439183,
                            0.6484484344871448,
                            -0.6201938180170508,
                            0.35380561540966626,
                            -0.4889195293666435
                        ],
                        "bias": -0.7801758512001863
                    },
                    {
                        "weights": [
                            0.769915752775322,
                            -0.9861564709835346,
                            0.9844386850432032,
                            -0.7518821060452037,
                            0.19831048756182557,
                            0.1833522485984871,
                            -0.8521229951018121,
                            0.22145106811315274,
                            -0.013601078683811663,
                            0.39200146516566825
                        ],
                        "bias": -0.941424908497736
                    },
                    {
                        "weights": [
                            -0.9995345306482963,
                            -0.04295072586341786,
                            -0.6096765292097024,
                            0.9447840932698945,
                            -0.04930408237598094,
                            0.864077672146101,
                            -0.5353906933945995,
                            0.8774721973573092,
                            0.7981334151701684,
                            -0.6399540375649424
                        ],
                        "bias": 0.8946942140507742
                    },
                    {
                        "weights": [
                            -0.7589962451344934,
                            -0.4815400996082597,
                            -0.1671444865678653,
                            0.43405309252921076,
                            0.641639246799484,
                            -0.712838350388818,
                            0.052927836916396354,
                            -0.3666312814838102,
                            0.7501013799022556,
                            -0.6224354493707236
                        ],
                        "bias": -0.527954588848369
                    },
                    {
                        "weights": [
                            0.15286070660157058,
                            -0.21116660418658406,
                            -0.03673969568296642,
                            -0.21755969936413022,
                            -0.4473678228979887,
                            0.303489331399903,
                            0.04653677862554284,
                            0.18140571199198674,
                            0.2316156769274469,
                            -0.42020124134788817
                        ],
                        "bias": 0.7164737934063159
                    },
                    {
                        "weights": [
                            0.8838368409408324,
                            -0.8320147450872453,
                            0.7122130985686195,
                            0.14642218248567684,
                            -0.8888884295181989,
                            0.982574791881655,
                            -0.1979609529201518,
                            -0.39277724285418136,
                            0.7685806243116893,
                            -0.8427403606733235
                        ],
                        "bias": 0.65088159966141
                    },
                    {
                        "weights": [
                            -0.9504980421883327,
                            0.6597620268983047,
                            0.2396825072665114,
                            0.6753310232303125,
                            0.7086123399758273,
                            -0.9317467170824294,
                            0.7115616883214133,
                            -0.2929898408771563,
                            0.23680046120719012,
                            -0.7613628257677385
                        ],
                        "bias": -0.18325573817261154
                    },
                    {
                        "weights": [
                            0.2748565880358653,
                            -0.4073764649294771,
                            -0.46452124742990586,
                            -0.2874898124645029,
                            -0.14772571373662147,
                            -0.7064449603495948,
                            0.240645369781179,
                            0.08762197234748292,
                            -0.15358865849890613,
                            0.760018354428172
                        ],
                        "bias": 0.42979008247373973
                    },
                    {
                        "weights": [
                            -0.06755976647399042,
                            -0.053822437962101954,
                            0.8384933221016662,
                            -0.36332517565048805,
                            -0.6322825949312063,
                            0.3615936787368552,
                            -0.5486729809900412,
                            0.6596809066741345,
                            0.9021909523869616,
                            -0.19471949329477667
                        ],
                        "bias": -0.4929281610880617
                    },
                    {
                        "weights": [
                            0.9494874267908038,
                            -0.351098092629615,
                            0.01173595621093293,
                            -0.7766130435329746,
                            0.5764618710334151,
                            -0.1779840621973845,
                            -0.07353357373923908,
                            0.7788579427294859,
                            0.3769810548085204,
                            -0.7157014686864254
                        ],
                        "bias": -0.08560994056302743
                    }
                ]
            },
            {
                "neurons": [
                    {
                        "weights": [
                            0.25006859381373325,
                            -0.093558098720252,
                            -0.07426962025678607,
                            -0.6213559638146395,
                            0.5168920793825453,
                            0.22004972254220934,
                            0.5842756226583083,
                            0.6227301595160031,
                            -0.42715089378532345,
                            0.43264608227105805
                        ],
                        "bias": -0.5751239612285917
                    },
                    {
                        "weights": [
                            0.9533471554356499,
                            0.6408921104617167,
                            0.022563857262771547,
                            -0.8110982693966493,
                            -0.3144593709686321,
                            -0.1473960553407414,
                            0.85018225601816,
                            0.5572021665384972,
                            -0.2400514383142498,
                            -0.33939386662145066
                        ],
                        "bias": 0.17476461810507038
                    },
                    {
                        "weights": [
                            -0.8515831838752626,
                            0.07403752504330963,
                            0.35160332034965625,
                            -0.5741977514845247,
                            -0.5199926728917776,
                            -0.8365747638916528,
                            -0.49973597230818134,
                            -0.996936480951488,
                            -0.23141404795066434,
                            -0.8768659999784749
                        ],
                        "bias": -0.16652898097679977
                    },
                    {
                        "weights": [
                            -0.7256310187550983,
                            0.9364061525559517,
                            -0.48551783981277885,
                            0.3614714371589709,
                            -0.6997252014073265,
                            -0.18480852204219667,
                            -0.6952079746838891,
                            0.9439477245623187,
                            0.7329738158817125,
                            0.815036011228049
                        ],
                        "bias": 0.5202225206248234
                    },
                    {
                        "weights": [
                            0.6309928203993878,
                            -0.6249617508352947,
                            -0.38607914902384977,
                            0.5611628827233186,
                            -0.45597701064950313,
                            0.4205689948423934,
                            -0.999576821479053,
                            -0.12144141861004831,
                            0.9428421341233864,
                            0.5200761056404468
                        ],
                        "bias": 0.22453762888497333
                    },
                    {
                        "weights": [
                            0.025274361586162586,
                            0.921121936679111,
                            -0.27213044842373213,
                            0.12708907624492194,
                            0.15484794856740836,
                            -0.38795893103395374,
                            -0.4246133378347585,
                            -0.1391951051782523,
                            0.4113587319731522,
                            0.3026944363641688
                        ],
                        "bias": -0.7003120971832214
                    },
                    {
                        "weights": [
                            -0.764017099954112,
                            0.9023412021568677,
                            -0.7667660856906222,
                            -0.8798959534811981,
                            0.6043483911718519,
                            0.6479146638099482,
                            -0.7653672678937591,
                            0.008098198041221805,
                            0.2434225083892616,
                            -0.6807250464365247
                        ],
                        "bias": 0.5227952056663023
                    },
                    {
                        "weights": [
                            -0.31612067454932546,
                            -0.773979042228266,
                            -0.8725947484711067,
                            -0.4931618457175475,
                            -0.9344147808880785,
                            -0.8869895274326767,
                            -0.328287284906458,
                            0.538042455282959,
                            0.716371128883021,
                            -0.856549965974378
                        ],
                        "bias": 0.4902326127260662
                    },
                    {
                        "weights": [
                            0.5831206638436557,
                            0.258425688828686,
                            -0.7336999684282828,
                            0.9176934868617397,
                            0.5675678549109733,
                            0.8100006231067842,
                            -0.45332684093777864,
                            -0.10035686060774696,
                            -0.5833857026395037,
                            -0.46754765293970624
                        ],
                        "bias": 0.27452306695315254
                    },
                    {
                        "weights": [
                            0.06854769013489115,
                            -0.8913851826581478,
                            -0.4498277275799081,
                            0.24318238037677764,
                            -0.08488233719825256,
                            -0.9977765285488513,
                            -0.7567540609421013,
                            0.24386537108696427,
                            -0.25943258509874645,
                            -0.7929602009382126
                        ],
                        "bias": -0.5540725181440387
                    }
                ]
            },
            {
                "neurons": [
                    {
                        "weights": [
                            0.8024807126604927,
                            -0.04106105853246378,
                            -0.5821417184011248,
                            -0.8735825122104348,
                            -0.7702879382224355,
                            -0.7693254791083988,
                            0.04071415014762425,
                            -0.8680018108944374,
                            0.24435354265004428,
                            -0.09519791933642763
                        ],
                        "bias": 0.6097452632698777
                    },
                    {
                        "weights": [
                            0.7160737413758815,
                            0.5157852815298054,
                            0.6309148757020477,
                            -0.6838437964203448,
                            -0.9888169822804362,
                            0.551502689304596,
                            -0.05497270910168184,
                            0.6974547870028296,
                            -0.9914651805031822,
                            0.8048303717127374
                        ],
                        "bias": -0.27362617299865927
                    },
                    {
                        "weights": [
                            -0.5727944902313185,
                            0.34032071732257396,
                            -0.6479302195881012,
                            0.022772554734888484,
                            -0.998656585961784,
                            -0.6629849282135554,
                            -0.06203262228497208,
                            0.9817945198420706,
                            -0.5860709776986444,
                            -0.9895523444201826
                        ],
                        "bias": -0.6423177922194393
                    },
                    {
                        "weights": [
                            0.6688188823754477,
                            -0.3166685397203284,
                            0.038786655386669366,
                            -0.5239315187274096,
                            0.1999764754498523,
                            -0.35284925286173174,
                            0.8447556862868213,
                            0.6310907436524393,
                            0.0926822938290246,
                            -0.8142000913396641
                        ],
                        "bias": -0.46140918203072545
                    },
                    {
                        "weights": [
                            0.8278190459282742,
                            0.22227435551186203,
                            0.6049544149194972,
                            -0.33671450057960817,
                            -0.967385145234025,
                            -0.23436827697828466,
                            -0.8102921262437424,
                            0.08540938855339197,
                            -0.40606168040341384,
                            -0.41216789387209296
                        ],
                        "bias": -0.6024912664265836
                    },
                    {
                        "weights": [
                            0.6146213340519662,
                            0.3933990608780398,
                            0.3178240846582987,
                            -0.6432287177369733,
                            -0.6425271846630649,
                            -0.9353120250863318,
                            -0.2842606323708383,
                            0.22245903279432655,
                            -0.548668863129858,
                            -0.978358112763914
                        ],
                        "bias": -0.5143951070470186
                    },
                    {
                        "weights": [
                            0.27573813187233753,
                            0.13094976421496196,
                            -0.19908372587132672,
                            -0.2116585795929704,
                            0.7470950761816808,
                            0.30107357888973074,
                            -0.8449632125508244,
                            -0.28181745229597355,
                            -0.8146173064018893,
                            0.24229951512991343
                        ],
                        "bias": -0.6085461834953422
                    },
                    {
                        "weights": [
                            -0.9712751075163697,
                            0.5534309667059742,
                            -0.35982285017003224,
                            -0.9237876842722559,
                            -0.3903505595196446,
                            -0.20189258280907096,
                            0.4009593980815014,
                            -0.04455550088217253,
                            -0.04483873829122431,
                            -0.5679261169842349
                        ],
                        "bias": -0.2590293873937145
                    },
                    {
                        "weights": [
                            -0.7933895357455787,
                            -0.2947541571133765,
                            -0.6608990623471982,
                            0.07617425256099364,
                            0.515388581318498,
                            -0.39191650792109467,
                            -0.5079084637431217,
                            0.0588813072434502,
                            0.6203540471111741,
                            0.08970755672275876
                        ],
                        "bias": -0.4862540515374709
                    },
                    {
                        "weights": [
                            0.043759910491342646,
                            -0.2733620327121986,
                            0.14461476551249142,
                            -0.89705782879321,
                            -0.25991016525760435,
                            0.32385491848362125,
                            0.7951371837703733,
                            0.07391733468518025,
                            -0.9497813183235309,
                            -0.501560523323552
                        ],
                        "bias": -0.20957124729161636
                    }
                ]
            },
            {
                "neurons": [
                    {
                        "weights": [
                            0.41067263611579063,
                            0.5005462453839333,
                            -0.3207447208082814,
                            -0.906800362232216,
                            -0.23701852866566453,
                            0.364599649734628,
                            0.3106225512467309,
                            -0.294741076254903,
                            0.541261964302902,
                            0.6995831192698734
                        ],
                        "bias": 0.04265560632452346
                    },
                    {
                        "weights": [
                            0.3799426177900731,
                            0.7712473685498136,
                            0.8149661368557901,
                            -0.1744400530478296,
                            -0.5754245001480709,
                            0.18940681945917692,
                            0.3082647408133694,
                            0.16926733672814387,
                            -0.7813407991682999,
                            -0.7480281162158711
                        ],
                        "bias": 0.6463901857784394
                    },
                    {
                        "weights": [
                            0.05557814869090838,
                            0.48625712912542096,
                            -0.9249753498189666,
                            -0.9998992163279656,
                            0.6063038744122804,
                            -0.17685064229403746,
                            -0.7097181064307319,
                            0.03352493810845547,
                            0.4076953132260168,
                            -0.2415062622617794
                        ],
                        "bias": -1.3587531682224425
                    },
                    {
                        "weights": [
                            0.01042583509294226,
                            -0.8869048502539028,
                            -0.8552959881138458,
                            0.17863644113024724,
                            0.6757574846537366,
                            0.25245186774827855,
                            -0.6374410760799818,
                            -0.3438005766144576,
                            0.8424703089992387,
                            -0.2963626662064558
                        ],
                        "bias": 1.015014889741018
                    },
                    {
                        "weights": [
                            -0.8255245582338298,
                            0.37914940855547363,
                            0.02337077649739916,
                            0.13622799803064556,
                            -0.3839597671754209,
                            -0.09564362931207482,
                            0.8723198945650685,
                            -0.7012184314956786,
                            0.5824730425094071,
                            -0.6339607812327215
                        ],
                        "bias": -0.5007015027044813
                    },
                    {
                        "weights": [
                            0.7193756294634546,
                            -0.6296167176044334,
                            -0.7904083936604651,
                            -0.9963180518102308,
                            -0.6198381986381105,
                            0.6000714265927858,
                            -0.7639191427093066,
                            -0.7464323169104912,
                            0.2841977124464028,
                            0.0839193003846066
                        ],
                        "bias": 1.0373607231464264
                    },
                    {
                        "weights": [
                            0.34862448321700934,
                            -0.9815073978384976,
                            0.7790072685624083,
                            0.8440568576372056,
                            -0.7915115160165656,
                            0.852114226405793,
                            -0.26819690122615225,
                            -0.3362350721734675,
                            -0.6735133821209389,
                            -0.9255136356638622
                        ],
                        "bias": -0.3335274283166934
                    },
                    {
                        "weights": [
                            0.9220701318958338,
                            0.9761184493502657,
                            0.45033638489095695,
                            -0.7645653826495169,
                            -0.09513501419528247,
                            0.8525201090940722,
                            -0.4209754869196678,
                            0.06905584021514799,
                            -0.8102360120905556,
                            0.6776776966965083
                        ],
                        "bias": -0.20155731855145653
                    },
                    {
                        "weights": [
                            -0.7815228116097608,
                            0.8717042281422662,
                            -0.4415462733300457,
                            0.7067552680156397,
                            0.7363687188354746,
                            -0.5514730835604069,
                            -0.788179162698688,
                            0.8601896282599049,
                            -0.30393632117682756,
                            -0.1751456571850425
                        ],
                        "bias": 0.03980881234054674
                    },
                    {
                        "weights": [
                            -0.19240217688366745,
                            -0.6907626300545016,
                            0.2809438437675056,
                            0.013337856004636217,
                            0.7966627550554684,
                            0.2852706320683196,
                            -0.9325963763031662,
                            0.9402352166176748,
                            -0.6626584866627383,
                            -0.2333312767223703
                        ],
                        "bias": 0.6909752631300097
                    }
                ]
            },
            {
                "neurons": [
                    {
                        "weights": [
                            0.7657188580934975,
                            0.27565918324020444,
                            0.18739177793872464,
                            0.29034767689211516,
                            0.5513450990112054,
                            -0.5965713708579801,
                            -0.3595932379490907,
                            0.8117986970551363,
                            0.0133376639734466,
                            0.48412081195990964
                        ],
                        "bias": -0.724417875701244
                    },
                    {
                        "weights": [
                            0.30951328704149295,
                            0.9982437075251345,
                            -0.9120101154722109,
                            0.23459349061296675,
                            -0.7091401363767378,
                            0.8920024121787646,
                            0.9982276343007481,
                            0.22522796805624745,
                            -0.46390792023449645,
                            -0.6504669292190117
                        ],
                        "bias": 0.8360681172158373
                    },
                    {
                        "weights": [
                            -0.03527771377892841,
                            -0.36920953611018437,
                            -0.9117221529118453,
                            -0.3713157069520001,
                            0.13502521299469517,
                            0.3912497639108188,
                            -0.8162271484281036,
                            0.23639040796840338,
                            -0.2778644956069991,
                            -0.48456775785172335
                        ],
                        "bias": 0.5615493559278131
                    },
                    {
                        "weights": [
                            0.8803619952841097,
                            0.07286932896572162,
                            -0.7318016629139099,
                            0.009134570298973133,
                            0.8913245959328984,
                            0.624509748836888,
                            -0.5502567250216954,
                            -0.4505892543322272,
                            -0.2979352119169387,
                            -0.8108019756837317
                        ],
                        "bias": -0.3390854426281651
                    },
                    {
                        "weights": [
                            -0.11997052392332175,
                            -0.9627921039779994,
                            0.3747865814905216,
                            -0.4410002411199845,
                            0.33426434056702803,
                            0.8515300766845233,
                            0.5552133332485687,
                            0.27743280718717966,
                            -0.7093254908424891,
                            -0.23840834963745228
                        ],
                        "bias": -0.3134810006617172
                    },
                    {
                        "weights": [
                            -0.28456877949282755,
                            -0.4368295233822459,
                            -0.30975740042255384,
                            0.3097786232064774,
                            -0.3003862738132259,
                            -0.8856289530743773,
                            -0.05152936439817224,
                            -0.08816647208726258,
                            -0.3078939120482287,
                            0.9649543386315289
                        ],
                        "bias": -0.48663528379063825
                    },
                    {
                        "weights": [
                            0.47995960825455586,
                            0.00698801469689192,
                            -0.39891041677326644,
                            -0.9870460501537532,
                            0.48152040036316923,
                            0.26716688109747255,
                            0.7521169184097083,
                            -0.652409927882472,
                            -0.1400271335897907,
                            0.5381826223357637
                        ],
                        "bias": 0.33058240725947713
                    },
                    {
                        "weights": [
                            -0.10325031659894446,
                            -0.4611911096827357,
                            0.3598689066100922,
                            0.1883429167663182,
                            0.9758345586144426,
                            0.5116037480172861,
                            0.0370086963837839,
                            0.23394056427573107,
                            -0.10304846287836855,
                            -0.9118058937927576
                        ],
                        "bias": -0.29338123865187615
                    },
                    {
                        "weights": [
                            0.5660808928573371,
                            0.4456863181265194,
                            -0.10878705660403032,
                            0.769767799970823,
                            0.1366336363497871,
                            0.9166697325986279,
                            0.333925916429489,
                            -0.3714721057592767,
                            0.5712523943047725,
                            -0.42917470588202833
                        ],
                        "bias": 0.019246288592185926
                    },
                    {
                        "weights": [
                            -0.47307536412380324,
                            0.07576223742483856,
                            -0.18950517708808556,
                            0.9048643390350404,
                            0.9189566092564925,
                            0.2651826511256088,
                            0.06438132787411921,
                            -0.3634532757917448,
                            -0.32467304243424344,
                            -0.7533690700262199
                        ],
                        "bias": -0.9463388442871742
                    }
                ]
            },
            {
                "neurons": [
                    {
                        "weights": [
                            -0.9064036976435075,
                            -0.025152866498825865,
                            0.2620379540292519,
                            -0.10311682568590141,
                            0.4628618736460852,
                            -0.47579013284410654,
                            0.7334082478425834,
                            0.7627724403130984,
                            -0.622870195631539,
                            -0.09271057902817414
                        ],
                        "bias": -0.24102630884644638
                    },
                    {
                        "weights": [
                            0.8973812649162152,
                            -0.45037915715749244,
                            -0.5337821103975222,
                            -0.027764557369804654,
                            -0.13697453433797002,
                            -0.5281912848527799,
                            0.12041851643270274,
                            0.7223623837194653,
                            -0.2580523361410092,
                            0.726688098338446
                        ],
                        "bias": -0.2782608088941547
                    },
                    {
                        "weights": [
                            0.2421367746891332,
                            -0.6878908230729961,
                            0.3054445070082077,
                            0.5519214331248377,
                            -0.13501642733748653,
                            0.899072731867139,
                            -0.7388411194008138,
                            -0.5807736145209901,
                            -0.9705025935471248,
                            -0.38065398376411763
                        ],
                        "bias": -0.05764941624556084
                    },
                    {
                        "weights": [
                            0.12295841927670681,
                            -0.04189162652440759,
                            0.8037011807374321,
                            -0.5490940457243174,
                            0.913274805580734,
                            -0.8218953948335435,
                            0.5788305180521807,
                            0.30631601431396827,
                            0.37863680471991246,
                            0.40060368554451786
                        ],
                        "bias": -0.370956550893582
                    },
                    {
                        "weights": [
                            0.20966886814358365,
                            0.17927905672266475,
                            -0.18578233931932142,
                            0.208093259863386,
                            0.6616943237917658,
                            -0.5437218058218702,
                            -0.9064295541634517,
                            -0.16275230542042118,
                            -0.8223654120939461,
                            -0.7493561827452286
                        ],
                        "bias": 0.45670609495302916
                    },
                    {
                        "weights": [
                            -0.28879838642792177,
                            -0.1254116201952591,
                            -0.3687221070593951,
                            -0.6746897486848629,
                            -0.6141197010482418,
                            -0.7832093206506723,
                            0.36629712975100337,
                            -0.7196746852825038,
                            -0.4040983307435344,
                            0.812877542962644
                        ],
                        "bias": 0.45639484434474914
                    },
                    {
                        "weights": [
                            0.7874195327154985,
                            -0.8083042895503088,
                            0.3149357624824265,
                            0.5462354320843321,
                            -0.7697638414227264,
                            -0.22045404151436987,
                            0.5255095343584866,
                            0.10308103051781536,
                            0.834762011347201,
                            0.12021539411121362
                        ],
                        "bias": 0.9413103425699755
                    },
                    {
                        "weights": [
                            0.5602396808361618,
                            0.20071330487852657,
                            -0.7474042192908434,
                            -0.5442465509275645,
                            -0.9059707913183268,
                            0.706786137223103,
                            0.7982812377765443,
                            -0.23867729129254278,
                            -0.7734306989970492,
                            -0.368652778921406
                        ],
                        "bias": 0.4601013336807168
                    },
                    {
                        "weights": [
                            0.25716577389327533,
                            -0.2335309107246799,
                            -0.9855385393280969,
                            -0.700574333249018,
                            -0.27662456490440657,
                            0.5430855148294207,
                            -0.14161349386420108,
                            -0.26825023632447254,
                            0.4163588334241288,
                            0.5253785065039112
                        ],
                        "bias": 0.2540761052626701
                    },
                    {
                        "weights": [
                            0.49608172088139435,
                            0.47971533756170914,
                            -0.7151145577082962,
                            0.6007116641421468,
                            0.9276626391180773,
                            0.6685297338254421,
                            -0.41706432989138076,
                            0.3205316569970329,
                            0.15597067812685905,
                            0.7675175301843691
                        ],
                        "bias": 1.1834928388703474
                    }
                ]
            }
        ],
        "outputLayer": {
            "neurons": [
                {
                    "weights": [
                        -0.4927343232547965,
                        0.8050066085576018,
                        -0.6147180584199401,
                        0.04411085322351882,
                        0.8096166433109808,
                        -0.11435244665973543,
                        -0.16044855346532794,
                        -0.928222161621236,
                        0.25765699403100184,
                        -0.20908193573093636
                    ],
                    "bias": 0.3966216792301377
                },
                {
                    "weights": [
                        -0.8778691020704128,
                        0.4643315703719506,
                        -0.5677331652474757,
                        0.4438410298470923,
                        0.8113547342416376,
                        -0.3786969030506504,
                        -0.6198528772643785,
                        0.4583482197683253,
                        0.9006346401445937,
                        -0.6789790680784984
                    ],
                    "bias": -0.1546287143107023
                },
                {
                    "weights": [
                        0.22318927625519924,
                        0.21768382039994116,
                        0.6524891450850319,
                        0.4224462493266463,
                        0.32207055081331015,
                        0.28753608083514837,
                        0.6689018834548157,
                        0.10162281647594718,
                        -0.37314080387417614,
                        -0.9002688359522786
                    ],
                    "bias": -0.9063228348312422
                },
                {
                    "weights": [
                        -0.9776552098283882,
                        -0.18529255381568177,
                        -0.6563164578637513,
                        -0.3722224049901959,
                        -0.48878640421899777,
                        0.9446347732900788,
                        -0.23742753722024745,
                        -0.6850593823563942,
                        0.6341523164874696,
                        0.11941324749404059
                    ],
                    "bias": 0.6649078466027828
                }
            ]
        }
    },
    {
        "inputLayer": {
            "neurons": [
                {
                    "weights": [
                        0.7362460066699539,
                        0.7335652371212915,
                        -0.9583222805029583,
                        -0.9205537265083483,
                        0.041655907560269156,
                        0.4031377405843177,
                        0.07024711202847334,
                        -0.3840006685392938,
                        0.612442262704157,
                        -0.43763356723392954,
                        -0.8303950762682963,
                        -0.12764114336687382,
                        -0.7619718570081118,
                        0.6819428564890455,
                        -0.9347076999064161,
                        0.5768697473837592,
                        -0.8263953107328212,
                        0.9972095790237203
                    ],
                    "bias": 0.13731538109140137
                },
                {
                    "weights": [
                        0.9052788714202094,
                        0.6443400154737549,
                        -0.2436384546674315,
                        0.2917969449774229,
                        -0.2778147217136757,
                        -0.0212837416333318,
                        -0.3545657511148712,
                        0.9496085255808526,
                        0.7294677405669185,
                        0.017796433140607526,
                        0.33934544442879955,
                        -0.6634988764021712,
                        -0.9689222541354516,
                        0.3820353970467958,
                        -0.9104145239870876,
                        0.873739559465081,
                        0.16795717353976602,
                        -0.15623996531478102
                    ],
                    "bias": 0.5233650516841006
                },
                {
                    "weights": [
                        0.617010184837731,
                        0.038460882057270496,
                        0.6821564708615675,
                        0.891635330035979,
                        0.7392451725262821,
                        -0.1098333920294523,
                        -0.8292380024622679,
                        0.7721506422334814,
                        -0.980689058578972,
                        0.24159657792825295,
                        0.8428711054580851,
                        -0.6010375706451347,
                        0.6572761655108408,
                        -0.00013098791774401874,
                        -0.7898224133628884,
                        0.6685876106234008,
                        0.1073783066155305,
                        0.14098901499921035
                    ],
                    "bias": 0.8260868007703265
                },
                {
                    "weights": [
                        -0.7927171256591514,
                        0.08841502182851091,
                        -0.816626900219064,
                        -0.0952534825514959,
                        0.7125241155943329,
                        0.9175101197830928,
                        -0.8923148777841645,
                        0.3028183863312408,
                        0.2681329337360021,
                        0.9627349373551111,
                        -0.2182254218720472,
                        0.31059651907063524,
                        0.5544693518028758,
                        0.29000729709422557,
                        -0.3542019861648069,
                        0.616518789309713,
                        0.021709232141862378,
                        0.13681098602836173
                    ],
                    "bias": 0.7443165958716377
                },
                {
                    "weights": [
                        0.6075818333309693,
                        -0.12565920538880393,
                        -0.049981151048125616,
                        -0.8875746502756308,
                        0.8215650607051439,
                        0.3232064974303064,
                        -0.12427873874415507,
                        0.4867166048120528,
                        0.042396377038147914,
                        0.5058715305130492,
                        0.3703815739347691,
                        0.06036255514865796,
                        0.7533182583209148,
                        0.004568553765442962,
                        0.9189666708463613,
                        0.28747482783643186,
                        -0.7735728495137757,
                        -0.17114262082107956
                    ],
                    "bias": 0.24356460728670426
                },
                {
                    "weights": [
                        -0.19912485101048794,
                        -0.14585570988555374,
                        0.22605933921313426,
                        0.9825916406660216,
                        -0.1460332755053242,
                        -0.8158408337273029,
                        0.9549561747133379,
                        -0.31071693675543277,
                        -0.4017865820042541,
                        0.5066742491420277,
                        -0.37699657309656387,
                        0.9150358387105864,
                        -0.1441967867581342,
                        -0.382557191314836,
                        0.29336465062170247,
                        0.2970119235130442,
                        -0.6579217535846147,
                        0.8428174890210596
                    ],
                    "bias": 0.9012967275591995
                },
                {
                    "weights": [
                        0.4067487464605779,
                        -0.7360238593262836,
                        0.27177052857776274,
                        -0.38864545780228354,
                        -0.8606193090128849,
                        0.6101285382737067,
                        0.2123788044586592,
                        -0.9171480241447276,
                        -0.20604206241115697,
                        0.3104011495652692,
                        -0.029465021444421424,
                        -0.0002931016813865206,
                        -0.5637466422222184,
                        0.844375524863046,
                        0.7660639824365281,
                        0.24640979018387799,
                        -0.15269587753412028,
                        -0.7448554454939647
                    ],
                    "bias": 0.44942879103422084
                },
                {
                    "weights": [
                        0.5221706479074764,
                        -0.9918209777369169,
                        0.9287744064060315,
                        -0.17805704581041937,
                        -0.501412242627113,
                        0.42969605502993247,
                        0.7368303150935618,
                        0.28607220743294315,
                        -0.15570471540712094,
                        0.24744900235898037,
                        -0.8561675829520436,
                        -0.320031915980419,
                        -0.9177464694684787,
                        0.7592317430565825,
                        0.6812737552473669,
                        0.24935928914921712,
                        -0.42960357493530843,
                        -0.8666837737212671
                    ],
                    "bias": 0.03715558976458951
                },
                {
                    "weights": [
                        -0.6215310297978041,
                        -0.9541032326703953,
                        0.6466638812985535,
                        0.08725866320743858,
                        -0.45477030040431154,
                        -0.6129033570856264,
                        -0.18962286041554255,
                        0.33687281343962816,
                        0.13021620740754414,
                        -0.5475342251658799,
                        -0.4680867368973938,
                        0.9694842117893954,
                        0.6801634868695634,
                        0.8198840058411163,
                        -0.2731651338158607,
                        -0.4095575824217359,
                        -0.6223201390360749,
                        0.031155817416584908
                    ],
                    "bias": 0.513736656931277
                },
                {
                    "weights": [
                        0.8230611577238665,
                        0.7151765643655181,
                        0.5978379234042572,
                        -0.7216519818758802,
                        -0.13744819042965095,
                        -0.7785378555223212,
                        -0.237924641110838,
                        -0.7743517447333323,
                        -0.47937554140558114,
                        0.21802944472284502,
                        -0.7661188201598608,
                        0.3974936501140778,
                        -0.9201341520834063,
                        -0.5303789332799871,
                        -0.38374937254105146,
                        0.3296713464054213,
                        0.8904116350844213,
                        -0.8728191148949971
                    ],
                    "bias": 0.5681545243588952
                }
            ]
        },
        "layers": [
            {
                "neurons": [
                    {
                        "weights": [
                            -0.07521321609319642,
                            -0.3115936215501678,
                            -0.48565997221462753,
                            -0.7720217659143689,
                            0.5690649935738963,
                            -0.44676123264948187,
                            -0.2590198955742731,
                            -0.817919478495035,
                            -0.08568400459468206,
                            0.6812338134795679
                        ],
                        "bias": 0.12473523387208438
                    },
                    {
                        "weights": [
                            -0.7465515025169194,
                            -0.5914826611884354,
                            -0.773677102510536,
                            -0.5083572656280966,
                            0.6819424530256528,
                            0.9236192997726833,
                            0.7545167821403256,
                            0.5771510296516371,
                            -0.35346186560579085,
                            0.908314331792071
                        ],
                        "bias": 1.1023773070663065
                    },
                    {
                        "weights": [
                            -0.5931110104105421,
                            0.9636540587604281,
                            0.9853156072322504,
                            0.5093938749779072,
                            0.5936033621771577,
                            -0.8909485272688014,
                            0.8708055405613022,
                            0.030776114624613493,
                            -0.47921271791016307,
                            0.2598901690112836
                        ],
                        "bias": 0.8713581297986843
                    },
                    {
                        "weights": [
                            -0.4818168643197207,
                            0.3499075367903006,
                            0.1837814982146646,
                            -0.8287522358421595,
                            -0.5300875322027014,
                            0.5432147795999933,
                            -0.8368442232743178,
                            0.17506701407078018,
                            -0.4073994668987433,
                            -0.4843388500610657
                        ],
                        "bias": -0.04074460991931181
                    },
                    {
                        "weights": [
                            -0.014933028966633177,
                            -0.43614879617179536,
                            -0.11128895731335464,
                            0.6966576285231143,
                            0.005331792183729922,
                            0.31818340832504877,
                            -0.5160078993477932,
                            -0.026178493841220396,
                            0.9432722869400882,
                            0.5369530326048721
                        ],
                        "bias": -0.06271381151039465
                    },
                    {
                        "weights": [
                            -0.8413379066536275,
                            -0.7718005589656953,
                            -0.6941546961921101,
                            -0.6041607775457167,
                            0.13617170311484794,
                            0.23420101240780333,
                            0.5969373592967115,
                            -0.7104605542346303,
                            0.9943762031620904,
                            -0.14403183027694855
                        ],
                        "bias": 0.7317861379731576
                    },
                    {
                        "weights": [
                            0.6062105170583831,
                            0.5184663809973891,
                            -0.14414158250442766,
                            -0.9516485539428265,
                            0.5248929640042816,
                            -0.8501620681988546,
                            0.0000620633370878032,
                            0.1783959921232947,
                            0.517253835579855,
                            -0.03738518074468211
                        ],
                        "bias": 0.15380092851801816
                    },
                    {
                        "weights": [
                            0.5716154659568595,
                            -0.8143333438846136,
                            -0.8346512804161501,
                            -0.8686263391534506,
                            -0.38768928162312677,
                            -0.0780522444305567,
                            -0.8993815886665786,
                            -0.8468162031175326,
                            -0.5845646463916789,
                            -0.058496625903793786
                        ],
                        "bias": 0.40997881837488587
                    },
                    {
                        "weights": [
                            0.12830194903425962,
                            -0.838752734562983,
                            0.7830120036016477,
                            -0.05947672485095645,
                            0.8857003273597459,
                            -0.30805425190066016,
                            -0.3340504197893148,
                            -0.03907121035523953,
                            -0.6366429317275659,
                            0.19209594737721503
                        ],
                        "bias": -0.05620234134441919
                    },
                    {
                        "weights": [
                            0.6934826418202582,
                            0.4609303836075682,
                            0.01880356699929142,
                            0.7500204672954329,
                            0.35425515397410656,
                            0.8962947725140087,
                            -0.05792733332766353,
                            0.0958893358847519,
                            0.7957148710640092,
                            0.5311147369366658
                        ],
                        "bias": -0.27523703250641035
                    }
                ]
            },
            {
                "neurons": [
                    {
                        "weights": [
                            0.34209734231689093,
                            0.5793810575328555,
                            -0.3232464273492506,
                            0.5327778686938984,
                            -0.6764283568103611,
                            -0.4087593889028025,
                            -0.9533223144291063,
                            0.2658171470470949,
                            -0.2523803782589882,
                            0.35123475013290695
                        ],
                        "bias": -0.8141499678423556
                    },
                    {
                        "weights": [
                            -0.9531832199761885,
                            -0.025801868638644088,
                            0.3242926158082855,
                            0.4630082682246828,
                            -0.14581048526570162,
                            0.6728165150106973,
                            0.10762029006609453,
                            0.7257427044581373,
                            0.8097335607992968,
                            -0.9441999826664826
                        ],
                        "bias": -0.3484199946794305
                    },
                    {
                        "weights": [
                            0.5030850871776462,
                            0.17346772010942546,
                            -0.9961349161470352,
                            0.8647130661564659,
                            0.2893057575848217,
                            -0.35790703296814774,
                            0.2715910281582339,
                            -0.325949275210071,
                            0.4724343502783359,
                            0.863419775600262
                        ],
                        "bias": -0.874122790352451
                    },
                    {
                        "weights": [
                            0.41901064047556846,
                            -0.7826368918500444,
                            0.4591732218061535,
                            0.5423553925904183,
                            0.9978810549636139,
                            -0.48524702042768686,
                            -0.0012202844895727871,
                            -0.43192161009309027,
                            -0.012569121045312048,
                            0.558418260570035
                        ],
                        "bias": -0.14929488806046418
                    },
                    {
                        "weights": [
                            0.8227598968856047,
                            0.057128995945395555,
                            0.03986428221924787,
                            -0.7986144762934921,
                            -0.42819050893004196,
                            0.5071176440655851,
                            0.18223860724507412,
                            -0.3891384363733035,
                            -0.564913288851451,
                            0.8403057028163234
                        ],
                        "bias": -0.8266652873351001
                    },
                    {
                        "weights": [
                            -0.9922122349064812,
                            -0.41950204889060827,
                            0.8008720094228083,
                            -0.0572405267622369,
                            -0.5593107582303574,
                            0.9402272036447239,
                            0.6510193528561989,
                            0.25380576722602566,
                            -0.9645878154535072,
                            0.7116693257248625
                        ],
                        "bias": 0.35911614443686163
                    },
                    {
                        "weights": [
                            -0.905533571259054,
                            -0.6166794285818704,
                            0.41429171158211386,
                            -0.5510637628483508,
                            -0.6938579870663415,
                            -0.32555644954409524,
                            -0.8656305370068413,
                            0.43771672190661226,
                            -0.19850496981538757,
                            -0.030798522177541754
                        ],
                        "bias": -0.49392319352186304
                    },
                    {
                        "weights": [
                            0.022012130823487075,
                            -0.9370544203554958,
                            0.006730088975467119,
                            0.46265988416470716,
                            -0.5626838094426645,
                            -0.29917744783867706,
                            0.3902263340994414,
                            -0.9984545926974167,
                            -0.47920299748720074,
                            -0.3325474039122971
                        ],
                        "bias": -0.2700661009721304
                    },
                    {
                        "weights": [
                            -0.1680692050329644,
                            0.5082982157842948,
                            0.10538438526496807,
                            -0.09262055871678343,
                            -0.09804474360487925,
                            0.4808480095604415,
                            0.4556847705268843,
                            0.3684200429995179,
                            -0.9204315847427287,
                            -0.3624715911065264
                        ],
                        "bias": 0.2058551127269524
                    },
                    {
                        "weights": [
                            0.7704897392206032,
                            0.9059120599157917,
                            -0.5978679339655524,
                            0.5649969660309924,
                            -0.9872384122188007,
                            0.5502476837613273,
                            0.2576864726982384,
                            0.6297976281798137,
