[
    {
        "inputLayer": {
            "neurons": [
                {
                    "weights": [
                        0.026386467664962332,
                        0.007091384939061918,
                        0.1910807154987948,
                        0.027390147663065356,
                        -0.4047562258631465,
                        -0.18213757209504267,
                        -0.5574793552666002,
                        -0.3080787578511004,
                        0.32821388003773233,
                        0.3286231388415548,
                        0.10294140619072478,
                        -0.6823587272480434,
                        -0.06617025843754609,
                        0.834411552067015,
                        0.6615691873167684,
                        0.7162723297274625,
                        0.2646183212037796,
                        -0.7836431546588007
                    ],
                    "bias": -0.12865353522862769
                },
                {
                    "weights": [
                        0.0868880122820237,
                        -0.5996264030537919,
                        0.970782343656776,
                        -0.0635848710008231,
                        -0.9441290975358756,
                        0.35858222573201703,
                        -0.4667494459968935,
                        -0.8612756799910339,
                        0.6928955439393283,
                        0.9410028914129216,
                        -0.7367002950564492,
                        0.8401256075897965,
                        -0.09865791220462672,
                        0.28618007569390747,
                        -0.2006254925538864,
                        0.2421670817397903,
                        0.3397060221384869,
                        0.10200660726240351
                    ],
                    "bias": -0.5577187982359846
                },
                {
                    "weights": [
                        0.6618672422111753,
                        0.39256699833204434,
                        -0.03099987417335881,
                        -0.6102244855578876,
                        0.8788329936274448,
                        0.9095845724971825,
                        -0.3938581258741791,
                        -0.38982106011369,
                        -0.7284116434777714,
                        0.3146562023309549,
                        0.19342519555224436,
                        -0.901804391217472,
                        -0.5067139459417671,
                        0.9262315679681512,
                        -0.8645413285269183,
                        -0.342597793795808,
                        0.2712890876384748,
                        0.6851704429701833
                    ],
                    "bias": -0.5690512181408023
                },
                {
                    "weights": [
                        0.5269951559461812,
                        0.13950291795674175,
                        -0.44774601969487793,
                        0.33359479760544875,
                        -0.582417179774924,
                        0.746426642213095,
                        0.1620091183774779,
                        -0.31758377288107953,
                        0.4350272308048173,
                        0.9966287905350941,
                        0.5936116015223538,
                        0.30411686238824265,
                        -0.8967725335369003,
                        -0.8204365399416043,
                        -0.05320778210783872,
                        0.9035057094214307,
                        -0.3143637503207062,
                        0.38967611409413716
                    ],
                    "bias": 0.804311081029558
                },
                {
                    "weights": [
                        -0.48007499930582664,
                        -0.13857737443633455,
                        0.43250885193849276,
                        -0.05099520049415074,
                        0.14380749715430952,
                        -0.9289465229647993,
                        -0.12248637235417359,
                        0.7173499191129895,
                        -0.7256647268168812,
                        0.876233824439256,
                        0.05546029300691724,
                        0.6716982450277877,
                        -0.33290313975839125,
                        0.8754616832238176,
                        0.43298269997430694,
                        0.5154815973936071,
                        0.2814602428932169,
                        -0.4216227084767734
                    ],
                    "bias": -0.13020845065439274
                },
                {
                    "weights": [
                        0.08602024872713554,
                        -0.47347447679933663,
                        0.12711676222804869,
                        0.4309962727526222,
                        -0.8905009837626823,
                        -0.2784741172059204,
                        -0.1484341031216323,
                        0.431235438592126,
                        0.6957194835399356,
                        -0.30643696433451884,
                        -0.9988361579104095,
                        0.5271698493558881,
                        -0.2910581586090104,
                        -0.9301816065150517,
                        0.9607481143055794,
                        0.8174960862008254,
                        0.26002924430518815,
                        -0.2880446735856075
                    ],
                    "bias": 0.9822980548407168
                },
                {
                    "weights": [
                        0.7819692489817596,
                        0.9317329114589776,
                        -0.6416379822974152,
                        -0.19445735448379664,
                        0.23390217795690393,
                        -0.08804999446785766,
                        -0.20233999255454083,
                        0.30321972484148496,
                        0.35313664180891524,
                        0.7440614297559278,
                        -0.22093755254079128,
                        0.8556002306244621,
                        0.28686908866974603,
                        0.9569522619754516,
                        0.5986036233168375,
                        -0.7582065685949244,
                        -0.5433113797600757,
                        -0.3717664583302118
                    ],
                    "bias": -0.7807137233222925
                },
                {
                    "weights": [
                        -0.785144499770337,
                        0.12522567142237362,
                        -0.9701000374461521,
                        -0.9825419020744621,
                        -0.6425439899947405,
                        -0.17748516173307394,
                        0.21734806835265208,
                        0.48865134649708963,
                        0.512335513522095,
                        0.4666714115438906,
                        -0.4777516788203253,
                        0.6129696882248539,
                        -0.4108851479664686,
                        -0.5884230866100764,
                        0.12107847698577068,
                        0.47210241084561155,
                        -0.15027037279905708,
                        0.7855065354568833
                    ],
                    "bias": -0.9395539996157762
                },
                {
                    "weights": [
                        -0.5686483418258019,
                        -0.5950295520933835,
                        -0.03750216977017584,
                        -0.40084719254768975,
                        -0.3518387326448089,
                        0.951119877375223,
                        -0.35347009307017996,
                        0.8199773463799014,
                        -0.2249937420446615,
                        -0.591205895334558,
                        -0.8405191274002852,
                        -0.5756411343610381,
                        0.5000860413801218,
                        -0.22429976882296154,
                        0.6439024071578627,
                        0.8791738167996914,
                        -0.38541426110509813,
                        0.7306431267918982
                    ],
                    "bias": -0.5116228502151134
                },
                {
                    "weights": [
                        0.4423581543199886,
                        -0.1708135261565793,
                        -0.6684703893765822,
                        -0.2123119490003964,
                        0.4249861173764067,
                        -0.8189204283009521,
                        -0.2814972449565236,
                        0.18389245432478685,
                        -0.8209405293850704,
                        0.303087748272318,
                        0.8456099891203261,
                        0.030031630010173282,
                        0.20945548002681935,
                        0.42884080107321454,
                        0.013293666389072145,
                        0.00028269679209635967,
                        0.6625790199822656,
                        0.8531191213383031
                    ],
                    "bias": 0.8384450439211917
                }
            ]
        },
        "layers": [
            {
                "neurons": [
                    {
                        "weights": [
                            -0.02061855698906423,
                            -0.007072192465214622,
                            0.8372223167026189,
                            0.7541059150411689,
                            -0.8859734486723758,
                            0.6583183355299922,
                            -0.42998944019979035,
                            -0.14994455829197806,
                            0.21966236098321712,
                            0.32842120048991896
                        ],
                        "bias": -0.6027497081665057
                    },
                    {
                        "weights": [
                            -0.876410025048941,
                            0.7338096152718878,
                            0.5550034243733808,
                            -0.839977012377684,
                            0.3884595360454355,
                            -0.5945271047368803,
                            -0.8229588074953558,
                            -0.08143107512853454,
                            -0.5882159848132937,
                            -0.6272756023547246
                        ],
                        "bias": -0.6210605832477504
                    },
                    {
                        "weights": [
                            0.7471682341747441,
                            0.880402663362043,
                            0.626597403688691,
                            0.26379573462054884,
                            0.6280011251300184,
                            -0.7779172828474474,
                            0.5122954972244358,
                            0.29863988959699794,
                            -0.9182218482139066,
                            -0.4176140066495895
                        ],
                        "bias": -0.6034063330181914
                    },
                    {
                        "weights": [
                            0.7152656962588404,
                            -0.623366892431747,
                            0.8420038227884155,
                            0.22612959799502885,
                            -0.6903440201788618,
                            0.33247019524108157,
                            -0.19510962612435057,
                            -0.17647346399484753,
                            -0.9951159816119788,
                            0.867303258545302
                        ],
                        "bias": -0.3091194838163268
                    },
                    {
                        "weights": [
                            -0.5460829164946854,
                            -0.11944231156058804,
                            -0.43616699937998593,
                            0.7986473726622965,
                            0.2404885747009602,
                            0.1652169058494386,
                            -0.18184795665469733,
                            -0.9793066985638148,
                            0.9808541755908649,
                            0.35482008964919287
                        ],
                        "bias": 0.9098215480827523
                    },
                    {
                        "weights": [
                            0.9820249349427854,
                            -0.7468086314843025,
                            -0.8739800919014387,
                            -0.9809224137834038,
                            0.9137873413518931,
                            -0.6805742099920251,
                            0.9219530020742772,
                            0.8777691130175791,
                            -0.6527380970765781,
                            -0.6131289175928425
                        ],
                        "bias": -0.38344511258025443
                    },
                    {
                        "weights": [
                            0.5126408546882142,
                            0.8672006808711583,
                            -0.6755416327156814,
                            -0.21321734581356733,
                            -0.10415977277324795,
                            0.655280774457788,
                            -0.13840131553904245,
                            0.7800711080849452,
                            0.2465112377992107,
                            0.43216199709370073
                        ],
                        "bias": -0.15129384964543924
                    },
                    {
                        "weights": [
                            0.6937135850701899,
                            -0.5228120978575495,
                            -0.08444295736468876,
                            0.8017543989526557,
                            -0.43167427641415457,
                            -0.6247099357103589,
                            0.5510093552880111,
                            0.2034703311722399,
                            -0.6757527691773764,
                            -0.3493576340703124
                        ],
                        "bias": 0.47570123009579784
                    },
                    {
                        "weights": [
                            -0.9843506624749152,
                            -0.7190908449293953,
                            0.579210977854441,
                            0.6305575905177208,
                            0.9417655189690934,
                            -0.6458215663134637,
                            0.6860997695913678,
                            0.7946389011972494,
                            -0.8430692791482175,
                            0.278312521285244
                        ],
                        "bias": -0.4755482957061029
                    },
                    {
                        "weights": [
                            -0.3845350509944978,
                            0.9210980670078122,
                            0.8386624608831941,
                            -0.8424332043326601,
                            -0.3161526536774155,
                            -0.1291250764784757,
                            0.9044732555821751,
                            0.13346315702096523,
                            0.28092783796394727,
                            -0.8783418559968834
                        ],
                        "bias": 0.6569580252215137
                    }
                ]
            },
            {
                "neurons": [
                    {
                        "weights": [
                            0.4841787787408145,
                            -0.10363209232692805,
                            -0.6924584134526899,
                            -0.3425574286135862,
                            -0.6419262004202897,
                            -0.10946130001922882,
                            -0.7453767091533285,
                            -0.7834710377600977,
                            -0.49067295149877954,
                            -0.04290911552650645
                        ],
                        "bias": -0.5028302913370738
                    },
                    {
                        "weights": [
                            0.7277464961153273,
                            0.6243574016746738,
                            0.038923641867868675,
                            -0.001933525487351595,
                            -0.22177753536604494,
                            0.617945317648062,
                            0.9440454861625975,
                            -0.01943772071664185,
                            -0.738013113972998,
                            0.26533126643937743
                        ],
                        "bias": 0.16975515992153342
                    },
                    {
                        "weights": [
                            0.5870520015924536,
                            -0.9980382478710477,
                            -0.11754614527820428,
                            -0.8049503785908068,
                            0.09591195385198725,
                            0.6127909076097044,
                            -0.7573665705003112,
                            0.5798781172794711,
                            -0.20487029762700693,
                            0.7417369941789262
                        ],
                        "bias": 0.8332102108038983
                    },
                    {
                        "weights": [
                            -0.3136137549599851,
                            0.07269067041974386,
                            0.6828568074337487,
                            0.00943776883413272,
                            0.8729917350447327,
                            0.4773013178035239,
                            -0.682305937588817,
                            0.692543816836563,
                            -0.2021971735469572,
                            0.556302899085722
                        ],
                        "bias": -0.8445018152215832
                    },
                    {
                        "weights": [
                            -0.021781560900481,
                            0.6539551239176984,
                            -0.7169598241146065,
                            0.4380658414323393,
                            -0.09480406347903991,
                            -0.5890016562041571,
                            0.0841986662772467,
                            0.6595839058934947,
                            0.2421283128937215,
                            0.9476455933159877
                        ],
                        "bias": -0.47654370008145264
                    },
                    {
                        "weights": [
                            -0.6750661245175853,
                            0.7462979135212529,
                            0.6841206862623208,
                            -0.7953288386148218,
                            0.6330349712107268,
                            0.9648924327488801,
                            -0.6886861199749712,
                            -0.1455422183278865,
                            0.34379265320146035,
                            0.22937902436957192
                        ],
                        "bias": 0.30063329162946895
                    },
                    {
                        "weights": [
                            0.6812787144151213,
                            -0.48873833813366496,
                            0.734474487857939,
                            0.5696071010130779,
                            0.07935085591271118,
                            -0.501802089609183,
                            -0.06703072550938693,
                            0.3483795860990566,
                            -0.9655874077144782,
                            -0.8240838661288672
                        ],
                        "bias": -0.5069632905127232
                    },
                    {
                        "weights": [
                            0.5369522477115292,
                            -0.3668854959898131,
                            -0.7410510288671737,
                            -0.5378523596919,
                            0.4391147663214334,
                            -0.083203324776711,
                            -0.5988032834450066,
                            -0.7108766110536089,
                            -0.41007343135000496,
                            0.8760198640014218
                        ],
                        "bias": -0.5955666541927188
                    },
                    {
                        "weights": [
                            0.7801840479197726,
                            0.20269047793375483,
                            0.6834351246584549,
                            -0.4504911817006303,
                            -0.6187373084176706,
                            -0.3165366334106876,
                            -0.7872086795614421,
                            -0.6347910436160142,
                            -0.9533426310106197,
                            0.6996121283555521
                        ],
                        "bias": -0.9678412760376015
                    },
                    {
                        "weights": [
                            0.036472891364735416,
                            0.32579423938986074,
                            -0.003605527274759268,
                            0.7039303892541622,
                            -0.5163711081681663,
                            -0.9255054160436911,
                            0.7121882282895771,
                            -0.37406408530955026,
                            0.48209386180436153,
                            0.6645112565207949
                        ],
                        "bias": -0.4075231685970645
                    }
                ]
            },
            {
                "neurons": [
                    {
                        "weights": [
                            -0.5337078463019616,
                            -0.5463085428468502,
                            0.7323197983255156,
                            0.803980351682406,
                            0.7292079683493553,
                            -0.6048521910185769,
                            -0.6270077820050561,
                            0.06457533447994224,
                            -0.2048361876603204,
                            0.2989042510813089
                        ],
                        "bias": 0.9050010492045876
                    },
                    {
                        "weights": [
                            0.44903500737331714,
                            -0.4861746538802807,
                            -0.44893747734853684,
                            0.33612458062297845,
                            0.36137992498268967,
                            -0.5758683205990112,
                            -0.06733776683738024,
                            -0.12609501280273006,
                            0.9708664165525824,
                            -0.025475040877755095
                        ],
                        "bias": -0.3404746354301252
                    },
                    {
                        "weights": [
                            0.7160525132691122,
                            0.5192521413803965,
                            0.4548203087424678,
                            0.7999638599735144,
                            -0.1367887983246867,
                            0.9751623764563198,
                            0.9676171331266687,
                            0.47587912891104556,
                            -0.1353671163121497,
                            0.15306884220073314
                        ],
                        "bias": -0.4996151308962564
                    },
                    {
                        "weights": [
                            0.9184262380579944,
                            -0.5182517358557015,
                            -0.09681533265408726,
                            0.48034666784854463,
                            -0.9625394845658228,
                            0.5410715313117622,
                            0.6479883375413598,
                            0.054305211888022065,
                            -0.7855855678646191,
                            -0.2013051549675915
                        ],
                        "bias": 0.48160546253587944
                    },
                    {
                        "weights": [
                            0.31612431421021925,
                            -0.445747530981663,
                            0.5927505840965543,
                            0.34026364110278084,
                            -0.15988992540940128,
                            -0.8557761139783524,
                            0.643920104567117,
                            0.5060613163256389,
                            0.01722063179896427,
                            -0.6360038701473822
                        ],
                        "bias": 0.3446898364071735
                    },
                    {
                        "weights": [
                            0.25374307747503333,
                            0.6320749266492742,
                            0.16912648568046929,
                            0.9200367187217309,
                            0.8775390537527914,
                            -0.031057721386811954,
                            0.08511639264227577,
                            0.7048559606613474,
                            -0.382090300517544,
                            0.853626363375839
                        ],
                        "bias": -0.8129454312065121
                    },
                    {
                        "weights": [
                            -0.528733903967167,
                            0.6016307825151481,
                            -0.188790896421694,
                            0.20904783912486313,
                            0.5432253411261394,
                            -0.9695586294989875,
                            0.3748978167465846,
                            -0.4348438044017724,
                            0.5765417054345008,
                            -0.730569209991214
                        ],
                        "bias": 0.08520056963478861
                    },
                    {
                        "weights": [
                            -0.39470705638549375,
                            0.25694683175099,
                            -0.16638123320471832,
                            0.2961336222377733,
                            0.05798131993004674,
                            -0.3975159082820887,
                            -0.8271818492380751,
                            0.03371378715478612,
                            -0.20425797292848924,
                            -0.5094559497658624
                        ],
                        "bias": 0.8563817688925058
                    },
                    {
                        "weights": [
                            -0.4107368603036532,
                            -0.10258318253031051,
                            -0.6803517180075505,
                            0.9219230825149161,
                            -0.26729905313224545,
                            0.6709297878329226,
                            -0.3499009952717185,
                            0.48571067395437617,
                            0.690086891209021,
                            -0.36566633795548165
                        ],
                        "bias": 0.5908569272557599
                    },
                    {
                        "weights": [
                            0.9619708811804204,
                            -0.6738108621773178,
                            0.6697788307008792,
                            0.36575348923628925,
                            0.7252134454670975,
                            -0.6336318581312754,
                            -0.6509862257119132,
                            -0.276210696507454,
                            -0.045042028456194094,
                            -0.19307511875940309
                        ],
                        "bias": 0.41175713924284624
                    }
                ]
            },
            {
                "neurons": [
                    {
                        "weights": [
                            0.9767122839018856,
                            0.536389022003408,
                            0.8212754285891037,
                            0.9877936428237581,
                            0.38561335783840534,
                            -0.32266352176857005,
                            0.6312461412960451,
                            0.8418012687406751,
                            -0.02112572800493928,
                            0.39113572668820873
                        ],
                        "bias": 0.45621974389151904
                    },
                    {
                        "weights": [
                            0.856705427786778,
                            0.9502738221620861,
                            -0.02525629773128224,
                            0.40170078542849574,
                            -0.6058421154842117,
                            0.6978116857664196,
                            0.6371365140071616,
                            -0.6250636213163316,
                            0.7862169992400714,
                            -0.45385895788514663
                        ],
                        "bias": -0.30996219671278924
                    },
                    {
                        "weights": [
                            -0.6726487390279734,
                            -0.3238514295055075,
                            0.6918563022197302,
                            -0.28630975880965637,
                            -0.701785648244619,
                            -0.9923044465912674,
                            0.9884266483826623,
                            -0.9067151643963651,
                            0.13131222662443287,
                            -0.867443192947497
                        ],
                        "bias": 0.7146912999971773
                    },
                    {
                        "weights": [
                            0.11253603216127406,
                            -0.736637498069135,
                            0.2199869639974834,
                            -0.7226000743799337,
                            -0.5921991955408208,
                            -0.016902347658612538,
                            -0.8579284289891178,
                            0.9819299153408101,
                            0.7320771684908896,
                            0.5146138386538825
                        ],
                        "bias": 0.612637317429508
                    },
                    {
                        "weights": [
                            0.0010066897540228492,
                            0.5686813201208263,
                            0.6783258004332624,
                            -0.23304283973169038,
                            0.11488919919130791,
                            -0.44592579225525664,
                            0.5653650760753111,
                            -0.2642317259600644,
                            -0.19803705373161162,
                            0.7966970912928131
                        ],
                        "bias": -0.7049508969117003
                    },
                    {
                        "weights": [
                            0.6343009051911275,
                            -0.7053987806109356,
                            -0.029744736193338728,
                            0.37311791467917055,
                            0.759594964594744,
                            0.2656538309272076,
                            -0.47826289949102785,
                            0.7554614548362177,
                            -0.29532624009765196,
                            -0.1969597672211718
                        ],
                        "bias": 0.8092647440396746
                    },
                    {
                        "weights": [
                            -0.020662513766492863,
                            -0.17918272585245565,
                            0.2862307288791506,
                            0.48137651400758097,
                            -0.1284941521479388,
                            0.9229889253214101,
                            -0.046848323510580325,
                            0.32574156446935065,
                            -0.013874130759871539,
                            -0.4153600657676586
                        ],
                        "bias": -0.5077285883892788
                    },
                    {
                        "weights": [
                            0.979977362069498,
                            -0.5017691728096831,
                            0.2645655604603043,
                            -0.3229806938195252,
                            0.025835622317431195,
                            0.35084354230683834,
                            -0.6205620474952431,
                            0.9722824991133938,
                            -0.18155440303925774,
                            0.9857629338371667
                        ],
                        "bias": -0.5132960215774268
                    },
                    {
                        "weights": [
                            -0.31977434869297694,
                            -0.7352647889670527,
                            -0.15591070524418216,
                            0.40110182645234427,
                            -0.06781896198832138,
                            -0.26681003545056825,
                            -0.26555312746924864,
                            0.028650641854754966,
                            0.39121352111282803,
                            0.2556511322061119
                        ],
                        "bias": 0.18486315751641844
                    },
                    {
                        "weights": [
                            -0.8005989010976935,
                            0.9235988903295411,
                            -0.9691424553209262,
                            0.03979598062569534,
                            0.3073518590395874,
                            0.9413184767555562,
                            -0.8213381078526993,
                            0.018907409890781768,
                            -0.3305581202515997,
                            -0.5726423548475257
                        ],
                        "bias": -0.09518589941679896
                    }
                ]
            },
            {
                "neurons": [
                    {
                        "weights": [
                            -0.9841038660200412,
                            0.7893531065158441,
                            -0.4327131066318195,
                            0.2334020589081287,
                            0.06950720921013143,
                            -0.7614898574464573,
                            -0.039077748753243435,
                            -0.09889187714525538,
                            0.7756235403345466,
                            0.5556791640704761
                        ],
                        "bias": -1.068307919992961
                    },
                    {
                        "weights": [
                            0.2043810455040087,
                            -0.10718285111695836,
                            0.44916232029458847,
                            -0.5803046240434073,
                            -0.9714575862682839,
                            0.5052621277996252,
                            -0.15072615468565553,
                            -0.3575329797845179,
                            0.46815789248599016,
                            0.41688784635383813
                        ],
                        "bias": -0.315822059560835
                    },
                    {
                        "weights": [
                            -0.6628419604612634,
                            -0.4342170530634215,
                            0.5707308447523629,
                            0.01999116308235971,
                            0.3574316261904682,
                            -0.7926129794032566,
                            -0.8348549283951563,
                            0.23390592853126924,
                            -0.7915211743786155,
                            0.8550432717220742
                        ],
                        "bias": 0.361833072402462
                    },
                    {
                        "weights": [
                            -0.542792251267699,
                            -0.9023099729042392,
                            0.24003283003431708,
                            -0.20864535174341636,
                            0.39990121951981616,
                            -0.531563537598235,
                            0.18518784589183324,
                            0.6731458850280074,
                            -0.524162175635968,
                            0.026903012476846122
                        ],
                        "bias": 0.16780392488279003
                    },
                    {
                        "weights": [
                            0.9212066620757373,
                            0.757397571687499,
                            -0.32907217650604625,
                            0.9704180444983286,
                            -0.7364331405459861,
                            -0.06369241110718216,
                            0.28654288014932017,
                            0.341798417931952,
                            -0.5192939760940629,
                            0.3796255950003904
                        ],
                        "bias": 0.5008871981614532
                    },
                    {
                        "weights": [
                            -0.006153785537792444,
                            0.24490452636898796,
                            -0.17699658012475994,
                            -0.966782344268154,
                            0.8052095268266359,
                            0.12829481366096496,
                            -0.5433522937465662,
                            0.1580470186970473,
                            -0.08429983678635278,
                            -0.0775290512365745
                        ],
                        "bias": 0.6785264091901585
                    },
                    {
                        "weights": [
                            -0.32565783756712174,
                            -0.25158520170142085,
                            -0.41637700501823294,
                            -0.4324201663317695,
                            0.560552120285454,
                            0.8106627963335575,
                            -0.23073547849817788,
                            0.21135952949805503,
                            0.10769497295440233,
                            -0.7385990101002453
                        ],
                        "bias": -0.7556115103306983
                    },
                    {
                        "weights": [
                            0.9835207448268375,
                            -0.08383043640443977,
                            -0.25216988557924536,
                            -0.15152423977586538,
                            0.9765507726614715,
                            -0.9115026935799313,
                            -0.08110987935574387,
                            0.6374172413308667,
                            0.6035839107743857,
                            0.6227440418543102
                        ],
                        "bias": -0.7010463529098753
                    },
                    {
                        "weights": [
                            0.3322717136996385,
                            -0.8739818814463218,
                            0.6658111658168224,
                            0.15404590096915616,
                            0.3581712053497308,
                            -0.005979953961842588,
                            -0.7395978088599711,
                            -0.1504938129059179,
                            -0.3215944513299669,
                            0.06695239522594076
                        ],
                        "bias": 1.1123704730938506
                    },
                    {
                        "weights": [
                            0.6041429497892712,
                            -0.38926840724626577,
                            0.7181642880475829,
                            0.9448326650915719,
                            -0.7085528314828788,
                            0.5958409476826336,
                            -0.5567446186095819,
                            0.33860167831570176,
                            -0.19105745444177336,
                            0.4587775379386556
                        ],
                        "bias": -0.13023452961354395
                    }
                ]
            },
            {
                "neurons": [
                    {
                        "weights": [
                            -0.7133631552411783,
                            0.4563684615692649,
                            -0.9741776906133954,
                            0.7788725742945137,
                            -0.5879836489885069,
                            0.876828707017649,
                            0.4632936714125633,
                            0.5265873745731,
                            -0.9107998728255897,
                            -0.18871219471480072
                        ],
                        "bias": 0.12385925799340354
                    },
                    {
                        "weights": [
                            0.3400010719973956,
                            -0.2531624106154191,
                            -0.4060233308903336,
                            0.6933290465976112,
                            0.3756542547392707,
                            -0.21863769305520386,
                            0.7803473993730019,
                            0.05810737662821075,
                            -0.18238781745534838,
                            0.19485317836758065
                        ],
                        "bias": -0.5905473037710417
                    },
                    {
                        "weights": [
                            -0.7586169587847549,
                            -0.1338953554179101,
                            -0.7740442867694777,
                            0.6130856407104854,
                            0.10200533234230469,
                            -0.7412985838815731,
                            -0.5656286221544733,
                            0.27500288720733335,
                            -0.38619044960356663,
                            0.07646021658366675
                        ],
                        "bias": -0.26180096999528235
                    },
                    {
                        "weights": [
                            -0.8404126307509308,
                            0.05887555954504098,
                            0.7009804941392779,
                            -0.1430971141733135,
                            0.892218893521721,
                            0.5915144273756949,
                            0.263783835111836,
                            0.8896466751278032,
                            0.5598339063174236,
                            0.12607876055722556
                        ],
                        "bias": -0.22051757939788919
                    },
                    {
                        "weights": [
                            0.23115346744850607,
                            -0.33145137461803786,
                            -0.03384931042147388,
                            0.6301195608612851,
                            0.2517213925791457,
                            0.7082316076585591,
                            0.3062610306535518,
                            0.49124497497532404,
                            0.6381670911720705,
                            -0.6363140924254791
                        ],
                        "bias": 0.8458930140546546
                    },
                    {
                        "weights": [
                            0.12946418306507312,
                            -0.24413075078184598,
                            0.16961822462483256,
                            0.920913696837097,
                            0.7921773243603785,
                            -0.5553648095252708,
                            0.758532342123202,
                            -0.03959497523928723,
                            0.25278263877579343,
                            0.8743966122636402
                        ],
                        "bias": 0.058630930148495575
                    },
                    {
                        "weights": [
                            0.37607758779620193,
                            -0.5390066057726888,
                            0.3794680197632694,
                            -0.09324169204275723,
                            0.36252270163653577,
                            -0.9390464148209858,
                            -0.4630408463374298,
                            -0.9803470950951509,
                            0.1962604216815289,
                            0.7877794497518686
                        ],
                        "bias": 0.826556309285023
                    },
                    {
                        "weights": [
                            -0.5756224770955014,
                            -0.25809623521764813,
                            0.7472061431070125,
                            -0.24177363480316805,
                            -0.6528681341753388,
                            -0.8405903940840613,
                            0.33339919396380946,
                            0.5208758082264087,
                            0.1528797108381652,
                            0.6426802906169184
                        ],
                        "bias": -0.06555925138694811
                    },
                    {
                        "weights": [
                            0.006874896829854649,
                            0.128480594339194,
                            0.9335884823688068,
                            0.6832637046200354,
                            -0.29095495232081126,
                            0.5718210381673403,
                            0.3356075817934505,
                            0.05028030804525896,
                            0.43018021764360803,
                            0.1430772870660797
                        ],
                        "bias": -0.8387315383550754
                    },
                    {
                        "weights": [
                            -0.029862316343325146,
                            -0.8627920465254437,
                            0.3396555844396447,
                            -0.1153615006974893,
                            0.3626204618784328,
                            -0.6885230610510711,
                            0.5304783082786366,
                            -0.721895031979148,
                            -0.7368853671230984,
                            0.2863458754280588
                        ],
                        "bias": 0.5377098475580352
                    }
                ]
            },
            {
                "neurons": [
                    {
                        "weights": [
                            -0.8003607925482388,
                            0.2474202493235429,
                            -0.34343342280526357,
                            0.21945031706035967,
                            0.1312423579521118,
                            -0.9433357607531683,
                            0.05817343387109375,
                            -0.15335871612475915,
                            0.6156390066087203,
                            -0.6721862448379741
                        ],
                        "bias": -0.5678518245260222
                    },
                    {
                        "weights": [
                            0.025242440955259182,
                            -0.5101958663888293,
                            -0.10797409745470832,
                            -0.7091776340765001,
                            -0.6284304926086828,
                            -0.1002527534844333,
                            0.06158443844716954,
                            0.10215556048208807,
                            -0.9299905281349354,
                            0.38970117645118907
                        ],
                        "bias": 0.5888680076765547
                    },
                    {
                        "weights": [
                            -0.1818506928636292,
                            0.736383802233171,
                            -0.6180325689607202,
                            0.6933820754250801,
                            0.8217024812803582,
                            0.7085399435464617,
                            -0.3855341698720902,
                            -0.47382954572650826,
                            -0.25994603031248986,
                            0.10535730479678018
                        ],
                        "bias": -0.4934070565800811
                    },
                    {
                        "weights": [
                            -0.45144468598812715,
                            -0.51779793234017,
                            0.04972052371436053,
                            0.4653818611552396,
                            -0.4069379659851242,
                            -0.1709199897890421,
                            -0.5621080156598874,
                            0.4046921449454679,
                            -0.27703074431997887,
                            0.9896046456276755
                        ],
                        "bias": 0.05085025661818155
                    },
                    {
                        "weights": [
                            0.7523797335331581,
                            0.10660079157571145,
                            0.8114682531118709,
                            -0.9446624690378864,
                            -0.10944424456570045,
                            0.19380114800408843,
                            0.1189321037767932,
                            -0.5549118080525861,
                            0.9558714158780772,
                            -0.7283482845950515
                        ],
                        "bias": -0.4757602125104547
                    },
                    {
                        "weights": [
                            -0.5063298732463741,
                            0.8279598629058489,
                            -0.674128056051768,
                            0.8624785376357409,
                            0.5187754684185175,
                            0.29653347466352575,
                            -0.1328594596790409,
                            0.6794076245133829,
                            0.5981937540687303,
                            -0.2597760512983691
                        ],
                        "bias": 0.2910240043576688
                    },
                    {
                        "weights": [
                            0.4301189373437324,
                            -0.8414361787507678,
                            0.09150985716853732,
                            0.2759678928993634,
                            -0.1821231242926311,
                            -0.44132911006374753,
                            -0.6131255340597737,
                            0.1292969943439728,
                            -0.7193266126392313,
                            -0.015524911334851677
                        ],
                        "bias": -0.06798871151061661
                    },
                    {
                        "weights": [
                            0.9699366583311402,
                            -0.5674115438510772,
                            0.8810473044855105,
                            0.5268750236496296,
                            -0.8867983242527953,
                            -0.26916800390515294,
                            0.40224596908367194,
                            -0.5871563309944463,
                            -0.34133605293894154,
                            -0.04546782865789867
                        ],
                        "bias": 0.41797938856974626
                    },
                    {
                        "weights": [
                            0.8614729728598574,
                            -0.6544807263302703,
                            -0.23148903237701512,
                            0.5350183342678285,
                            -0.3170535701230992,
                            0.7723537551265669,
                            -0.27485849577533106,
                            0.1836679368830465,
                            0.44681655092490624,
                            -0.9032547149651078
                        ],
                        "bias": -0.7758588198810707
                    },
                    {
                        "weights": [
                            -0.345658479539215,
                            -0.19235797721180625,
                            -0.06995862381103146,
                            -0.7673148981852922,
                            0.42419859446519936,
                            -0.34742546825382115,
                            0.46208843489296236,
                            -0.38620070035130505,
                            0.0522036695276753,
                            -0.6504354733023325
                        ],
                        "bias": -0.6282012269594145
                    }
                ]
            },
            {
                "neurons": [
                    {
                        "weights": [
                            -0.12125289637167391,
                            -0.7874273560836147,
                            0.22706865367939777,
                            0.4671314339491943,
                            0.40801467270517744,
                            0.590398494507312,
                            -0.534249003778374,
                            0.08991038385195771,
                            -0.7028685602429692,
                            0.7793346180520122
                        ],
                        "bias": -0.8185238702258067
                    },
                    {
                        "weights": [
                            -0.016981657137323136,
                            0.3575109341117919,
                            0.03616746206594823,
                            -0.9656555233278332,
                            -0.8477901036399984,
                            -0.9631619270297049,
                            0.983135918256937,
                            -0.17783485319272985,
                            -0.27290468478555807,
                            0.5233926687628434
                        ],
                        "bias": -0.2637544981785945
                    },
                    {
                        "weights": [
                            0.6657627001249236,
                            -0.7980384855876201,
                            0.6556957056886001,
                            -0.7457084853924238,
                            -0.5242045377092694,
                            0.0780054531873211,
                            0.5256694465195004,
                            -0.25826404591443697,
                            -0.8244959006016885,
                            0.29188321331307954
                        ],
                        "bias": -0.6530342058810731
                    },
                    {
                        "weights": [
                            -0.705040803961626,
                            0.9954962312210673,
                            -0.5714259329589024,
                            -0.3886865307284546,
                            -0.12591336013371413,
                            0.8917486257608749,
                            0.24482679606059765,
                            -0.6714329053760411,
                            0.4143381121732854,
                            -0.3717298960105391
                        ],
                        "bias": -0.8501735500577023
                    },
                    {
                        "weights": [
                            0.23842786238736013,
                            -0.3028383491983335,
                            0.60497404154722,
                            -0.4015634425067214,
                            -0.23768427931070524,
                            -0.2550562747625231,
                            0.3958610411585155,
                            0.8239982170396605,
                            -0.6594866660651615,
                            -0.515778542410311
                        ],
                        "bias": -0.6477006534225624
                    },
                    {
                        "weights": [
                            0.4746992777968819,
                            0.9816023895807631,
                            -0.06039399547822932,
                            -0.5741179702921455,
                            -0.11657685058011658,
                            0.9561638440501097,
                            -0.7262556941433898,
                            0.5705161247728738,
                            -0.5826180285073261,
                            -0.09415708519829424
                        ],
                        "bias": 0.20509742955508783
                    },
                    {
                        "weights": [
                            0.7981188604653795,
                            -0.33824109446449446,
                            -0.5603355068198823,
                            0.49402781185225964,
                            0.4639208876583516,
                            0.8908674627109034,
                            -0.8837601472372743,
                            0.9509961655031005,
                            -0.9181799915253788,
                            -0.4505742289447672
                        ],
                        "bias": 0.43315683407937067
                    },
                    {
                        "weights": [
                            0.08704611974963328,
                            -0.5458787390117761,
                            -0.5311144469274123,
                            -0.325370952025287,
                            0.38520571129653836,
                            -0.4962921967477032,
                            -0.6077471347444436,
                            0.42106265543203025,
                            -0.5652654911788677,
                            -0.28408125612087876
                        ],
                        "bias": -0.6043830685487925
                    },
                    {
                        "weights": [
                            0.2504527262809546,
                            -0.4985440330039126,
                            0.4259065004481868,
                            0.6559901585447971,
                            0.04696700297187806,
                            0.7599906220094998,
                            -0.013051486515067046,
                            0.06253959897015982,
                            0.7036433632224444,
                            0.9426731269053634
                        ],
                        "bias": -0.8018287294287614
                    },
                    {
                        "weights": [
                            0.46567872859603154,
                            -0.5110197353075598,
                            -0.46915035788298765,
                            0.05294274877421534,
                            -0.06562693167561462,
                            -0.7089183739261169,
                            -0.5934766765440516,
                            -0.09435096136219512,
                            0.2924442016895643,
                            0.04649027012622464
                        ],
                        "bias": -0.27698268740256965
                    }
                ]
            },
            {
                "neurons": [
                    {
                        "weights": [
                            -0.205951466476056,
                            -0.9076308025001971,
                            0.0801567772396925,
                            0.4708676914068468,
                            0.9876658398869871,
                            -0.28723666716079865,
                            -0.8284736418690886,
                            -0.8466421687686174,
                            -0.8028819268274563,
                            0.04998315591292379
                        ],
                        "bias": -0.9031706706553555
                    },
                    {
                        "weights": [
                            -0.8716037288194505,
                            -0.35610552653374916,
                            0.557882433222342,
                            -0.0688921859313818,
                            0.15791429263041956,
                            0.13048492713926585,
                            -0.8781392470843408,
                            -0.6898210713656272,
                            -0.5136391907732711,
                            -0.6391272025503587
                        ],
                        "bias": -0.2542966121643215
                    },
                    {
                        "weights": [
                            -0.6689331007832295,
                            0.4709476626092117,
                            0.698363854825665,
                            -0.3381869330859355,
                            0.25021128153861616,
                            0.2695933191092321,
                            0.45574324654147236,
                            -0.11583199167345581,
                            0.8379442991864359,
                            -0.9853485566055062
                        ],
                        "bias": -0.4367672130587401
                    },
                    {
                        "weights": [
                            0.4591251281805244,
                            -0.307093376516516,
                            -0.7771172533296582,
                            -0.13332768264266215,
                            0.5290412175230002,
                            0.8950386939412607,
                            0.19526044451566982,
                            0.16745614913061502,
                            0.07067215871471833,
                            -0.5332357512302983
                        ],
                        "bias": 0.7469788090649074
                    },
                    {
                        "weights": [
                            0.19542821431163948,
                            0.1276910274076999,
                            0.04075659478395388,
                            -0.26974647483679504,
                            -0.5512814809316287,
                            0.6125618615158999,
                            -0.36118396486852467,
                            0.4555502290746114,
                            -0.45897014551241444,
                            0.6057126992693453
                        ],
                        "bias": 0.9229951680896071
                    },
                    {
                        "weights": [
                            -0.19427159933958804,
                            0.12016167533876243,
                            -0.9148087774935725,
                            -0.04743743276347634,
                            -0.7000497976008682,
                            0.7427462345047731,
                            -0.5526230929342171,
                            -0.9279132043748963,
                            -0.3353525647736908,
                            0.3220837014493865
                        ],
                        "bias": 0.09684990560736086
                    },
                    {
                        "weights": [
                            0.37966730891705014,
                            0.3729095703881051,
                            0.47555247320850835,
                            -0.7464377404473264,
                            -0.7413302085259941,
                            0.5783795820351856,
                            0.049471480077522,
                            -0.8683685394783827,
                            0.5122598028889562,
                            -0.2201069122126016
                        ],
                        "bias": -0.839225906573976
                    },
                    {
                        "weights": [
                            -0.8813990836346013,
                            0.21084505992022806,
                            0.32831120229042066,
                            0.6538910598330132,
                            0.7980619962998492,
                            0.2819036408369464,
                            0.20995684799144398,
                            0.8781723516780502,
                            -0.8808557037554363,
                            -0.47483069065791406
                        ],
                        "bias": -0.7476030242804212
                    },
                    {
                        "weights": [
                            -0.3783470276254923,
                            0.09505158977773487,
                            -0.032256193082232265,
                            0.21442041968104464,
                            0.7053695273529523,
                            0.5339847853249615,
                            -0.002190737373318319,
                            0.6303864524869445,
                            0.9985206879479025,
                            0.3606811774292986
                        ],
                        "bias": -0.08487596036782316
                    },
                    {
                        "weights": [
                            0.3487175753462193,
                            0.18949549180408498,
                            0.8218292871681214,
                            -0.09813189320081017,
                            0.7510517783371491,
                            -0.2028994659587151,
                            -0.21196987947226642,
                            0.8117773283196437,
                            -0.44315343681767927,
                            0.008154423578307979
                        ],
                        "bias": 0.06898721011490479
                    }
                ]
            },
            {
                "neurons": [
                    {
                        "weights": [
                            0.3446336641064822,
                            0.9722397685016051,
                            0.008813099289217696,
                            -0.43218774535945603,
                            0.6036541506553743,
                            0.8900653012367783,
                            -0.08156817299436492,
                            0.04362726394655181,
                            -0.021007644633305622,
                            -0.7480750448107067
                        ],
                        "bias": -0.18242086402875626
                    },
                    {
                        "weights": [
                            0.9928892682977721,
                            -0.39206576338824783,
                            0.37162497391917615,
                            0.8462934625078329,
                            0.881852555214587,
                            -0.9345671936615758,
                            0.4627209340491949,
                            0.6517463626455526,
                            0.2589704482374171,
                            0.1701674233252044
                        ],
                        "bias": 0.348927271656477
                    },
                    {
                        "weights": [
                            0.7596900710755747,
                            0.000471129373707857,
                            0.3767869035083775,
                            -0.04393093815592253,
                            0.9677515491124551,
                            -0.1459396063049525,
                            -0.11568715446646882,
                            0.4741992064025662,
                            -0.7328477057679417,
                            -0.12882162536677977
                        ],
                        "bias": -0.23168363149033874
                    },
                    {
                        "weights": [
                            -0.49446201388860334,
                            -0.15004719674979605,
                            -0.1437870842409592,
                            -0.8428039352433676,
                            -0.857482332993261,
                            0.27849641956258075,
                            -0.004542396459344067,
                            -0.7534714310870192,
                            0.08862231271202914,
                            0.3784587724689221
                        ],
                        "bias": -0.20069576365280123
                    },
                    {
                        "weights": [
                            -0.1022772003678547,
                            -0.414201335193658,
                            -0.9957377383532047,
                            0.7719902178521247,
                            -0.9020259540370446,
                            0.28683168713330365,
                            0.9248145505427168,
                            -0.4197489986428409,
                            0.28888108662671264,
                            0.04865465361768373
                        ],
                        "bias": 0.14480545552569066
                    },
                    {
                        "weights": [
                            -0.8125794523772352,
                            0.9844960501112516,
                            -0.5023732573722894,
                            -0.3923946502921032,
                            -0.16627261716499686,
                            -0.7624532644752695,
                            0.35485955489380117,
                            -0.3204794172735086,
                            0.01636444922327951,
                            0.16920405746597433
                        ],
                        "bias": -0.211118553707255
                    },
                    {
                        "weights": [
                            -0.168306766399829,
                            -0.12758976626846108,
                            0.2869662357425433,
                            -0.7801015756934899,
                            -0.35700156276482975,
                            -0.088525478948424,
                            0.048849970707401935,
                            0.8965091706892903,
                            0.35298820741778836,
                            0.07026716234684827
                        ],
                        "bias": 0.5102347127392185
                    },
                    {
                        "weights": [
                            -0.5690599618730761,
                            -0.8359763374798459,
                            -0.877650696323989,
                            -0.30352514754660476,
                            0.28716205275350726,
                            -0.015215274023877123,
                            0.9928338880184784,
                            0.6876738901398951,
                            -0.8097364313070838,
                            0.6067586075117928
                        ],
                        "bias": -0.4630050065507869
                    },
                    {
                        "weights": [
                            -0.7449910592433955,
                            0.4913715034503927,
                            -0.3487456318784661,
                            -0.1607395346887488,
                            0.002310209423767029,
                            -0.40969905195426937,
                            -0.8744547703938614,
                            0.6080647914572248,
                            0.840543436407428,
                            -0.4226183458580901
                        ],
                        "bias": 0.7763878393927963
                    },
                    {
                        "weights": [
                            0.23423824941399052,
                            0.0974103591765354,
                            0.9276246793455503,
                            0.30001350927881965,
                            -0.7463330173534244,
                            0.2039377950281731,
                            0.8774069046341046,
                            0.09464023102694985,
                            0.4574758474385996,
                            -0.7285535147625091
                        ],
                        "bias": 0.37183591062220744
                    }
                ]
            }
        ],
        "outputLayer": {
            "neurons": [
                {
                    "weights": [
                        0.5935980767056597,
                        0.6008084190658713,
                        0.6979753657180632,
                        -0.4983736672246024,
                        -0.9105981420006719,
                        -0.15511795190851707,
                        0.0060362588315723276,
                        -0.6061096503022665,
                        -0.47855283313522845,
                        0.4747888558263431
                    ],
                    "bias": -0.7789809919335806
                },
                {
                    "weights": [
                        -0.9410409917329838,
                        0.6293705528128828,
                        0.40780863465522055,
                        -0.8969348878120693,
                        -0.33149172684398853,
                        -0.5378896263179693,
                        0.3079118224498507,
                        -0.5825379703860274,
                        -0.5889085171795827,
                        -0.5963017471453533
                    ],
                    "bias": 0.39308827634765436
                },
                {
                    "weights": [
                        -0.6114497228529792,
                        -0.6159417687154372,
                        -0.8913752907402519,
                        -0.8902036670972975,
                        0.6241204254675958,
                        -0.26690540069637336,
                        -0.41334465785288743,
                        0.4441577625536388,
                        -0.01965724051828177,
                        0.7894337481620652
                    ],
                    "bias": 0.7731833171946247
                },
                {
                    "weights": [
                        0.7352135247343135,
                        -0.20816408910756312,
                        0.3307001749840963,
                        -0.1188247802029141,
                        -0.6274023156763364,
                        0.5735317674199798,
                        -0.897083539559101,
                        -0.8690061974297487,
                        -0.20033514900071525,
                        -0.3302800328007678
                    ],
                    "bias": -0.6170711707001865
                }
            ]
        }
    },
    {
        "inputLayer": {
            "neurons": [
                {
                    "weights": [
                        0.026386467664962332,
                        0.007091384939061918,
                        0.1910807154987948,
                        0.027390147663065356,
                        -0.4047562258631465,
                        -0.18213757209504267,
                        -0.5574793552666002,
                        -0.3080787578511004,
                        0.32821388003773233,
                        0.3286231388415548,
                        0.10294140619072478,
                        -0.6823587272480434,
                        -0.06617025843754609,
                        0.834411552067015,
                        0.6615691873167684,
                        0.7162723297274625,
                        0.2646183212037796,
                        -0.7836431546588007
                    ],
                    "bias": -0.1013677983403915
                },
                {
                    "weights": [
                        0.0868880122820237,
                        -0.5996264030537919,
                        0.970782343656776,
                        -0.0635848710008231,
                        -0.9441290975358756,
                        0.35858222573201703,
                        -0.4667494459968935,
                        -0.8612756799910339,
                        0.6928955439393283,
                        0.9410028914129216,
                        -0.7367002950564492,
                        0.8401256075897965,
                        -0.09865791220462672,
                        0.28618007569390747,
                        -0.2006254925538864,
                        0.2421670817397903,
                        0.3397060221384869,
                        0.10200660726240351
                    ],
                    "bias": -0.572151403759718
                },
                {
                    "weights": [
                        0.6618672422111753,
                        0.39256699833204434,
                        -0.03099987417335881,
                        -0.6102244855578876,
                        0.8788329936274448,
                        0.9095845724971825,
                        -0.3938581258741791,
                        -0.38982106011369,
                        -0.7284116434777714,
                        0.3146562023309549,
                        0.19342519555224436,
                        -0.901804391217472,
                        -0.5067139459417671,
                        0.9262315679681512,
                        -0.8645413285269183,
                        -0.342597793795808,
                        0.2712890876384748,
                        0.6851704429701833
                    ],
                    "bias": -0.42951945214118437
                },
                {
                    "weights": [
                        0.5269951559461812,
                        0.13950291795674175,
                        -0.44774601969487793,
                        0.33359479760544875,
                        -0.582417179774924,
                        0.746426642213095,
                        0.1620091183774779,
                        -0.31758377288107953,
                        0.4350272308048173,
                        0.9966287905350941,
                        0.5936116015223538,
                        0.30411686238824265,
                        -0.8967725335369003,
                        -0.8204365399416043,
                        -0.05320778210783872,
                        0.9035057094214307,
                        -0.3143637503207062,
                        0.38967611409413716
                    ],
                    "bias": 0.7251405556521584
                },
                {
                    "weights": [
                        -0.48007499930582664,
                        -0.13857737443633455,
                        0.43250885193849276,
                        -0.05099520049415074,
                        0.14380749715430952,
                        -0.9289465229647993,
                        -0.12248637235417359,
                        0.7173499191129895,
                        -0.7256647268168812,
                        0.876233824439256,
                        0.05546029300691724,
                        0.6716982450277877,
                        -0.33290313975839125,
                        0.8754616832238176,
                        0.43298269997430694,
                        0.5154815973936071,
                        0.2814602428932169,
                        -0.4216227084767734
                    ],
                    "bias": 0.018900134142866537
                },
                {
                    "weights": [
                        0.08602024872713554,
                        -0.47347447679933663,
                        0.12711676222804869,
                        0.4309962727526222,
                        -0.8905009837626823,
                        -0.2784741172059204,
                        -0.1484341031216323,
                        0.431235438592126,
                        0.6957194835399356,
                        -0.30643696433451884,
                        -0.9988361579104095,
                        0.5271698493558881,
                        -0.2910581586090104,
                        -0.9301816065150517,
                        0.9607481143055794,
                        0.8174960862008254,
                        0.26002924430518815,
                        -0.2880446735856075
                    ],
                    "bias": 0.6237063978660623
                },
                {
                    "weights": [
                        0.7819692489817596,
                        0.9317329114589776,
                        -0.6416379822974152,
                        -0.19445735448379664,
                        0.23390217795690393,
                        -0.08804999446785766,
                        -0.20233999255454083,
                        0.30321972484148496,
                        0.35313664180891524,
                        0.7440614297559278,
                        -0.22093755254079128,
                        0.8556002306244621,
                        0.28686908866974603,
                        0.9569522619754516,
                        0.5986036233168375,
                        -0.7582065685949244,
                        -0.5433113797600757,
                        -0.3717664583302118
                    ],
                    "bias": -0.9432935347192931
                },
                {
                    "weights": [
                        -0.785144499770337,
                        0.12522567142237362,
                        -0.9701000374461521,
                        -0.9825419020744621,
                        -0.6425439899947405,
                        -0.17748516173307394,
                        0.21734806835265208,
                        0.48865134649708963,
                        0.512335513522095,
                        0.4666714115438906,
                        -0.4777516788203253,
                        0.6129696882248539,
                        -0.4108851479664686,
                        -0.5884230866100764,
                        0.12107847698577068,
                        0.47210241084561155,
                        -0.15027037279905708,
                        0.7855065354568833
                    ],
                    "bias": -1.0206908445444
                },
                {
                    "weights": [
                        -0.5686483418258019,
                        -0.5950295520933835,
                        -0.03750216977017584,
                        -0.40084719254768975,
                        -0.3518387326448089,
                        0.951119877375223,
                        -0.35347009307017996,
                        0.8199773463799014,
                        -0.2249937420446615,
                        -0.591205895334558,
                        -0.8405191274002852,
                        -0.5756411343610381,
                        0.5000860413801218,
                        -0.22429976882296154,
                        0.6439024071578627,
                        0.8791738167996914,
                        -0.38541426110509813,
                        0.7306431267918982
                    ],
                    "bias": -0.5865794626490118
                },
                {
                    "weights": [
                        0.4423581543199886,
                        -0.1708135261565793,
                        -0.6684703893765822,
                        -0.2123119490003964,
                        0.4249861173764067,
                        -0.8189204283009521,
                        -0.2814972449565236,
                        0.18389245432478685,
                        -0.8209405293850704,
                        0.303087748272318,
                        0.8456099891203261,
                        0.030031630010173282,
                        0.20945548002681935,
                        0.42884080107321454,
                        0.013293666389072145,
                        0.00028269679209635967,
                        0.6625790199822656,
                        0.8531191213383031
                    ],
                    "bias": 0.8966061593688537
                }
            ]
        },
        "layers": [
            {
                "neurons": [
                    {
                        "weights": [
                            -0.02061855698906423,
                            -0.007072192465214622,
                            0.8372223167026189,
                            0.7541059150411689,
                            -0.8859734486723758,
                            0.6583183355299922,
                            -0.42998944019979035,
                            -0.14994455829197806,
                            0.21966236098321712,
                            0.32842120048991896
                        ],
                        "bias": -0.9064719249165561
                    },
                    {
                        "weights": [
                            -0.876410025048941,
                            0.7338096152718878,
                            0.5550034243733808,
                            -0.839977012377684,
                            0.3884595360454355,
                            -0.5945271047368803,
                            -0.8229588074953558,
                            -0.08143107512853454,
                            -0.5882159848132937,
                            -0.6272756023547246
                        ],
                        "bias": -0.44363453514749934
                    },
                    {
                        "weights": [
                            0.7471682341747441,
                            0.880402663362043,
                            0.626597403688691,
                            0.26379573462054884,
                            0.6280011251300184,
                            -0.7779172828474474,
                            0.5122954972244358,
                            0.29863988959699794,
                            -0.9182218482139066,
                            -0.4176140066495895
                        ],
                        "bias": -0.5275310190895606
                    },
                    {
                        "weights": [
                            0.7152656962588404,
                            -0.623366892431747,
                            0.8420038227884155,
                            0.22612959799502885,
                            -0.6903440201788618,
                            0.33247019524108157,
                            -0.19510962612435057,
                            -0.17647346399484753,
                            -0.9951159816119788,
                            0.867303258545302
                        ],
                        "bias": -0.34751697771385487
                    },
                    {
                        "weights": [
                            -0.5460829164946854,
                            -0.11944231156058804,
                            -0.43616699937998593,
                            0.7986473726622965,
                            0.2404885747009602,
                            0.1652169058494386,
                            -0.18184795665469733,
                            -0.9793066985638148,
                            0.9808541755908649,
                            0.35482008964919287
                        ],
                        "bias": 0.8974918874518644
                    },
                    {
                        "weights": [
                            0.9820249349427854,
                            -0.7468086314843025,
                            -0.8739800919014387,
                            -0.9809224137834038,
                            0.9137873413518931,
                            -0.6805742099920251,
                            0.9219530020742772,
                            0.8777691130175791,
                            -0.6527380970765781,
                            -0.6131289175928425
                        ],
                        "bias": -0.17490367853256436
                    },
                    {
                        "weights": [
                            0.5126408546882142,
                            0.8672006808711583,
                            -0.6755416327156814,
                            -0.21321734581356733,
                            -0.10415977277324795,
                            0.655280774457788,
                            -0.13840131553904245,
                            0.7800711080849452,
                            0.2465112377992107,
                            0.43216199709370073
                        ],
                        "bias": -0.2007146361968713
                    },
                    {
                        "weights": [
                            0.6937135850701899,
                            -0.5228120978575495,
                            -0.08444295736468876,
                            0.8017543989526557,
                            -0.43167427641415457,
                            -0.6247099357103589,
                            0.5510093552880111,
                            0.2034703311722399,
                            -0.6757527691773764,
                            -0.3493576340703124
                        ],
                        "bias": 0.4492315259154385
                    },
                    {
                        "weights": [
                            -0.9843506624749152,
                            -0.7190908449293953,
                            0.579210977854441,
                            0.6305575905177208,
                            0.9417655189690934,
                            -0.6458215663134637,
                            0.6860997695913678,
                            0.7946389011972494,
                            -0.8430692791482175,
                            0.278312521285244
                        ],
                        "bias": -0.3443370982117115
                    },
                    {
                        "weights": [
                            -0.3845350509944978,
                            0.9210980670078122,
                            0.8386624608831941,
                            -0.8424332043326601,
                            -0.3161526536774155,
                            -0.1291250764784757,
                            0.9044732555821751,
                            0.13346315702096523,
                            0.28092783796394727,
                            -0.8783418559968834
                        ],
                        "bias": 0.7607369081098352
                    }
                ]
            },
            {
                "neurons": [
                    {
                        "weights": [
                            0.4841787787408145,
                            -0.10363209232692805,
                            -0.6924584134526899,
                            -0.3425574286135862,
                            -0.6419262004202897,
                            -0.10946130001922882,
                            -0.7453767091533285,
                            -0.7834710377600977,
                            -0.49067295149877954,
                            -0.04290911552650645
                        ],
                        "bias": -0.49884828962169925
                    },
                    {
                        "weights": [
                            0.7277464961153273,
                            0.6243574016746738,
                            0.038923641867868675,
                            -0.001933525487351595,
                            -0.22177753536604494,
                            0.617945317648062,
                            0.9440454861625975,
                            -0.01943772071664185,
                            -0.738013113972998,
                            0.26533126643937743
                        ],
                        "bias": 0.23161680163164233
                    },
                    {
                        "weights": [
                            0.5870520015924536,
                            -0.9980382478710477,
                            -0.11754614527820428,
                            -0.8049503785908068,
                            0.09591195385198725,
                            0.6127909076097044,
                            -0.7573665705003112,
                            0.5798781172794711,
                            -0.20487029762700693,
                            0.7417369941789262
                        ],
                        "bias": 0.7993549107565608
                    },
                    {
                        "weights": [
                            -0.3136137549599851,
                            0.07269067041974386,
                            0.6828568074337487,
                            0.00943776883413272,
                            0.8729917350447327,
                            0.4773013178035239,
                            -0.682305937588817,
                            0.692543816836563,
                            -0.2021971735469572,
                            0.556302899085722
                        ],
                        "bias": -0.7189206075133732
                    },
                    {
                        "weights": [
                            -0.021781560900481,
                            0.6539551239176984,
                            -0.7169598241146065,
                            0.4380658414323393,
                            -0.09480406347903991,
                            -0.5890016562041571,
                            0.0841986662772467,
                            0.6595839058934947,
                            0.2421283128937215,
                            0.9476455933159877
                        ],
                        "bias": -0.517121667660498
                    },
                    {
                        "weights": [
                            -0.6750661245175853,
                            0.7462979135212529,
                            0.6841206862623208,
                            -0.7953288386148218,
                            0.6330349712107268,
                            0.9648924327488801,
                            -0.6886861199749712,
                            -0.1455422183278865,
                            0.34379265320146035,
                            0.22937902436957192
                        ],
                        "bias": 0.26061250243662676
                    },
                    {
                        "weights": [
                            0.6812787144151213,
                            -0.48873833813366496,
                            0.734474487857939,
                            0.5696071010130779,
                            0.07935085591271118,
                            -0.501802089609183,
                            -0.06703072550938693,
                            0.3483795860990566,
                            -0.9655874077144782,
                            -0.8240838661288672
                        ],
                        "bias": -0.33584825397830886
                    },
                    {
                        "weights": [
                            0.5369522477115292,
                            -0.3668854959898131,
                            -0.7410510288671737,
                            -0.5378523596919,
                            0.4391147663214334,
                            -0.083203324776711,
                            -0.5988032834450066,
                            -0.7108766110536089,
                            -0.41007343135000496,
                            0.8760198640014218
                        ],
                        "bias": -0.6836640505860448
                    },
                    {
                        "weights": [
                            0.7801840479197726,
                            0.20269047793375483,
                            0.6834351246584549,
                            -0.4504911817006303,
                            -0.6187373084176706,
                            -0.3165366334106876,
                            -0.7872086795614421,
                            -0.6347910436160142,
                            -0.9533426310106197,
                            0.6996121283555521
                        ],
                        "bias": -0.9436340578401631
                    },
                    {
                        "weights": [
                            0.036472891364735416,
                            0.32579423938986074,
                            -0.003605527274759268,
                            0.7039303892541622,
                            -0.5163711081681663,
                            -0.9255054160436911,
                            0.7121882282895771,
                            -0.37406408530955026,
                            0.48209386180436153,
