[
    {
        "inputLayer": {
            "neurons": [
                {
                    "weights": [
                        -0.6484658541510093,
                        0.08277647468564941,
                        0.8729884759477118,
                        -0.19955963047542036,
                        -0.4183765019110255,
                        0.6273593868070018,
                        0.6217449509239257,
                        -0.4984504283245288,
                        -0.9585078853113664,
                        0.7126947923276838,
                        0.9888298817954448,
                        -0.5677387537574008,
                        0.7966640407571335,
                        0.5260689426034331,
                        -0.22507637215475174,
                        0.9333630419520229,
                        0.615026081859988,
                        0.7413973576889676
                    ],
                    "bias": 0.3434404690447661
                },
                {
                    "weights": [
                        -0.959595575724919,
                        -0.9882636821170132,
                        -0.9282641284887925,
                        0.9228222357968849,
                        0.369616106611927,
                        -0.5481862122916097,
                        -0.6823194639761374,
                        -0.9524893542690458,
                        -0.24646465591339162,
                        0.764684326503166,
                        0.16503908177658788,
                        -0.2785749057411637,
                        0.10456926010843914,
                        -0.739807620205319,
                        0.2833859998894097,
                        -0.7837897253757493,
                        0.6917377481139804,
                        0.6099107388579952
                    ],
                    "bias": -0.27715914499519223
                },
                {
                    "weights": [
                        -0.2999382512195401,
                        0.7316443554412353,
                        -0.5419145239290595,
                        -0.44144496277013445,
                        -0.3488163514777709,
                        -0.4767378951762893,
                        0.3528613415882558,
                        0.21678482409019728,
                        0.07458823835289508,
                        0.7844800859252139,
                        -0.10487791945834046,
                        0.8460920999877752,
                        -0.4521553881917246,
                        -0.2132683257779906,
                        0.7828437747391905,
                        0.8361350107065666,
                        0.8532671649213233,
                        -0.11774958031235117
                    ],
                    "bias": 0.7355170883217477
                },
                {
                    "weights": [
                        -0.934811913813143,
                        0.2847589124572787,
                        -0.33993316409884655,
                        0.21270571203200195,
                        -0.9980512117204337,
                        -0.45511415719841675,
                        -0.39169644530265835,
                        0.37555568706018483,
                        -0.8702225859082597,
                        -0.5730139090742754,
                        -0.6029305102538409,
                        0.6413633436182684,
                        -0.9923060236344492,
                        0.9937920997065428,
                        -0.8824360512493907,
                        0.4405184465952232,
                        -0.9144836090387463,
                        0.31811239770983346
                    ],
                    "bias": -0.10880736974985594
                },
                {
                    "weights": [
                        0.5750122249559835,
                        -0.8221636588729786,
                        0.1547060726018159,
                        -0.9863573269050447,
                        -0.479682012534155,
                        -0.11887307099037092,
                        -0.04876773472323648,
                        -0.46880834273478933,
                        -0.7371830683112361,
                        -0.9067644088536422,
                        0.3271611963160519,
                        0.2476335146836064,
                        -0.5961654131429204,
                        0.8289118466025363,
                        -0.8060012445874079,
                        0.468390771396926,
                        -0.8632658248530762,
                        -0.19008092780309038
                    ],
                    "bias": -0.4541973583726022
                },
                {
                    "weights": [
                        -0.6055137961769936,
                        -0.7258841202552277,
                        0.994583590095202,
                        0.8438246700485055,
                        -0.22704543011484546,
                        -0.7806905332243337,
                        -0.2065744144611228,
                        0.4864136649934534,
                        -0.44853982575876783,
                        -0.6120451004387724,
                        0.15677497087641235,
                        0.41834498961436206,
                        -0.21098345016421338,
                        0.8433440276455781,
                        0.23780681331481013,
                        0.5269033228521189,
                        -0.889439982219765,
                        -0.9824958300061868
                    ],
                    "bias": 0.591760821311492
                },
                {
                    "weights": [
                        0.7469296661156875,
                        -0.19119633395394864,
                        0.0059488349332734725,
                        0.8952727521398349,
                        0.26480956724795024,
                        0.06261083064060347,
                        0.856999580125763,
                        -0.2723674247293577,
                        -0.3091244911775781,
                        -0.2713376655837063,
                        0.05351388822550818,
                        0.9947610244034317,
                        -0.07741878963577653,
                        -0.5750253804484717,
                        -0.3248805793963716,
                        0.4348921399995749,
                        0.20090388681570803,
                        -0.4009260800753627
                    ],
                    "bias": 0.4200404592367577
                },
                {
                    "weights": [
                        -0.7462838058556873,
                        0.8244200909865265,
                        -0.905164295936032,
                        0.8738246061694455,
                        0.8125009648304953,
                        -0.6961574244882118,
                        -0.09339720482352698,
                        0.5516671132752642,
                        -0.5434578573580182,
                        -0.6027234064696669,
                        0.10069621012948193,
                        0.750551073026956,
                        0.20799898209975387,
                        0.2978236345318739,
                        -0.5808162603955485,
                        -0.5866292348879198,
                        0.8833663317950606,
                        0.5593018554360243
                    ],
                    "bias": 0.7805423340096984
                },
                {
                    "weights": [
                        0.004714165718054275,
                        0.8353198856103234,
                        0.2763354267789677,
                        -0.7609807633080428,
                        0.34787561116431176,
                        0.9765094061186403,
                        0.705209383963274,
                        0.09859458556689593,
                        0.7874061335583122,
                        -0.2973539366813007,
                        -0.6241799470609724,
                        -0.5553411683060698,
                        0.4094592897214213,
                        0.8810774053158539,
                        -0.3605031767323261,
                        -0.4584818144356362,
                        -0.49421755577328796,
                        0.8200309100640533
                    ],
                    "bias": -0.3741095137419477
                },
                {
                    "weights": [
                        -0.42167474056902177,
                        0.47451034807975057,
                        0.3743151066145658,
                        0.051185270627617685,
                        -0.525199631567757,
                        0.9781492422075166,
                        0.6974261036980112,
                        -0.07752506211900712,
                        0.9462385981201684,
                        -0.9255233942321193,
                        0.4300850104603653,
                        0.7555199546688174,
                        0.7430108866072767,
                        -0.25344982731279875,
                        0.43125777659309783,
                        0.87816312243494,
                        -0.3400385201186975,
                        -0.04991439216954485
                    ],
                    "bias": 0.9647862525742263
                },
                {
                    "weights": [
                        -0.0005090264115406029,
                        0.3646769916984216,
                        -0.14915806272292742,
                        -0.73166230310247,
                        -0.6414704386762615,
                        -0.742842608973161,
                        0.8304123648129893,
                        -0.16578301749721325,
                        0.953456515940845,
                        0.4240754009408878,
                        0.8575190617768833,
                        0.7730902968888742,
                        -0.3052510397019541,
                        0.9234832042637942,
                        -0.250834717190507,
                        0.8089073434021699,
                        0.32212521260170934,
                        -0.08274025111399341
                    ],
                    "bias": 0.840830616607861
                },
                {
                    "weights": [
                        -0.28472524389958953,
                        -0.40670919802911865,
                        -0.006796017872452653,
                        0.9650213265139023,
                        0.49467283111035476,
                        0.5227009115746828,
                        0.18032834924241947,
                        -0.08809992550896673,
                        -0.8942001032139117,
                        -0.890532859423645,
                        0.33483783278705403,
                        -0.38699915010354613,
                        0.7880523209011692,
                        0.9228225617823682,
                        0.6651658489345835,
                        0.8725182531255629,
                        0.8210539404057726,
                        -0.8748950746755009
                    ],
                    "bias": 0.6960716545714725
                },
                {
                    "weights": [
                        -0.2136021426873136,
                        0.08148365455462714,
                        0.09212670200248474,
                        0.7825407735601233,
                        -0.6470686767264582,
                        0.48016320583350836,
                        -0.9159494390650402,
                        0.3168263726194058,
                        0.043046273106317035,
                        -0.5011443916379088,
                        -0.025574498920167832,
                        -0.7594279370667787,
                        -0.30828494301831477,
                        -0.502102023011687,
                        0.17033027390543443,
                        -0.4767258385670652,
                        -0.6091602098289506,
                        -0.6798164024719022
                    ],
                    "bias": 0.8031480276888481
                },
                {
                    "weights": [
                        0.8286087850354722,
                        0.5049564357622165,
                        -0.9223851829194851,
                        0.7668729232596145,
                        0.5037298609891196,
                        -0.16933291404891504,
                        0.26774907896736755,
                        -0.10603863514595235,
                        0.582993770684586,
                        0.17343859258735006,
                        0.9249548118403268,
                        -0.12974032036135252,
                        -0.04417099322627682,
                        -0.8250985114169813,
                        0.42934628837726674,
                        0.5733495745377157,
                        0.42017431033012587,
                        -0.4394914553658782
                    ],
                    "bias": -0.31928142407816296
                },
                {
                    "weights": [
                        0.09778084988434954,
                        0.5902769716176923,
                        -0.5295561596375884,
                        -0.500251821888148,
                        0.9429886298745414,
                        -0.7892968973744097,
                        -0.9195065721637159,
                        0.33624404272918107,
                        -0.574558117240926,
                        0.2697499394182412,
                        -0.1875901342771884,
                        -0.03908807083857013,
                        -0.9060926278797845,
                        0.4141685403638411,
                        -0.8450957137759707,
                        -0.6797801124185607,
                        -0.3144389568497694,
                        -0.6952702177300554
                    ],
                    "bias": 0.470662069505289
                },
                {
                    "weights": [
                        -0.5917456899836997,
                        0.4891558204686617,
                        0.7299054485658141,
                        0.52922216085651,
                        -0.5353393203912307,
                        0.5835569374832943,
                        0.11080944528120562,
                        -0.4210347994036723,
                        -0.9995055756122415,
                        0.871862565700892,
                        0.4984944614402538,
                        0.7344337835324799,
                        -0.6027278126324549,
                        0.6675489485877173,
                        -0.8231041570576163,
                        0.8491659605920479,
                        0.7934711273045236,
                        -0.4706150787973178
                    ],
                    "bias": -0.2919042138959411
                },
                {
                    "weights": [
                        0.3207072470572805,
                        -0.2513135257376826,
                        -0.586118994155459,
                        0.3802857059199445,
                        -0.7137597492365806,
                        -0.17801785727975528,
                        -0.06563824969549459,
                        0.7329999836997736,
                        -0.19629793187693467,
                        -0.7325795654040137,
                        0.4340319516308171,
                        0.24890352264933147,
                        0.8483638211817273,
                        0.663178123213602,
                        0.3411206192027112,
                        -0.4915449038384794,
                        0.24854408709835218,
                        -0.4133811985831106
                    ],
                    "bias": 0.5667565402521246
                },
                {
                    "weights": [
                        0.6355095926126166,
                        -0.8869433182564657,
                        0.0007902078552866065,
                        0.8761948331016567,
                        -0.40079778754326734,
                        -0.14089183380358627,
                        -0.10275904497683874,
                        -0.011524586320429409,
                        0.48809497259010737,
                        -0.5118114962127147,
                        0.056699997995147466,
                        0.8260489260088082,
                        0.418624128619802,
                        -0.5900367718749637,
                        0.931755176451893,
                        0.7593999226156973,
                        0.11669077779684178,
                        -0.16915368520621588
                    ],
                    "bias": 0.922959821842303
                }
            ],
            "length": 18
        },
        "layers": [
            {
                "neurons": [
                    {
                        "weights": [
                            -0.21791530364964928,
                            -0.6157189281347601,
                            -0.06638142217803411,
                            -0.4538850753162329,
                            -0.5428044713236853,
                            -0.8807596116057357,
                            -0.45060313904606697,
                            -0.5873128196574784,
                            -0.4357206274499512,
                            -0.3029181605037845,
                            -0.9205791697248371,
                            -0.9997719944627006,
                            -0.03722919424363069,
                            -0.48884958556221125,
                            -0.3906546908604973,
                            -0.40511530571054877,
                            -0.7127363336070567,
                            0.6674558497585079
                        ],
                        "bias": 0.3437984862096273
                    },
                    {
                        "weights": [
                            -0.14158509247474949,
                            -0.23784026463159735,
                            -0.1959916553196086,
                            -0.36676112710042386,
                            -0.9658829684133257,
                            0.27899550544042806,
                            0.442023306617648,
                            0.7317599715039176,
                            0.25754279437178074,
                            -0.7573904075523463,
                            -0.06938677197844156,
                            -0.8798574437846363,
                            0.2933551948011206,
                            0.5096820404921087,
                            -0.454534737975006,
                            0.08005405853317771,
                            0.8390031201230919,
                            0.3152579749045872
                        ],
                        "bias": -0.9636043835540864
                    },
                    {
                        "weights": [
                            0.3058896174986989,
                            -0.47521975576696174,
                            -0.8669660193421556,
                            0.4091052771003796,
                            0.38056804791597965,
                            -0.06181609910866448,
                            0.5095319968738716,
                            0.8488547907659496,
                            0.314044600052821,
                            0.2929155546434108,
                            -0.054590355314009686,
                            0.6161472970886048,
                            -0.053086088115740226,
                            0.13728693731295194,
                            -0.3149383672624304,
                            0.7588565712824571,
                            0.07170039391732863,
                            -0.06581708825174593
                        ],
                        "bias": 0.5479233792141462
                    },
                    {
                        "weights": [
                            -0.899321379772035,
                            -0.5506103157361004,
                            0.39943254578271836,
                            -0.6557293769864025,
                            -0.5545931698769009,
                            0.5766780048235096,
                            0.7624292534481263,
                            0.2663103438162093,
                            0.4180121328698645,
                            -0.5284285137481493,
                            -0.7978948205570977,
                            -0.7044942376021242,
                            0.10944669140713303,
                            -0.2292805225888339,
                            -0.06610832067594385,
                            0.3918255931073613,
                            0.8966692010034325,
                            -0.3813350053348552
                        ],
                        "bias": 0.3402931899490895
                    },
                    {
                        "weights": [
                            -0.29556375874259944,
                            -0.7293515624453706,
                            0.20244190227750392,
                            0.28761890494902564,
                            0.9324972130311957,
                            0.8544337142470677,
                            -0.5357055352795674,
                            0.34348714144694004,
                            0.17641878691868573,
                            -0.5991041528065113,
                            0.46663835504646656,
                            -0.1982760592767414,
                            0.16837555976633167,
                            0.5297522999940512,
                            0.8112720712827084,
                            -0.06368319340970796,
                            0.22625614421587792,
                            0.5318456136128207
                        ],
                        "bias": 0.7577540204812785
                    },
                    {
                        "weights": [
                            0.5610561102991574,
                            0.3114355811402172,
                            0.335136840964928,
                            0.620075168460142,
                            -0.24629163205493465,
                            0.7083457611019941,
                            0.3441298220958737,
                            0.9110065719452041,
                            -0.3170223087206061,
                            0.8341387000012104,
                            0.9586706823728395,
                            0.04074539735886429,
                            -0.0861983192522997,
                            0.030697466937728235,
                            -0.6566321221492417,
                            -0.6185153491870963,
                            -0.6426293341452227,
                            0.8157956497811374
                        ],
                        "bias": -0.12762792922083577
                    },
                    {
                        "weights": [
                            0.14460780215767133,
                            -0.21700892497729307,
                            -0.43427854886074435,
                            0.4155293939421265,
                            -0.23948106541752234,
                            0.4025805964450755,
                            0.47177229703829093,
                            0.7396857303493849,
                            0.9281906075914181,
                            -0.9482466736836721,
                            0.08677804031634162,
                            0.5905941185647061,
                            0.2560491266378304,
                            0.100018955374239,
                            0.5451919825412115,
                            -0.7524477628381305,
                            0.9482529489583278,
                            0.5220790245680287
                        ],
                        "bias": -0.8411457092500183
                    },
                    {
                        "weights": [
                            -0.9798033646527959,
                            0.5587212604177296,
                            0.6331894585085904,
                            -0.44124834141507074,
                            -0.5517226011430338,
                            -0.821190498743614,
                            0.2797674055232351,
                            0.8983407689406699,
                            0.2190398697090452,
                            -0.8075915665056834,
                            0.9881013583651823,
                            -0.6296513585942471,
                            0.028700667148104708,
                            0.6641498746227157,
                            0.9903468270101483,
                            0.2171262950129902,
                            -0.08672617195590693,
                            0.5668468844483601
                        ],
                        "bias": 0.5149165368668287
                    },
                    {
                        "weights": [
                            -0.04456294777084491,
                            -0.8674112154549716,
                            -0.6544741927303281,
                            0.2779768997215022,
                            0.32989815397311895,
                            -0.6998853238600045,
                            -0.28666976921494447,
                            -0.6182486284768072,
                            0.07379672199481324,
                            0.5375493740472068,
                            -0.5603948924959181,
                            -0.9936716591266244,
                            0.6433996956959689,
                            -0.5270550417602273,
                            0.8377273137787056,
                            0.5597539097861397,
                            -0.07945791512283207,
                            0.7672332080791915
                        ],
                        "bias": 0.8773137104416702
                    },
                    {
                        "weights": [
                            -0.6970734105228897,
                            -0.8160145838282193,
                            0.826317978918659,
                            -0.11508475332624268,
                            -0.9518099737635184,
                            0.1393429997632203,
                            -0.2492342070628586,
                            -0.6132422086745157,
                            -0.3486833546553405,
                            0.34551043706053086,
                            0.8990664598061939,
                            0.6946889234479432,
                            -0.8467401933117362,
                            -0.9867990512670797,
                            0.5192050490143645,
                            -0.6989100227960681,
                            -0.9177143737053122,
                            -0.6079475598650084
                        ],
                        "bias": 0.2422129285054515
                    },
                    {
                        "weights": [
                            -0.9218009345489613,
                            -0.21892763024926265,
                            0.06545540839083963,
                            -0.6160934318565061,
                            0.5298970887123484,
                            -0.24554215149656256,
                            -0.9820612361282719,
                            0.3076452666176763,
                            -0.35043216677738664,
                            0.7748208263976222,
                            -0.5141833888802569,
                            -0.7594457233481617,
                            -0.2815810487938948,
                            0.7012301953458113,
                            -0.10977388566830348,
                            0.10578325923823062,
                            -0.08422791096074,
                            0.08872877425622461
                        ],
                        "bias": 0.11668430319898015
                    },
                    {
                        "weights": [
                            -0.4064952598309848,
                            0.016521281581964642,
                            0.3163793995838946,
                            0.21299664781389827,
                            0.00850407981067014,
                            -0.5539722114238361,
                            0.46291661565691067,
                            -0.8391548183227484,
                            0.9682801553518121,
                            -0.47961195001543455,
                            -0.8151269715554288,
                            -0.6376158042429492,
                            0.3041793398013577,
                            -0.615685289970332,
                            -0.39749363553428774,
                            0.8169249489404522,
                            0.2578072598610732,
                            0.6438287738999979
                        ],
                        "bias": 0.8675529040517556
                    },
                    {
                        "weights": [
                            0.9554397530474295,
                            0.7291166261551854,
                            -0.8196875601570104,
                            0.9814165158627577,
                            0.260669302044759,
                            -0.48321935636564395,
                            0.8330218883648552,
                            0.8391647971447584,
                            0.6323668925210222,
                            -0.07506433300080939,
                            0.6250528009432939,
                            0.26220131657628576,
                            -0.8528405694803953,
                            -0.9586806985884657,
                            0.9255497175311069,
                            -0.13164434200865305,
                            0.7882179000669212,
                            0.030999191300339124
                        ],
                        "bias": -0.26243109118148045
                    },
                    {
                        "weights": [
                            0.5783820371994264,
                            -0.43683722945124415,
                            -0.21355941266098077,
                            -0.31519926051179303,
                            -0.19439927855120231,
                            0.5683469698049053,
                            -0.7956786849349582,
                            -0.6524677286974712,
                            0.1907705499031198,
                            0.6899822766491799,
                            -0.27487275291551927,
                            -0.13674308825694403,
                            -0.6355163789968885,
                            -0.34335897413021677,
                            -0.2298178446985819,
                            -0.9537548539710321,
                            -0.12790035375363162,
                            0.820911052956977
                        ],
                        "bias": -0.6535557108750094
                    },
                    {
                        "weights": [
                            -0.6497683733474962,
                            -0.6975669504825743,
                            -0.11329019524438433,
                            0.08678075375108518,
                            -0.07318412068140012,
                            -0.11118923454083829,
                            0.8126041734576637,
                            -0.09464361318851244,
                            -0.7618824191333584,
                            -0.29509396140021993,
                            -0.6039260710155967,
                            -0.1339597643143866,
                            0.6676532114993827,
                            -0.3111961153148681,
                            0.5513568630469048,
                            -0.8962000422707903,
                            0.7333111968138786,
                            -0.37682876054875747
                        ],
                        "bias": -0.9531177095149823
                    },
                    {
                        "weights": [
                            0.9200131260112066,
                            -0.5914171267694428,
                            0.3623145669071004,
                            -0.27890663745108846,
                            0.10625350448146764,
                            0.10618552217208332,
                            -0.3727795330122383,
                            -0.8071723529673789,
                            0.7909387777146721,
                            0.6579280287457214,
                            -0.8370120172936888,
                            0.1222737574025381,
                            -0.15219832212121331,
                            0.7538580925773457,
                            -0.5963338023803315,
                            0.18652384305710967,
                            0.5796198906389711,
                            0.12411900069832993
                        ],
                        "bias": -0.7297667495258839
                    },
                    {
                        "weights": [
                            0.2490594858149071,
                            0.28683450236187036,
                            -0.22959319334953832,
                            -0.8863549748138253,
                            0.29520053590494966,
                            -0.019315281164208775,
                            -0.23752624370212838,
                            -0.588343343993833,
                            0.46464155457537104,
                            0.5731316270114744,
                            -0.5065490481924697,
                            -0.3220086984907997,
                            0.6201187730810664,
                            -0.45127251783342603,
                            0.47271185169359087,
                            0.12741837924890032,
                            -0.6073789311937681,
                            0.7893565362597517
                        ],
                        "bias": -0.012720904227414787
                    },
                    {
                        "weights": [
                            0.31395964647916297,
                            -0.17240148818323542,
                            -0.9185677062002291,
                            0.8395820939539962,
                            -0.5758271596276698,
                            -0.5267067238143011,
                            0.8405027103509439,
                            0.1314066125225566,
                            -0.12833402600328903,
                            -0.8700246961076523,
                            -0.12316702394343149,
                            0.46271511506745555,
                            0.10711628822796415,
                            -0.3523446578418745,
                            0.7273874304110846,
                            0.07740617364974911,
                            -0.41979453087156426,
                            0.8756895547072583
                        ],
                        "bias": 0.06720571479256643
                    }
                ],
                "length": 10
            },
            {
                "neurons": [
                    {
                        "weights": [
                            0.754751823926701,
                            -0.7844115611157245,
                            0.6764908261427256,
                            0.6014728564271088,
                            -0.14185822779183344,
                            -0.12060837294413673,
                            -0.7113639771324423,
                            -0.7573706401028426,
                            0.8402902637126421,
                            -0.5612383366898424
                        ],
                        "bias": 0.7720253928206022
                    },
                    {
                        "weights": [
                            -0.22071701914302655,
                            -0.542083565191422,
                            0.642787347913292,
                            0.8327243349525622,
                            -0.5520760998846974,
                            0.4069059862165878,
                            -0.3926003566014096,
                            -0.8306634612141819,
                            -0.8788663525375715,
                            0.6626591226070386
                        ],
                        "bias": 0.9433493948765332
                    },
                    {
                        "weights": [
                            0.01647559315052627,
                            0.7323813841887317,
                            0.32843350403446525,
                            0.8257245104973014,
                            0.06412024382181358,
                            0.3941385335904488,
                            0.9163412591897302,
                            0.2035841617858143,
                            -0.478241401210028,
                            -0.04773983253035663
                        ],
                        "bias": -0.7326202159064135
                    },
                    {
                        "weights": [
                            0.1740316875391137,
                            -0.2043400242423834,
                            0.48558647718640846,
                            -0.5204413173565123,
                            -0.08158207797019545,
                            -0.06011791468085681,
                            0.2437890944593779,
                            0.5671246498151916,
                            0.8321310851047183,
                            -0.21371834847288662
                        ],
                        "bias": 0.9602852955477215
                    },
                    {
                        "weights": [
                            0.5049658705710236,
                            0.9288167475440736,
                            0.7833158541557965,
                            0.032607457181093036,
                            0.14279221199458147,
                            -0.4273709364911811,
                            0.9457676727412907,
                            -0.46758152135926356,
                            -0.4690854559958548,
                            0.0588072541493847
                        ],
                        "bias": 0.9789183672935249
                    },
                    {
                        "weights": [
                            -0.03439259405800277,
                            0.4579942787967395,
                            -0.7936816556092001,
                            -0.7419368010040062,
                            0.012025530371893023,
                            0.936153493186946,
                            -0.5927631235917901,
                            0.8220863740788151,
                            0.6076033272544559,
                            0.8383538273080495
                        ],
                        "bias": -0.4795800707367728
                    },
                    {
                        "weights": [
                            0.23572736232824454,
                            -0.41364369565926107,
                            0.8526661917773266,
                            -0.9946239827189454,
                            -0.7447417255308377,
                            -0.8510026456272513,
                            -0.5091140145256328,
                            0.24776093889417372,
                            0.2983214923180795,
                            -0.09269182595211478
                        ],
                        "bias": -0.22564895352006542
                    },
                    {
                        "weights": [
                            0.7861273173497465,
                            -0.602316210609614,
                            0.37671957002270684,
                            -0.10769726250991574,
                            0.3301411646418855,
                            0.05962213858298937,
                            -0.955687246926588,
                            -0.000982763412337384,
                            -0.28682204966539193,
                            0.35784765840396804
                        ],
                        "bias": -0.4055080682055452
                    },
                    {
                        "weights": [
                            -0.6901853620154692,
                            0.8885671142958624,
                            -0.8799612882663974,
                            -0.7103138305613435,
                            -0.1510645683120282,
                            -0.8194214416414063,
                            -0.6043216501659077,
                            0.7395663215526871,
                            -0.42949065096934036,
                            0.18776966598291822
                        ],
                        "bias": -0.112614720495533
                    },
                    {
                        "weights": [
                            -0.6972575640640164,
                            -0.7561029713334062,
                            0.5427832570919697,
                            0.2599080754631664,
                            -0.6641940336894032,
                            -0.7900107937177465,
                            -0.7420039017551747,
                            0.927878570867696,
                            0.15039307299143334,
                            0.32843585271144216
                        ],
                        "bias": -0.00798147200724375
                    }
                ],
                "length": 10
            },
            {
                "neurons": [
                    {
                        "weights": [
                            -0.47941575355545263,
                            0.28809323229081474,
                            -0.09025059436538374,
                            -0.7192063449039432,
                            0.6627036363968564,
                            0.2102185318161902,
                            -0.5390755042727158,
                            0.39421941562059803,
                            0.6038599663928348,
                            -0.9906240719809889
                        ],
                        "bias": 0.6697142364033435
                    },
                    {
                        "weights": [
                            0.14933115950830977,
                            -0.43865799764774094,
                            -0.4894810713612425,
                            0.7412106621682111,
                            -0.9163392584797483,
                            0.4361136888342174,
                            -0.2978973642681422,
                            0.395702925201457,
                            0.5718901476788665,
                            -0.09649681282432598
                        ],
                        "bias": -0.24766067149643756
                    },
                    {
                        "weights": [
                            0.37550226223955074,
                            -0.7188916321324388,
                            -0.6123314775014692,
                            -0.8497829424518726,
                            0.8681628235887549,
                            -0.15993509475486278,
                            0.7495451824854673,
                            -0.5406018358337046,
                            0.09218512376670973,
                            -0.2451916172981221
                        ],
                        "bias": -0.6399691651886419
                    },
                    {
                        "weights": [
                            -0.6534503970054626,
                            0.8057014694785729,
                            -0.13142522765125264,
                            -0.3606970665545479,
                            -0.6667930890134568,
                            -0.3467816925304068,
                            -0.08619640972178066,
                            0.033374937446988495,
                            0.7001174908866761,
                            -0.9379121417495921
                        ],
                        "bias": 0.07947023609980897
                    },
                    {
                        "weights": [
                            0.05070282112596325,
                            -0.9092321323143335,
                            -0.5739777727120894,
                            -0.9877089890234814,
                            0.6927015630037565,
                            0.3351112491079946,
                            -0.28127928665460344,
                            -0.060289970293677664,
                            0.8825311244062153,
                            -0.038229953826214746
                        ],
                        "bias": -0.8316613152788566
                    },
                    {
                        "weights": [
                            -0.6331333514460329,
                            -0.3274809295093517,
                            0.7354661587291309,
                            0.7797764353205341,
                            -0.22159663000340535,
                            0.6179714942881964,
                            0.19564299815661657,
                            0.6113080011422327,
                            -0.06476828409352198,
                            0.44588136728276107
                        ],
                        "bias": -0.7037978365020066
                    },
                    {
                        "weights": [
                            0.45730785135688623,
                            0.0797455509517444,
                            -0.696494081620213,
                            -0.7153512160171629,
                            0.13077248823244192,
                            0.8661177997085019,
                            0.3930191511157233,
                            -0.8236166741659494,
                            -0.5642632068060855,
                            -0.32522881865057274
                        ],
                        "bias": -0.22928237613065394
                    },
                    {
                        "weights": [
                            0.22690121265995145,
                            0.7472312748750609,
                            0.8013705352684783,
                            0.3732651685757349,
                            -0.7625710152192613,
                            0.7712810813472393,
                            0.325214704024247,
                            -0.00866551139236904,
                            0.3624380762943751,
                            -0.6957993596435996
                        ],
                        "bias": -0.10700440886380624
                    },
                    {
                        "weights": [
                            -0.7689778123178885,
                            0.7124802367078173,
                            -0.15056975734868017,
                            -0.8513923543018129,
                            0.7223443126214661,
                            -0.25294433446938136,
                            0.17915894558492584,
                            0.4884840175215497,
                            0.3396981983210856,
                            0.6283401898723284
                        ],
                        "bias": -0.6780370901092059
                    },
                    {
                        "weights": [
                            0.8997569181379903,
                            0.0484777355223005,
                            -0.597962790712834,
                            -0.10668879086303096,
                            -0.9773203695259121,
                            -0.9667158930333144,
                            -0.9856202277999269,
                            -0.7801906823037552,
                            0.32568161594971734,
                            -0.05611901231139638
                        ],
                        "bias": -0.9343309764761916
                    }
                ],
                "length": 10
            },
            {
                "neurons": [
                    {
                        "weights": [
                            0.819650315085557,
                            0.6576974882137361,
                            -0.03583877564006599,
                            0.625492452959316,
                            -0.42767217547276126,
                            -0.5088764060664517,
                            0.9217299245217176,
                            -0.5341398860065849,
                            -0.8571138716651705,
                            -0.5596904589642899
                        ],
                        "bias": 0.6850028016787262
                    },
                    {
                        "weights": [
                            -0.566896952115149,
                            0.5080750303210719,
                            0.810330407577152,
                            -0.4916090000093931,
                            0.027886902198643426,
                            -0.141584471436222,
                            -0.4467852928263285,
                            0.8119637488900091,
                            0.5919750732294731,
                            0.5894949206821798
                        ],
                        "bias": 0.1032756693071577
                    },
                    {
                        "weights": [
                            0.8517524407167303,
                            0.10768078077787901,
                            -0.9553004750386549,
                            0.3538055766586208,
                            -0.7912240752183137,
                            -0.9537008534032096,
                            0.3074592873993942,
                            -0.3327665405221789,
                            0.8087089264246818,
                            0.8489204331311297
                        ],
                        "bias": 0.3213905413067051
                    },
                    {
                        "weights": [
                            -0.7122770833156007,
                            0.5939458030676115,
                            -0.5649740998745523,
                            0.8327047985473082,
                            0.23934513665991708,
                            -0.2604164680293366,
                            0.8178673169165984,
                            0.20115809117344519,
                            -0.8548079994290789,
                            0.7207775930005431
                        ],
                        "bias": -0.7740288207017079
                    },
                    {
                        "weights": [
                            -0.3128210088618111,
                            -0.05405612098750434,
                            -0.5336906711387137,
                            -0.32483766525116353,
                            -0.21830891646827544,
                            -0.6756806113749982,
                            -0.8987912521935413,
                            0.4890622160696867,
                            0.4097032603915327,
                            -0.7280683143542008
                        ],
                        "bias": 0.46133427107559033
                    },
                    {
                        "weights": [
                            0.5955863799891918,
                            0.8439110770862104,
                            0.5817000663823595,
                            0.00987897384581271,
                            0.5379973815562722,
                            0.8341860020012508,
                            -0.17320912348853645,
                            0.25566867335626875,
                            0.5349061611127908,
                            0.5649174866304536
                        ],
                        "bias": 0.8389868506749938
                    },
                    {
                        "weights": [
                            0.21722810797991032,
                            0.21677372890847968,
                            -0.8115017187604603,
                            0.6435912419073098,
                            0.5623231062048377,
                            -0.24705613592421583,
                            -0.12141493713931295,
                            -0.18907368942231906,
                            0.017713686441960474,
                            -0.09938249847979752
                        ],
                        "bias": 0.9950411453570001
                    },
                    {
                        "weights": [
                            -0.7714389400940984,
                            0.2132528958293387,
                            -0.829128127698797,
                            -0.773546797773353,
                            -0.05742014802952933,
                            0.31658835418003295,
                            -0.6800949640408094,
                            0.3154454604649293,
                            -0.6499603573594102,
                            -0.15662671684741936
                        ],
                        "bias": 0.9215518709132253
                    },
                    {
                        "weights": [
                            -0.7584074727128536,
                            0.21223483998299808,
                            -0.06909848481327074,
                            -0.7117741620981157,
                            -0.11425992603259028,
                            -0.6053053371213672,
                            -0.8841635463425073,
                            -0.6641557005567007,
                            0.5777375529145194,
                            0.7654395131035339
                        ],
                        "bias": 0.8460623661574176
                    },
                    {
                        "weights": [
                            -0.8025095267605413,
                            -0.5573802463072366,
                            0.7035281620254739,
                            0.6505728233005275,
                            -0.11771572227562,
                            -0.17885976034439754,
                            -0.17682279585100402,
                            -0.5164925477972246,
                            -0.08756157713403168,
                            -0.8786479769004212
                        ],
                        "bias": -0.750841047007446
                    }
                ],
                "length": 10
            },
            {
                "neurons": [
                    {
                        "weights": [
                            -0.3384200886260802,
                            -0.2042312188379516,
                            -0.4206084056168251,
                            -0.8596045393126526,
                            -0.3207604762846261,
                            -0.3696532029198374,
                            -0.3512045542379434,
                            -0.29196063333972777,
                            0.37290111749302324,
                            0.7718260510063353
                        ],
                        "bias": 0.08380956183248744
                    },
                    {
                        "weights": [
                            -0.6933225847880189,
                            0.8526274009164414,
                            -0.04680838883743266,
                            0.47085241544260836,
                            0.633804819918363,
                            -0.38472172278433847,
                            0.04759933982142739,
                            -0.2953814092094107,
                            -0.11638935167496411,
                            0.7383623026849493
                        ],
                        "bias": -0.9831636718030543
                    },
                    {
                        "weights": [
                            0.9786210375825224,
                            -0.7633099842955555,
                            0.81945897259297,
                            0.05892001199061303,
                            0.13897895686569384,
                            0.7761816876932235,
                            -0.9937468894086763,
                            -0.32720310469708136,
                            -0.9580935653656251,
                            -0.9066142209658656
                        ],
                        "bias": 0.7708895020392474
                    },
                    {
                        "weights": [
                            0.24421130689263837,
                            0.676019589799135,
                            -0.18037268410183782,
                            0.24690869632707502,
                            -0.68190220020122,
                            -0.2481782817405389,
                            -0.06089778177385807,
                            0.7233833713432654,
                            0.4955308696319167,
                            0.6079835129495903
                        ],
                        "bias": 0.33069153960891673
                    },
                    {
                        "weights": [
                            0.4632203251112619,
                            -0.705889891150111,
                            -0.2541092023357525,
                            -0.6454836505116612,
                            -0.508512902129401,
                            0.7127532443944407,
                            -0.11382899737490981,
                            -0.6540917101533736,
                            0.8667585140553322,
                            0.0708428133740655
                        ],
                        "bias": -0.9833940512015871
                    },
                    {
                        "weights": [
                            -0.9411321759908609,
                            0.5167922447977067,
                            -0.796893391460745,
                            -0.21060782780121734,
                            0.2279700952186856,
                            0.5234065603956848,
                            0.448252177508488,
                            0.9823993501552384,
                            -0.020029014265633194,
                            0.7223535446925053
                        ],
                        "bias": -0.476736094905452
                    },
                    {
                        "weights": [
                            -0.10521556807953036,
                            0.9972838906865553,
                            0.6212361479787263,
                            0.7882668569495843,
                            -0.06398788403595135,
                            -0.00012685654909816435,
                            0.5564326784142817,
                            -0.099264670592909,
                            -0.5117281581713198,
                            0.6589678762750728
                        ],
                        "bias": -0.2516305200762956
                    },
                    {
                        "weights": [
                            0.551692373793687,
                            0.18334246997531145,
                            -0.47880957707670446,
                            -0.662967444506404,
                            0.9751903016822636,
                            -0.4257214977934869,
                            -0.8341208394517434,
                            -0.37314008499859264,
                            0.2869631962253443,
                            -0.059189426786266264
                        ],
                        "bias": 0.09719474674693696
                    },
                    {
                        "weights": [
                            0.7026784847757852,
                            0.6433872057644834,
                            0.29649512315640303,
                            0.719655673676598,
                            -0.5354892587236819,
                            0.9703867690310852,
                            0.8067789375941092,
                            -0.9706804522371362,
                            -0.5292556651216174,
                            -0.48520600945180536
                        ],
                        "bias": 0.12859271263042626
                    },
                    {
                        "weights": [
                            0.29440199234481845,
                            0.9443377975671072,
                            0.22953289764521978,
                            0.9444548165285733,
                            -0.010585759622210311,
                            -0.41194133738816197,
                            0.49581874402892856,
                            0.3715961832911041,
                            0.9211814152650701,
                            0.3945274129755727
                        ],
                        "bias": -0.621857293007408
                    }
                ],
                "length": 10
            },
            {
                "neurons": [
                    {
                        "weights": [
                            0.037863499258750544,
                            0.015486528418036771,
                            0.4380697581852029,
                            0.06110185220289144,
                            -0.350741285036021,
                            0.6066465614647696,
                            -0.2380280502094867,
                            -0.379371908150574,
                            0.0665187001988854,
                            0.3658417250284103
                        ],
                        "bias": -0.1548661491942478
                    },
                    {
                        "weights": [
                            -0.4687222177227828,
                            0.4878057449743478,
                            -0.42379672481194586,
                            -0.8359639911861014,
                            -0.6327842602080855,
                            -0.9071833639219065,
                            -0.9751555548880515,
                            0.1692678010072859,
                            -0.7328189120517341,
                            -0.4366734032405133
                        ],
                        "bias": -0.2159266337208472
                    },
                    {
                        "weights": [
                            -0.34187758669263024,
                            0.18075124105640605,
                            0.28057846516501894,
                            0.6350159398390933,
                            0.7432932085568951,
                            0.6676387443189944,
                            0.23113717862348238,
                            0.9067446560979093,
                            -0.7050797411606009,
                            0.9150120122547272
                        ],
                        "bias": 0.7823634636769636
                    },
                    {
                        "weights": [
                            0.5572692960847754,
                            0.20878594535149708,
                            0.8264045009067245,
                            0.48122616009652575,
                            -0.6515621014151518,
                            -0.35405736818491995,
                            0.4873818758246098,
                            0.4875694090892879,
                            -0.6763834567739286,
                            -0.4430854764783183
                        ],
                        "bias": -0.07852599412457884
                    },
                    {
                        "weights": [
                            -0.030765698560994093,
                            0.8385729516571352,
                            -0.12559390747163612,
                            -0.6585608282517914,
                            -0.4904072234540635,
                            0.3492512164899544,
                            0.40480574813704817,
                            -0.1964045821483984,
                            -0.8142514798876828,
                            -0.04696606760418942
                        ],
                        "bias": 0.5606564674244476
                    },
                    {
                        "weights": [
                            -0.018187102327716698,
                            -0.24837402035145884,
                            -0.723272026565374,
                            0.7572025393118218,
                            -0.22986897725753153,
                            -0.11496807335292991,
                            -0.5698434963550041,
                            -0.6018034324520385,
                            0.5278939664322286,
                            0.3452990924439425
                        ],
                        "bias": 0.5285338573377996
                    },
                    {
                        "weights": [
                            0.9680472803191149,
                            0.8499490809817267,
                            0.04244865691416133,
                            -0.7159504164069845,
                            -0.8408241966580154,
                            0.3454789186248035,
                            0.8502951457098344,
                            0.19074340958002867,
                            0.9252072598945402,
                            0.8575373923105267
                        ],
                        "bias": 0.5980620003674382
                    },
                    {
                        "weights": [
                            -0.31826747390163046,
                            0.41006164224704267,
                            -0.6533818697701206,
                            0.4321694815881403,
                            -0.8213966956223624,
                            -0.49706867157714973,
                            -0.8516444524245925,
                            0.7236596478527006,
                            -0.5021224153182768,
                            0.9937136435505816
                        ],
                        "bias": -0.6426775630509884
                    },
                    {
                        "weights": [
                            -0.9995451397255546,
                            -0.07929555287444034,
                            -0.7333320752174288,
                            0.07427617765737193,
                            -0.28703166462555885,
                            -0.7583606725782674,
                            0.06616443502278035,
                            -0.47429294908891206,
                            -0.9624133557170498,
                            0.41680978506286537
                        ],
                        "bias": -0.9188678898227649
                    },
                    {
                        "weights": [
                            -0.5280631749747324,
                            0.614811652081166,
                            -0.8300557368400747,
                            0.44616183863091785,
                            0.9047466209941313,
                            0.7083419715044961,
                            -0.7380227959506125,
                            0.32819540903699407,
                            0.5880497105509599,
                            0.8649596124367871
                        ],
                        "bias": 0.5455972851704389
                    }
                ],
                "length": 10
            },
            {
                "neurons": [
                    {
                        "weights": [
                            0.6850688427825651,
                            -0.6806682993423965,
                            0.9203183750033779,
                            -0.02154359204991496,
                            -0.2796798155112783,
                            0.3496581444522544,
                            0.7630818051919839,
                            -0.7755393219769491,
                            0.26606354033598745,
                            0.5067194685436727
                        ],
                        "bias": 0.8625916361166617
                    },
                    {
                        "weights": [
                            -0.44003357635795726,
                            0.4650299719208293,
                            -0.5109375094069821,
                            0.14970185441301065,
                            -0.08344439335245268,
                            0.5182888844861815,
                            -0.07822638472842702,
                            -0.36325027964358325,
                            -0.42443193698439474,
                            -0.7120420364991644
                        ],
                        "bias": -0.05912611903749765
                    },
                    {
                        "weights": [
                            0.9059921943221991,
                            -0.5579541446142589,
                            0.8569853667383964,
                            -0.15237719439103703,
                            0.9600940897772887,
                            -0.7113106973367058,
                            0.21102411028232515,
                            -0.8124447689023742,
                            0.31759862195863886,
                            0.31468846730858946
                        ],
                        "bias": -0.45167105755898707
                    },
                    {
                        "weights": [
                            0.2988439278301631,
                            -0.9210164747657668,
                            -0.22390012531902026,
                            0.3578125876661813,
                            -0.2602470962604242,
                            -0.24391160557916947,
                            -0.7725071577229503,
                            0.23541185629520522,
                            0.47758728090525815,
                            0.9808008359200024
                        ],
                        "bias": -0.9621145087795195
                    },
                    {
                        "weights": [
                            -0.5171852664819301,
                            -0.8144454519863609,
                            -0.44765581493362494,
                            -0.28400014821550856,
                            -0.62406250528939,
                            0.18418419472623127,
                            -0.1842000932608241,
                            -0.27285608377118487,
                            -0.9833809813730439,
                            -0.0710029212248049
                        ],
                        "bias": 0.31024189619270537
                    },
                    {
                        "weights": [
                            0.18227536049297988,
                            0.025058675411089748,
                            0.24624766026981493,
                            -0.7376975443795224,
                            -0.8109928014197418,
                            -0.10044400903652995,
                            0.7576476446680735,
                            0.037853262409363264,
                            -0.4719931709425784,
                            0.9835544178809759
                        ],
                        "bias": -0.6053465484111464
                    },
                    {
                        "weights": [
                            -0.23940809236078242,
                            -0.7346986661054966,
                            -0.00872939982349985,
                            -0.27152275837578044,
                            -0.3758832400332417,
                            -0.7002596366205895,
                            0.28739781441865353,
                            0.9925667025117151,
                            0.1390695069283816,
                            0.7226249452201798
                        ],
                        "bias": -0.8382624750955661
                    },
                    {
                        "weights": [
                            -0.07254892728822737,
                            -0.11054919300362154,
                            -0.825910075423411,
                            0.6023320355746848,
                            -0.24848515225884293,
                            0.4516112999068087,
                            -0.6930980694336535,
                            0.13154055021352207,
                            0.47305632669159237,
                            0.3047131405748915
                        ],
                        "bias": -0.16984714398967005
                    },
                    {
                        "weights": [
                            -0.8244812831193404,
                            0.31082221491733697,
                            -0.031206177782800326,
                            0.8874173558975187,
                            -0.660883509554332,
                            -0.5458762935664414,
                            0.2709266430652413,
                            -0.8457049027101979,
                            -0.805219730374579,
                            -0.37138525102987274
                        ],
                        "bias": -0.02636165523665812
                    },
                    {
                        "weights": [
                            0.22990743977359474,
                            0.8370936018478667,
                            -0.23572323507846327,
                            0.9842814123643919,
                            0.5221365382682894,
                            -0.6359464957463128,
                            0.9341180584061777,
                            -0.21939331769351833,
                            0.6791806841098929,
                            0.4096112264521887
                        ],
                        "bias": 0.6224085513181974
                    }
                ],
                "length": 10
            },
            {
                "neurons": [
                    {
                        "weights": [
                            0.3580123987861319,
                            0.7855948274596318,
                            -0.7634511373408677,
                            -0.9957876077864583,
                            -0.6859185183459611,
                            -0.8391131794260454,
                            -0.5437238153408785,
                            0.7969834291840323,
                            -0.3259388113983377,
                            0.13944295199034595
                        ],
                        "bias": -0.14135893203831662
                    },
                    {
                        "weights": [
                            0.4287708502933969,
                            -0.4155877662981695,
                            -0.048059100318841974,
                            0.1607119213044106,
                            -0.11027106953469024,
                            -0.1056808018696247,
                            0.9057776782835012,
                            0.891184676073391,
                            0.3793372376123423,
                            -0.961158686882635
                        ],
                        "bias": 0.46083213252873323
                    },
                    {
                        "weights": [
                            0.7281280487927613,
                            -0.886259219372763,
                            0.25150619778084393,
                            0.06933454273517792,
                            0.6641232948141893,
                            0.19182438154378034,
                            0.7579166112082274,
                            0.9749170590837812,
                            -0.017009645599241008,
                            0.25680807398707506
                        ],
                        "bias": 0.33571635927763666
                    },
                    {
                        "weights": [
                            0.03402198710328053,
                            -0.03345791521991037,
                            -0.5219481560716042,
                            -0.5512870551023552,
                            0.4507214407735507,
                            -0.44805174463482045,
                            -0.9766595382982561,
                            -0.44722747559878884,
                            0.8204659644714618,
                            -0.9838205149054053
                        ],
                        "bias": -0.009248594027090107
                    },
                    {
                        "weights": [
                            -0.9118753750615429,
                            0.5101148382384564,
                            0.6403239033920232,
                            -0.4089776621121146,
                            -0.46816757482923754,
                            0.6886977772908753,
                            -0.5086484823223221,
                            -0.9996669527272632,
                            -0.711363052846028,
                            -0.27004111409861076
                        ],
                        "bias": -0.26839324438989354
                    },
                    {
                        "weights": [
                            -0.1039325124862931,
                            0.15697234403569804,
                            0.4142366234454222,
                            -0.07066360870359967,
                            0.36854801780008306,
                            0.03256115126146186,
                            -0.606763100877715,
                            0.47982669909034814,
                            0.027799618146098437,
                            -0.5789172546862562
                        ],
                        "bias": -0.6972836099165522
                    },
                    {
                        "weights": [
                            -0.08099252066590368,
                            0.18716831334854755,
                            0.10633169095352724,
                            -0.7398046896287536,
                            -0.8275883842595457,
                            0.5894601309445209,
                            0.4573400988321161,
                            -0.8275662884879416,
                            0.26026345582917987,
                            -0.9822984440022793
                        ],
                        "bias": -0.5337089069820453
                    },
                    {
                        "weights": [
                            -0.4858294797771192,
                            -0.10988663550149669,
                            -0.4583822587272828,
                            0.7873446498821446,
                            0.1177261308984312,
                            0.5849017212464311,
                            -0.3719816006000105,
                            -0.7311490244860677,
                            0.3448939008453622,
                            0.23607136353939318
                        ],
                        "bias": -0.4423700669335866
                    },
                    {
                        "weights": [
                            0.15547950071528605,
                            0.10129746090957292,
                            -0.5343525069336896,
                            0.9022863545224564,
                            0.24998553759238185,
                            0.9215973852816637,
                            -0.4733578773435887,
                            0.3380906859863446,
                            0.6560090145499391,
                            -0.6768359375279187
                        ],
                        "bias": 0.9032783594292313
                    },
                    {
                        "weights": [
                            -0.6110232071578108,
                            0.6026244307502251,
                            -0.28162320787471984,
                            -0.7875658144465489,
                            -0.2835921985618197,
                            -0.5531469642298599,
                            0.31100768344938956,
                            -0.9529868131733805,
                            0.14946560833229539,
                            0.4584320034213609
                        ],
                        "bias": 0.3705805604238017
                    }
                ],
                "length": 10
            },
            {
                "neurons": [
                    {
                        "weights": [
                            -0.8285610673939687,
                            -0.6461950318489555,
                            -0.37230171926518585,
                            -0.2802965333173528,
                            -0.8650295464253104,
                            0.0884162839814644,
                            -0.42755298007177744,
                            -0.7053528058956007,
                            -0.2765192534707741,
                            -0.7489387159621173
                        ],
                        "bias": -0.2396783550074597
                    },
                    {
                        "weights": [
                            -0.05740851737925334,
                            0.7453727187702999,
                            -0.6102543862727288,
                            0.8322238959857469,
                            -0.11237128547230713,
                            -0.1739785795767097,
                            -0.9539835175780453,
                            0.7068235186226361,
                            -0.8476610659660195,
                            0.5211160313401837
                        ],
                        "bias": 0.0804261343446111
                    },
                    {
                        "weights": [
                            0.2992548781524931,
                            -0.13438552357913913,
                            -0.9921935121596084,
                            -0.03240440235228248,
                            -0.7581843381411064,
                            -0.3007957373400809,
                            0.050982655065764604,
                            0.6673524478200958,
                            -0.16013330926310032,
                            -0.24075940272594631
                        ],
                        "bias": 0.4557594516968191
                    },
                    {
                        "weights": [
                            -0.0951257565389183,
                            -0.6068809071243053,
                            -0.8491319838909874,
                            -0.370369328616317,
                            -0.011214437629863516,
                            -0.484304089079169,
                            -0.3775559782554281,
                            -0.1568192483275339,
                            0.266368514251228,
                            -0.4572156550836435
                        ],
                        "bias": -0.21538674546197445
                    },
                    {
                        "weights": [
                            0.6690997972141217,
                            -0.3788988606124839,
                            -0.9220889621737713,
                            -0.5406159193153839,
                            -0.26609172041468443,
                            0.15382598764356126,
                            0.33517012433220783,
                            -0.7254197351170777,
                            0.03405691459224225,
                            -0.6957708582699427
                        ],
                        "bias": 0.8203783739935604
                    },
                    {
                        "weights": [
                            0.4317165545099988,
                            -0.2041131894806496,
                            -0.5158422147891024,
                            0.39766476560178,
                            0.36980059770456686,
                            0.0504755040418603,
                            -0.11449972496351601,
                            0.9205386666349686,
                            0.9092534640150827,
                            0.9871361254923554
                        ],
                        "bias": 0.6337661399999424
                    },
                    {
                        "weights": [
                            0.8725907215425133,
                            0.5799922836704736,
                            -0.184069084016812,
                            0.7444709511755818,
                            -0.389219052082066,
                            -0.7409563806837016,
                            0.6694361518253291,
                            -0.31409153032335047,
                            -0.44316988695310666,
                            0.31179397496899175
                        ],
                        "bias": 0.07782421386486194
                    },
                    {
                        "weights": [
                            0.7145323654809412,
                            0.44647858631633985,
                            0.16856598085858576,
                            -0.2971881728151591,
                            0.295269587707252,
                            0.8046617757119949,
                            -0.6524514115587068,
                            0.9076995154464098,
                            0.743429021231151,
                            0.02455917758568904
                        ],
                        "bias": 0.3822359860691058
                    },
                    {
                        "weights": [
                            0.17125502800053094,
                            0.4812137117798869,
                            -0.06584468494945628,
                            0.533904088997851,
                            0.2876475072312894,
                            0.04985806988710206,
                            0.44936909825221494,
                            0.1224953385849441,
                            0.17844382020899907,
                            0.41033403388811784
                        ],
                        "bias": 0.39365114289768477
                    },
                    {
                        "weights": [
                            -0.1886428881099691,
                            0.05696757412615483,
                            -0.10368881918075834,
                            0.0861946334805963,
                            0.4280524993962407,
                            -0.4494737426658397,
                            0.0414687301505523,
                            0.9824519743920328,
                            0.1055743592348366,
                            -0.7342769333607864
                        ],
                        "bias": -0.2638480796224856
                    }
                ],
                "length": 10
            },
            {
                "neurons": [
                    {
                        "weights": [
                            0.8929079905646846,
                            0.6292597027320994,
                            -0.6405680060831194,
                            -0.49607020798815693,
                            0.46078081846624186,
                            0.07123743313484177,
                            -0.9139940208744275,
                            -0.5904904096714894,
                            -0.7632345844513837,
                            -0.8309919242510622
                        ],
                        "bias": 0.20903290917989525
                    },
                    {
                        "weights": [
                            0.1045634765233785,
                            0.12566245320522063,
                            0.23851120838805517,
                            -0.37883657117908043,
                            0.9252150425776811,
                            -0.7942617798879716,
                            -0.8729999098243737,
                            0.3156923376835572,
                            -0.839739877111557,
                            0.5236676930659394
                        ],
                        "bias": -0.06969031638838774
                    },
                    {
                        "weights": [
                            0.5784941894223057,
                            0.7736102027031071,
                            -0.6670675244379685,
                            -0.19019945128890292,
                            -0.8761748644623517,
                            -0.9579128202853548,
                            -0.9275898896225241,
                            -0.505439233579144,
                            -0.2867881234127809,
                            0.9307266652085324
                        ],
                        "bias": -0.5776451580190276
                    },
                    {
                        "weights": [
                            0.0961790805533278,
                            0.3185286694422378,
                            0.7229309007633606,
                            -0.6524984014989819,
                            0.7561233194821719,
                            0.8282548611084586,
                            -0.14365218366267696,
                            0.6570070567541115,
                            0.7224737163572958,
                            -0.050024164862399356
                        ],
                        "bias": 0.679951774808389
                    },
                    {
                        "weights": [
                            0.434968256614344,
                            -0.5937782941819016,
                            -0.07158089939836532,
                            0.3114802566989574,
                            0.60522034438075,
                            0.8085371384780942,
                            -0.7361078152359251,
                            0.37784611330512097,
                            0.06207897365684123,
                            -0.4543422586595822
                        ],
                        "bias": 0.17019065458781846
                    },
                    {
                        "weights": [
                            0.13652950656783802,
                            -0.7582897895431928,
                            -0.8245950695327868,
                            -0.17552295229862835,
                            -0.5857600467345137,
                            -0.31727575144745357,
                            -0.4040524529468432,
                            0.08842720135761684,
                            -0.7026124288922935,
                            0.42780735670903147
                        ],
                        "bias": 0.05906917840712267
                    },
                    {
                        "weights": [
                            -0.8103062724329277,
                            -0.936237909011159,
                            -0.6817740864750985,
                            0.5880789568937073,
                            0.6848588477170949,
                            -0.18319524416302957,
                            -0.33170797426028487,
                            -0.8234688829431038,
                            -0.6610084991326792,
                            0.630917054824716
                        ],
                        "bias": 0.059677239529436266
                    },
                    {
                        "weights": [
                            0.06536552240022853,
                            0.9944183684109968,
                            -0.10014247500544293,
                            -0.21243240622851434,
                            0.6454381397787716,
                            -0.09172302292238399,
                            0.22978764373012028,
                            -0.09498009552771047,
                            -0.1849290068117988,
                            0.7027487181482057
                        ],
                        "bias": -0.7522548008061962
                    },
                    {
                        "weights": [
                            0.9862690497967257,
                            0.4942053247155429,
                            -0.22232481561169815,
                            -0.04229649308155414,
                            -0.044085410162560956,
                            -0.027407291634446107,
                            -0.1529756986499835,
                            -0.22549427746831663,
                            0.21494068651873932,
                            0.8611014099761232
                        ],
                        "bias": -0.22921607729753934
                    },
                    {
                        "weights": [
                            -0.7353392416198541,
                            -0.5374060939100764,
                            -0.04483357017750156,
                            -0.860381445101464,
                            0.26222433319475646,
                            -0.2859244540700323,
                            0.9191055440587592,
                            -0.020952981363092427,
                            -0.5453217748780514,
                            0.6616221850987123
                        ],
                        "bias": -0.2560508980127121
                    }
                ],
                "length": 10
            }
        ],
        "outputLayer": {
            "neurons": [
                {
                    "weights": [
                        -0.6460834380528859,
                        -0.11426686945527686,
                        0.06561585185637786,
                        -0.8313253105773017,
                        -0.33974056556293264,
                        -0.40185950919205315,
                        -0.4194938370393797,
                        0.5642284890399241,
                        -0.8217714832614278,
                        -0.7125196511447855
                    ],
                    "bias": -0.10636299802448912
                },
                {
                    "weights": [
                        -0.5424956268352774,
                        0.19636316766075623,
                        0.807856385401152,
                        0.8478435452694708,
                        -0.060649763918938504,
                        0.4597638085370457,
                        0.6843280992374587,
                        -0.06340620420856413,
                        -0.5527437689970747,
                        -0.13722488219101847
                    ],
                    "bias": -0.9446524826150782
                },
                {
                    "weights": [
                        0.5326689903904624,
                        -0.11945469346376303,
                        -0.455063833520746,
                        0.5408155771898719,
                        -0.23994567833069103,
                        0.3168299319139023,
                        0.8938003142138682,
                        0.32170890623823944,
                        0.17376370492279847,
                        -0.35887278895721364
                    ],
                    "bias": -0.5217855040834154
                },
                {
                    "weights": [
                        -0.011914475471874963,
                        -0.7691003393791671,
                        -0.18546699387241783,
                        0.46612019687532014,
                        0.04736383816317824,
                        -0.49199831788434967,
                        0.6576454818566606,
                        0.20831276430630474,
                        -0.03737349277350854,
                        -0.6997199580609226
                    ],
                    "bias": 0.804297621987135
                },
                {
                    "weights": [
                        -0.09550197110232395,
                        0.46296147859434855,
                        -0.9047444418903743,
                        -0.5706273303114326,
                        -0.3359626697063729,
                        -0.9911464721347154,
                        0.8117067089592007,
                        -0.018267963616213523,
                        -0.8007489407385944,
                        -0.5787624551330097
                    ],
                    "bias": 0.6453747739493334
                },
                {
                    "weights": [
                        0.1704844111905317,
                        0.08301794533247642,
                        -0.1730535894469225,
                        0.46537669832541884,
                        -0.4851852472163807,
                        -0.42063815857909703,
                        0.6643447566486607,
                        -0.7443619374197394,
                        -0.47941786881862236,
                        -0.5717560455293034
                    ],
                    "bias": 0.2915510694853696
                },
                {
                    "weights": [
                        0.7910851154127563,
                        -0.352085095840986,
                        0.602198715060325,
                        -0.8447033054155211,
                        -0.6651733031615454,
                        0.5420367683771532,
                        0.27749116368908333,
                        -0.8462835650083091,
                        0.39203143308396293,
                        0.8922565763051955
                    ],
                    "bias": -0.40985487813804133
                },
                {
                    "weights": [
                        -0.8770290110213486,
                        -0.3412475433205877,
                        0.7981125691699706,
                        0.9187603666328643,
                        0.2811214181519608,
                        0.49305913736539453,
                        -0.023322729493739702,
                        -0.3260265399151314,
                        -0.8003007892669669,
                        0.33742568360903236
                    ],
                    "bias": -0.16946486295686602
                },
                {
                    "weights": [
