[
    {
        "inputLayer": {
            "neurons": [
                {
                    "weights": [
                        0.19887170406078591,
                        0.09379415647257106,
                        -0.0570863655130307,
                        -0.5302653828978323,
                        0.2054860283254909,
                        0.22626858447283782,
                        -0.9835534052620472,
                        0.07414639706684789,
                        0.10450113742589018,
                        -0.05409562861841577,
                        -0.3991809556429369,
                        0.5446410032530835,
                        -0.6930285262788611,
                        0.8996172117577701,
                        -0.7921252707320874,
                        -0.6634557818229201,
                        0.09620612658957373,
                        0.07981566847841948
                    ],
                    "bias": -0.6567593558702934
                },
                {
                    "weights": [
                        0.10117130338187175,
                        0.007296853742795761,
                        -0.07110202780286845,
                        0.7442675021499354,
                        0.4959852908438964,
                        -0.646898197904721,
                        -0.0990572263386249,
                        0.5330525882140087,
                        0.911694351449966,
                        0.41167295372310875,
                        -0.3116745724365506,
                        -0.2608924636666343,
                        0.06529582930490263,
                        -0.15343434120350286,
                        -0.41414268409807886,
                        0.07095091017942257,
                        0.17318471312773176,
                        0.9660372478868668
                    ],
                    "bias": -0.5840710580587019
                },
                {
                    "weights": [
                        -0.48460708776860506,
                        -0.5229326979597864,
                        0.627035301798524,
                        -0.2897239404551579,
                        0.6763170624368768,
                        0.23399855339155784,
                        0.6598414472234451,
                        0.6097699474005494,
                        -0.5312199234260868,
                        0.025986538617682076,
                        -0.38365150828160544,
                        -0.544820077760219,
                        -0.378150884763526,
                        -0.5835356110870309,
                        -0.5098554450841122,
                        0.14466824519244592,
                        -0.835844105829282,
                        -0.20736387097656106
                    ],
                    "bias": -0.508395877295977
                },
                {
                    "weights": [
                        -0.9382211799175268,
                        -0.8071099862571129,
                        -0.10798658667156458,
                        0.3244113355016611,
                        0.07642634435265472,
                        -0.07271257881320237,
                        -0.47850281212196233,
                        -0.959478093896996,
                        -0.30526039096502,
                        -0.11390467299013185,
                        -0.40871944822117023,
                        -0.09416978693244737,
                        0.8244216012374717,
                        0.4896993980316675,
                        0.13875536466243843,
                        0.9477571868075669,
                        -0.55211274160392,
                        -0.4443010025242964
                    ],
                    "bias": -0.6725438667457918
                },
                {
                    "weights": [
                        -0.6071437953414598,
                        -0.07595267086910384,
                        -0.6728559901756253,
                        -0.947924530880478,
                        0.9095885409942694,
                        -0.3173297293004529,
                        0.2991614390862962,
                        -0.39520556082859293,
                        -0.923810270717081,
                        0.5493122366262628,
                        -0.6816711656799588,
                        -0.24301992535065664,
                        -0.1520099297028612,
                        0.001852166209550532,
                        -0.3916693614594293,
                        0.6277475633945713,
                        -0.22730112133907543,
                        -0.39195799882219995
                    ],
                    "bias": -0.538518744193805
                },
                {
                    "weights": [
                        0.5818468638843501,
                        0.871329548513557,
                        -0.47178235055254025,
                        -0.6344283792995524,
                        -0.21788429348169602,
                        -0.021877236764936026,
                        -0.18203033356883114,
                        -0.4674610331051532,
                        -0.7179198185835383,
                        -0.0849306387180131,
                        0.7423077954156787,
                        -0.7249921475879688,
                        -0.6509037459042342,
                        0.6499747901034822,
                        -0.9352440910119519,
                        0.6332845785241543,
                        0.20006734213236999,
                        0.9665152310711791
                    ],
                    "bias": -0.698115189937831
                },
                {
                    "weights": [
                        -0.6844813144765514,
                        0.7958846898374137,
                        -0.9330626081922544,
                        0.1215895143055159,
                        0.06216073125678068,
                        -0.13969674103029073,
                        -0.35061032049339746,
                        0.16533175870723205,
                        0.6958976082020618,
                        -0.7252098479409654,
                        0.17717180826939471,
                        0.7366808464651939,
                        -0.4169735887311632,
                        0.38020590344170535,
                        0.6788278044319218,
                        -0.42380066259068827,
                        0.31448226365151166,
                        0.863222613925114
                    ],
                    "bias": 0.04051928866650291
                },
                {
                    "weights": [
                        0.024704917502481383,
                        0.10904086813891589,
                        -0.8958993533991793,
                        -0.8735489716615206,
                        -0.6059286156222545,
                        0.2050678062982183,
                        0.7944622766222509,
                        -0.8606561586734247,
                        -0.618268545039911,
                        0.9506337276137973,
                        -0.18776591259705988,
                        -0.9789737193726911,
                        0.2704903556474858,
                        0.5978168069068817,
                        0.7726520420850909,
                        0.6912677195810366,
                        -0.743236755716826,
                        0.8564322192433687
                    ],
                    "bias": -0.12106669054235027
                },
                {
                    "weights": [
                        0.8892851303978313,
                        -0.34800444256997976,
                        -0.15470771624553037,
                        0.6340067222522643,
                        0.0644181269860351,
                        -0.3054344635518036,
                        -0.7575839014087713,
                        0.2327334528488032,
                        -0.9458254537231543,
                        -0.7262590600413381,
                        -0.7853531254245498,
                        -0.4399877787869315,
                        -0.9483207815402992,
                        -0.48975372268991446,
                        -0.9881164372494347,
                        0.9620913825321169,
                        0.6466646570670032,
                        0.057854099693724015
                    ],
                    "bias": -0.6823631198080027
                },
                {
                    "weights": [
                        0.9363258928262463,
                        -0.09617793111091832,
                        -0.2801282775564511,
                        -0.335614567047009,
                        0.34519830812184504,
                        -0.0010560686024514432,
                        -0.5638005992838031,
                        0.06836313082111611,
                        -0.9200976591706005,
                        0.8999751673836933,
                        0.15427384778419495,
                        -0.04108402674071421,
                        0.8432116535726162,
                        -0.307569554125263,
                        -0.9478684161887643,
                        0.010575740914934073,
                        0.9164358253881901,
                        0.996229301741614
                    ],
                    "bias": -1.179177019575086
                }
            ],
            "length": 10
        },
        "layers": [
            {
                "neurons": [
                    {
                        "weights": [
                            0.3102640980342104,
                            0.49660818522905603,
                            -0.2856180040737084,
                            0.5853798818345388,
                            -0.9531959105497514,
                            0.4646595608556663,
                            0.14161948547034275,
                            -0.8320545590021275,
                            0.3352802225476781,
                            -0.3780843585869289
                        ],
                        "bias": 0.5569178931490525
                    },
                    {
                        "weights": [
                            0.993889756220468,
                            -0.2111201464931034,
                            0.5003002544558386,
                            0.5027972205141384,
                            -0.5537144604109574,
                            0.7089610434888174,
                            0.2358983732456914,
                            0.4772932469823725,
                            0.8743392944318653,
                            0.3737134906999533
                        ],
                        "bias": 0.16808313370406514
                    },
                    {
                        "weights": [
                            -0.7833841728902453,
                            0.9976365428078573,
                            -0.9136016526901007,
                            -0.32779726133112574,
                            -0.5336233612917916,
                            0.5678638565275671,
                            0.5609803691757564,
                            -0.17396249728914737,
                            -0.1376736759364403,
                            -0.4533404687977305
                        ],
                        "bias": -1.1715887868695036
                    },
                    {
                        "weights": [
                            0.313259028312574,
                            -0.07131989734028532,
                            -0.8229389708153216,
                            0.39275832678966593,
                            0.5268357764107439,
                            -0.7858933412449418,
                            0.2666033452001233,
                            0.06658511027613345,
                            0.8699936326527851,
                            0.05668827949403954
                        ],
                        "bias": -0.11852657953577922
                    },
                    {
                        "weights": [
                            -0.08615389936687956,
                            0.6161832990332219,
                            0.09760432536816466,
                            -0.7171312807313377,
                            0.9098375702691925,
                            0.8186154892047184,
                            0.3657483332106577,
                            0.05887574103573012,
                            0.28613628258567925,
                            0.3449388882718867
                        ],
                        "bias": 0.2734085477518416
                    },
                    {
                        "weights": [
                            0.8772695405007167,
                            0.14241817088109987,
                            -0.10163257964778083,
                            -0.6433670992223037,
                            0.9805611696528067,
                            0.7459654951181693,
                            -0.6965837439692835,
                            -0.34609731089225293,
                            -0.30093904200606936,
                            0.4382819410542864
                        ],
                        "bias": -0.4554483593549691
                    },
                    {
                        "weights": [
                            -0.5291108205876962,
                            -0.06124076401487222,
                            0.4843871541638174,
                            -0.44233405470417697,
                            0.98826289840108,
                            0.7487290862808527,
                            -0.8697452088632041,
                            0.5541868882196963,
                            0.9469880617506419,
                            0.13743202230488882
                        ],
                        "bias": 0.8298561467643921
                    },
                    {
                        "weights": [
                            -0.9899082547658733,
                            0.6843680430941737,
                            0.5400328820554698,
                            -0.6431130774694498,
                            0.6483374184953232,
                            -0.22973355856571698,
                            0.26773788233474605,
                            -0.21303256936491177,
                            0.3374088833159137,
                            -0.006097390595711127
                        ],
                        "bias": -0.6083691992741417
                    },
                    {
                        "weights": [
                            -0.07224130887256175,
                            0.44612532398836624,
                            0.5820040755391214,
                            0.2753500494697556,
                            -0.6244849326853403,
                            -0.8060165532135442,
                            0.7102789750167082,
                            -0.9274406922344511,
                            0.8383956485888833,
                            0.36041076129393845
                        ],
                        "bias": 0.9194230329968142
                    },
                    {
                        "weights": [
                            0.05271286128352126,
                            -0.29068202597525183,
                            -0.5512869608550368,
                            0.3355037656892237,
                            0.09427335817525062,
                            0.6860074858993117,
                            0.24197000744884956,
                            -0.8100916580550794,
                            -0.30372002752202176,
                            -0.7624467916562436
                        ],
                        "bias": 1.1671980501502248
                    }
                ],
                "length": 10
            },
            {
                "neurons": [
                    {
                        "weights": [
                            -0.21506811686317695,
                            0.4597042308516308,
                            -0.6476996059375064,
                            -0.29841809160053856,
                            -0.8638311869271604,
                            0.8555015671359212,
                            0.8713576974267014,
                            0.8606843763384906,
                            -0.4826437797347074,
                            -0.09018257967933674
                        ],
                        "bias": 0.1820947188255264
                    },
                    {
                        "weights": [
                            0.2257637174430236,
                            -0.39690576445715386,
                            0.3852785532627121,
                            -0.3008001697094087,
                            -0.8187043675155443,
                            -0.02322216024558177,
                            0.5406302651420809,
                            0.30645158798783956,
                            -0.4855999612573778,
                            0.7664988087008606
                        ],
                        "bias": -0.2552057714946973
                    },
                    {
                        "weights": [
                            -0.7941786447982071,
                            0.051128195415905076,
                            -0.6437147396735003,
                            0.7842644000886041,
                            0.819074900060762,
                            -0.46155174686279965,
                            -0.24250607079780995,
                            0.4583407926426708,
                            0.1825171234220735,
                            -0.46383394921097
                        ],
                        "bias": 0.27668815644983025
                    },
                    {
                        "weights": [
                            -0.8128558341772008,
                            -0.6940241097575157,
                            -0.22941224045317177,
                            0.7113186405220877,
                            0.2316663600850175,
                            0.04211253280143268,
                            -0.9251158076183732,
                            -0.7922311812350964,
                            0.0966364437025744,
                            0.11582472183245862
                        ],
                        "bias": 0.6582377100890007
                    },
                    {
                        "weights": [
                            -0.760061689919308,
                            0.8543997604620261,
                            0.2138968487641626,
                            -0.7507933584484539,
                            -0.38870554164032267,
                            0.6258882300674986,
                            -0.6879282651269882,
                            0.07113206289905971,
                            0.022944968210687477,
                            -0.09720457300205188
                        ],
                        "bias": 0.31358919508620575
                    },
                    {
                        "weights": [
                            0.4849049781920258,
                            0.46225504148469754,
                            -0.7428483610850178,
                            0.9630285208322278,
                            -0.15161330325147948,
                            -0.16713214173691937,
                            0.06563915164714129,
                            -0.7480123613608465,
                            0.8271656648984163,
                            0.2819253035994109
                        ],
                        "bias": -0.3398996540704182
                    },
                    {
                        "weights": [
                            0.018745644002307493,
                            -0.4615230439184175,
                            0.6138207987946276,
                            -0.451740789866099,
                            -0.5684862737274625,
                            -0.9779948109948504,
                            -0.553279149560759,
                            0.7475113610902435,
                            0.08418689321303652,
                            -0.535344736588153
                        ],
                        "bias": 0.6184248465464698
                    },
                    {
                        "weights": [
                            -0.8080329936803101,
                            -0.4163592957846691,
                            -0.5105863991054602,
                            0.7144419396182766,
                            0.14479552895894732,
                            0.7269834475285144,
                            -0.4336788580096391,
                            0.05003573288248697,
                            -0.9870405647001719,
                            0.2041001597554326
                        ],
                        "bias": 0.6312365554326332
                    },
                    {
                        "weights": [
                            -0.9177024044218676,
                            -0.2363911031230601,
                            0.8702262680415556,
                            -0.31950521278179855,
                            -0.16309662160219807,
                            0.9278614025166392,
                            -0.8901079708768975,
                            -0.9156310687822435,
                            0.43608467565340137,
                            -0.8838525528528398
                        ],
                        "bias": 0.27458391918470065
                    },
                    {
                        "weights": [
                            0.9605036914238159,
                            -0.8173615036805053,
                            0.34426194569747515,
                            0.8584361882570517,
                            0.588183532208006,
                            -0.49048175697927743,
                            0.839070410557045,
                            -0.35990786948399167,
                            0.6996446578033417,
                            0.34124973770365497
                        ],
                        "bias": 0.5252328398470834
                    }
                ],
                "length": 10
            },
            {
                "neurons": [
                    {
                        "weights": [
                            0.20595646024240843,
                            0.32290363656610777,
                            -0.30689467885682853,
                            0.0520235218992986,
                            -0.5720527387691339,
                            -0.8444884684510008,
                            0.8368465436976693,
                            -0.34959204892615814,
                            0.6632362424639973,
                            0.33808044798942927
                        ],
                        "bias": -0.81935264583834
                    },
                    {
                        "weights": [
                            -0.9176334064583132,
                            0.5527510399851379,
                            -0.25110421742371747,
                            -0.20821237912472346,
                            0.02944415181384774,
                            -0.7519681517645427,
                            0.9572978978526472,
                            0.007559394234637473,
                            -0.8659173442623029,
                            0.01798965369787897
                        ],
                        "bias": -0.3029294208928455
                    },
                    {
                        "weights": [
                            -0.10144735197237154,
                            0.11147045650249732,
                            0.2072616589743792,
                            -0.27997200850654846,
                            -0.3161500532645187,
                            -0.2790769712056993,
                            0.33077088147512135,
                            0.03497444318768084,
                            -0.31495345243018313,
                            0.41115412810647656
                        ],
                        "bias": -0.8610575001427899
                    },
                    {
                        "weights": [
                            0.3368368932592707,
                            -0.1816412133925025,
                            -0.5371236869927216,
                            0.6213814281262569,
                            0.10438644319254298,
                            0.7524134242951528,
                            0.1611788214146792,
                            -0.9564937488205201,
                            0.9428134948185707,
                            0.659069338244489
                        ],
                        "bias": -0.5136859088564153
                    },
                    {
                        "weights": [
                            0.9154027046303699,
                            -0.6860518170951075,
                            0.4613098467491501,
                            0.5415995926020447,
                            -0.2051386573542262,
                            -0.35462023088355377,
                            0.19916336085584918,
                            -0.7774086374835072,
                            -0.9345568293801503,
                            0.3181723921024364
                        ],
                        "bias": -0.5099905425118165
                    },
                    {
                        "weights": [
                            0.9895107595108645,
                            0.4354989387191428,
                            -0.9411179287146465,
                            -0.6107348186043511,
                            0.4383274449538366,
                            -0.04175401903959841,
                            0.7216575433411594,
                            0.711571572276148,
                            0.1834381969579859,
                            0.9477485913151416
                        ],
                        "bias": 0.17664375747420188
                    },
                    {
                        "weights": [
                            -0.44400980623596586,
                            0.8383586320847853,
                            0.47798396767473217,
                            -0.7196556427380725,
                            0.22545361713542356,
                            0.755923837407805,
                            -0.6107730140948877,
                            -0.11200222305459029,
                            0.48045921047864226,
                            -0.2929972199155797
                        ],
                        "bias": -0.22290648261707888
                    },
                    {
                        "weights": [
                            -0.7384934537361196,
                            0.8818250534591705,
                            -0.7623799296104303,
                            -0.5997350536694088,
                            0.14521926620787418,
                            0.5193453764834848,
                            -0.4404771109649088,
                            -0.29006961060384095,
                            0.08741893473791196,
                            -0.08319243349275429
                        ],
                        "bias": -0.2712218794175722
                    },
                    {
                        "weights": [
                            0.6415721797766261,
                            0.18060496524343495,
                            0.06599636138587028,
                            -0.6291682272134811,
                            -0.6731921296395822,
                            -0.9750454373933028,
                            -0.44112624467981143,
                            -0.9455134251554385,
                            -0.5986184011558464,
                            0.9513439651224647
                        ],
                        "bias": -0.527975480123414
                    },
                    {
                        "weights": [
                            -0.7274816677355991,
                            -0.2898292317564224,
                            0.3407625738515059,
                            -0.5701602040917557,
                            -0.6984265502419886,
                            -0.16294634833475952,
                            0.07123727038215288,
                            -0.023760647688398473,
                            -0.30385788070110187,
                            -0.905833443728812
                        ],
                        "bias": -0.035889479627470036
                    }
                ],
                "length": 10
            },
            {
                "neurons": [
                    {
                        "weights": [
                            0.9978566368926458,
                            0.15057901689767283,
                            0.5977839534023333,
                            -0.9013387380300284,
                            0.4549697582581729,
                            0.9080453539721092,
                            -0.7681264098190197,
                            0.7476740387769567,
                            -0.40463863484392104,
                            -0.6057070177066937
                        ],
                        "bias": -0.6957915487407234
                    },
                    {
                        "weights": [
                            0.9831617358882059,
                            0.5002118962976021,
                            -0.4797850853912029,
                            0.44347792335321845,
                            -0.8822739224256624,
                            -0.33424785463555384,
                            0.6623889346955736,
                            0.22119620226334513,
                            0.5307029592484915,
                            -0.00970312814717289
                        ],
                        "bias": 1.2501452285728132
                    },
                    {
                        "weights": [
                            -0.8343355345097936,
                            0.5488728525660822,
                            0.6821286717699726,
                            0.603110995362786,
                            -0.4813741816938937,
                            0.1513498090780634,
                            -0.727701913652768,
                            0.4884171625669045,
                            -0.16668845064350424,
                            -0.15108782749742677
                        ],
                        "bias": -0.4955765453831595
                    },
                    {
                        "weights": [
                            0.060672492068781336,
                            0.6502109466809884,
                            0.4325918887079885,
                            -0.02954027767914158,
                            -0.5168955412770273,
                            0.6202525035844846,
                            -0.3113134702847049,
                            0.8510695655608775,
                            0.20102886617751836,
                            -0.9490434044817453
                        ],
                        "bias": -0.9170354920217364
                    },
                    {
                        "weights": [
                            -0.9427816503325359,
                            -0.9808396959377936,
                            0.6329516956092673,
                            -0.3539873345008946,
                            -0.988746282860939,
                            0.7207321072949493,
                            -0.40508352118775437,
                            -0.8192225626946046,
                            0.5936027923546381,
                            0.5359103905512121
                        ],
                        "bias": -0.7634054395785186
                    },
                    {
                        "weights": [
                            -0.05633907034941266,
                            0.7302052585604804,
                            0.4329307254689778,
                            0.5739134879870835,
                            0.8816479582103689,
                            -0.175815268583988,
                            -0.7986146208076199,
                            -0.6297506393295682,
                            0.9774086473899284,
                            0.8270839653844355
                        ],
                        "bias": -0.2341439930550236
                    },
                    {
                        "weights": [
                            -0.818468160178681,
                            0.25345753261741377,
                            0.8630989428765143,
                            -0.42971515007794814,
                            0.6586035366938607,
                            -0.8919626312330757,
                            0.32265268344042264,
                            -0.8437042975796094,
                            -0.6894999491488523,
                            0.4896601560258005
                        ],
                        "bias": -0.2915041705461861
                    },
                    {
                        "weights": [
                            0.038295132385721464,
                            -0.826063448901847,
                            -0.3665445412623356,
                            0.37291977640930973,
                            0.04788767598651367,
                            -0.037909669106150456,
                            0.4249916778743221,
                            0.9702973826250181,
                            0.1502492068681862,
                            0.570066608481955
                        ],
                        "bias": 0.3086677167547843
                    },
                    {
                        "weights": [
                            -0.412547404289773,
                            0.385221656502444,
                            0.7565400848740158,
                            0.24928898963895763,
                            0.15128563008172735,
                            0.20574083074576888,
                            0.5267261959493759,
                            0.7459210215749734,
                            0.44074503004890064,
                            0.9371341624217102
                        ],
                        "bias": -0.6166696113057439
                    },
                    {
                        "weights": [
                            0.9543329075865303,
                            0.1414070586053997,
                            0.7260796323468752,
                            0.6593512543921276,
                            0.8823649812434811,
                            -0.9602880165855234,
                            -0.31596597804295334,
                            -0.7096465903405162,
                            0.003720271277402931,
                            0.3681824304635992
                        ],
                        "bias": 0.10684185556654768
                    }
                ],
                "length": 10
            },
            {
                "neurons": [
                    {
                        "weights": [
                            -0.23318004858796249,
                            -0.6094225909854718,
                            0.47610615115429766,
                            -0.454658082908308,
                            -0.6374826809832908,
                            -0.2198302666961931,
                            -0.12833806671248404,
                            0.37721317636361196,
                            -0.3771732892974191,
                            0.4171062210354981
                        ],
                        "bias": -0.5029239031634607
                    },
                    {
                        "weights": [
                            0.45308414055657487,
                            0.47254123410027105,
                            0.45697516201735056,
                            0.09172881930073218,
                            -0.6006917926734356,
                            0.3312902625426857,
                            0.3767808809829054,
                            -0.4976040793005201,
                            -0.7890572739250592,
                            0.06008454877288805
                        ],
                        "bias": 0.3066484749970374
                    },
                    {
                        "weights": [
                            -0.4078768458594886,
                            0.20462933001837147,
                            -0.45151624846349425,
                            0.20168835468027924,
                            0.05077155829205182,
                            0.7760829897374919,
                            0.52325908078303,
                            -0.6967699458013163,
                            -0.16960798355236406,
                            0.5024582266737008
                        ],
                        "bias": -0.05755722875564222
                    },
                    {
                        "weights": [
                            -0.3122304822773363,
                            0.5616649312691855,
                            0.49999955303709287,
                            0.5328947866165656,
                            0.8145791474308592,
                            0.44216956655443274,
                            0.6808525398197283,
                            0.6238128248587678,
                            -0.9862675431695012,
                            0.4738663311550879
                        ],
                        "bias": 0.6696490394127226
                    },
                    {
                        "weights": [
                            -0.7870093871274573,
                            0.8414657621025952,
                            0.4949289110365447,
                            -0.13909048319850315,
                            0.3838253918029937,
                            -0.15951139803578274,
                            0.8607655061420658,
                            0.9190105051777808,
                            -0.5490157285588964,
                            0.7244405901361477
                        ],
                        "bias": 0.5355315208591985
                    },
                    {
                        "weights": [
                            0.08322715521814694,
                            -0.17315977056226206,
                            -0.9091868615451646,
                            0.4496841093247754,
                            0.013336468159297121,
                            -0.7162410948363938,
                            -0.4198920879002874,
                            -0.34197801895458424,
                            0.6075348441712143,
                            -0.13066435721866387
                        ],
                        "bias": 0.42941893346288534
                    },
                    {
                        "weights": [
                            -0.1665452483368961,
                            -0.6084993443237201,
                            0.032479014809685625,
                            -0.1902113393169791,
                            -0.9196181504271397,
                            0.7815042826358589,
                            0.29979641001562074,
                            0.9081808835346112,
                            -0.7566181893636723,
                            0.09831509697512342
                        ],
                        "bias": 0.5837714318884956
                    },
                    {
                        "weights": [
                            0.7587987931712457,
                            0.5343445770351511,
                            0.028245842872526294,
                            0.010306066518725343,
                            -0.6924076273779183,
                            -0.15318649813813123,
                            0.44524954611016465,
                            0.5961580507830488,
                            0.4838189569963187,
                            0.16755077691542763
                        ],
                        "bias": 0.44050796729653136
                    },
                    {
                        "weights": [
                            -0.33314579692332247,
                            -0.5864806456717053,
                            -0.8292764532989525,
                            0.5054826452678818,
                            -0.779253533892611,
                            0.41021428299161733,
                            0.719169725478791,
                            0.5019270560704725,
                            0.6139075333719319,
                            -0.4944140183627461
                        ],
                        "bias": 0.04615660767991653
                    },
                    {
                        "weights": [
                            0.008393631108855937,
                            -0.1376792508483473,
                            0.9770422153970322,
                            -0.14740848698873887,
                            -0.7503043265596605,
                            -0.58059947986699,
                            -0.5857569879260247,
                            -0.9864056100251601,
                            -0.48660791939501946,
                            0.9059376008745175
                        ],
                        "bias": 0.43941547393936076
                    }
                ],
                "length": 10
            },
            {
                "neurons": [
                    {
                        "weights": [
                            0.5423677916136871,
                            -0.7728475227556655,
                            -0.3621090558840627,
                            -0.04616422333378778,
                            0.2843092827426068,
                            0.13633306231450582,
                            -0.8821460660449341,
                            0.14953995986033064,
                            0.3384287873053926,
                            -0.301901249975989
                        ],
                        "bias": -0.3442027262199233
                    },
                    {
                        "weights": [
                            0.5481609736114703,
                            0.5740943732902677,
                            -0.5425810312245174,
                            0.8184926763187697,
                            -0.9199262033531435,
                            0.7882030066980825,
                            0.030136209941619363,
                            0.770182495635515,
                            -0.3834201845931906,
                            0.32661533888175764
                        ],
                        "bias": -0.047605633951802694
                    },
                    {
                        "weights": [
                            -0.6247804491125835,
                            -0.8547748554260772,
                            0.4271389434502604,
                            0.48253896271225316,
                            -0.5674495136390907,
                            0.3283768003675971,
                            -0.5556558019393956,
                            0.31494909033079943,
                            -0.3792951407265699,
                            0.38815411045099624
                        ],
                        "bias": -0.3985534687820077
                    },
                    {
                        "weights": [
                            0.9250691062185623,
                            0.5642079012148964,
                            0.6798072862488396,
                            -0.2256719867045931,
                            0.11073737796045591,
                            0.03764567698974308,
                            0.11707079783489771,
                            -0.7901091417877695,
                            0.2645943667736408,
                            -0.36099102088757884
                        ],
                        "bias": -0.4737829344944944
                    },
                    {
                        "weights": [
                            0.04314778696088584,
                            0.08902530916153273,
                            0.49389355056001016,
                            -0.01420943952437037,
                            0.6292288467064859,
                            -0.5062552526664925,
                            -0.4348944053762749,
                            0.09339546837958612,
                            -0.5277857782170554,
                            -0.48027349541422204
                        ],
                        "bias": -0.628519124860038
                    },
                    {
                        "weights": [
                            -0.8748570998346672,
                            0.3778018199367734,
                            0.1985686358148595,
                            -0.9194256929870928,
                            -0.6335540433754714,
                            0.01486006874273671,
                            0.6597353177612517,
                            -0.0064749319603112365,
                            -0.3755700842415757,
                            0.3250366685545154
                        ],
                        "bias": -1.0500489980853813
                    },
                    {
                        "weights": [
                            0.27796423578800167,
                            0.9565252833965923,
                            0.027214730627176387,
                            0.6592637723891226,
                            -0.5157805877832757,
                            0.22216116447665457,
                            0.54349908606696,
                            -0.45844742964591734,
                            -0.6312359124892473,
                            0.71043078652794
                        ],
                        "bias": -0.3559526118644597
                    },
                    {
                        "weights": [
                            0.6512347269627254,
                            -0.6755317217191781,
                            0.14148149715004377,
                            -0.2310781833060711,
                            0.05180179217540615,
                            -0.4960835834015098,
                            0.06493122729779399,
                            0.364500856406911,
                            0.12195436046926544,
                            -0.9792086746797481
                        ],
                        "bias": -0.33211158116814016
                    },
                    {
                        "weights": [
                            0.17277171483501186,
                            -0.5224129784022145,
                            0.1548460060052379,
                            0.9205909624209856,
                            -0.1685278300080899,
                            0.6290810846174957,
                            -0.6344462445622565,
                            -0.9437842429701759,
                            -0.6317095692635895,
                            0.5414407079653947
                        ],
                        "bias": -0.2237716322943801
                    },
                    {
                        "weights": [
                            -0.2777569926836425,
                            0.5271598051623134,
                            0.4864723992631137,
                            -0.5397543238208224,
                            -0.3399138890085964,
                            0.22740339074285854,
                            -0.08150130792990273,
                            0.20344220334937013,
                            0.3053541859211306,
                            0.9889063272124947
                        ],
                        "bias": -1.0767567556453874
                    }
                ],
                "length": 10
            },
            {
                "neurons": [
                    {
                        "weights": [
                            -0.473984632239167,
                            -0.14724807454096522,
                            -0.1111654343848909,
                            0.2425915039443436,
                            -0.3395353013110374,
                            0.9357512558415502,
                            -0.8197708834294419,
                            -0.12310372208096454,
                            -0.6078793209792734,
                            0.3686508956632699
                        ],
                        "bias": 0.9175707720668851
                    },
                    {
                        "weights": [
                            0.9129911859019526,
                            0.6803963007693508,
                            0.7479102578373733,
                            0.5010065515971833,
                            -0.2438582188253604,
                            -0.7691515112324727,
                            -0.4767643811776827,
                            -0.3860230279244583,
                            -0.9789521555718126,
                            0.25512121292047074
                        ],
                        "bias": 0.7454393320930227
                    },
                    {
                        "weights": [
                            0.17607882874456382,
                            -0.8427771124761254,
                            0.08024979459787862,
                            -0.40601448494371684,
                            0.5879776598910469,
                            -0.1564281166100734,
                            0.8796060832039123,
                            -0.9256247105889226,
                            0.6502592956240014,
                            0.8969464678733954
                        ],
                        "bias": -0.9614760442262724
                    },
                    {
                        "weights": [
                            0.8579051148959072,
                            -0.9302432232006757,
                            0.6724906444660661,
                            0.8907266082055287,
                            -0.16025941127752819,
                            0.6783872392657455,
                            0.351765409748662,
                            -0.630422036521227,
                            -0.1497504873103357,
                            -0.8220106760751658
                        ],
                        "bias": 0.30316030987383624
                    },
                    {
                        "weights": [
                            -0.6405619650032206,
                            0.38550180650650767,
                            -0.19065356928727462,
                            0.019829113302416435,
                            -0.28657013340599424,
                            0.40265164740441106,
                            0.8636035978028345,
                            -0.7674970023726804,
                            0.25977404604793053,
                            -0.2589027423794017
                        ],
                        "bias": -0.17332233337909553
                    },
                    {
                        "weights": [
                            -0.6252007966031992,
                            -0.9452484645022103,
                            0.7178709386802091,
                            -0.2866650748190762,
                            -0.2933774340221318,
                            0.26427164761007926,
                            0.31997306955465854,
                            -0.7659652039161322,
                            -0.08415967204880515,
                            0.2485556519750991
                        ],
                        "bias": 0.49453588012804495
                    },
                    {
                        "weights": [
                            -0.23635066998756615,
                            -0.0326570081517632,
                            0.8267784004472818,
                            0.8375836547620994,
                            0.4575330544844174,
                            -0.6089967753148682,
                            0.6736510681453649,
                            -0.8974578593979812,
                            -0.11914404141990498,
                            0.3639514027534281
                        ],
                        "bias": 0.23401092184519737
                    },
                    {
                        "weights": [
                            0.260858707097432,
                            0.8760413911691516,
                            -0.4158935290546697,
                            -0.9408293390128224,
                            0.6378449471163614,
                            -0.9255008997887897,
                            -0.6777029173221729,
                            0.8402389988943304,
                            -0.9180172004708322,
                            -0.9352436273074265
                        ],
                        "bias": 0.08965500605130769
                    },
                    {
                        "weights": [
                            -0.5545144522388163,
                            0.7702580040795859,
                            0.683128607353243,
                            -0.9430946831720803,
                            -0.07428034555782159,
                            -0.5253407229145466,
                            0.7643844293603168,
                            -0.45522198762824506,
                            0.5051349147834192,
                            -0.48789053724788145
                        ],
                        "bias": 1.0244801938613584
                    },
                    {
                        "weights": [
                            -0.3657973123457998,
                            -0.533426131511733,
                            0.9841851214180026,
                            0.4019142288633697,
                            0.7189995222729739,
                            -0.9847036762628734,
                            0.2515777329055593,
                            0.9257071835283206,
                            0.5806402229804981,
                            -0.9221291040583446
                        ],
                        "bias": 0.5528840470875203
                    }
                ],
                "length": 10
            },
            {
                "neurons": [
                    {
                        "weights": [
                            -0.02098142810541348,
                            0.5789535650437829,
                            0.008791735785287136,
                            0.8088783442009064,
                            -0.3048061743996564,
                            -0.9547770668403077,
                            0.7946728994219381,
                            0.45136801277219196,
                            -0.9644402192429755,
                            -0.14300613014001806
                        ],
                        "bias": 0.8927040861166514
                    },
                    {
                        "weights": [
                            0.2812901975899551,
                            -0.7078390559127148,
                            0.5787876354920731,
                            -0.5941312643561927,
                            0.6287889868049703,
                            -0.8715210072763286,
                            -0.7965581770701249,
                            -0.3993305502475566,
                            0.10203644251831046,
                            0.3227699778430695
                        ],
                        "bias": -0.33720684009741986
                    },
                    {
                        "weights": [
                            -0.12056060900473087,
                            -0.9122987933159887,
                            -0.45343941602463755,
                            0.7148388826300498,
                            0.2368445404382291,
                            0.1731926975924727,
                            0.9687421205616196,
                            -0.007988911883804128,
                            -0.26611498658088917,
                            -0.3612045172418885
                        ],
                        "bias": 0.9785655205664456
                    },
                    {
                        "weights": [
                            0.5340722233858117,
                            -0.4562856340014476,
                            -0.5487585738080205,
                            0.9909557127892437,
                            0.3946348331769962,
                            -0.9706916067934592,
                            -0.3199529887329633,
                            0.9478806682151695,
                            -0.15388828322892323,
                            0.29342822785111133
                        ],
                        "bias": 0.6191217330534492
                    },
                    {
                        "weights": [
                            -0.8115831045629283,
                            -0.654511163662246,
                            -0.8184933335379683,
                            0.06660835773034246,
                            -0.11961414008250415,
                            -0.6022515791702978,
                            -0.6709972840982954,
                            -0.4132708721578302,
                            0.8642619993957221,
                            0.8870361635487136
                        ],
                        "bias": -1.051161747167113
                    },
                    {
                        "weights": [
                            0.46613645004838067,
                            -0.4071552153197928,
                            0.7986061782023544,
                            -0.05617670241358308,
                            0.8171652466375015,
                            0.7163155785806303,
                            0.2611402443361468,
                            0.24632189176357477,
                            -0.9987966429434358,
                            0.6695359443074684
                        ],
                        "bias": 0.47540768477103024
                    },
                    {
                        "weights": [
                            -0.6726818558123757,
                            0.8648376373268714,
                            0.2880381080667167,
                            -0.33524271894407276,
                            -0.53997736129225,
                            0.28000714253775527,
                            -0.23855174922153455,
                            -0.025092662858598125,
                            0.624790387489369,
                            -0.16580060686213827
                        ],
                        "bias": -0.4010270470613249
                    },
                    {
                        "weights": [
                            0.9278630124872664,
                            -0.8141748993763049,
                            -0.8087463439746112,
                            -0.32779041517250906,
                            0.8656117028893273,
                            0.6097935352418242,
                            -0.07140342321606408,
                            -0.531567928249399,
                            0.4618542103270735,
                            0.12646342885330686
                        ],
                        "bias": -1.0494518519168503
                    },
                    {
                        "weights": [
                            0.8508746997712391,
                            0.5125333011010635,
                            -0.7166149530452484,
                            -0.3521061621682491,
                            0.24124405560348694,
                            -0.4964765194011773,
                            -0.27662336638029816,
                            -0.6479129325969084,
                            -0.7933165021748683,
                            0.2685083348616524
                        ],
                        "bias": -0.08950636487451816
                    },
                    {
                        "weights": [
                            0.4198876312191149,
                            -0.012103197018506595,
                            -0.4036472965065727,
                            0.5009097924775137,
                            -0.561360667992324,
                            0.05051505408346735,
                            0.9590900582888093,
                            -0.951492433896634,
                            0.45992500163499317,
                            0.8898378136137626
                        ],
                        "bias": -0.7479317235733666
                    }
                ],
                "length": 10
            },
            {
                "neurons": [
                    {
                        "weights": [
                            -0.11829387047605544,
                            0.121677866010647,
                            0.8382356353237883,
                            0.8674188962897134,
                            -0.13774814263663937,
                            -0.33809427369574707,
                            0.38752664205621623,
                            0.018162585272858633,
                            -0.5910596777050889,
                            0.1489546644576123
                        ],
                        "bias": -0.9138524977249484
                    },
                    {
                        "weights": [
                            -0.4528131944200744,
                            0.35875533548107463,
                            -0.12348112853864901,
                            0.8849137244933514,
                            0.34265236059342974,
                            0.682180775130468,
                            0.11832140726850815,
                            0.3403105623872733,
                            0.29841912034645857,
                            -0.7550251307893321
                        ],
                        "bias": -0.5572699197526895
                    },
                    {
                        "weights": [
                            0.10018547637679687,
                            -0.6718489103973146,
                            -0.5423902010057278,
                            0.29059281638633716,
                            -0.9728827201318302,
                            -0.7083157271880065,
                            0.5116421946443654,
                            0.4852116948006304,
                            0.4365505655543338,
                            0.9301276197289501
                        ],
                        "bias": 0.15675037195650982
                    },
                    {
                        "weights": [
                            0.6405784442955342,
                            0.30865953465844864,
                            0.3280129130006064,
                            0.3767139299538087,
                            -0.5324825923165366,
                            -0.5022884119718518,
                            -0.8942603972591741,
                            0.09199350511896509,
                            -0.7601791387546466,
                            -0.9229789705146378
                        ],
                        "bias": 0.10291824060088686
                    },
                    {
                        "weights": [
                            0.47651738602757376,
                            0.9289455935416755,
                            -0.564844491272251,
                            0.3625403486194747,
                            0.2335183659714477,
                            -0.6299881666463558,
                            0.018746183113720116,
                            -0.9670158242722706,
                            -0.265404499740048,
                            -0.22139043212977194
                        ],
                        "bias": -0.3038365743537209
                    },
                    {
                        "weights": [
                            0.045980315632745405,
                            0.2781540563237983,
                            -0.657760607345373,
                            0.07379031288200255,
                            -0.772527754645465,
                            0.8851183402875551,
                            -0.3165975257887108,
                            0.9961562991972244,
                            -0.6383165058786271,
                            -0.47618709246472046
                        ],
                        "bias": 0.19357123682555
                    },
                    {
                        "weights": [
                            -0.3666215173401668,
                            -0.3102641142690856,
                            -0.7315291957691437,
                            -0.3825740319882873,
                            -0.09936925944395036,
                            0.11260692976780784,
                            -0.5069637874056467,
                            -0.9256168073367925,
                            -0.14159599366176612,
                            0.42408891225187917
                        ],
                        "bias": 0.7783168963776056
                    },
                    {
                        "weights": [
                            0.3609966675860954,
                            -0.9214230849989582,
                            0.4515750687225102,
                            -0.3105747886121888,
                            0.2236191010374564,
                            -0.03110606163573726,
                            0.4102850743782289,
                            0.38561236286235023,
                            0.48614352559695706,
                            -0.535566281465969
                        ],
                        "bias": 0.7185881087903802
                    },
                    {
                        "weights": [
                            0.39881266218327993,
                            0.7707473094649819,
                            0.8331865610900353,
                            0.7496821507505149,
                            0.7700168712753725,
                            -0.2718180713147509,
                            0.1437495181917965,
                            0.9575322175060064,
                            0.04481027768059209,
                            0.3080174552783277
                        ],
                        "bias": -0.8178946101321382
                    },
                    {
                        "weights": [
                            -0.9195269032188758,
                            0.5388132949697413,
                            -0.21192010269238915,
                            -0.639475690150423,
                            -0.8432210991920002,
                            0.6923162663922748,
                            -0.6033630387096742,
                            -0.20731555001128732,
                            -0.7881833792827462,
                            0.11665104377683133
                        ],
                        "bias": -0.9561019135993015
                    }
                ],
                "length": 10
            },
            {
                "neurons": [
                    {
                        "weights": [
                            -0.19398636436839767,
                            0.10232072019599547,
                            0.9430248909878158,
                            0.38477439147256365,
                            -0.622871047174534,
                            0.12369657942511347,
                            -0.9420362180260831,
                            -0.5264969578496115,
                            0.8906120751613922,
                            0.22519357662325223
                        ],
                        "bias": 0.850203060406575
                    },
                    {
                        "weights": [
                            0.9963603187913801,
                            0.2757511563528834,
                            -0.6167849471732592,
                            -0.48998288525552836,
                            0.1767282251756015,
                            0.06808456720931266,
                            0.37444751129105414,
                            -0.712085959031038,
                            -0.21078325975777323,
                            -0.9829944931468666
                        ],
                        "bias": -0.06428329090243348
                    },
                    {
                        "weights": [
                            -0.20871089496783313,
                            -0.28358785116599217,
                            -0.32243385141940406,
                            0.382023511393464,
                            0.042245718841121827,
                            0.9012662831910465,
                            0.3431679884385208,
                            0.46794388008819254,
                            0.3031877789459716,
                            -0.7902736589783204
                        ],
                        "bias": -0.2651609314425521
                    },
                    {
                        "weights": [
                            -0.532016920202153,
                            0.5831166783458985,
                            0.48009021227584947,
                            -0.3576683645083254,
                            0.9947002083875598,
                            0.6329523291259436,
                            0.6800265250414868,
                            0.492754870200248,
                            0.01762674222185656,
                            0.46699751036631376
                        ],
                        "bias": 0.27620999663094403
                    },
                    {
                        "weights": [
                            0.6973264192456463,
                            -0.8786518198906124,
                            0.10803707979324129,
                            0.82000813881395,
                            0.5399550499828867,
                            -0.8327781627425406,
                            -0.3950603929534937,
                            -0.11413379625783127,
                            -0.7465264531948992,
                            -0.5166534364265347
                        ],
                        "bias": 1.0507845646605813
                    },
                    {
                        "weights": [
                            0.7647663569639211,
                            -0.5316780646072923,
                            -0.29044544626631774,
                            0.3002178140993572,
                            0.3558538716307331,
                            0.5060297950568522,
                            -0.17769932371408492,
                            0.511926509447812,
                            -0.17115145659759823,
                            -0.914334146865375
                        ],
                        "bias": -0.6401326150004654
                    },
                    {
                        "weights": [
                            0.44630093459431386,
                            0.007574380954305848,
                            0.8766192886296591,
                            0.18772623761624052,
                            -0.879919194221249,
                            -0.5458019548285917,
                            -0.8344258961280191,
                            -0.18546073947658082,
                            -0.1402449426275285,
                            -0.5752493887534917
                        ],
                        "bias": -0.2191109531839091
                    },
                    {
                        "weights": [
                            0.9729365309861411,
                            0.9624341353975039,
                            -0.30330506099047105,
                            -0.5783282295842551,
                            -0.6702937419468431,
                            -0.6781048262734526,
                            0.14241089041218347,
                            -0.2844023997250933,
                            0.5586531293943184,
                            0.5513876327707028
                        ],
                        "bias": -0.04835935840454109
                    },
                    {
                        "weights": [
                            -0.9931889343123963,
                            -0.3240236658107605,
                            0.507437131057759,
                            0.4957335377173142,
                            0.8081780904535609,
                            -0.8483938468792218,
                            -0.01903020448792292,
                            -0.5578858047930126,
                            0.5582598470589943,
                            -0.7699442183940495
                        ],
                        "bias": -0.3731502261318596
                    },
                    {
                        "weights": [
                            -0.7816390566102973,
                            0.8683881461052523,
                            -0.21782575474156007,
                            0.13064053236142814,
                            0.7687852594587141,
                            0.4035767926507787,
                            0.676634914548123,
                            0.38929458419368546,
                            -0.9566937203091745,
                            -0.3545754449493197
                        ],
                        "bias": -0.6898159830299991
                    }
                ],
                "length": 10
            }
        ],
        "outputLayer": {
            "neurons": [
                {
                    "weights": [
                        -0.3828814111608969,
                        0.09500865032950401,
                        -0.6220457677693636,
                        0.8770478479953996,
                        0.7252836497125288,
                        -0.008568686949097515,
                        -0.6541458233641249,
                        -0.6183878458276675,
                        -0.1434575456679359,
                        -0.2907679009232915
                    ],
                    "bias": 0.7450449706465598
                },
                {
                    "weights": [
                        0.5583140416345922,
                        0.25727776744993314,
                        0.24978613143460215,
                        -0.5496225294650683,
                        -0.8201256530763639,
                        -0.21539824194717494,
                        0.7975372276205439,
                        -0.27480748419752365,
                        0.43122316706524044,
                        0.9203017039010073
                    ],
                    "bias": -0.41338234544547897
                },
                {
                    "weights": [
                        0.1548296977574739,
                        0.029684219584521276,
                        -0.7612502439202606,
                        0.26239162388687776,
                        -0.5027991526392448,
                        0.4649715774801868,
                        0.6672845643829792,
                        -0.4534341887618043,
                        -0.3828506782784149,
                        -0.7180676021481514
                    ],
                    "bias": 0.367244722092955
                },
                {
                    "weights": [
                        -0.5945666731330375,
                        0.6689866616562457,
                        -0.7898311646318483,
                        -0.9068425254248633,
                        0.5627367133768539,
                        0.2063072561411914,
                        -0.5124050564839311,
                        0.8991509294972784,
                        -0.9328365867029975,
                        0.350992045724017
                    ],
                    "bias": 0.2109488363135903
                }
            ],
            "length": 4
        }
    },
    {
        "inputLayer": {
            "neurons": [
                {
                    "weights": [
                        0.19887170406078591,
                        0.09379415647257106,
                        -0.0570863655130307,
                        -0.5302653828978323,
                        0.2054860283254909,
                        0.22626858447283782,
                        -0.9835534052620472,
                        0.07414639706684789,
                        0.10450113742589018,
                        -0.05409562861841577,
                        -0.3991809556429369,
                        0.5446410032530835,
                        -0.6930285262788611,
                        0.8996172117577701,
                        -0.7921252707320874,
                        -0.6634557818229201,
                        0.09620612658957373,
                        0.07981566847841948
                    ],
                    "bias": -0.6567593558702934
                },
                {
                    "weights": [
                        0.10117130338187175,
                        0.007296853742795761,
                        -0.07110202780286845,
                        0.7442675021499354,
                        0.4959852908438964,
                        -0.646898197904721,
                        -0.0990572263386249,
                        0.5330525882140087,
                        0.911694351449966,
                        0.41167295372310875,
                        -0.3116745724365506,
                        -0.2608924636666343,
                        0.06529582930490263,
                        -0.15343434120350286,
                        -0.41414268409807886,
                        0.07095091017942257,
                        0.17318471312773176,
                        0.9660372478868668
                    ],
                    "bias": -0.5840710580587019
                },
                {
                    "weights": [
                        -0.48460708776860506,
                        -0.5229326979597864,
                        0.627035301798524,
                        -0.2897239404551579,
                        0.6763170624368768,
                        0.23399855339155784,
                        0.6598414472234451,
                        0.6097699474005494,
                        -0.5312199234260868,
                        0.025986538617682076,
                        -0.38365150828160544,
                        -0.544820077760219,
                        -0.378150884763526,
                        -0.5835356110870309,
                        -0.5098554450841122,
                        0.14466824519244592,
                        -0.835844105829282,
                        -0.20736387097656106
                    ],
                    "bias": -0.508395877295977
                },
                {
                    "weights": [
                        -0.9382211799175268,
                        -0.8071099862571129,
                        -0.10798658667156458,
                        0.3244113355016611,
                        0.07642634435265472,
                        -0.07271257881320237,
                        -0.47850281212196233,
                        -0.959478093896996,
                        -0.30526039096502,
                        -0.11390467299013185,
                        -0.40871944822117023,
                        -0.09416978693244737,
                        0.8244216012374717,
                        0.4896993980316675,
                        0.13875536466243843,
                        0.9477571868075669,
                        -0.55211274160392,
                        -0.4443010025242964
                    ],
                    "bias": -0.6356170220938002
                },
                {
                    "weights": [
                        -0.6071437953414598,
                        -0.07595267086910384,
                        -0.6728559901756253,
                        -0.947924530880478,
                        0.9095885409942694,
                        -0.3173297293004529,
                        0.2991614390862962,
                        -0.39520556082859293,
                        -0.923810270717081,
                        0.5493122366262628,
                        -0.6816711656799588,
                        -0.24301992535065664,
                        -0.1520099297028612,
                        0.001852166209550532,
                        -0.3916693614594293,
                        0.6277475633945713,
                        -0.22730112133907543,
                        -0.39195799882219995
                    ],
                    "bias": -0.538518744193805
                },
                {
                    "weights": [
                        0.5818468638843501,
                        0.871329548513557,
                        -0.47178235055254025,
                        -0.6344283792995524,
                        -0.21788429348169602,
                        -0.021877236764936026,
                        -0.18203033356883114,
                        -0.4674610331051532,
                        -0.7179198185835383,
                        -0.0849306387180131,
                        0.7423077954156787,
                        -0.7249921475879688,
                        -0.6509037459042342,
                        0.6499747901034822,
                        -0.9352440910119519,
                        0.6332845785241543,
                        0.20006734213236999,
                        0.9665152310711791
                    ],
                    "bias": -0.7867331075810176
                },
                {
                    "weights": [
                        -0.6844813144765514,
                        0.7958846898374137,
                        -0.9330626081922544,
                        0.1215895143055159,
                        0.06216073125678068,
                        -0.13969674103029073,
                        -0.35061032049339746,
                        0.16533175870723205,
                        0.6958976082020618,
                        -0.7252098479409654,
                        0.17717180826939471,
                        0.7366808464651939,
                        -0.4169735887311632,
                        0.38020590344170535,
                        0.6788278044319218,
                        -0.42380066259068827,
                        0.31448226365151166,
                        0.863222613925114
                    ],
                    "bias": 0.03332841619267976
                },
                {
                    "weights": [
                        0.024704917502481383,
                        0.10904086813891589,
                        -0.8958993533991793,
                        -0.8735489716615206,
                        -0.6059286156222545,
                        0.2050678062982183,
                        0.7944622766222509,
                        -0.8606561586734247,
                        -0.618268545039911,
                        0.9506337276137973,
                        -0.18776591259705988,
                        -0.9789737193726911,
                        0.2704903556474858,
                        0.5978168069068817,
                        0.7726520420850909,
                        0.6912677195810366,
                        -0.743236755716826,
                        0.8564322192433687
                    ],
                    "bias": -0.18691717413876718
                },
                {
                    "weights": [
                        0.8892851303978313,
                        -0.34800444256997976,
                        -0.15470771624553037,
                        0.6340067222522643,
                        0.0644181269860351,
                        -0.3054344635518036,
                        -0.7575839014087713,
                        0.2327334528488032,
                        -0.9458254537231543,
                        -0.7262590600413381,
                        -0.7853531254245498,
                        -0.4399877787869315,
                        -0.9483207815402992,
                        -0.48975372268991446,
                        -0.9881164372494347,
                        0.9620913825321169,
                        0.6466646570670032,
                        0.057854099693724015
                    ],
                    "bias": -0.6823631198080027
                },
                {
                    "weights": [
                        0.9363258928262463,
                        -0.09617793111091832,
                        -0.2801282775564511,
                        -0.335614567047009,
                        0.34519830812184504,
                        -0.0010560686024514432,
                        -0.5638005992838031,
                        0.06836313082111611,
                        -0.9200976591706005,
                        0.8999751673836933,
                        0.15427384778419495,
                        -0.04108402674071421,
                        0.8432116535726162,
                        -0.307569554125263,
                        -0.9478684161887643,
                        0.010575740914934073,
                        0.9164358253881901,
                        0.996229301741614
                    ],
                    "bias": -1.179177019575086
                }
            ],
            "length": 10
        },
        "layers": [
            {
                "neurons": [
                    {
                        "weights": [
                            0.3102640980342104,
                            0.49660818522905603,
                            -0.2856180040737084,
                            0.5853798818345388,
                            -0.9531959105497514,
                            0.4646595608556663,
                            0.14161948547034275,
                            -0.8320545590021275,
                            0.3352802225476781,
                            -0.3780843585869289
                        ],
                        "bias": 0.5569178931490525
                    },
                    {
                        "weights": [
                            0.993889756220468,
                            -0.2111201464931034,
                            0.5003002544558386,
                            0.5027972205141384,
                            -0.5537144604109574,
                            0.7089610434888174,
                            0.2358983732456914,
                            0.4772932469823725,
                            0.8743392944318653,
                            0.3737134906999533
                        ],
                        "bias": 0.11362935693205546
                    },
                    {
                        "weights": [
                            -0.7833841728902453,
                            0.9976365428078573,
                            -0.9136016526901007,
                            -0.32779726133112574,
                            -0.5336233612917916,
                            0.5678638565275671,
                            0.5609803691757564,
                            -0.17396249728914737,
                            -0.1376736759364403,
                            -0.4533404687977305
                        ],
                        "bias": -1.1380367215935352
                    },
                    {
                        "weights": [
                            0.313259028312574,
                            -0.07131989734028532,
                            -0.8229389708153216,
                            0.39275832678966593,
                            0.5268357764107439,
                            -0.7858933412449418,
                            0.2666033452001233,
                            0.06658511027613345,
                            0.8699936326527851,
                            0.05668827949403954
                        ],
                        "bias": -0.14469293352786788
                    },
                    {
                        "weights": [
                            -0.08615389936687956,
                            0.6161832990332219,
                            0.09760432536816466,
                            -0.7171312807313377,
                            0.9098375702691925,
                            0.8186154892047184,
                            0.3657483332106577,
                            0.05887574103573012,
                            0.28613628258567925,
                            0.3449388882718867
                        ],
                        "bias": 0.2734085477518416
                    },
                    {
                        "weights": [
                            0.8772695405007167,
                            0.14241817088109987,
                            -0.10163257964778083,
                            -0.6433670992223037,
                            0.9805611696528067,
                            0.7459654951181693,
                            -0.6965837439692835,
                            -0.34609731089225293,
                            -0.30093904200606936,
                            0.4382819410542864
                        ],
                        "bias": -0.4554483593549691
                    },
                    {
                        "weights": [
                            -0.5291108205876962,
                            -0.06124076401487222,
                            0.4843871541638174,
                            -0.44233405470417697,
                            0.98826289840108,
                            0.7487290862808527,
                            -0.8697452088632041,
                            0.5541868882196963,
                            0.9469880617506419,
                            0.13743202230488882
                        ],
                        "bias": 0.7740001514980306
                    },
                    {
                        "weights": [
                            -0.9899082547658733,
                            0.6843680430941737,
                            0.5400328820554698,
                            -0.6431130774694498,
                            0.6483374184953232,
                            -0.22973355856571698,
                            0.26773788233474605,
                            -0.21303256936491177,
                            0.3374088833159137,
                            -0.006097390595711127
                        ],
                        "bias": -0.6083691992741417
                    },
                    {
                        "weights": [
                            -0.07224130887256175,
                            0.44612532398836624,
                            0.5820040755391214,
                            0.2753500494697556,
                            -0.6244849326853403,
                            -0.8060165532135442,
                            0.7102789750167082,
                            -0.9274406922344511,
                            0.8383956485888833,
                            0.36041076129393845
                        ],
                        "bias": 0.9194230329968142
                    },
                    {
                        "weights": [
                            0.05271286128352126,
                            -0.29068202597525183,
                            -0.5512869608550368,
                            0.3355037656892237,
                            0.09427335817525062,
                            0.6860074858993117,
                            0.24197000744884956,
                            -0.8100916580550794,
                            -0.30372002752202176,
                            -0.7624467916562436
                        ],
                        "bias": 1.1671980501502248
                    }
                ],
                "length": 10
            },
            {
                "neurons": [
                    {
                        "weights": [
                            -0.21506811686317695,
                            0.4597042308516308,
                            -0.6476996059375064,
                            -0.29841809160053856,
                            -0.8638311869271604,
                            0.8555015671359212,
                            0.8713576974267014,
                            0.8606843763384906,
                            -0.4826437797347074,
                            -0.09018257967933674
                        ],
                        "bias": 0.10806843590717945
                    },
                    {
                        "weights": [
                            0.2257637174430236,
                            -0.39690576445715386,
                            0.3852785532627121,
                            -0.3008001697094087,
                            -0.8187043675155443,
                            -0.02322216024558177,
                            0.5406302651420809,
                            0.30645158798783956,
                            -0.4855999612573778,
                            0.7664988087008606
                        ],
                        "bias": -0.2552057714946973
                    },
                    {
                        "weights": [
                            -0.7941786447982071,
                            0.051128195415905076,
                            -0.6437147396735003,
                            0.7842644000886041,
                            0.819074900060762,
                            -0.46155174686279965,
                            -0.24250607079780995,
                            0.4583407926426708,
                            0.1825171234220735,
                            -0.46383394921097
                        ],
                        "bias": 0.27668815644983025
                    },
                    {
                        "weights": [
                            -0.8128558341772008,
                            -0.6940241097575157,
                            -0.22941224045317177,
                            0.7113186405220877,
                            0.2316663600850175,
                            0.04211253280143268,
                            -0.9251158076183732,
                            -0.7922311812350964,
                            0.0966364437025744,
                            0.11582472183245862
                        ],
                        "bias": 0.6314693824036547
                    },
                    {
                        "weights": [
                            -0.760061689919308,
                            0.8543997604620261,
                            0.2138968487641626,
                            -0.7507933584484539,
                            -0.38870554164032267,
                            0.6258882300674986,
                            -0.6879282651269882,
                            0.07113206289905971,
                            0.022944968210687477,
                            -0.09720457300205188
                        ],
                        "bias": 0.31358919508620575
                    },
                    {
                        "weights": [
                            0.4849049781920258,
                            0.46225504148469754,
                            -0.7428483610850178,
                            0.9630285208322278,
                            -0.15161330325147948,
                            -0.16713214173691937,
                            0.06563915164714129,
                            -0.7480123613608465,
                            0.8271656648984163,
                            0.2819253035994109
                        ],
                        "bias": -0.3398996540704182
                    },
                    {
                        "weights": [
                            0.018745644002307493,
                            -0.4615230439184175,
                            0.6138207987946276,
                            -0.451740789866099,
                            -0.5684862737274625,
                            -0.9779948109948504,
                            -0.553279149560759,
                            0.7475113610902435,
                            0.08418689321303652,
                            -0.535344736588153
                        ],
                        "bias": 0.6088711221821923
                    },
                    {
                        "weights": [
                            -0.8080329936803101,
                            -0.4163592957846691,
                            -0.5105863991054602,
                            0.7144419396182766,
                            0.14479552895894732,
                            0.7269834475285144,
                            -0.4336788580096391,
                            0.05003573288248697,
                            -0.9870405647001719,
                            0.2041001597554326
                        ],
                        "bias": 0.7053296849013403
                    },
                    {
                        "weights": [
                            -0.9177024044218676,
                            -0.2363911031230601,
                            0.8702262680415556,
                            -0.31950521278179855,
                            -0.16309662160219807,
                            0.9278614025166392,
                            -0.8901079708768975,
                            -0.9156310687822435,
                            0.43608467565340137,
                            -0.8838525528528398
                        ],
                        "bias": 0.27458391918470065
                    },
                    {
                        "weights": [
                            0.9605036914238159,
