[
    {
        "inputLayer": {
            "neurons": [
                {
                    "weights": [
                        0.2578831869689837,
                        -0.3674913764998957,
                        0.644812140137542,
                        0.3173933428448661,
                        -0.10335921410135662,
                        -0.46260103706878897,
                        -0.5023271946703267,
                        -0.01992821131715683,
                        0.3701463234802642,
                        -0.2934326783680954,
                        -0.7382271694313107,
                        0.8405069265447649,
                        0.1801694306625592,
                        -0.08773564512608978,
                        -0.6991859029085838,
                        0.2233285445914983,
                        0.6441596526587419,
                        -0.2119302356348618
                    ],
                    "bias": -0.49310361637074074
                },
                {
                    "weights": [
                        -0.11529888998148374,
                        0.9996716945702675,
                        -0.0831246417193996,
                        -0.6481600630785915,
                        0.22739834087569566,
                        -0.991842581798188,
                        -0.1519351148853758,
                        -0.2589110849872862,
                        0.803216893803282,
                        0.6642600121773958,
                        0.28972139103361694,
                        -0.28504153009240696,
                        -0.7307367651915568,
                        -0.9973639309076543,
                        -0.009318265191057051,
                        0.6689876720541335,
                        -0.2531180484573168,
                        -0.9128576506643824
                    ],
                    "bias": -0.9302936181911206
                },
                {
                    "weights": [
                        -0.7345994046093192,
                        0.14360984986726644,
                        -0.8295405746587281,
                        -0.882529131393863,
                        -0.889380197098673,
                        -0.7597586811690238,
                        -0.032537837290125715,
                        0.38013263581495704,
                        -0.9255858035908004,
                        0.48529005721469365,
                        0.14558938632188934,
                        -0.2557877414033265,
                        -0.3042610688810985,
                        0.5059079588907798,
                        0.09474398747511747,
                        0.3330166100110179,
                        -0.01515284873425693,
                        -0.11175116420246689
                    ],
                    "bias": 1.0066677532205253
                },
                {
                    "weights": [
                        0.6057640376628475,
                        -0.043762313779669215,
                        -0.18844465906655672,
                        -0.0822612261525153,
                        -0.8075795078465233,
                        -0.7928975901044062,
                        -0.04216850481564749,
                        0.36434574306891765,
                        -0.3085454583882914,
                        0.9621818187144071,
                        -0.009107621864852256,
                        0.002095943060869576,
                        -0.3084767702292257,
                        -0.7108211538112417,
                        0.5993673067722101,
                        -0.876308221672629,
                        -0.10193746653784674,
                        -0.49680298817685764
                    ],
                    "bias": -0.8340856685751206
                },
                {
                    "weights": [
                        -0.8896709420829398,
                        0.13306386257866132,
                        -0.9772666413341937,
                        0.7557390810564857,
                        -0.4328332740825318,
                        -0.5140706095030707,
                        0.9058243086044819,
                        -0.005490375171296913,
                        0.7234483511698577,
                        -0.056970392002715586,
                        -0.01855877628516578,
                        0.8657378963928486,
                        -0.1018979831318032,
                        -0.1873419395410858,
                        0.25607698617023167,
                        0.9352307910732613,
                        0.7163225531216366,
                        -0.6982104679162082
                    ],
                    "bias": 1.5745885060450833
                },
                {
                    "weights": [
                        0.5350982362467975,
                        -0.38401823835026794,
                        0.9452377430704566,
                        0.22497777167052502,
                        -0.19549274184208043,
                        0.5324912649770563,
                        -0.7714281682158008,
                        0.6792268898352585,
                        -0.3369396632244319,
                        -0.14637352579981688,
                        0.4548567567405142,
                        0.38297209748383687,
                        0.8113057435452564,
                        0.9826533003737421,
                        -0.6310390931126644,
                        -0.05981620153009559,
                        0.12847394413283686,
                        -0.3824668757842513
                    ],
                    "bias": -0.6883176055748901
                },
                {
                    "weights": [
                        -0.5880969463390147,
                        0.2277408708318689,
                        -0.05560974637701688,
                        -0.4479041961740935,
                        0.9292170486673719,
                        -0.6620224461911457,
                        -0.5284273904458174,
                        0.8085296008622802,
                        0.17850477804601983,
                        -0.983348023592876,
                        0.537655905039097,
                        0.7602973353396187,
                        0.96678992942662,
                        -0.5508918430904688,
                        0.4641030967631876,
                        -0.4629836616535372,
                        0.8657338777972061,
                        -0.8260236418277054
                    ],
                    "bias": 0.5333206511570163
                },
                {
                    "weights": [
                        -0.12145384062055187,
                        -0.4198970872392034,
                        0.6378540802464043,
                        -0.3252827365079378,
                        0.12634933737411602,
                        0.3858369505703132,
                        -0.8555831432332035,
                        0.7999442270796853,
                        0.6984072155237371,
                        -0.31192674573984425,
                        0.2635681934606633,
                        0.16291700066484305,
                        0.13591304795203407,
                        0.9541764255759315,
                        -0.22352098660318775,
                        0.3277395225115243,
                        0.5011291603643857,
                        0.5114435335874814
                    ],
                    "bias": -0.08617794059744874
                },
                {
                    "weights": [
                        0.47530291453760487,
                        -0.5432762937441074,
                        0.8027010859150097,
                        -0.3086866096432501,
                        0.15174321614200736,
                        0.8249578797585104,
                        0.4920937456508174,
                        0.07285210324258062,
                        -0.933284223873134,
                        0.8444119522351337,
                        0.011188840439957826,
                        -0.4399275381172054,
                        -0.9155474192743545,
                        0.5965729962463859,
                        -0.5717168000908543,
                        0.1840773644030298,
                        -0.450310968785651,
                        -0.06763824213651581
                    ],
                    "bias": -0.5162815967092671
                },
                {
                    "weights": [
                        -0.8735594122786048,
                        0.7847764048992618,
                        -0.5146291754340007,
                        0.7034621241920869,
                        0.5049357754556352,
                        0.2833003391627118,
                        -0.23365234680728442,
                        0.5499451162194227,
                        -0.7237545184929526,
                        0.872194300045458,
                        0.43209826547006935,
                        0.28176927285587183,
                        -0.874847885821388,
                        -0.31162073087247455,
                        0.13594409217527148,
                        -0.6110084124945985,
                        0.4965658477878512,
                        0.3982651799419261
                    ],
                    "bias": -1.0791977459745505
                }
            ],
            "length": 10
        },
        "layers": [
            {
                "neurons": [
                    {
                        "weights": [
                            0.562618453345729,
                            0.5614801956518927,
                            -0.38342684394345805,
                            -0.40508943323571955,
                            -0.4139591960166211,
                            -0.39699189919986044,
                            -0.4658786631692704,
                            0.6275159950718749,
                            0.7490833512778687,
                            -0.5344111433517664
                        ],
                        "bias": 0.5378820076452172
                    },
                    {
                        "weights": [
                            0.06309255592778973,
                            -0.6714283414221665,
                            0.3628697511125756,
                            -0.17153526985468637,
                            -0.31066093196015965,
                            -0.7352285200487956,
                            0.7627638806381012,
                            0.41880523214513077,
                            0.8362385623063429,
                            0.0739602669095416
                        ],
                        "bias": -0.35501346076993573
                    },
                    {
                        "weights": [
                            -0.28439942482739466,
                            0.1328163767486803,
                            -0.44411979825377657,
                            -0.10906704871271944,
                            0.528273812216429,
                            0.06719284602854958,
                            -0.14501997231709485,
                            0.4314068134922091,
                            0.3685244223890012,
                            0.6546594610861969
                        ],
                        "bias": 0.3374813887155785
                    },
                    {
                        "weights": [
                            -0.3191613663467485,
                            -0.384458384154563,
                            -0.16892589297266314,
                            0.19321554533201635,
                            -0.4227026149184834,
                            -0.06931551685767112,
                            0.3291865781888592,
                            -0.5728280733469959,
                            0.9317179730191807,
                            -0.4868363139680585
                        ],
                        "bias": 0.5876594996957809
                    },
                    {
                        "weights": [
                            -0.7964159775226842,
                            -0.2736174213182434,
                            0.17167802439043012,
                            -0.9251268500574354,
                            0.11892344367638263,
                            0.18814590454341729,
                            -0.15710056127177108,
                            -0.20452413881383746,
                            -0.3811637749894554,
                            0.9415919355892783
                        ],
                        "bias": -0.03859269969663444
                    },
                    {
                        "weights": [
                            -0.03482018982067969,
                            0.9922131433566188,
                            0.9865211200004254,
                            0.06325996794615762,
                            -0.39518565386241833,
                            -0.1756501971167299,
                            -0.21661966976862246,
                            0.8941779133962322,
                            0.5076528403848635,
                            0.6054427623224092
                        ],
                        "bias": -1.6738057086206284
                    },
                    {
                        "weights": [
                            -0.10863475408258627,
                            -0.4354449918162697,
                            0.047493156334145636,
                            0.4863222692247038,
                            0.981688445013392,
                            -0.16056509975711064,
                            -0.44547347707113216,
                            -0.4880305714904696,
                            0.8996843985457916,
                            -0.04187014571377112
                        ],
                        "bias": 0.5577768550257137
                    },
                    {
                        "weights": [
                            -0.609523379063559,
                            0.8454831109066152,
                            -0.2339339854153688,
                            0.04679871703953653,
                            0.8199489256643158,
                            0.834416277501187,
                            -0.6913327819480559,
                            -0.5013272887130136,
                            0.26631634892059686,
                            0.4901810022862507
                        ],
                        "bias": -0.0008157140687354847
                    },
                    {
                        "weights": [
                            -0.14531274519005954,
                            0.7489584186629616,
                            -0.7897942882704148,
                            0.31187829642331066,
                            -0.5135270326599621,
                            -0.320552871244949,
                            0.7278112672083767,
                            -0.21785475331891813,
                            0.384525068155144,
                            0.6128814475078921
                        ],
                        "bias": 0.6884528475389821
                    },
                    {
                        "weights": [
                            -0.39493394066450893,
                            0.40799034059226,
                            -0.19835171118075934,
                            0.37630710244348675,
                            -0.7854800692158921,
                            -0.4357197551081642,
                            0.8866325935312414,
                            -0.9916148853157065,
                            -0.3870206492954724,
                            0.0632168720021884
                        ],
                        "bias": 0.3794326377527519
                    }
                ],
                "length": 10
            },
            {
                "neurons": [
                    {
                        "weights": [
                            -0.7480738436584593,
                            -0.8521968197182535,
                            0.2754627629999429,
                            -0.9049645089428917,
                            0.7224787353269879,
                            -0.8446145619238619,
                            0.09532791717478761,
                            0.5420666585637333,
                            -0.3986298985243675,
                            0.8681901458016437
                        ],
                        "bias": -1.3679809598401358
                    },
                    {
                        "weights": [
                            -0.972153361973479,
                            0.13453823135944987,
                            -0.07943179505829434,
                            -0.20250379762170434,
                            -0.6247746611257206,
                            -0.06203527924605945,
                            -0.16396543100082872,
                            0.5481838780942521,
                            -0.710358492814033,
                            -0.5762973232066242
                        ],
                        "bias": 1.351749347823978
                    },
                    {
                        "weights": [
                            -0.3139539127089106,
                            0.4085501091803938,
                            -0.7925515239226246,
                            -0.49858094853382817,
                            0.2834148396690148,
                            -0.7664418280552099,
                            0.0789235707764171,
                            -0.6742872791866181,
                            0.7872672746294125,
                            -0.7449081113321725
                        ],
                        "bias": 0.6183587112918156
                    },
                    {
                        "weights": [
                            0.451818426084456,
                            -0.12483656003636123,
                            0.6388283000167176,
                            -0.7426651705156513,
                            0.8307533519223622,
                            0.973903229513783,
                            0.747964331195313,
                            0.1377262349288506,
                            0.9355699362811076,
                            -0.4706797249338406
                        ],
                        "bias": -0.3764543295151368
                    },
                    {
                        "weights": [
                            -0.8779540479779406,
                            -0.027826565717982366,
                            -0.3390340437556483,
                            -0.2437836452117581,
                            0.9087983965969417,
                            -0.8343521341028808,
                            0.12279830765272814,
                            0.5695994667940751,
                            -0.0353497898651709,
                            -0.6348398652162048
                        ],
                        "bias": 1.1252426851827082
                    },
                    {
                        "weights": [
                            0.3676583043826469,
                            -0.8195141442240457,
                            0.9854500947626965,
                            0.528293172503189,
                            0.6771640582645642,
                            0.5357274577288329,
                            -0.9640226153238494,
                            -0.7794962262804548,
                            -0.2664989780139524,
                            0.5304514190643033
                        ],
                        "bias": 0.17083201276025606
                    },
                    {
                        "weights": [
                            0.39356888755080344,
                            0.5553513874768121,
                            -0.8119210177994156,
                            -0.9874041391452131,
                            0.6535007452316706,
                            -0.9255433420222701,
                            0.4196983423130962,
                            -0.6924611074997753,
                            0.4142139329396295,
                            0.06027915136261175
                        ],
                        "bias": 0.966312268093724
                    },
                    {
                        "weights": [
                            -0.6145192563768396,
                            -0.2722066134686285,
                            -0.4003500633467374,
                            0.9507338780410364,
                            -0.014574099962310072,
                            0.8752680938751138,
                            0.5904818230702751,
                            0.46210658618091704,
                            0.8641914410374731,
                            -0.39785716621300216
                        ],
                        "bias": 1.2049631029889885
                    },
                    {
                        "weights": [
                            0.24309454387150753,
                            0.7658156807510001,
                            -0.46181983317115405,
                            -0.18097929825010772,
                            -0.45770918708589026,
                            0.8766979717725552,
                            -0.42884278644626805,
                            -0.38559318377265517,
                            0.9743742896499181,
                            -0.9981680641614574
                        ],
                        "bias": 1.1261686544489156
                    },
                    {
                        "weights": [
                            0.38971815331782067,
                            0.7329980629899018,
                            -0.36152357092567056,
                            0.27300791312455064,
                            0.8847825546127364,
                            0.42757866256463406,
                            -0.6785279671904796,
                            -0.9336234108765782,
                            0.5069651321930821,
                            0.31840452584632306
                        ],
                        "bias": 0.2888546433280985
                    }
                ],
                "length": 10
            },
            {
                "neurons": [
                    {
                        "weights": [
                            0.9991090308856165,
                            -0.3236703878427354,
                            -0.6692999572003895,
                            0.41961736367257174,
                            0.647486758429122,
                            -0.6824933737993883,
                            0.7181608990362267,
                            -0.9460837937131623,
                            0.256717322243188,
                            -0.07860640828290144
                        ],
                        "bias": -0.9935494926070041
                    },
                    {
                        "weights": [
                            0.5278701375537849,
                            0.5133295953916799,
                            0.6833676894798639,
                            0.7441489189370949,
                            -0.5131022423357126,
                            -0.5941780033630428,
                            0.5335528346772735,
                            -0.7349422365964748,
                            0.9042210784825042,
                            -0.9737732847720337
                        ],
                        "bias": -0.7792540249470161
                    },
                    {
                        "weights": [
                            0.4104041267308478,
                            -0.16757708574324304,
                            0.9585693224462872,
                            0.7881795064237596,
                            0.2654761668905905,
                            0.23869511073875338,
                            0.6949748764832377,
                            -0.2917022436713057,
                            0.7325914796406385,
                            0.08416344007700771
                        ],
                        "bias": -0.7921080673362438
                    },
                    {
                        "weights": [
                            0.2909103496632901,
                            -0.21536049259495038,
                            0.25963935293887164,
                            0.6266699036426548,
                            0.40957397723729816,
                            -0.4095243962407553,
                            0.5334580500511137,
                            0.9823056332555931,
                            -0.1433631588508748,
                            -0.22308994510979496
                        ],
                        "bias": 0.3407327076756519
                    },
                    {
                        "weights": [
                            -0.11263476231693881,
                            0.07302581793929641,
                            -0.3512618930444509,
                            -0.618696121292875,
                            -0.8599263558477563,
                            -0.4805130033132281,
                            -0.869306501780166,
                            0.16546148798765126,
                            -0.8929368181735107,
                            -0.6576443432862262
                        ],
                        "bias": -0.03174074361439168
                    },
                    {
                        "weights": [
                            0.11175598234213702,
                            -0.801691142017722,
                            -0.303408192450513,
                            -0.7028743268317308,
                            -0.13220046441010558,
                            0.6627117673038079,
                            -0.01898484832041092,
                            0.9898939951921,
                            -0.06955410145145335,
                            0.4929824384973056
                        ],
                        "bias": 0.16006602302120154
                    },
                    {
                        "weights": [
                            -0.5700282140987338,
                            0.12384255362066843,
                            0.007134966766249473,
                            0.04087651710381812,
                            -0.2626952270993699,
                            -0.47752223002474414,
                            0.25153463771418205,
                            -0.28322917835043215,
                            -0.3713806457980049,
                            0.40012448373816256
                        ],
                        "bias": 0.6478373948207943
                    },
                    {
                        "weights": [
                            0.12252573278196577,
                            0.6391230311290235,
                            0.5279144327604537,
                            -0.3378598032379583,
                            0.19405557170526433,
                            -0.012867523073739395,
                            0.8259122513537454,
                            -0.8086083982382823,
                            0.9583175288376815,
                            -0.5673122799794619
                        ],
                        "bias": -1.4672139638081947
                    },
                    {
                        "weights": [
                            0.15015023035053288,
                            -0.351320547691643,
                            -0.978799877189015,
                            0.49481652574944435,
                            -0.010169562585033987,
                            -0.24442538496012456,
                            0.9693679530768136,
                            0.984720560407484,
                            -0.9549300597438128,
                            -0.42678506433392327
                        ],
                        "bias": -0.0896436124278535
                    },
                    {
                        "weights": [
                            -0.25616957645789773,
                            0.6607104451022285,
                            0.10553575134524085,
                            0.6353250818879608,
                            -0.005844798345790769,
                            -0.6428309645059576,
                            -0.9631764085451293,
                            -0.5682346538921041,
                            0.4283264923207415,
                            0.4522080947309295
                        ],
                        "bias": 1.4804987083178085
                    }
                ],
                "length": 10
            },
            {
                "neurons": [
                    {
                        "weights": [
                            0.6044500071828516,
                            0.2643077175919999,
                            0.6761669460934014,
                            -0.07790040842131107,
                            0.5423508639230461,
                            0.49925423836733285,
                            0.2227339502966068,
                            -0.5467080833606923,
                            -0.8799677697439865,
                            0.49220717916956636
                        ],
                        "bias": 0.7265735071392089
                    },
                    {
                        "weights": [
                            -0.913984493131222,
                            -0.1844928335680167,
                            -0.9493311894024317,
                            -0.24855326284332824,
                            0.23225402451299804,
                            -0.36992390714572765,
                            -0.35934409581638205,
                            -0.21192779534300255,
                            -0.26878919147287217,
                            -0.22840896666187271
                        ],
                        "bias": 0.5095765681865864
                    },
                    {
                        "weights": [
                            0.0992690031053105,
                            -0.14446963442952643,
                            0.21880423763437862,
                            0.1587625498138725,
                            0.6162900390954986,
                            -0.4244661153208251,
                            -0.14628984587188,
                            -0.8962139695448486,
                            -0.8924919536352527,
                            0.6625384877115919
                        ],
                        "bias": -0.07598996303591171
                    },
                    {
                        "weights": [
                            -0.9563765498920673,
                            -0.8899886978546376,
                            -0.5701274308095201,
                            -0.007908515697412355,
                            0.11378569101511848,
                            0.44874841823439504,
                            -0.194223090294253,
                            0.977286133234845,
                            0.5131619829735918,
                            -0.08042686334942961
                        ],
                        "bias": 0.37214524227815066
                    },
                    {
                        "weights": [
                            -0.4095061524283483,
                            -0.4014395346352624,
                            -0.8680174127943903,
                            -0.7785844205132897,
                            0.9069900444435319,
                            0.158743973932979,
                            -0.570334592168569,
                            0.2773625861671156,
                            -0.5129681423691548,
                            0.12279488367632863
                        ],
                        "bias": 0.029850520999180806
                    },
                    {
                        "weights": [
                            0.1566728995713791,
                            0.29635999973713534,
                            -0.9550265780292635,
                            0.7641418593760978,
                            0.13238631653320332,
                            -0.9022799751282924,
                            0.7318788188218357,
                            0.03676207884865956,
                            -0.9843820697669485,
                            -0.1855471952960026
                        ],
                        "bias": 0.597366247799799
                    },
                    {
                        "weights": [
                            -0.05433125521879201,
                            0.9671401093914356,
                            -0.6616018623446513,
                            -0.4307290089558167,
                            0.08541915694622149,
                            0.3112276549398283,
                            -0.6970741637083262,
                            -0.6399696627442921,
                            -0.6770569965991426,
                            0.15309466874105637
                        ],
                        "bias": -1.3642067150424606
                    },
                    {
                        "weights": [
                            -0.48342714958545674,
                            0.048127061760159906,
                            0.9198678001132583,
                            -0.11835360218971958,
                            -0.03321361649402088,
                            -0.3417259760745579,
                            0.47315754315626957,
                            0.41098078739491073,
                            -0.5645560624841752,
                            -0.46940928622824396
                        ],
                        "bias": 0.296545255780663
                    },
                    {
                        "weights": [
                            0.7639997695141851,
                            -0.5378100398848034,
                            -0.8366578090509043,
                            -0.1117190435096429,
                            0.7085286974123466,
                            -0.5828717663898533,
                            -0.7172618397532888,
                            0.21205009002294317,
                            -0.7754526998283153,
                            0.08135367737869359
                        ],
                        "bias": 1.1883754566738247
                    },
                    {
                        "weights": [
                            -0.2724297069443258,
                            0.057035670297644225,
                            0.578012723074766,
                            -0.20578785697496516,
                            0.5370117210858121,
                            0.7301398481981034,
                            0.17642368316941615,
                            -0.17788478466169333,
                            0.18618211939861262,
                            0.7905469200308337
                        ],
                        "bias": -1.1794257894601898
                    }
                ],
                "length": 10
            },
            {
                "neurons": [
                    {
                        "weights": [
                            -0.616036075608754,
                            -0.21196629348497353,
                            -0.5486775820637713,
                            0.9741725043100864,
                            0.14381416804695402,
                            -0.7433580625775531,
                            0.6923388039575074,
                            -0.45012289458450816,
                            0.44639948743498126,
                            -0.519136962665169
                        ],
                        "bias": 1.3759435458254317
                    },
                    {
                        "weights": [
                            0.9447378396907731,
                            0.9656973976218386,
                            -0.4730111956503644,
                            -0.5379809105778146,
                            -0.7242485628348578,
                            -0.26443522581276113,
                            0.04891156701949373,
                            -0.22913568379353388,
                            0.5081395041699435,
                            0.9528628236953529
                        ],
                        "bias": 0.5053038522008912
                    },
                    {
                        "weights": [
                            -0.77536936269831,
                            0.1428878954821018,
                            0.2939308090911634,
                            0.17900386567683824,
                            -0.23847572313516463,
                            -0.7746200754427566,
                            -0.93437326906557,
                            0.3275527333116499,
                            0.1916590267913285,
                            -0.07995837493758873
                        ],
                        "bias": 1.0381159861336346
                    },
                    {
                        "weights": [
                            -0.5011009642014923,
                            0.7742375567661759,
                            0.5257206256915947,
                            -0.9609446183923867,
                            0.6255705576905584,
                            -0.6296932738799539,
                            0.03077804717919097,
                            0.020186705527766247,
                            0.014127851154671633,
                            -0.24969640064784815
                        ],
                        "bias": 0.302940580489764
                    },
                    {
                        "weights": [
                            0.3318732986055828,
                            0.16784750442771101,
                            -0.03183644552332843,
                            -0.21308290012151865,
                            0.07643141468709302,
                            -0.43148764436671305,
                            0.3390213050040265,
                            -0.36769301881189165,
                            0.515535885901188,
                            0.8372002786321013
                        ],
                        "bias": -0.07289361392246554
                    },
                    {
                        "weights": [
                            -0.06732893566361264,
                            -0.13726556618623031,
                            -0.34233777492185813,
                            0.5946028142779869,
                            -0.845788825736999,
                            0.2688816765297848,
                            -0.048345379443862635,
                            0.6170976360736595,
                            -0.413149360394756,
                            -0.7502292151590095
                        ],
                        "bias": 0.5379431381987689
                    },
                    {
                        "weights": [
                            0.43293992826800354,
                            -0.6659415723095319,
                            0.429476301482806,
                            -0.8605829347966918,
                            -0.7800160096621245,
                            -0.8124937806852768,
                            0.13981547001868067,
                            -0.3881295251601906,
                            0.11583288144651926,
                            0.06124431577660161
                        ],
                        "bias": -1.7610883512325868
                    },
                    {
                        "weights": [
                            -0.6145017875876775,
                            -0.22483770054337637,
                            0.9339143390904732,
                            -0.3170972430559118,
                            0.18174581940173717,
                            0.49966640680473584,
                            0.022626566232283096,
                            -0.4316960669300909,
                            -0.2200544685532595,
                            -0.5565266426100637
                        ],
                        "bias": -0.8784445677384536
                    },
                    {
                        "weights": [
                            -0.3261727644049892,
                            0.11422656790553942,
                            -0.15458590854572019,
                            0.7523040798389469,
                            0.3414171112774389,
                            0.042243673059005005,
                            0.8481251619122232,
                            -0.08843562259629456,
                            0.08990718763063765,
                            0.9062793358924883
                        ],
                        "bias": -1.4522455084046377
                    },
                    {
                        "weights": [
                            -0.6521731362278929,
                            -0.9684933617959359,
                            0.5505978902368507,
                            -0.047561947632723145,
                            0.5696927229707791,
                            -0.8774624479197779,
                            0.08136899506940631,
                            -0.4404130555711472,
                            0.5047702913541618,
                            -0.5740388168724548
                        ],
                        "bias": -0.7551636361925033
                    }
                ],
                "length": 10
            },
            {
                "neurons": [
                    {
                        "weights": [
                            -0.39552863926882753,
                            -0.3166766719674079,
                            -0.8536968151368027,
                            0.8531333589868404,
                            -0.6671808165819033,
                            -0.3462191633666969,
                            -0.5751036858783527,
                            -0.6838697663231164,
                            0.6900882183152324,
                            -0.632134944941064
                        ],
                        "bias": 0.5650951243665233
                    },
                    {
                        "weights": [
                            0.11771790546438643,
                            0.7396844320336551,
                            0.48713205745623367,
                            -0.6483146418336834,
                            -0.5350533343252026,
                            -0.39475193992407487,
                            0.25000902170693196,
                            0.6636941968866947,
                            -0.08795237512678167,
                            -0.722485181133844
                        ],
                        "bias": -1.7303386582703797
                    },
                    {
                        "weights": [
                            0.9675582362097466,
                            0.8839673288162424,
                            0.6506504655904355,
                            -0.8616599553774096,
                            -0.6597886295574897,
                            0.6646637759787024,
                            0.45845419558975187,
                            0.4100794454584369,
                            0.23238624951422593,
                            0.08983269588533549
                        ],
                        "bias": -0.5947685035049273
                    },
                    {
                        "weights": [
                            0.5324270454364171,
                            -0.937746898847357,
                            -0.6431591673829591,
                            0.8382371390102452,
                            0.6746337606489563,
                            0.5126676527368894,
                            -0.9964184540434904,
                            -0.5082669266441704,
                            -0.6288363775017454,
                            0.9638950620562912
                        ],
                        "bias": -0.14981593055638553
                    },
                    {
                        "weights": [
                            0.5059124514951274,
                            0.8931364037611655,
                            -0.4174269512216202,
                            -0.5678340051567732,
                            -0.3933372046743475,
                            -0.1429898522159161,
                            -0.009591491136136554,
                            -0.3867823211082062,
                            -0.9257056180131795,
                            -0.7921876037501712
                        ],
                        "bias": -0.5263104004564934
                    },
                    {
                        "weights": [
                            0.44082098872729536,
                            -0.9312543439038112,
                            -0.8287263761288666,
                            0.4932436067700616,
                            0.02079299875136198,
                            0.19680420004892651,
                            0.5349566637333012,
                            0.2780439843165199,
                            -0.06512401972685589,
                            0.4604359705228802
                        ],
                        "bias": -0.6438821820627415
                    },
                    {
                        "weights": [
                            -0.6887449998389958,
                            0.6902521747976631,
                            -0.10664020680644382,
                            0.9100411818357701,
                            -0.48575907203756663,
                            -0.5302065521938617,
                            0.7220310285744227,
                            -0.18069469128662785,
                            -0.700404030343418,
                            0.017928314208019325
                        ],
                        "bias": -0.7328699266756659
                    },
                    {
                        "weights": [
                            0.3226409088980682,
                            0.7934852632457954,
                            0.3355481384195873,
                            -0.8802067635458,
                            -0.06312064611978174,
                            0.011342519710020982,
                            0.8665306795810896,
                            0.24510143769518078,
                            0.39787334515396333,
                            0.47832073322006874
                        ],
                        "bias": -1.2251131820685432
                    },
                    {
                        "weights": [
                            0.8014652496578862,
                            0.2605740981289626,
                            -0.5475682037449725,
                            0.31567315834586274,
                            -0.9674333132356971,
                            0.6107152424788702,
                            0.9564166519975108,
                            -0.06737750477622861,
                            0.8179353230868387,
                            -0.026857164348138785
                        ],
                        "bias": -0.13399803029842222
                    },
                    {
                        "weights": [
                            0.12057949271614232,
                            -0.12381713343001555,
                            0.8189150932514877,
                            -0.10327841881555266,
                            0.9780033596127244,
                            -0.6664939770965987,
                            0.8453436453536114,
                            -0.6810665295096272,
                            -0.31528363818374383,
                            -0.1658651626681904
                        ],
                        "bias": 1.358744053949085
                    }
                ],
                "length": 10
            },
            {
                "neurons": [
                    {
                        "weights": [
                            0.2525107661687216,
                            -0.36874370214078556,
                            -0.045032848940973924,
                            0.7691904981824713,
                            -0.6898568272808647,
                            0.5567004704190026,
                            0.4651704686474363,
                            0.22939774542321656,
                            -0.650696029523741,
                            -0.4740579251836039
                        ],
                        "bias": -0.9083160972543495
                    },
                    {
                        "weights": [
                            0.9404177394916218,
                            -0.7771065857014294,
                            0.6435823950187785,
                            -0.7313468637714275,
                            0.10776030810938075,
                            -0.06378511293730482,
                            0.5574653719288296,
                            -0.5829268638768397,
                            0.7830047812325389,
                            -0.7976129569701964
                        ],
                        "bias": -1.0567759587262884
                    },
                    {
                        "weights": [
                            0.1872440477590389,
                            0.010297281584929374,
                            -0.14036596502954968,
                            -0.7307644363638841,
                            -0.34859797440297235,
                            0.9991959472643563,
                            -0.8019958232875097,
                            0.139151684424629,
                            -0.36894277453500957,
                            0.0360780410395487
                        ],
                        "bias": 0.4826281706680887
                    },
                    {
                        "weights": [
                            0.805743035692132,
                            -0.38769865961460526,
                            -0.3690502701799008,
                            -0.09203638635063438,
                            0.0958632610272343,
                            -0.6198990858601969,
                            -0.9021242406253427,
                            0.9594537680365451,
                            0.45532662794015866,
                            0.33340022915124723
                        ],
                        "bias": -0.7428608841686131
                    },
                    {
                        "weights": [
                            -0.12822781160311858,
                            0.5954320330243212,
                            -0.14861349821403724,
                            -0.9751628303177526,
                            0.1821901728610662,
                            0.009835024589172514,
                            -0.382286942558661,
                            0.3868545292331669,
                            0.25388893384063604,
                            -0.6747536134399625
                        ],
                        "bias": 0.5169970774591628
                    },
                    {
                        "weights": [
                            -0.5854818050644182,
                            0.7136107570503445,
                            -0.5403969692514901,
                            -0.2538612503455371,
                            0.6215719383713638,
                            -0.1863906456464417,
                            0.27236438306669264,
                            -0.08966261289234279,
                            0.3194977033276518,
                            -0.8603713980425596
                        ],
                        "bias": 0.7011840802388782
                    },
                    {
                        "weights": [
                            0.8252478996211561,
                            0.6081779720049196,
                            0.7588800837823759,
                            0.45405187354646825,
                            0.9292647073113514,
                            0.2864169853458509,
                            -0.4084865805417943,
                            -0.3363836445535209,
                            -0.11415638202546785,
                            0.9936582694138107
                        ],
                        "bias": 0.5609509145337555
                    },
                    {
                        "weights": [
                            0.04101569227965629,
                            0.16326478487599205,
                            0.44789782999355676,
                            -0.8810481703524482,
                            0.9744721155975171,
                            -0.5804973187026317,
                            -0.5245249366053817,
                            -0.6672069691451754,
                            0.683922948135333,
                            -0.9957728408307602
                        ],
                        "bias": -0.6950756104078535
                    },
                    {
                        "weights": [
                            -0.11177475336682519,
                            0.16265466824639563,
                            0.7890853885335465,
                            -0.048314325504399847,
                            0.029856949120618648,
                            -0.4710603414906347,
                            -0.9557843750274786,
                            0.38948129841523516,
                            0.0018029699897410545,
                            -0.6964463971259893
                        ],
                        "bias": 0.6287747799545562
                    },
                    {
                        "weights": [
                            0.08628018714908947,
                            -0.6450926380300197,
                            -0.49557115978704935,
                            -0.47830100428933875,
                            -0.4495531878088155,
                            0.547664823635857,
                            0.6940890184897017,
                            -0.3318938507781164,
                            -0.8820995071275262,
                            -0.3374452457159014
                        ],
                        "bias": 1.4639044431093045
                    }
                ],
                "length": 10
            },
            {
                "neurons": [
                    {
                        "weights": [
                            0.9520515396912606,
                            -0.12491400536517427,
                            -0.06902527906488465,
                            -0.7221777097754318,
                            0.19134111408658971,
                            -0.8885131574093437,
                            -0.027799388125626212,
                            -0.4914171219092245,
                            -0.8558299614001839,
                            0.24522126241823217
                        ],
                        "bias": -1.2207542882496334
                    },
                    {
                        "weights": [
                            -0.6785837659528877,
                            -0.8980488860716977,
                            0.03533378306500534,
                            0.1752295791111813,
                            -0.6952492688646108,
                            0.4679100611678704,
                            -0.8363310023369595,
                            0.6141842320016662,
                            0.22984249053698624,
                            -0.7500242478783856
                        ],
                        "bias": 0.20978906972082223
                    },
                    {
                        "weights": [
                            -0.6303216198351524,
                            0.7502335289560085,
                            -0.9635091312306092,
                            0.8348636761684125,
                            0.004371507996016932,
                            0.5011543430956722,
                            -0.1848327731798387,
                            -0.9938917972803203,
                            0.4961566544279048,
                            -0.9456072508032773
                        ],
                        "bias": 0.43740487757421437
                    },
                    {
                        "weights": [
                            -0.7958254091096546,
                            0.38766932002330723,
                            -0.48414089369635893,
                            0.7347767777605103,
                            0.5357101788719238,
                            -0.05238094569146323,
                            -0.8088146097682085,
                            0.9592591784690703,
                            0.6478763077036471,
                            0.6246547473716466
                        ],
                        "bias": -0.906529610144748
                    },
                    {
                        "weights": [
                            -0.7095424101758896,
                            0.258879900549704,
                            -0.3399184193021467,
                            0.9954300021829148,
                            0.18678646999988002,
                            -0.8456362530092323,
                            -0.3090951775466644,
                            -0.7351929151601788,
                            -0.7505995273576584,
                            0.8053447838064849
                        ],
                        "bias": 0.04079623383791316
                    },
                    {
                        "weights": [
                            -0.2340982206871931,
                            0.6514901686168177,
                            0.26706601982901357,
                            -0.7980679491740852,
                            -0.03749710249839877,
                            -0.7872890291562444,
                            -0.5301455592949682,
                            -0.5896737392916134,
                            -0.9215815042544937,
                            -0.705217812939746
                        ],
                        "bias": 0.10425523693900683
                    },
                    {
                        "weights": [
                            0.33599692215606836,
                            0.14491785618296604,
                            0.9886917537085935,
                            0.3804394870087877,
                            -0.9513308331165209,
                            0.953349900024292,
                            0.530823922113234,
                            0.8590379970669939,
                            -0.4467345691826219,
                            -0.47162344258661193
                        ],
                        "bias": -0.17060904998468296
                    },
                    {
                        "weights": [
                            -0.2647133167277942,
                            -0.21591597093839354,
                            0.512889619826673,
                            0.9591706686070443,
                            -0.34834637489541254,
                            -0.05811743333209951,
                            0.39626970269494666,
                            0.5112249956904931,
                            0.6894256285450759,
                            0.11470188944910742
                        ],
                        "bias": 0.9248144685299886
                    },
                    {
                        "weights": [
                            0.2913770389763768,
                            -0.6390628201735691,
                            -0.9498270628220677,
                            -0.5817684849329006,
                            -0.04143779600147046,
                            0.6227961783782825,
                            0.6835154019967133,
                            -0.08784713219291551,
                            -0.6586655303379587,
                            -0.06355067279934934
                        ],
                        "bias": -0.2468910873318675
                    },
                    {
                        "weights": [
                            0.10250258857410577,
                            0.4222547465252722,
                            0.10607092688259856,
                            -0.1481262831152088,
                            0.04417881857943029,
                            0.8174793720783393,
                            -0.8747531203092005,
                            0.9562165763274872,
                            -0.8459591922775471,
                            0.9736991128322243
                        ],
                        "bias": 0.2898886370432448
                    }
                ],
                "length": 10
            },
            {
                "neurons": [
                    {
                        "weights": [
                            0.12828385643803286,
                            0.016084671651447557,
                            -0.7397365093172037,
                            0.2940929001043713,
                            0.5680471176783701,
                            -0.026159269997321433,
                            -0.7916169923300069,
                            0.3647403201517807,
                            0.9881435134180157,
                            0.9034086796109204
                        ],
                        "bias": -0.510049470007874
                    },
                    {
                        "weights": [
                            -0.7571267473534036,
                            0.5935574705619935,
                            0.14946681987965915,
                            -0.5426165141846448,
                            -0.022216122123137172,
                            0.6202937446301702,
                            -0.9735408563334602,
                            -0.06769139009953995,
                            0.801597016559316,
                            0.5592358916550513
                        ],
                        "bias": -0.4486490782373521
                    },
                    {
                        "weights": [
                            -0.3294746964660078,
                            -0.7934553217450027,
                            0.7715753739506568,
                            -0.9335634855580601,
                            -0.4580372013131382,
                            0.19612559196889578,
                            -0.882408660571053,
                            -0.21146799347010892,
                            0.7102312306352698,
                            -0.9926777492147665
                        ],
                        "bias": -0.1708195655377016
                    },
                    {
                        "weights": [
                            -0.7678117231453168,
                            0.11379020810254992,
                            -0.7072048873416781,
                            0.019409933675684776,
                            -0.5864411407041286,
                            -0.34514358150238467,
                            -0.3940858443256561,
                            0.8971576509458923,
                            0.9698565634773018,
                            0.7713475043775837
                        ],
                        "bias": -0.8291520578417071
                    },
                    {
                        "weights": [
                            0.3661780227300997,
                            -0.87091970423761,
                            0.6576105155675704,
                            -0.8654010690959935,
                            -0.5987913698893108,
                            0.31448114861539156,
                            -0.47263554427344556,
                            -0.16119253577846382,
                            -0.8139042267018977,
                            0.9073122820592256
                        ],
                        "bias": -0.0975481554779096
                    },
                    {
                        "weights": [
                            0.5643654590015217,
                            0.7923663520169772,
                            0.9104313495061973,
                            -0.8783750250435962,
                            -0.8560278625600999,
                            0.5019571462068295,
                            -0.509288328807904,
                            -0.8361988268131457,
                            0.7929808643847953,
                            0.7305491389336192
                        ],
                        "bias": -1.09580030253598
                    },
                    {
                        "weights": [
                            0.34922207497904334,
                            0.4462911928073121,
                            -0.38371006078610614,
                            0.7700386245937336,
                            -0.3877547065042486,
                            -0.9089759221229936,
                            0.8261624987033425,
                            0.08644757516543589,
                            0.8057392887322117,
                            0.6578022763139093
                        ],
                        "bias": 1.6079611063388064
                    },
                    {
                        "weights": [
                            0.2281764088561391,
                            0.5660696376230336,
                            -0.8391260487562113,
                            -0.13086993632637922,
                            0.21188756890205562,
                            0.42104226515326193,
                            0.9431886284215769,
                            0.9211265377000302,
                            0.5397126155743004,
                            -0.9694456578177892
                        ],
                        "bias": -1.16014861066431
                    },
                    {
                        "weights": [
                            0.08171839971683559,
                            0.37396034937552636,
                            -0.14725062520013843,
                            0.7996855533094089,
                            0.9271465519778685,
                            -0.014535562298551241,
                            0.6088553121142433,
                            0.40541076675281573,
                            -0.016231771651836757,
                            -0.7491846251566763
                        ],
                        "bias": 0.3500343167606903
                    },
                    {
                        "weights": [
                            0.9159841006388256,
                            -0.3261452460298069,
                            -0.5150316679608908,
                            -0.2506651359374521,
                            -0.856087338576581,
                            0.7757317263550059,
                            0.5891500062195318,
                            0.10787883952622579,
                            0.19455692009301995,
                            0.04543675572883488
                        ],
                        "bias": -1.7701597910550775
                    }
                ],
                "length": 10
            },
            {
                "neurons": [
                    {
                        "weights": [
                            0.7907655626722148,
                            -0.9168301458299246,
                            0.59910705987381,
                            -0.28390512090719233,
                            0.6493986287105198,
                            0.4319310784276471,
                            0.1698081362212216,
                            -0.6229357545145591,
                            -0.6779876828368263,
                            -0.7794654319936638
                        ],
                        "bias": -0.1616896078792165
                    },
                    {
                        "weights": [
                            -0.17599686839854556,
                            0.5149468149263432,
                            -0.08709863174387822,
                            0.3166961946769786,
                            0.7819495725232448,
                            -0.5514594409958586,
                            -0.2000108406889558,
                            -0.29409408072839893,
                            0.4915543821060231,
                            -0.23134385903812738
                        ],
                        "bias": 0.5550568687451257
                    },
                    {
                        "weights": [
                            -0.28396072212738765,
                            -0.30328909769814905,
                            0.33210197839318956,
                            0.04690753452784513,
                            0.8260507036441185,
                            0.4296793576890423,
                            -0.7756039463181255,
                            0.35713983321395104,
                            0.03052406283561382,
                            -0.23735086642909708
                        ],
                        "bias": -1.128331555739415
                    },
                    {
                        "weights": [
                            0.2678890227591353,
                            0.4193196705276565,
                            -0.6509956761354374,
                            0.5910893256403262,
                            -0.5776379545732944,
                            -0.9917871983115258,
                            -0.546375977738851,
                            -0.6231567755995051,
                            0.9084136471314666,
                            -0.0019331614229456395
                        ],
                        "bias": 0.39746318158875454
                    },
                    {
                        "weights": [
                            0.7462895571313317,
                            -0.7381706639336993,
                            -0.8660755314562332,
                            0.39784920429271353,
                            0.1691780597289989,
                            -0.15266578342390624,
                            -0.42357285310954174,
                            0.3856796220672729,
                            0.07184921359124696,
                            0.917756986886989
                        ],
                        "bias": -0.7800900201430491
                    },
                    {
                        "weights": [
                            -0.9730916707228747,
                            0.6461852949588802,
                            -0.23448856153243058,
                            0.6556840843089906,
                            -0.01996259449255433,
                            0.4609422884999239,
                            0.9402192217841738,
                            0.5438951317020266,
                            -0.5820245665694346,
                            0.36656817696961674
                        ],
                        "bias": -1.1316928929783412
                    },
                    {
                        "weights": [
                            -0.23123099391150603,
                            -0.38129686279173236,
                            -0.6608455122920496,
                            0.296928109926053,
                            -0.8081208263468194,
                            0.45637226560560706,
                            -0.577222923774438,
                            -0.24882008478367657,
                            -0.1971163293349949,
                            0.47354977810405274
                        ],
                        "bias": -1.6130123008617292
                    },
                    {
                        "weights": [
                            0.25022637362604216,
                            -0.0768268849814735,
                            0.9941862015292429,
                            -0.7168417746826652,
                            -0.6219661430332422,
                            0.6579794291367189,
                            0.2262731722337994,
                            -0.22703786730415643,
                            0.6508834784279129,
                            0.25203634974117195
                        ],
                        "bias": 0.41849676617321274
                    },
                    {
                        "weights": [
                            -0.2947956727238872,
                            -0.4811735837588158,
                            0.7714774558082269,
                            0.821772405850941,
                            0.10730374434285173,
                            0.5808772284432657,
                            0.8386708914758398,
                            0.2974134749458086,
                            0.1753739968215402,
                            0.9648775569003365
                        ],
                        "bias": 0.7294070167959962
                    },
                    {
                        "weights": [
                            0.13677649652903945,
                            -0.6785242795222888,
                            0.41310621451361684,
                            -0.749340119002591,
                            -0.7880819888473802,
                            0.7784769167792871,
                            -0.6099718125440565,
                            0.34288727647259476,
                            0.7175803797660307,
                            -0.0996786474089173
                        ],
                        "bias": -0.15329132546919094
                    }
                ],
                "length": 10
            }
        ],
        "outputLayer": {
            "neurons": [
                {
                    "weights": [
                        0.858755938956484,
                        -0.4404761074998558,
                        -0.21819953769021283,
                        -0.4312557175253737,
                        0.9115967382156287,
                        -0.7364498098615639,
                        0.7138474120729381,
                        -0.461924852583236,
                        -0.7160366216254237,
                        0.1751530085897126
                    ],
                    "bias": 1.039872622249407
                },
                {
                    "weights": [
                        -0.7251141702708648,
                        0.06764593996624657,
                        -0.5003825235588557,
                        0.08099466284960077,
                        0.22906474116047026,
                        -0.01828755936279891,
                        -0.7049243997452177,
                        -0.0021316634092276576,
                        0.7054361106883376,
                        0.048351559561265356
                    ],
                    "bias": -0.16642664182305542
                },
                {
                    "weights": [
                        0.8587035800728251,
                        0.5025786405443045,
                        0.8275119702684592,
                        -0.13262909024523384,
                        -0.7789901246737065,
                        -0.3830084226005628,
                        -0.9959482380965508,
                        0.2978670376977304,
                        -0.763526029066931,
                        0.484985357558267
                    ],
                    "bias": -0.27375487776979857
                },
                {
                    "weights": [
                        -0.36663237562350903,
                        0.3522277616541378,
                        -0.07311974965158052,
                        -0.9298935352976812,
                        0.7442587922518678,
                        0.9454939800761126,
                        0.04834428472570451,
                        0.3576249656737076,
                        -0.39168229124405274,
                        -0.1682671211394169
                    ],
                    "bias": 0.7487970278039033
                }
            ],
            "length": 4
        }
    },
    {
        "inputLayer": {
            "neurons": [
                {
                    "weights": [
                        0.2578831869689837,
                        -0.3674913764998957,
                        0.644812140137542,
                        0.3173933428448661,
                        -0.10335921410135662,
                        -0.46260103706878897,
                        -0.5023271946703267,
                        -0.01992821131715683,
                        0.3701463234802642,
                        -0.2934326783680954,
                        -0.7382271694313107,
                        0.8405069265447649,
                        0.1801694306625592,
                        -0.08773564512608978,
                        -0.6991859029085838,
                        0.2233285445914983,
                        0.6441596526587419,
                        -0.2119302356348618
                    ],
                    "bias": -0.43336781305378924
                },
                {
                    "weights": [
                        -0.11529888998148374,
                        0.9996716945702675,
                        -0.0831246417193996,
                        -0.6481600630785915,
                        0.22739834087569566,
                        -0.991842581798188,
                        -0.1519351148853758,
                        -0.2589110849872862,
                        0.803216893803282,
                        0.6642600121773958,
                        0.28972139103361694,
                        -0.28504153009240696,
                        -0.7307367651915568,
                        -0.9973639309076543,
                        -0.009318265191057051,
                        0.6689876720541335,
                        -0.2531180484573168,
                        -0.9128576506643824
                    ],
                    "bias": -0.8466053902545013
                },
                {
                    "weights": [
                        -0.7345994046093192,
                        0.14360984986726644,
                        -0.8295405746587281,
                        -0.882529131393863,
                        -0.889380197098673,
                        -0.7597586811690238,
                        -0.032537837290125715,
                        0.38013263581495704,
                        -0.9255858035908004,
                        0.48529005721469365,
                        0.14558938632188934,
                        -0.2557877414033265,
                        -0.3042610688810985,
                        0.5059079588907798,
                        0.09474398747511747,
                        0.3330166100110179,
                        -0.01515284873425693,
                        -0.11175116420246689
                    ],
                    "bias": 0.9400033391438117
                },
                {
                    "weights": [
                        0.6057640376628475,
                        -0.043762313779669215,
                        -0.18844465906655672,
                        -0.0822612261525153,
                        -0.8075795078465233,
                        -0.7928975901044062,
                        -0.04216850481564749,
                        0.36434574306891765,
                        -0.3085454583882914,
                        0.9621818187144071,
                        -0.009107621864852256,
                        0.002095943060869576,
                        -0.3084767702292257,
                        -0.7108211538112417,
                        0.5993673067722101,
                        -0.876308221672629,
                        -0.10193746653784674,
                        -0.49680298817685764
                    ],
                    "bias": -0.8967008161881882
                },
                {
                    "weights": [
                        -0.8896709420829398,
                        0.13306386257866132,
                        -0.9772666413341937,
                        0.7557390810564857,
                        -0.4328332740825318,
                        -0.5140706095030707,
                        0.9058243086044819,
                        -0.005490375171296913,
                        0.7234483511698577,
                        -0.056970392002715586,
                        -0.01855877628516578,
                        0.8657378963928486,
                        -0.1018979831318032,
                        -0.1873419395410858,
                        0.25607698617023167,
                        0.9352307910732613,
                        0.7163225531216366,
                        -0.6982104679162082
                    ],
                    "bias": 1.5240623441253867
                },
                {
                    "weights": [
                        0.5350982362467975,
                        -0.38401823835026794,
                        0.9452377430704566,
                        0.22497777167052502,
                        -0.19549274184208043,
                        0.5324912649770563,
                        -0.7714281682158008,
                        0.6792268898352585,
                        -0.3369396632244319,
                        -0.14637352579981688,
                        0.4548567567405142,
                        0.38297209748383687,
                        0.8113057435452564,
                        0.9826533003737421,
                        -0.6310390931126644,
                        -0.05981620153009559,
                        0.12847394413283686,
                        -0.3824668757842513
                    ],
                    "bias": -0.6846034985310953
                },
                {
                    "weights": [
                        -0.5880969463390147,
                        0.2277408708318689,
                        -0.05560974637701688,
                        -0.4479041961740935,
                        0.9292170486673719,
                        -0.6620224461911457,
                        -0.5284273904458174,
                        0.8085296008622802,
                        0.17850477804601983,
                        -0.983348023592876,
                        0.537655905039097,
                        0.7602973353396187,
                        0.96678992942662,
                        -0.5508918430904688,
                        0.4641030967631876,
                        -0.4629836616535372,
                        0.8657338777972061,
                        -0.8260236418277054
                    ],
                    "bias": 0.5333206511570163
                },
                {
                    "weights": [
                        -0.12145384062055187,
                        -0.4198970872392034,
                        0.6378540802464043,
                        -0.3252827365079378,
                        0.12634933737411602,
                        0.3858369505703132,
                        -0.8555831432332035,
                        0.7999442270796853,
                        0.6984072155237371,
                        -0.31192674573984425,
                        0.2635681934606633,
                        0.16291700066484305,
                        0.13591304795203407,
                        0.9541764255759315,
                        -0.22352098660318775,
                        0.3277395225115243,
                        0.5011291603643857,
                        0.5114435335874814
                    ],
                    "bias": 0.0027984054937915115
                },
                {
                    "weights": [
                        0.47530291453760487,
                        -0.5432762937441074,
                        0.8027010859150097,
                        -0.3086866096432501,
                        0.15174321614200736,
                        0.8249578797585104,
                        0.4920937456508174,
                        0.07285210324258062,
                        -0.933284223873134,
                        0.8444119522351337,
                        0.011188840439957826,
                        -0.4399275381172054,
                        -0.9155474192743545,
                        0.5965729962463859,
                        -0.5717168000908543,
                        0.1840773644030298,
                        -0.450310968785651,
                        -0.06763824213651581
                    ],
                    "bias": -0.4893309156730771
                },
                {
                    "weights": [
                        -0.8735594122786048,
                        0.7847764048992618,
                        -0.5146291754340007,
                        0.7034621241920869,
                        0.5049357754556352,
                        0.2833003391627118,
                        -0.23365234680728442,
                        0.5499451162194227,
                        -0.7237545184929526,
                        0.872194300045458,
                        0.43209826547006935,
                        0.28176927285587183,
                        -0.874847885821388,
                        -0.31162073087247455,
                        0.13594409217527148,
                        -0.6110084124945985,
                        0.4965658477878512,
                        0.3982651799419261
                    ],
                    "bias": -1.0832555512486435
                }
            ],
            "length": 10
        },
        "layers": [
            {
                "neurons": [
                    {
                        "weights": [
                            0.562618453345729,
                            0.5614801956518927,
                            -0.38342684394345805,
                            -0.40508943323571955,
                            -0.4139591960166211,
                            -0.39699189919986044,
                            -0.4658786631692704,
                            0.6275159950718749,
                            0.7490833512778687,
                            -0.5344111433517664
                        ],
                        "bias": 0.5921377496737072
                    },
                    {
                        "weights": [
                            0.06309255592778973,
                            -0.6714283414221665,
                            0.3628697511125756,
                            -0.17153526985468637,
                            -0.31066093196015965,
                            -0.7352285200487956,
                            0.7627638806381012,
                            0.41880523214513077,
                            0.8362385623063429,
                            0.0739602669095416
                        ],
                        "bias": -0.37016530118497243
                    },
                    {
                        "weights": [
                            -0.28439942482739466,
                            0.1328163767486803,
                            -0.44411979825377657,
                            -0.10906704871271944,
                            0.528273812216429,
                            0.06719284602854958,
                            -0.14501997231709485,
                            0.4314068134922091,
                            0.3685244223890012,
                            0.6546594610861969
                        ],
                        "bias": 0.35764695277215125
                    },
                    {
                        "weights": [
                            -0.3191613663467485,
                            -0.384458384154563,
                            -0.16892589297266314,
                            0.19321554533201635,
                            -0.4227026149184834,
                            -0.06931551685767112,
                            0.3291865781888592,
                            -0.5728280733469959,
                            0.9317179730191807,
                            -0.4868363139680585
                        ],
                        "bias": 0.6729231671493853
                    },
                    {
                        "weights": [
                            -0.7964159775226842,
                            -0.2736174213182434,
                            0.17167802439043012,
                            -0.9251268500574354,
                            0.11892344367638263,
                            0.18814590454341729,
                            -0.15710056127177108,
                            -0.20452413881383746,
                            -0.3811637749894554,
                            0.9415919355892783
                        ],
                        "bias": 0.054248701955184456
                    },
                    {
                        "weights": [
                            -0.03482018982067969,
                            0.9922131433566188,
                            0.9865211200004254,
                            0.06325996794615762,
                            -0.39518565386241833,
                            -0.1756501971167299,
                            -0.21661966976862246,
                            0.8941779133962322,
                            0.5076528403848635,
                            0.6054427623224092
                        ],
                        "bias": -1.6738057086206284
                    },
                    {
                        "weights": [
                            -0.10863475408258627,
                            -0.4354449918162697,
                            0.047493156334145636,
                            0.4863222692247038,
                            0.981688445013392,
                            -0.16056509975711064,
                            -0.44547347707113216,
                            -0.4880305714904696,
                            0.8996843985457916,
                            -0.04187014571377112
                        ],
                        "bias": 0.5425077140524608
                    },
                    {
                        "weights": [
                            -0.609523379063559,
                            0.8454831109066152,
                            -0.2339339854153688,
                            0.04679871703953653,
                            0.8199489256643158,
                            0.834416277501187,
                            -0.6913327819480559,
                            -0.5013272887130136,
                            0.26631634892059686,
                            0.4901810022862507
                        ],
                        "bias": 0.019176064527835004
                    },
                    {
                        "weights": [
                            -0.14531274519005954,
                            0.7489584186629616,
                            -0.7897942882704148,
                            0.31187829642331066,
                            -0.5135270326599621,
                            -0.320552871244949,
                            0.7278112672083767,
                            -0.21785475331891813,
                            0.384525068155144,
                            0.6128814475078921
                        ],
                        "bias": 0.6805993849182922
                    },
                    {
                        "weights": [
                            -0.39493394066450893,
                            0.40799034059226,
                            -0.19835171118075934,
                            0.37630710244348675,
                            -0.7854800692158921,
                            -0.4357197551081642,
                            0.8866325935312414,
                            -0.9916148853157065,
                            -0.3870206492954724,
                            0.0632168720021884
                        ],
                        "bias": 0.4412161632407745
                    }
                ],
                "length": 10
            },
            {
                "neurons": [
                    {
                        "weights": [
                            -0.7480738436584593,
                            -0.8521968197182535,
                            0.2754627629999429,
                            -0.9049645089428917,
                            0.7224787353269879,
                            -0.8446145619238619,
                            0.09532791717478761,
                            0.5420666585637333,
                            -0.3986298985243675,
                            0.8681901458016437
                        ],
                        "bias": -1.389787613120457
                    },
                    {
                        "weights": [
                            -0.972153361973479,
                            0.13453823135944987,
                            -0.07943179505829434,
                            -0.20250379762170434,
                            -0.6247746611257206,
                            -0.06203527924605945,
                            -0.16396543100082872,
                            0.5481838780942521,
                            -0.710358492814033,
                            -0.5762973232066242
                        ],
                        "bias": 1.5018164588209626
                    },
                    {
                        "weights": [
                            -0.3139539127089106,
                            0.4085501091803938,
                            -0.7925515239226246,
                            -0.49858094853382817,
                            0.2834148396690148,
                            -0.7664418280552099,
                            0.0789235707764171,
                            -0.6742872791866181,
                            0.7872672746294125,
                            -0.7449081113321725
                        ],
                        "bias": 0.7410953060971754
                    },
                    {
                        "weights": [
                            0.451818426084456,
                            -0.12483656003636123,
                            0.6388283000167176,
                            -0.7426651705156513,
                            0.8307533519223622,
                            0.973903229513783,
                            0.747964331195313,
                            0.1377262349288506,
                            0.9355699362811076,
                            -0.4706797249338406
                        ],
                        "bias": -0.27040940274111314
                    },
                    {
                        "weights": [
                            -0.8779540479779406,
                            -0.027826565717982366,
                            -0.3390340437556483,
                            -0.2437836452117581,
                            0.9087983965969417,
                            -0.8343521341028808,
                            0.12279830765272814,
                            0.5695994667940751,
                            -0.0353497898651709,
                            -0.6348398652162048
                        ],
                        "bias": 1.0657071267644362
                    },
                    {
                        "weights": [
                            0.3676583043826469,
                            -0.8195141442240457,
                            0.9854500947626965,
                            0.528293172503189,
                            0.6771640582645642,
                            0.5357274577288329,
                            -0.9640226153238494,
                            -0.7794962262804548,
                            -0.2664989780139524,
                            0.5304514190643033
                        ],
                        "bias": 0.2573858578848546
                    },
                    {
                        "weights": [
                            0.39356888755080344,
                            0.5553513874768121,
                            -0.8119210177994156,
                            -0.9874041391452131,
                            0.6535007452316706,
                            -0.9255433420222701,
                            0.4196983423130962,
                            -0.6924611074997753,
                            0.4142139329396295,
                            0.06027915136261175
                        ],
                        "bias": 0.9768848407476715
                    },
                    {
                        "weights": [
                            -0.6145192563768396,
                            -0.2722066134686285,
                            -0.4003500633467374,
                            0.9507338780410364,
                            -0.014574099962310072,
                            0.8752680938751138,
                            0.5904818230702751,
                            0.46210658618091704,
                            0.8641914410374731,
                            -0.39785716621300216
                        ],
                        "bias": 1.1859643277494474
                    },
                    {
                        "weights": [
                            0.24309454387150753,
                            0.7658156807510001,
                            -0.46181983317115405,
                            -0.18097929825010772,
                            -0.45770918708589026,
                            0.8766979717725552,
                            -0.42884278644626805,
                            -0.38559318377265517,
                            0.9743742896499181,
                            -0.9981680641614574
                        ],
                        "bias": 1.0779648655895016
                    },
                    {
                        "weights": [
                            0.38971815331782067,
