[
    {
        "inputLayer": {
            "neurons": [
                {
                    "weights": [
                        -0.928611329184464,
                        -0.43297224074023477,
                        -0.02137130782451324,
                        -0.6335999712400575,
                        0.3363885811246574,
                        0.7632447223685377,
                        -0.39551805715279453,
                        0.5518911874737917,
                        0.7104070021408564,
                        0.7487550101099005,
                        0.5513536368213565,
                        -0.928717597990933,
                        0.9718423373132341,
                        0.5796039693907562,
                        0.2813450268809581,
                        0.16358398903340698,
                        -0.9726233003229807,
                        -0.7656122358115849
                    ],
                    "bias": 0.10776186213436101
                },
                {
                    "weights": [
                        0.7901721006298918,
                        0.06732072497586583,
                        -0.30134696808483286,
                        -0.9676790630183234,
                        0.600750105146947,
                        0.10196215453848811,
                        0.07325763305142519,
                        -0.9472320054901355,
                        -0.27052406687772823,
                        -0.10892935696446449,
                        -0.7894734836756618,
                        0.6737384188496838,
                        0.03489811040497881,
                        0.8467985970538845,
                        -0.09665844244259025,
                        -0.846000302156033,
                        0.7711929107343016,
                        0.8943946393985502
                    ],
                    "bias": 0.9667651413456679
                },
                {
                    "weights": [
                        -0.886047518592191,
                        -0.12091783084065644,
                        0.002663372343816972,
                        0.9007375273854452,
                        -0.1555409142343016,
                        -0.7073641473790109,
                        0.5268846844082147,
                        -0.2716260596688167,
                        0.9730890717103133,
                        0.926359257805728,
                        0.218033926518991,
                        -0.04016540233869792,
                        -0.5734560865245137,
                        -0.4340219458572443,
                        -0.18278286750261086,
                        0.7503716358017951,
                        0.8008793425608047,
                        -0.18939438340400905
                    ],
                    "bias": 0.2954758900445169
                },
                {
                    "weights": [
                        0.9964856420298291,
                        -0.31105147935796307,
                        0.8624616356349741,
                        -0.9756656388365748,
                        0.3242474244644,
                        -0.9491554087732388,
                        0.23037605219818436,
                        0.7796813176908028,
                        0.150468571063757,
                        -0.7779232441564607,
                        -0.13025668218154873,
                        -0.8342956546283586,
                        -0.04167866632621697,
                        -0.6564347106966639,
                        0.9366740348903504,
                        0.9482192530979647,
                        -0.3594425384126303,
                        0.0027575874446337245
                    ],
                    "bias": -0.6361704619360187
                },
                {
                    "weights": [
                        0.6935981312565842,
                        0.37627848508237993,
                        -0.9071229965869778,
                        0.3776381123923258,
                        -0.4669640068321024,
                        -0.9061946939427481,
                        0.7685431636816882,
                        -0.8967957762800374,
                        0.6328371152446457,
                        0.9499309413449433,
                        -0.18059843735803227,
                        -0.7248094805535026,
                        0.21212764176581267,
                        0.8437407797914642,
                        -0.9299322439526403,
                        -0.19840657192019018,
                        0.8079258287591211,
                        0.25632813689157663
                    ],
                    "bias": -0.6090770031505872
                },
                {
                    "weights": [
                        0.053681135891274545,
                        0.3193061434008506,
                        -0.6839008271130183,
                        -0.9857143149759615,
                        0.9855959038612871,
                        -0.49024444933536326,
                        0.4401209421997587,
                        0.05645525299714049,
                        0.6833872572357607,
                        0.038105685847235726,
                        -0.49436305171909556,
                        0.09710127879817954,
                        -0.9640534442845958,
                        -0.5651827460518744,
                        -0.6587691077852571,
                        0.256375727089196,
                        -0.7454098054015001,
                        -0.16173603102297118
                    ],
                    "bias": -0.6966492222224985
                },
                {
                    "weights": [
                        -0.5383126829750224,
                        0.2844403337328898,
                        -0.9410515790958238,
                        0.24446516918360994,
                        -0.5582872328396562,
                        0.5801414079138574,
                        -0.5118785382268907,
                        0.972112186567859,
                        0.5424652169278756,
                        -0.15124098430689492,
                        0.1900625690761646,
                        0.13710484419070723,
                        -0.6953622855907577,
                        -0.04313998200540348,
                        0.8817211802531624,
                        -0.9560669518777631,
                        0.8063650303125591,
                        0.06417069828487598
                    ],
                    "bias": 0.29451463968440317
                },
                {
                    "weights": [
                        -0.14262090434155517,
                        -0.8448085692807865,
                        -0.6918639307151766,
                        0.5475252593205395,
                        -0.479879340267902,
                        0.381812382814682,
                        -0.30206640520941064,
                        0.9931102009307118,
                        0.28565049437654566,
                        0.249679033161901,
                        0.18976155220047075,
                        -0.4906012354891556,
                        -0.4228519046212076,
                        0.5378922933801435,
                        0.19980599412932243,
                        -0.3744246835397411,
                        -0.08436805317277263,
                        0.1840042347788331
                    ],
                    "bias": -0.06639168364911008
                },
                {
                    "weights": [
                        0.8165317318093854,
                        0.9338322124513505,
                        -0.22885954592684477,
                        0.8690115157838365,
                        -0.08270621960819824,
                        -0.4795410998192793,
                        0.24735800211401182,
                        -0.5876879897486227,
                        0.03333930594063461,
                        0.8385029694422506,
                        0.43645354435245887,
                        0.0702552389978559,
                        -0.3405708267397147,
                        -0.3300899181858741,
                        0.2870661368693339,
                        0.7400734869144496,
                        0.2567791592816999,
                        0.40940541961668075
                    ],
                    "bias": -0.6242633288264194
                },
                {
                    "weights": [
                        0.6715799545914249,
                        0.9637148849286095,
                        0.4300397873404729,
                        -0.2117857553945015,
                        0.3553966270499762,
                        -0.9402394758079449,
                        -0.15590792259545339,
                        -0.009297112576377442,
                        0.45763818206440776,
                        -0.7016184605398801,
                        -0.6508737354784604,
                        -0.6313380844034719,
                        -0.2037981986885289,
                        -0.5459920309752553,
                        0.8320154450276886,
                        -0.4282737734695461,
                        -0.8883534249795457,
                        -0.02115291898821181
                    ],
                    "bias": -0.7737190646019734
                }
            ],
            "length": 10
        },
        "layers": [
            {
                "neurons": [
                    {
                        "weights": [
                            0.6776814186848377,
                            -0.28897171759084195,
                            0.5218184734332865,
                            0.6664040801296855,
                            0.658160630354707,
                            0.3341583420681611,
                            -0.5825258981608803,
                            0.6295555375961686,
                            -0.6988435355353138,
                            -0.8628847826419728
                        ],
                        "bias": -0.42668432520118293
                    },
                    {
                        "weights": [
                            0.2642361724120752,
                            0.22207213257804614,
                            -0.439007883483417,
                            -0.554895189259371,
                            -0.13524912155229862,
                            0.7111100082277879,
                            -0.5379427535757944,
                            -0.4888068127342913,
                            -0.6673797808142612,
                            -0.933320429680708
                        ],
                        "bias": -0.5854702964748313
                    },
                    {
                        "weights": [
                            -0.03827257352686164,
                            -0.9612917328077795,
                            0.13859270356212772,
                            0.38929847312740296,
                            -0.13702170725473106,
                            0.4584537493516596,
                            0.8728321151577685,
                            -0.14617461677553245,
                            0.6629172173885789,
                            0.516808863462882
                        ],
                        "bias": -0.4802664810666548
                    },
                    {
                        "weights": [
                            0.458922737783122,
                            -0.3934557530478915,
                            0.40569121106472084,
                            -0.1252349450123902,
                            -0.9409780841248783,
                            -0.5910569762991134,
                            0.0973979827309901,
                            -0.18251614221429246,
                            -0.13565885046387338,
                            -0.4937476452429461
                        ],
                        "bias": -0.9916529432621641
                    },
                    {
                        "weights": [
                            -0.47891903349005793,
                            0.4136414670512283,
                            0.2881511027323178,
                            0.6153678585115065,
                            -0.6150390250834541,
                            0.752161532424267,
                            0.18206602921842907,
                            0.480823228603221,
                            -0.029549756138991246,
                            -0.36028109456667545
                        ],
                        "bias": 0.9458284000817665
                    },
                    {
                        "weights": [
                            0.7103349040546738,
                            -0.6634426140750849,
                            0.7030632868610995,
                            0.7342319926924106,
                            -0.6338696080639974,
                            0.8821051156215785,
                            -0.706002477948168,
                            -0.966068311482289,
                            -0.33075178752337897,
                            -0.8764330463634293
                        ],
                        "bias": -0.9020404504986006
                    },
                    {
                        "weights": [
                            -0.7123335185252653,
                            -0.20290427903960362,
                            -0.07847780815365302,
                            0.13182008561933878,
                            0.8746702772270367,
                            0.5124604093807044,
                            -0.9232394325149169,
                            0.35471615677019286,
                            -0.8130743212941915,
                            0.9396056301671794
                        ],
                        "bias": 0.05879875830755754
                    },
                    {
                        "weights": [
                            -0.7650764459070434,
                            -0.3091675217098624,
                            -0.985872917160991,
                            -0.24015445180187167,
                            0.5318707568515593,
                            0.7024689882386403,
                            0.7193869966214232,
                            0.288039119099877,
                            0.891016612550652,
                            -0.09610077238015036
                        ],
                        "bias": -0.6626732903382182
                    },
                    {
                        "weights": [
                            0.8092736358839163,
                            -0.8684924183791525,
                            -0.988923797231329,
                            0.1278363483841891,
                            -0.7146139836920722,
                            -0.9580872789727917,
                            0.3087045013429006,
                            -0.4384706269533343,
                            0.6452837465159362,
                            -0.3113513464434059
                        ],
                        "bias": -0.6109574581995363
                    },
                    {
                        "weights": [
                            -0.7846104423659883,
                            0.5547315695765189,
                            -0.13702566652119508,
                            0.5128489516859633,
                            0.645104048083945,
                            -0.9652468941455985,
                            0.2232037283886994,
                            -0.589663344993373,
                            0.9980860574470027,
                            -0.4828208596803525
                        ],
                        "bias": -0.9079457507864148
                    }
                ],
                "length": 10
            },
            {
                "neurons": [
                    {
                        "weights": [
                            0.44613855080077713,
                            -0.9948098735634838,
                            0.16449074144230758,
                            0.9741271520774939,
                            0.6650513975124719,
                            -0.04477493108217434,
                            0.2769048326499388,
                            -0.419830661762274,
                            0.9592747874360663,
                            -0.34064438479659476
                        ],
                        "bias": -0.3876075860420558
                    },
                    {
                        "weights": [
                            -0.7724211865927417,
                            0.42132815322060435,
                            0.8255270136499324,
                            0.44703624163457634,
                            0.8347861117537199,
                            0.7074076025101361,
                            -0.5031711908009358,
                            -0.3221953624507006,
                            -0.9042982110782556,
                            0.19520491548583618
                        ],
                        "bias": 0.9019454399781648
                    },
                    {
                        "weights": [
                            0.7440463920689031,
                            -0.9924008006474552,
                            0.253525852888006,
                            0.5441537845619979,
                            0.7782760917175988,
                            -0.4890576830411508,
                            0.3089163919283282,
                            0.575011509064064,
                            -0.46260734381906166,
                            -0.22959829885642935
                        ],
                        "bias": 0.04619552303658958
                    },
                    {
                        "weights": [
                            -0.8099913025074854,
                            0.7779530849244656,
                            -0.39027483221878345,
                            -0.8921383318131355,
                            -0.07801146267397563,
                            0.07129954074382572,
                            -0.13130484514489482,
                            0.4453380993275773,
                            0.5494165573129881,
                            -0.29558392849163373
                        ],
                        "bias": -0.4402686637455351
                    },
                    {
                        "weights": [
                            0.9592421289367212,
                            0.5889898616614293,
                            0.6260153963709458,
                            -0.7242006733716664,
                            0.1580339440485652,
                            0.1438150751628684,
                            0.47039454654118606,
                            -0.70985220792164,
                            -0.8840783613241741,
                            -0.22529714474344598
                        ],
                        "bias": 0.45156625444957443
                    },
                    {
                        "weights": [
                            0.7717009230029288,
                            -0.48906984281048116,
                            -0.6023679810860665,
                            0.39348906452624455,
                            0.5589261718083429,
                            0.740458886198617,
                            -0.482698355352966,
                            0.9512718666324425,
                            -0.31999041419694585,
                            0.011133238343237428
                        ],
                        "bias": 0.5413800857066353
                    },
                    {
                        "weights": [
                            -0.8213308767696139,
                            -0.9814417089452951,
                            0.47684160779886087,
                            -0.4716720610982317,
                            0.26645120670751976,
                            0.040176246894183754,
                            0.8506268969437136,
                            0.3070256249393437,
                            0.940045524383188,
                            -0.4204900067316917
                        ],
                        "bias": -0.9221453968745386
                    },
                    {
                        "weights": [
                            -0.6200394290117726,
                            -0.9524165609033715,
                            -0.8931238100785819,
                            0.13149585894266091,
                            -0.8993016317503337,
                            0.21303916671564593,
                            -0.08800986119903897,
                            -0.5158234070922625,
                            -0.24385114615073733,
                            -0.39974425556642745
                        ],
                        "bias": -0.26545407205486926
                    },
                    {
                        "weights": [
                            0.5738416032680647,
                            0.8344096018671066,
                            -0.49715247388274375,
                            -0.43344571992865144,
                            0.4067106279720769,
                            -0.5448382421265006,
                            0.80717406525435,
                            0.8733780857635847,
                            -0.9523882730736537,
                            -0.4110153590397114
                        ],
                        "bias": 0.2842189152617818
                    },
                    {
                        "weights": [
                            0.7845988005962996,
                            -0.5706911992066521,
                            0.25539408827360943,
                            -0.515647489823557,
                            -0.506958810306225,
                            -0.9618163052671296,
                            -0.9875525884010479,
                            0.8211867626830993,
                            0.5885336733122639,
                            -0.6805965801047391
                        ],
                        "bias": -0.40390610581712916
                    }
                ],
                "length": 10
            },
            {
                "neurons": [
                    {
                        "weights": [
                            -0.5346298859193224,
                            0.8126009663163951,
                            0.7782702893464952,
                            -0.576233806434415,
                            -0.34697210210416385,
                            0.29242843461512114,
                            -0.3901162809599916,
                            -0.6262724952217578,
                            0.09976051469183433,
                            0.6226714669077911
                        ],
                        "bias": 0.3150482884551178
                    },
                    {
                        "weights": [
                            -0.47785337231942915,
                            0.10952662100941546,
                            -0.8592436622514092,
                            -0.39981989486011615,
                            -0.781823332203545,
                            -0.5960687654599828,
                            0.9723114559222634,
                            0.41548430447537443,
                            0.3841619421371856,
                            0.6969260845452903
                        ],
                        "bias": -0.523413063522917
                    },
                    {
                        "weights": [
                            -0.6672031697734693,
                            0.7500019471297348,
                            0.14077266363059526,
                            -0.13032314429645497,
                            0.4959219118441742,
                            -0.4509116202711474,
                            0.21513304368954622,
                            -0.5970063374085024,
                            -0.10626057304613323,
                            -0.2767271721702016
                        ],
                        "bias": 0.7514516191706289
                    },
                    {
                        "weights": [
                            -0.4718057965286824,
                            -0.17092460953708244,
                            -0.20694058013728278,
                            -0.05227983852364826,
                            -0.8366579933628187,
                            0.36440199893717806,
                            0.5260554487805451,
                            -0.32054633364507223,
                            0.8595150668743754,
                            0.1955695468530012
                        ],
                        "bias": -0.8712794198226474
                    },
                    {
                        "weights": [
                            0.19653837545924024,
                            -0.027245443040612605,
                            -0.28341088134601256,
                            -0.4623799251125076,
                            -0.3018988909211364,
                            -0.05215659286027696,
                            -0.38966240167035693,
                            -0.34958472470428026,
                            0.46742597831996413,
                            0.41038259498346497
                        ],
                        "bias": 0.38965553690278787
                    },
                    {
                        "weights": [
                            -0.041676712344223654,
                            0.9910660912384834,
                            -0.9277623767911574,
                            -0.564414322240117,
                            0.21575823928186288,
                            -0.20076065317838743,
                            -0.18323693670662045,
                            -0.6537451422014513,
                            0.6096760135273216,
                            -0.9919259815245378
                        ],
                        "bias": 0.9761843566099568
                    },
                    {
                        "weights": [
                            -0.8514881502750602,
                            -0.6636996395691468,
                            0.769035542756028,
                            -0.17657002805797228,
                            -0.5619567156811904,
                            -0.00234027321649255,
                            0.9424311509471228,
                            0.28617576109512033,
                            0.9387969115438799,
                            0.5250064430013066
                        ],
                        "bias": 0.5811269333479081
                    },
                    {
                        "weights": [
                            0.359024353178804,
                            -0.5938471042601121,
                            -0.309686237639889,
                            -0.7407438060632545,
                            -0.7060789196531649,
                            0.14334645020911285,
                            -0.7850166147006656,
                            -0.07692575456642636,
                            0.39734622789484075,
                            -0.4194120032056923
                        ],
                        "bias": -0.6791944335813593
                    },
                    {
                        "weights": [
                            -0.31922238032281536,
                            -0.6202837956475504,
                            -0.8217953578917763,
                            0.6251604466840526,
                            0.6893363287323151,
                            -0.3063043794157161,
                            -0.7524262375405926,
                            -0.42331265036869725,
                            0.6434334555986969,
                            0.9826770781253651
                        ],
                        "bias": -0.3250678340815276
                    },
                    {
                        "weights": [
                            0.7829647731121467,
                            -0.34028484101087564,
                            -0.9044626388224217,
                            -0.8349267715451547,
                            -0.8452644247231051,
                            0.5940939885484853,
                            -0.7693122008262232,
                            0.4544771719967857,
                            0.8535378677026164,
                            0.8895110252474367
                        ],
                        "bias": -0.26233495585798305
                    }
                ],
                "length": 10
            },
            {
                "neurons": [
                    {
                        "weights": [
                            0.3662352942793565,
                            -0.7976426250970696,
                            -0.814942687132399,
                            0.8347213012786923,
                            -0.8045466202776801,
                            0.09161626584985205,
                            -0.6903393966050946,
                            0.551412443208751,
                            -0.9506502380564137,
                            0.727783230998643
                        ],
                        "bias": -0.45065632947377154
                    },
                    {
                        "weights": [
                            0.1178936117865772,
                            -0.07583163805621007,
                            -0.3386178780771909,
                            -0.5917517928086504,
                            0.9749747776753594,
                            -0.8068087546249274,
                            0.6172507213919536,
                            0.573280124784022,
                            -0.6812195343122311,
                            -0.24131619866216547
                        ],
                        "bias": 0.9374618944993094
                    },
                    {
                        "weights": [
                            0.31628235789310044,
                            0.10327380147664855,
                            0.07027046171944562,
                            0.29928627939645036,
                            0.6414513556905004,
                            0.14336273637899555,
                            0.8433832337086271,
                            -0.21405193470308892,
                            -0.060425051336278957,
                            -0.4540361527173633
                        ],
                        "bias": 0.14636084010484884
                    },
                    {
                        "weights": [
                            0.8033961517569752,
                            0.5047040470872612,
                            -0.0995394391436164,
                            -0.8651996528748718,
                            -0.7977141180023166,
                            -0.9102094137491878,
                            0.8377478063397674,
                            -0.38281853615378214,
                            0.723070734447371,
                            0.4562909976436762
                        ],
                        "bias": -0.8567368537489166
                    },
                    {
                        "weights": [
                            -0.8218191042356475,
                            0.1278889051040617,
                            -0.11844421338681133,
                            -0.9463651419299366,
                            0.6882402133893843,
                            -0.37078987220464166,
                            -0.9093254776279154,
                            0.513693000023759,
                            -0.3160351236883219,
                            -0.09709003021136264
                        ],
                        "bias": -0.08848903861329149
                    },
                    {
                        "weights": [
                            -0.3503254228007975,
                            0.32469116859593283,
                            -0.699502262456982,
                            0.4565072558738845,
                            0.975225300338951,
                            0.37116859221956267,
                            0.6570955582929174,
                            0.6901454066949722,
                            -0.8067157073507127,
                            -0.8904457399545245
                        ],
                        "bias": 0.10343233602162183
                    },
                    {
                        "weights": [
                            0.36077727678423965,
                            -0.5384977700436098,
                            0.8910933501915708,
                            0.15466650837927198,
                            0.9760543379677176,
                            0.5276982008106113,
                            -0.3389412351196881,
                            0.014170191039969415,
                            0.43576440451779375,
                            -0.4630540733422328
                        ],
                        "bias": -0.6009718856764774
                    },
                    {
                        "weights": [
                            0.6453878490546348,
                            0.5840514528241421,
                            -0.6862043883143745,
                            0.09370980513121885,
                            0.39688898725502986,
                            0.008296184460635958,
                            0.3983989965499797,
                            0.2730127731462135,
                            -0.7677242628139129,
                            0.09722166063419002
                        ],
                        "bias": -0.4990981338762466
                    },
                    {
                        "weights": [
                            -0.7176012124297046,
                            0.8555265038254816,
                            0.574550628832244,
                            0.010344420886682082,
                            0.9695674672365502,
                            -0.9652961555651092,
                            -0.8238828341687787,
                            0.6915862062005793,
                            0.9388952759444902,
                            -0.3252443159356988
                        ],
                        "bias": 0.9147494778598917
                    },
                    {
                        "weights": [
                            -0.09580669453605783,
                            0.7049398621738097,
                            -0.14992743238470907,
                            -0.3162923143546976,
                            0.40379870765592196,
                            0.08689032420574283,
                            0.2929297963207851,
                            -0.8536812692363396,
                            -0.3739776835825608,
                            0.5995735061774203
                        ],
                        "bias": 0.47595955675827684
                    }
                ],
                "length": 10
            },
            {
                "neurons": [
                    {
                        "weights": [
                            0.3864474601087431,
                            -0.4436543777329016,
                            -0.60667305802878,
                            0.774312159462387,
                            0.8248260550596782,
                            0.8748588314777792,
                            0.8659600994996792,
                            0.35252825561926104,
                            -0.5048323900777272,
                            0.2856143032596632
                        ],
                        "bias": -0.26968341889412994
                    },
                    {
                        "weights": [
                            -0.7951146702353804,
                            -0.6654887591170611,
                            0.2847475005343978,
                            0.24900724132350893,
                            -0.331370489466847,
                            -0.17328604719852292,
                            0.8737120214561858,
                            0.8633500735430559,
                            -0.20221169433459174,
                            -0.4567869183668767
                        ],
                        "bias": 0.7892979373332267
                    },
                    {
                        "weights": [
                            -0.5263280659274534,
                            -0.6856271068005286,
                            0.3739532784154549,
                            0.7886267631005042,
                            0.027317948941480763,
                            0.8624261710114016,
                            -0.9707251948869255,
                            0.4254475493575509,
                            -0.9975984790189929,
                            0.7006906117740088
                        ],
                        "bias": -0.1299239873938587
                    },
                    {
                        "weights": [
                            -0.9352060995879772,
                            -0.025765190089866996,
                            0.28703303660527313,
                            -0.294002650012013,
                            -0.019712563978590003,
                            -0.7864756021270984,
                            -0.49321981618112254,
                            0.11763520959513984,
                            0.47531949265846807,
                            0.7732533972012046
                        ],
                        "bias": 0.009422623356468263
                    },
                    {
                        "weights": [
                            -0.6149727642395668,
                            0.09289865146193677,
                            -0.753555859294708,
                            0.7350583770069035,
                            -0.4567304811620805,
                            0.1086714476950934,
                            0.39745270716582226,
                            -0.7444519703181625,
                            -0.9178744322519952,
                            -0.03711382948283837
                        ],
                        "bias": 0.17074937742111707
                    },
                    {
                        "weights": [
                            -0.40851519464619823,
                            -0.6387612216421215,
                            0.9904572025977147,
                            -0.36276090012968676,
                            -0.9045327571863766,
                            -0.6590305659428213,
                            0.3269163503021195,
                            0.4347961450535045,
                            -0.7604055396949947,
                            -0.2794869046556556
                        ],
                        "bias": -0.7085296316578824
                    },
                    {
                        "weights": [
                            0.08707823238969015,
                            -0.6240181997048222,
                            0.3300783795023883,
                            -0.8151723018089028,
                            0.803430880648669,
                            -0.013458356988022002,
                            0.553241102261314,
                            -0.3796274736582148,
                            0.4974575546373776,
                            -0.5301008700582439
                        ],
                        "bias": -0.4761044964036685
                    },
                    {
                        "weights": [
                            0.3286253006319606,
                            -0.5534619272392254,
                            0.9952739294281976,
                            0.7137496742118277,
                            -0.9190816447276322,
                            -0.8509660520008056,
                            0.7395127040933491,
                            -0.6493022727368278,
                            0.8519358926267697,
                            0.6930110690714599
                        ],
                        "bias": 0.9961906634652389
                    },
                    {
                        "weights": [
                            -0.9031138948521631,
                            -0.9565558186965568,
                            -0.6349608532008091,
                            0.2739502267462366,
                            -0.7170716136463549,
                            0.404407550485554,
                            0.6756330146970473,
                            0.26410526452863126,
                            0.7740518046814175,
                            -0.9228741423960205
                        ],
                        "bias": -0.8471433760987757
                    },
                    {
                        "weights": [
                            -0.5503359285673106,
                            0.8398428434737635,
                            0.01779110796627692,
                            -0.12211654204551392,
                            0.4962738283105792,
                            0.5606393889500718,
                            0.42440719723587983,
                            -0.38375634007077397,
                            -0.8332615067330318,
                            -0.37942216838734577
                        ],
                        "bias": 0.7533860305771156
                    }
                ],
                "length": 10
            },
            {
                "neurons": [
                    {
                        "weights": [
                            0.841517850571448,
                            0.03203115308050086,
                            0.025293093712118075,
                            0.4862779910729076,
                            -0.9440547878193906,
                            -0.38325405875107244,
                            -0.9866956990030935,
                            -0.1766268851711379,
                            0.07088753745980259,
                            -0.06330666730541568
                        ],
                        "bias": -0.913422747353531
                    },
                    {
                        "weights": [
                            -0.11849865619241573,
                            -0.8587076727329539,
                            -0.5670782721968093,
                            -0.23931043955071551,
                            0.10029550910230367,
                            -0.8551123151413813,
                            0.22503638506315427,
                            -0.3567402697508262,
                            -0.05812532633505141,
                            0.7201938544979822
                        ],
                        "bias": 0.21834668984935846
                    },
                    {
                        "weights": [
                            0.18913228913971714,
                            0.2025239661939413,
                            -0.7932347993538194,
                            0.5094302321604873,
                            0.20469480887310887,
                            0.4462752063767026,
                            0.7471971479564703,
                            0.7721127312944469,
                            0.9750105754848724,
                            -0.45415631329693373
                        ],
                        "bias": -0.8358126416412188
                    },
                    {
                        "weights": [
                            0.6647370595674316,
                            -0.22780122435112293,
                            -0.6962131102215412,
                            -0.30161577789791894,
                            0.630107525141457,
                            -0.11406493871641965,
                            -0.23774820537011676,
                            -0.41979209082116653,
                            -0.18108790830867916,
                            -0.2284461852830777
                        ],
                        "bias": 0.7351802355012662
                    },
                    {
                        "weights": [
                            -0.4888027077194457,
                            -0.5145384018240879,
                            -0.22012445645039014,
                            -0.48397514225379834,
                            0.34309423920603765,
                            -0.10626516164468902,
                            -0.4014130634551547,
                            0.04708593430925134,
                            0.8330605330167125,
                            0.5980800689813761
                        ],
                        "bias": 0.9581727839148606
                    },
                    {
                        "weights": [
                            -0.2643092857492555,
                            -0.9543589873306486,
                            0.23475498514318205,
                            0.09834625506918804,
                            -0.2745544181616377,
                            0.6316199308111905,
                            -0.018103851307255336,
                            -0.12323740375087788,
                            -0.4717733133150537,
                            -0.4848479159783494
                        ],
                        "bias": -0.8452777360735937
                    },
                    {
                        "weights": [
                            0.28923143474869395,
                            0.3469105938902963,
                            0.32471051900211023,
                            0.9574992651791174,
                            -0.9862267199343413,
                            0.12719045118041317,
                            0.5961779037436681,
                            0.5969675931884448,
                            0.7685997209322364,
                            0.5503246565095883
                        ],
                        "bias": -0.08803714174658683
                    },
                    {
                        "weights": [
                            -0.25350958871748475,
                            -0.24774788136864512,
                            0.8823835395337079,
                            0.09123065609685321,
                            0.41509289898928214,
                            -0.06604426258328555,
                            -0.8105130540956518,
                            0.881407409073375,
                            -0.5997319559851166,
                            0.08418757577885394
                        ],
                        "bias": -0.6390809918412654
                    },
                    {
                        "weights": [
                            -0.3232695141581112,
                            0.7101669778109676,
                            0.8242541309180691,
                            0.42181456703821363,
                            -0.4650814309453908,
                            -0.23120985563587082,
                            0.6404244824334444,
                            -0.9919241195670689,
                            -0.6484277267519896,
                            0.8364600605344934
                        ],
                        "bias": 0.4873278211955203
                    },
                    {
                        "weights": [
                            0.7067900515797136,
                            -0.24993275520511515,
                            -0.4816761525278166,
                            0.025375516524206443,
                            -0.7108700532490455,
                            0.4582813052295711,
                            0.36876611467309894,
                            0.5439216643735436,
                            0.7016278983875246,
                            -0.977750034505094
                        ],
                        "bias": -0.20110091536665187
                    }
                ],
                "length": 10
            },
            {
                "neurons": [
                    {
                        "weights": [
                            -0.5220905752827638,
                            -0.015989998085981894,
                            0.9382144741807961,
                            -0.15141679952833087,
                            -0.32767969134176456,
                            -0.808446852417471,
                            -0.32111499417867595,
                            -0.20234867141626012,
                            -0.8195471392035603,
                            0.04990815314248853
                        ],
                        "bias": -0.323668109698676
                    },
                    {
                        "weights": [
                            0.08967615950414953,
                            -0.4679706530526744,
                            0.4767142407639078,
                            -0.7508900398394167,
                            -0.7864459215643198,
                            -0.25676003509911527,
                            0.5665971161275101,
                            -0.675457777284703,
                            0.644792127903721,
                            -0.15306554044148157
                        ],
                        "bias": -0.7652917956553988
                    },
                    {
                        "weights": [
                            0.21988823468306218,
                            -0.44638152363921835,
                            -0.02479347012455757,
                            -0.3765009737048095,
                            -0.711574532126291,
                            -0.33207959089601324,
                            0.22353504322281492,
                            0.8344905704228041,
                            -0.028747787591433704,
                            0.21304560989743604
                        ],
                        "bias": 0.8311191392225301
                    },
                    {
                        "weights": [
                            0.059579565464469963,
                            -0.014754971423464047,
                            -0.7424095037711891,
                            0.053091965789053175,
                            0.6535049579881873,
                            -0.7229207846293491,
                            -0.8309774646053303,
                            -0.9260587099593038,
                            -0.9874405587909523,
                            -0.2848262010095286
                        ],
                        "bias": 0.6537776484416011
                    },
                    {
                        "weights": [
                            -0.3389595984521152,
                            -0.09257524290912289,
                            0.9840688382369314,
                            -0.4992251901033111,
                            0.8334077217216471,
                            0.2271926921113474,
                            0.8549584400270767,
                            -0.5551704684768624,
                            0.8712664191649688,
                            -0.9170112927288179
                        ],
                        "bias": -0.17648811314700352
                    },
                    {
                        "weights": [
                            0.8103544930396396,
                            0.7702031235489661,
                            -0.16563691209062936,
                            0.032748233916903624,
                            0.808690795202573,
                            0.19556450352783528,
                            -0.20840189247873742,
                            0.8950870174780889,
                            -0.19253422263724818,
                            -0.4052455779979498
                        ],
                        "bias": -0.8782619366667324
                    },
                    {
                        "weights": [
                            -0.525303380074746,
                            0.5868888885945469,
                            0.004665485835804395,
                            0.855045474097218,
                            -0.6190322962011716,
                            -0.43138776209693175,
                            -0.6586035902397338,
                            0.2885162304901556,
                            0.8537310083472733,
                            -0.9819628485484886
                        ],
                        "bias": 0.23743169486937998
                    },
                    {
                        "weights": [
                            -0.880731605948317,
                            -0.005258176571250939,
                            -0.016919361652256937,
                            -0.11369408298792538,
                            0.14471116488149316,
                            0.25846106082708076,
                            0.2742122565755305,
                            0.5779151431824674,
                            0.6177202816515537,
                            -0.6099509680451269
                        ],
                        "bias": 0.8433282421696882
                    },
                    {
                        "weights": [
                            -0.5570701220568639,
                            -0.9068229896514883,
                            0.19434372683662882,
                            -0.41686347717395944,
                            0.017269924697664196,
                            0.6158113537944339,
                            -0.5997797252011585,
                            0.1567054781119288,
                            0.29403662922475715,
                            -0.3458818475840115
                        ],
                        "bias": 0.04954325470050436
                    },
                    {
                        "weights": [
                            0.49624829063721654,
                            0.9714013629794442,
                            0.6156269434106543,
                            0.15150299853971338,
                            0.6497801677451165,
                            0.9800006721598777,
                            0.8930954598315963,
                            0.28667251353161616,
                            0.6764353517941217,
                            -0.002193199831319159
                        ],
                        "bias": 0.7227046886445059
                    }
                ],
                "length": 10
            },
            {
                "neurons": [
                    {
                        "weights": [
                            -0.5782888649356055,
                            0.7867696660746888,
                            -0.4118042941848812,
                            0.45840074617295024,
                            -0.28335698472957094,
                            -0.6912909088800572,
                            0.005743977167117054,
                            0.8374727480620168,
                            -0.11698679923372168,
                            0.09807374533459168
                        ],
                        "bias": 0.9462807925397554
                    },
                    {
                        "weights": [
                            -0.41360880227877583,
                            -0.49214047218365997,
                            0.49361508072465043,
                            -0.21972498501692317,
                            0.36333523905842613,
                            -0.4846542956385298,
                            0.6335433110383542,
                            -0.5066304953949088,
                            0.8190198008836975,
                            0.5419051821166179
                        ],
                        "bias": -0.5804193539094791
                    },
                    {
                        "weights": [
                            0.9215268846763793,
                            0.0440327292147471,
                            -0.8843945277827394,
                            0.5918038493784155,
                            -0.21461233352639608,
                            -0.3536305446331838,
                            -0.19072811149253166,
                            0.1666685645449857,
                            0.7039280318184205,
                            -0.5998247894753708
                        ],
                        "bias": 0.6771793320271393
                    },
                    {
                        "weights": [
                            0.24349439969946474,
                            0.6437128572740896,
                            -0.5668903642800609,
                            0.10203871885784732,
                            -0.010566051255854525,
                            0.7922971460642534,
                            -0.6791172745912333,
                            0.3230358111979357,
                            0.5130861419279018,
                            0.32907980952062865
                        ],
                        "bias": -0.7124078740124891
                    },
                    {
                        "weights": [
                            -0.08496506854572305,
                            0.8208103025013649,
                            0.31194525573685605,
                            -0.01925415968914601,
                            0.33753667894344885,
                            0.7710812576690897,
                            0.7357200604550849,
                            -0.9457623414363456,
                            0.9562080229815626,
                            -0.9812099943390007
                        ],
                        "bias": -0.0990538365384912
                    },
                    {
                        "weights": [
                            0.3641602082134774,
                            0.24100446938559617,
                            -0.5558969894274359,
                            -0.28509998554035754,
                            0.6440972547588784,
                            0.0011634918280984952,
                            0.17379373722749758,
                            -0.5238830643590562,
                            0.30357910327533477,
                            0.5589748301098578
                        ],
                        "bias": -0.6032290954183825
                    },
                    {
                        "weights": [
                            0.8568074714896214,
                            0.7183411393780252,
                            0.006796768429585098,
                            0.33454059250006196,
                            0.022610344838525087,
                            0.9950468162259247,
                            -0.030122688385813,
                            -0.5131164093905736,
                            -0.5046602514861322,
                            0.8222846765635006
                        ],
                        "bias": -0.6609238887277418
                    },
                    {
                        "weights": [
                            0.5212924709254478,
                            -0.8862788683062937,
                            0.39954793367307895,
                            0.46732998497893097,
                            -0.2492696262090639,
                            0.35903393309186216,
                            0.25009546976244557,
                            -0.9772879936506489,
                            0.2814736430741467,
                            -0.40453078333154346
                        ],
                        "bias": -0.5983615170139589
                    },
                    {
                        "weights": [
                            -0.909846765907782,
                            -0.4499614011861519,
                            0.9727398617509033,
                            -0.12827066570171008,
                            -0.88489064790428,
                            -0.4252433397390927,
                            0.008897727391447674,
                            0.9434314225221636,
                            -0.5416850416950234,
                            0.10313995122711006
                        ],
                        "bias": -0.3305056713924064
                    },
                    {
                        "weights": [
                            0.9212076032650864,
                            0.8817493336710331,
                            0.0006977367514668931,
                            0.484899713523153,
                            0.06755273661978589,
                            -0.5692000374517714,
                            -0.13585071161726603,
                            -0.24569768346255105,
                            0.5392221911669044,
                            0.09478239124392829
                        ],
                        "bias": 0.5385688426546418
                    }
                ],
                "length": 10
            },
            {
                "neurons": [
                    {
                        "weights": [
                            -0.4078614772629392,
                            0.7721919040212772,
                            -0.40795352791463313,
                            -0.7337473528031158,
                            0.3307179841522112,
                            0.28383282952018973,
                            -0.6809153195078079,
                            -0.7561615521945915,
                            0.4326721434483092,
                            -0.8364482552542065
                        ],
                        "bias": -0.5108531790589326
                    },
                    {
                        "weights": [
                            -0.873306889477732,
                            0.37313433058820533,
                            0.07284050309384016,
                            -0.8597626170255128,
                            0.1835422663699302,
                            -0.8807293085515653,
                            -0.2616336879124417,
                            0.8854421680463411,
                            -0.9431560853768661,
                            -0.16444406203109274
                        ],
                        "bias": -0.13047580722812135
                    },
                    {
                        "weights": [
                            -0.9645630079550715,
                            -0.16946780237739345,
                            -0.29344005443483834,
                            0.8103272537945652,
                            -0.8924367291507025,
                            -0.0768359279476114,
                            0.5197767553860473,
                            0.07347208054086596,
                            0.605069762668049,
                            -0.4636185162330364
                        ],
                        "bias": 0.8282393288914085
                    },
                    {
                        "weights": [
                            -0.30133765349568375,
                            0.7871267554693517,
                            -0.891050889742462,
                            -0.5299325388849978,
                            -0.8354394093278987,
                            -0.7162601822820509,
                            0.9575960150227363,
                            0.794516857195996,
                            -0.008524088390536644,
                            -0.7536901190276801
                        ],
                        "bias": -0.2847178407652915
                    },
                    {
                        "weights": [
                            -0.34590845947432625,
                            -0.16866547786274544,
                            0.08335988548053996,
                            -0.4992166451576021,
                            -0.5106759182511309,
                            0.051958315180599346,
                            0.03269868732465753,
                            -0.20523681566140617,
                            0.18854510199154473,
                            0.5895271812812086
                        ],
                        "bias": 0.12473700809975186
                    },
                    {
                        "weights": [
                            0.6010694965037044,
                            -0.574698972969792,
                            0.12508783732855622,
                            0.2557463709335417,
                            -0.4605735636238213,
                            0.4578629426417047,
                            -0.5525401170941928,
                            -0.9545594397436068,
                            -0.6662068160403452,
                            0.9280290246277214
                        ],
                        "bias": -0.5772451411052686
                    },
                    {
                        "weights": [
                            -0.6351349298038236,
                            0.2955380295224359,
                            -0.9943579324774112,
                            -0.5031712996257309,
                            -0.972667399447207,
                            0.3875442868907746,
                            -0.9469846001092701,
                            0.8806329443285581,
                            0.3005071431648254,
                            -0.8409067964437058
                        ],
                        "bias": 0.7306771296666965
                    },
                    {
                        "weights": [
                            -0.04487881291014295,
                            -0.9246894117096325,
                            0.3168267863195593,
                            0.2625808722298193,
                            -0.2871839234865421,
                            -0.30708607838885427,
                            0.7639105043316754,
                            -0.03620177305368322,
                            0.14119673570026237,
                            -0.6353323982253785
                        ],
                        "bias": 0.9027424470092413
                    },
                    {
                        "weights": [
                            0.47933018956819473,
                            0.06929401910780775,
                            0.7249387944335197,
                            0.6408772012486479,
                            0.35448804834349534,
                            0.8357397519799354,
                            -0.5377239020975895,
                            0.38417872879276094,
                            0.8257316087503996,
                            -0.8130742763739118
                        ],
                        "bias": -0.7813619009544579
                    },
                    {
                        "weights": [
                            -0.18213461582153356,
                            -0.6250650384895067,
                            0.4413354389234907,
                            -0.6330888928249432,
                            0.2663937104595058,
                            0.8144873126242593,
                            0.2763514304804231,
                            0.5644351273118917,
                            -0.08233568250532519,
                            -0.9806793339661086
                        ],
                        "bias": -0.10821138650177309
                    }
                ],
                "length": 10
            },
            {
                "neurons": [
                    {
                        "weights": [
                            0.7985844666448483,
                            -0.5201031614506813,
                            0.9413028090847264,
                            -0.11328847293589317,
                            -0.580695214998332,
                            -0.4586524948289472,
                            0.6623801329760726,
                            -0.4580758019594373,
                            0.42809561581277156,
                            0.17358097958476693
                        ],
                        "bias": 0.7623366328011216
                    },
                    {
                        "weights": [
                            0.15581100246270774,
                            -0.9286129074785967,
                            -0.39138702376701007,
                            0.3819172272004945,
                            0.5453992418859541,
                            -0.8211437726496631,
                            -0.7882500214561687,
                            -0.4414512417247747,
                            0.4068035860185113,
                            0.18284306306932874
                        ],
                        "bias": 0.3768810189849885
                    },
                    {
                        "weights": [
                            -0.8178918236597108,
                            0.8174437160308603,
                            0.7396154713548446,
                            -0.5462739354918604,
                            0.49662121679717663,
                            0.34517268247199784,
                            -0.8333704407132088,
                            -0.03349286057213341,
                            0.5319782895583911,
                            0.28403809292056814
                        ],
                        "bias": 0.10369770060293382
                    },
                    {
                        "weights": [
                            0.008550585078301864,
                            -0.9999109762398442,
                            -0.356123250501577,
                            -0.2146958793288416,
                            -0.20686690190933632,
                            -0.4615487401233218,
                            0.863494113001978,
                            0.9377666287106299,
                            -0.13531268376259664,
                            0.45394377106346817
                        ],
                        "bias": 0.7935231978721389
                    },
                    {
                        "weights": [
                            -0.635428060106191,
                            -0.9322057591967245,
                            -0.3200224777151033,
                            0.34944938413567495,
                            -0.320215302810259,
                            -0.13817820892384192,
                            -0.191168935195144,
                            -0.39132207236696215,
                            0.6950385445743301,
                            -0.7099977284645334
                        ],
                        "bias": 0.44914017411701956
                    },
                    {
                        "weights": [
                            0.007196642224875038,
                            0.2305000714271086,
                            -0.16210568866962594,
                            0.45651228417269873,
                            0.21370680113691298,
                            -0.39546956463504435,
                            -0.5614762472901218,
                            -0.5341142873409523,
                            -0.9993894066731666,
                            -0.2963081881001486
                        ],
                        "bias": -0.482089341023922
                    },
                    {
                        "weights": [
                            -0.18232485796438236,
                            -0.6019548265492733,
                            -0.28315234034664716,
                            -0.5251182709095192,
                            0.5779115398780232,
                            0.007683148412378715,
                            0.8735345963399985,
                            0.6374046193758356,
                            0.27351227156734215,
                            0.5220848771554965
                        ],
                        "bias": -0.6500893916840591
                    },
                    {
                        "weights": [
                            0.3993236757261096,
                            -0.23185079969010625,
                            -0.89816692818189,
                            0.6427628371032186,
                            -0.3034685790433065,
                            0.31054453260124903,
                            0.7457743007031814,
                            -0.5688623637911856,
                            -0.865722423963333,
                            -0.5798747354665998
                        ],
                        "bias": 0.14252613851438967
                    },
                    {
                        "weights": [
                            0.9781566422025467,
                            0.7967706928697362,
                            0.49614945732705973,
                            -0.14882154152290372,
                            0.6219074995332607,
                            -0.3659119734062102,
                            -0.5105415283842687,
                            0.06684897002535628,
                            0.5794950686565308,
                            -0.2282163794896792
                        ],
                        "bias": 0.2019883963965987
                    },
                    {
                        "weights": [
                            -0.726953367263599,
                            0.9098475014497469,
                            0.09098395438884532,
                            0.16019247036340722,
                            0.6618697155367002,
                            0.748154073934207,
                            0.9524969929508524,
                            0.3936551998329043,
                            0.513850817740038,
                            0.3548266503714308
                        ],
                        "bias": 0.6660791613664139
                    }
                ],
                "length": 10
            }
        ],
        "outputLayer": {
            "neurons": [
                {
                    "weights": [
                        -0.5160768397139048,
                        0.7929455198779207,
                        0.7141566312897809,
                        0.865242198888605,
                        -0.9144517785385744,
                        -0.7234919598865832,
                        0.417736199625637,
                        0.7594481624298548,
                        0.2764563478384636,
                        -0.5305527464896189
                    ],
                    "bias": -0.4348568332965934
                },
                {
                    "weights": [
                        -0.14561331032802105,
                        0.48023414984153234,
                        0.09471401221215836,
                        -0.975113583464402,
                        0.7677026814371801,
                        -0.6014619298208916,
                        0.3395310586309839,
                        -0.3779585734817641,
                        0.7869849207975681,
                        -0.9985559777855242
                    ],
                    "bias": 0.6551509617693261
                },
                {
                    "weights": [
                        0.11309560873732583,
                        -0.6523686783384819,
                        0.48837616715731835,
                        -0.688589404219913,
                        0.6856334941614279,
                        -0.9654245484195465,
                        -0.7011144254951023,
                        0.007980498632695454,
                        -0.3184690620097854,
                        0.5019598216520862
                    ],
                    "bias": 0.6513848825865614
                },
                {
                    "weights": [
                        0.5346173844974054,
                        0.5929557962491323,
                        0.3266808151784726,
                        -0.7336499093702393,
                        0.4532385335935809,
                        -0.8329080217828866,
                        0.6981221346531203,
                        -0.5571880447051256,
                        0.2937341373598694,
                        0.9792180958913983
                    ],
                    "bias": 0.6385768118815178
                }
            ],
            "length": 4
        }
    },
    {
        "inputLayer": {
            "neurons": [
                {
                    "weights": [
                        0.30547937218575916,
                        -0.7977846643274824,
                        0.11606554698892779,
                        0.44088344214686503,
                        -0.7482595233707146,
                        0.6885917787016753,
                        0.6610873160104915,
                        -0.599607169637909,
                        0.07782564885865062,
                        0.8546157701146548,
                        0.35895342507912975,
                        0.5553439925552128,
                        -0.9802421925525404,
                        0.8844392691058862,
                        -0.2926746222802823,
                        -0.9414616406335259,
                        -0.8345503128554359,
                        -0.4311365238251268
                    ],
                    "bias": -0.6746169080211446
                },
                {
                    "weights": [
                        0.6632356599858578,
                        0.3971378815409774,
                        0.8335651275847034,
                        -0.20010036414860477,
                        -0.8007398645267723,
                        -0.9128607616108826,
                        -0.6140784884198236,
                        0.6441588180071891,
                        -0.9715140157378541,
                        0.9764552537042537,
                        0.10318456815833943,
                        -0.661555921094066,
                        -0.5367659058680614,
                        -0.6618511124356989,
                        0.9294028048955814,
                        -0.4926842178063797,
                        0.7360032574945765,
                        0.5285857594066958
                    ],
                    "bias": -0.19140667234701803
                },
                {
                    "weights": [
                        -0.3781862293093867,
                        0.8716368232175487,
                        0.4803488529073312,
                        0.9653481631447614,
                        0.6263436290926314,
                        -0.04245869706160188,
                        -0.2823996679845895,
                        0.06695834719315918,
                        -0.8537684064372868,
                        0.5753043475797224,
                        0.5157308812165506,
                        -0.13221516767410812,
                        -0.6975220333292003,
                        0.07679814141253183,
                        -0.9388783791160005,
                        -0.5839980289107041,
                        0.34436455273456623,
                        -0.7734485810351261
                    ],
                    "bias": -0.12173165570495859
                },
                {
                    "weights": [
                        0.7537817957650319,
                        -0.0743988949774892,
                        -0.5340867809620056,
                        0.042606302235682625,
                        0.3452975925974562,
                        0.760908551644415,
                        0.30471704373151365,
                        -0.46429586135372825,
                        -0.183081497431955,
                        -0.6179856984928849,
                        -0.14185232889227795,
                        0.11311216958090786,
                        0.39071495987898563,
                        0.5807332901092503,
                        -0.33265467245594427,
                        0.7165396851822934,
                        0.590653007176158,
                        -0.12702214758378938
                    ],
                    "bias": 0.9749868625350311
                },
                {
                    "weights": [
                        -0.07283435136057803,
                        0.6107372139865386,
                        0.3733186938672246,
                        0.49788591113887093,
                        0.5765657068650143,
                        -0.17040202368614765,
                        0.4041669520349316,
                        0.7439785065986226,
                        -0.3816735412532053,
                        -0.6761062802581372,
                        0.23108863436379856,
                        -0.8495038378669959,
                        0.9638796948969064,
                        0.21427665958622444,
                        -0.4513013006983275,
                        -0.09282573192991705,
                        -0.809040030155497,
                        0.03211257648713528
                    ],
                    "bias": -0.9452167422121929
                },
                {
                    "weights": [
                        0.8667512357150313,
                        -0.877588592945771,
                        -0.5762565514021378,
                        -0.8296789709889298,
                        -0.5785579476435581,
                        0.5768441948269427,
                        -0.17615113656107506,
                        -0.07847623031632489,
                        0.07323183663623856,
                        0.37784035221091616,
                        0.38331616676495694,
                        0.5732075647222041,
                        -0.9261180299996787,
                        0.5919900051526303,
                        -0.9254942431738864,
                        0.6936393031155399,
                        -0.13180333526835453,
                        -0.2971761393190566
                    ],
                    "bias": -0.4519062393428308
                },
                {
                    "weights": [
                        -0.04501799000345219,
                        -0.8741923378502001,
                        0.6255935972655058,
                        0.3300162350810285,
                        -0.6885038931443981,
                        0.5612586235727974,
                        0.21030604363282523,
                        0.07230158568244516,
                        -0.8117356191381939,
                        0.07311107964729247,
                        0.5456262422590619,
                        -0.7017318209359442,
                        -0.48762306344243034,
                        0.20310449439909384,
                        -0.15932710101506875,
                        0.706004418645021,
                        0.0010076033801951212,
                        -0.5452901420190142
                    ],
                    "bias": 0.9885155636021394
                },
                {
                    "weights": [
                        -0.9062418744180478,
                        0.9372255439011754,
                        -0.4736333557784296,
                        0.5443264106465391,
                        0.9659236644534719,
                        0.21115485302332226,
                        0.7008256251607847,
                        -0.2987910000345986,
                        -0.41316474081593535,
                        0.31761139117284043,
                        0.152459249110259,
                        -0.23912445245891578,
                        -0.13658294417979255,
                        0.4482373509089972,
                        -0.6436479144931813,
                        -0.7341826644073761,
                        -0.8576514444912193,
                        0.7770332873769363
                    ],
                    "bias": -0.7268882757929791
                },
                {
                    "weights": [
                        -0.48073808751950486,
                        0.023910806923167938,
                        0.9353228125270077,
                        -0.9350785045233954,
                        -0.7290551985138503,
                        -0.21980874870378875,
                        -0.187973940267401,
                        -0.272236502691408,
                        0.9670445333436248,
                        -0.29850697596859965,
                        0.8068981815985392,
                        -0.934759208134361,
                        0.664587790150081,
                        0.6668939665701088,
                        0.07832659249614515,
                        0.4248952653453464,
                        -0.8119368213591747,
                        0.5200270236270297
                    ],
                    "bias": 0.8752620232017847
                },
                {
                    "weights": [
                        -0.9343751886131215,
                        -0.6726213657737188,
                        0.6642181766397777,
                        -0.991316081961922,
                        -0.756357242155651,
                        -0.40824262280657075,
                        -0.2047435777648301,
                        0.10191145864966233,
                        0.0330930771216591,
                        0.8659050240056403,
                        -0.28585834661012344,
                        -0.7526937331025723,
                        0.3980624584831207,
                        -0.10426071290638816,
                        0.17807634791627125,
                        0.33547361065620307,
                        0.41778052715453495,
                        0.9086258222989683
                    ],
                    "bias": 0.2684312992271751
                }
            ],
            "length": 10
        },
        "layers": [
            {
                "neurons": [
                    {
                        "weights": [
                            -0.531946612590162,
                            0.7740083101172324,
                            0.7898696045213862,
                            -0.7869636739632826,
                            0.2880035289691685,
                            0.9984324577579842,
                            0.985520278293802,
                            -0.2535277918022454,
                            -0.3009576864295871,
                            0.6734954870891485
                        ],
                        "bias": 0.9866241807962852
                    },
                    {
                        "weights": [
                            -0.8935547339235539,
                            0.6461789111189262,
                            -0.6044709854364152,
                            0.9386362979856866,
                            -0.463259938059563,
                            -0.4143753141279416,
                            -0.49749152541176445,
                            -0.27744833486538867,
                            0.04790558857864391,
                            0.6902186889353255
                        ],
                        "bias": -0.831612681261064
                    },
                    {
                        "weights": [
                            0.6491178685553947,
                            -0.049092279971791664,
                            -0.2712891177247361,
                            -0.18045513695700777,
                            0.27442254731750726,
                            0.22411283050770425,
                            0.7945611125171557,
                            -0.5824724916233037,
                            0.5868072769128425,
                            -0.1655462788109432
                        ],
                        "bias": 0.3077115948396423
                    },
                    {
                        "weights": [
                            0.8727957086827394,
                            -0.7768681063576401,
                            0.5729961939499759,
                            -0.3953894146400445,
                            -0.8097978565607427,
                            0.7910007685596261,
                            -0.7037685284826782,
                            -0.8159666439917557,
                            0.7774090337578135,
                            -0.15041551673833453
                        ],
                        "bias": -0.8964541735356775
                    },
                    {
                        "weights": [
                            0.28092219705920285,
                            -0.14137837931902353,
                            -0.9485316793253773,
                            -0.7458991296897672,
                            0.9835831783384164,
                            0.25473248770528767,
                            0.4512188180696066,
                            0.5635494752530699,
                            -0.8545464542770216,
                            0.2633858872962773
                        ],
                        "bias": 0.6801622735320854
                    },
                    {
                        "weights": [
                            0.9848124784583296,
                            -0.3006558242763273,
                            0.21863585381050177,
                            0.33461294386017326,
                            0.478268992269151,
                            -0.8463346918280463,
                            0.34861970135307785,
                            0.7422038020596842,
                            -0.06461834521284682,
                            0.4194112094885254
                        ],
                        "bias": 0.4165661395338063
                    },
                    {
                        "weights": [
                            0.23339065356771127,
                            0.3734505776759345,
                            0.02080027827117381,
                            0.5292293865693505,
                            -0.11249585398126682,
                            -0.8545142107344086,
                            -0.035762764124533275,
                            0.5763000549900543,
                            -0.11835437785507619,
                            0.5433932510796449
                        ],
                        "bias": -0.1064332272295807
                    },
                    {
                        "weights": [
                            -0.1618289547759526,
                            0.33193671835151517,
                            0.8227449289925881,
                            -0.23522683713457115,
                            -0.3490395881479309,
                            0.5142660023623669,
                            -0.20222688781733522,
                            -0.23350673371813757,
                            -0.9199201927947003,
                            -0.6836759446849894
                        ],
                        "bias": 0.03249268372305658
                    },
                    {
                        "weights": [
                            -0.7260442623083663,
                            0.7253185080537388,
                            -0.4396773050571128,
                            0.7979754184338013,
                            0.26744461399848474,
                            0.012628500823713473,
                            -0.8480298064324059,
                            -0.07903602062877257,
                            0.3101028810511859,
                            0.7399907232437972
                        ],
                        "bias": 0.36004818619174106
                    },
                    {
                        "weights": [
                            0.11714076416532726,
                            0.7088632562799575,
                            -0.6160365590770194,
                            0.403720461024367,
                            0.6084357047578173,
                            0.9145194396947172,
                            0.5570378300139713,
                            0.5421144879942699,
                            -0.9223267921763476,
                            0.079934662841328
                        ],
                        "bias": 0.324275687833826
                    }
                ],
                "length": 10
            },
            {
                "neurons": [
                    {
                        "weights": [
                            0.1440995612860041,
                            0.5037029008665108,
                            0.2576200840451899,
                            0.46855398591020614,
                            -0.4295365046532802,
                            0.06047069025442764,
                            0.5227713699686256,
                            -0.462366102704459,
                            -0.41391806560607525,
                            0.7183105537117993
                        ],
                        "bias": -0.45656853330332847
                    },
                    {
                        "weights": [
                            0.7899876593701163,
                            -0.03386693626626136,
                            -0.34675984348905886,
                            -0.6418342535068282,
                            0.8428966008397305,
                            -0.7939653728267653,
                            0.3257840499588407,
                            -0.47163654835757707,
                            0.24834167012884656,
                            -0.9618664155382155
                        ],
                        "bias": -0.30759530483240494
                    },
                    {
                        "weights": [
                            0.22833572195614749,
                            -0.7849851977388771,
                            0.38035397796447556,
                            0.18850474342734902,
                            0.07446852422309513,
                            -0.09633460453362264,
                            -0.7365200858524583,
                            -0.21887726903869886,
                            -0.4763357627482645,
                            -0.4879859970350424
                        ],
                        "bias": 0.9318913038600283
                    },
                    {
                        "weights": [
                            -0.424749539409254,
                            -0.8742364720557154,
                            -0.710148456851182,
                            0.8027214591833061,
                            0.05198246706806109,
                            0.4883565591682204,
                            0.5537500369989765,
                            -0.8552307087056679,
                            -0.33133137045640937,
                            0.37366507274148253
                        ],
                        "bias": -0.6378233126678872
                    },
                    {
                        "weights": [
                            -0.3960751998839773,
                            -0.17992926830146283,
                            0.564929468538858,
                            0.7552977205277902,
                            -0.33254015673711157,
                            0.2890429657338227,
                            0.010760650915199843,
                            -0.7267174651889245,
                            0.7135664157540851,
                            0.48521573070036883
                        ],
                        "bias": 0.6793940483646779
                    },
                    {
                        "weights": [
                            0.6050176540313079,
                            -0.7140487601065719,
                            -0.9293892673357216,
                            0.1602758700617617,
                            -0.6873331763232611,
                            -0.7155118948545383,
                            -0.6487428838351528,
                            -0.3682061803938337,
                            -0.5455748382891488,
                            0.18812702864208108
                        ],
                        "bias": 0.03170558927910183
                    },
                    {
                        "weights": [
                            0.24990350750173795,
                            -0.6555233113638581,
                            -0.6068540795464006,
                            -0.181764968675578,
                            0.10024019167009857,
                            -0.33964688991082137,
                            -0.7445924348302668,
                            0.5014569052464979,
                            0.7572996620503842,
                            -0.9160234532350644
                        ],
                        "bias": -0.499504593963201
                    },
                    {
                        "weights": [
                            -0.5563441265707243,
                            0.4116046771649704,
                            0.138858822758825,
                            -0.30356872425937675,
                            -0.6838422114189002,
                            0.9903732683443212,
                            -0.6375823087853649,
                            -0.9604027665088337,
                            -0.05075184726289783,
                            0.23772475401549698
                        ],
                        "bias": 0.3180540231006712
                    },
                    {
                        "weights": [
                            0.02590330682750852,
                            0.08401853151553329,
                            -0.8133823588041056,
                            0.06418802317452355,
                            0.6834033212427826,
                            -0.05433436644239875,
                            -0.6202412555797883,
                            -0.7847501466855098,
                            0.9206321886236684,
                            0.9627694722266982
                        ],
                        "bias": -0.41532023508784865
                    },
                    {
                        "weights": [
                            0.9761217410173317,
