[
    {
        "inputLayer": {
            "neurons": [
                {
                    "weights": [
                        -0.9508982542021527,
                        -0.2059677164114564,
                        0.07170746734361289,
                        0.11276325851254243,
                        -0.09433711629227348,
                        0.6546612216927012,
                        0.6732178833749811,
                        0.05494010721925857,
                        -0.3965790010096075,
                        -0.72515370593854,
                        0.398045030312848,
                        0.19951558889068677,
                        -0.6325583416515852,
                        -0.0874391176639786,
                        0.8598500991106888,
                        -0.6108983354096882,
                        0.48963889612638045,
                        0.8882130373489325
                    ],
                    "bias": 0.3404751590456221
                },
                {
                    "weights": [
                        -0.03883928959430771,
                        -0.8158431495689946,
                        0.8269342233468042,
                        0.22169360720186315,
                        0.8667634979744605,
                        -0.6077393883322486,
                        0.3567591769884362,
                        0.32553439420195085,
                        -0.07749999865637491,
                        -0.4296575572809276,
                        0.2307447517435588,
                        0.26515566322275497,
                        0.21709910751242423,
                        0.8905667772321952,
                        0.9743699045498433,
                        -0.3331705703290513,
                        0.4964194506481665,
                        -0.48052295233977516
                    ],
                    "bias": 0.47603224585399184
                },
                {
                    "weights": [
                        0.6512089235509213,
                        -0.406961626408914,
                        0.2270333820392283,
                        0.5113029699634097,
                        0.3846037213500315,
                        -0.309101782594728,
                        -0.5372357792866103,
                        -0.13911722842805885,
                        -0.6078909866256208,
                        0.9267775217349985,
                        -0.3985030877109481,
                        -0.10309145595234925,
                        0.5777106208344531,
                        0.8365107329340278,
                        0.7591545021106683,
                        -0.3122986981191411,
                        -0.7588537559463913,
                        -0.9412166463537801
                    ],
                    "bias": 0.25208934926418425
                },
                {
                    "weights": [
                        -0.9388020963238668,
                        0.6962080618130411,
                        0.6092868030154759,
                        -0.05884947200024415,
                        0.40723562395789004,
                        0.943200875937616,
                        0.6375452550189653,
                        0.26152361216493447,
                        -0.14903304347975732,
                        0.11149388907119095,
                        -0.19001471528834557,
                        -0.8190920364013634,
                        -0.5821902100557532,
                        -0.4456249730105155,
                        -0.31438085036120555,
                        0.3437527988262936,
                        0.4467664388269055,
                        0.4871539282201818
                    ],
                    "bias": 0.22573721944056624
                },
                {
                    "weights": [
                        0.022742037875172594,
                        0.3550062385076811,
                        0.9201845771799875,
                        0.9444939199502573,
                        -0.8873555629740744,
                        0.9122848532122705,
                        -0.15238628647051278,
                        -0.43564037929182864,
                        -0.5752897093823521,
                        0.23289463267163746,
                        -0.5218764332788748,
                        0.7104543392056317,
                        -0.7265472963808646,
                        0.20969829256974437,
                        -0.926741673873936,
                        0.7123232563999824,
                        -0.6941430667217356,
                        -0.2896569604935988
                    ],
                    "bias": -0.5505144009508993
                },
                {
                    "weights": [
                        -0.3544373423015055,
                        -0.8520211563112561,
                        0.8273808152536322,
                        -0.5612376302077864,
                        0.2050247899638955,
                        0.0431411634887473,
                        -0.880826219003225,
                        -0.538047624847587,
                        0.39603245893335437,
                        0.07200527252025113,
                        -0.9892672944337648,
                        0.46102170964261036,
                        -0.6511887097987279,
                        -0.5908366106735936,
                        0.7188295768291022,
                        0.7601127709166458,
                        0.9630672391946935,
                        -0.5369556812731182
                    ],
                    "bias": -0.9855886734337578
                },
                {
                    "weights": [
                        -0.4944007521967617,
                        0.3543547136463183,
                        0.8894167209076866,
                        -0.020398108402776005,
                        0.3939803231851935,
                        0.7017653201382887,
                        -0.4018079869593414,
                        -0.8941432006613201,
                        0.03975791115886507,
                        -0.894431228656716,
                        -0.5383685347497977,
                        -0.14150348728128948,
                        -0.09065887092977287,
                        0.27937119665192744,
                        0.5962453148915043,
                        0.17117690525815443,
                        0.2572884497572656,
                        -0.6317291016299778
                    ],
                    "bias": 0.07417928445779998
                },
                {
                    "weights": [
                        0.8890772124737174,
                        -0.11071151007589641,
                        0.7229703334868145,
                        -0.9665823792122414,
                        -0.8776250263732361,
                        0.6646253755190046,
                        -0.43984541573169267,
                        0.07090785698755919,
                        0.752409263449211,
                        -0.29571433041092243,
                        0.6472433588368429,
                        -0.5014873229017445,
                        -0.9092514752035334,
                        0.025252036202941364,
                        -0.5772998940752008,
                        0.06147580127559005,
                        0.039392758917354165,
                        0.5400940849992648
                    ],
                    "bias": 0.5401263934901512
                },
                {
                    "weights": [
                        0.3229563206711701,
                        0.6125748079405098,
                        -0.4067730486254977,
                        -0.3006861544950701,
                        -0.851575135652201,
                        -0.26607225224884457,
                        0.7682120030301134,
                        -0.033526476412062634,
                        0.183174623713656,
                        0.37917026533960163,
                        0.6202966949169968,
                        -0.41332859829178736,
                        -0.7472935578370985,
                        0.8152643471039986,
                        0.27791057114081674,
                        -0.47963046159074385,
                        -0.7197657201061556,
                        0.5783330605015409
                    ],
                    "bias": 0.12997956623468632
                },
                {
                    "weights": [
                        0.643844971418607,
                        0.1914212363675405,
                        0.8897945238752882,
                        0.10531041409671382,
                        -0.7012929072291116,
                        -0.6685472108819563,
                        0.7995078324699392,
                        0.32299289612633175,
                        -0.015230133149901848,
                        -0.5868857170148252,
                        -0.5530940407477627,
                        -0.12891307224670356,
                        0.39732954331127,
                        0.09318955828250863,
                        0.38994181982552045,
                        -0.972530788275451,
                        0.7466395925593268,
                        -0.5761168204904088
                    ],
                    "bias": 0.1373454260632767
                }
            ],
            "length": 10
        },
        "layers": [
            {
                "neurons": [
                    {
                        "weights": [
                            -0.30108807569868246,
                            0.08748284829743169,
                            -0.6996560206513953,
                            -0.6197048146901074,
                            0.1393262213435198,
                            0.1336183998602507,
                            0.08353508496063311,
                            -0.6130830848801903,
                            0.34501983888539156,
                            0.7223847525627607
                        ],
                        "bias": -0.03618632018917656
                    },
                    {
                        "weights": [
                            -0.06710936270204582,
                            -0.26355804848969266,
                            -0.24073880164310313,
                            -0.7286605557033303,
                            0.38796495109563334,
                            -0.8584049930356419,
                            -0.01787904090658521,
                            0.27423090924325666,
                            0.88633994745085,
                            -0.37267231741124673
                        ],
                        "bias": -0.457893560418585
                    },
                    {
                        "weights": [
                            -0.5486874253800675,
                            -0.13529369425748383,
                            0.027325589287591878,
                            -0.04421386911939673,
                            -0.01531230739023215,
                            -0.385985066397488,
                            0.1698931801843533,
                            -0.5233929398014305,
                            0.502038338210298,
                            0.622612285376873
                        ],
                        "bias": -0.41717912661853496
                    },
                    {
                        "weights": [
                            0.2281181792269038,
                            -0.8645593791800092,
                            -0.21903349499160174,
                            0.309618671428431,
                            0.7436521309163631,
                            -0.10353373531961596,
                            -0.49524452067607894,
                            0.030289577102474707,
                            0.9474671429404582,
                            0.5737046485629536
                        ],
                        "bias": 0.36995878877405963
                    },
                    {
                        "weights": [
                            0.34450941092266096,
                            -0.3013404279251004,
                            -0.6419721016175368,
                            0.21657274572833507,
                            -0.3579967280163785,
                            0.5784177813782605,
                            0.5896944081910767,
                            -0.5939772436777724,
                            -0.9442040923468766,
                            -0.16464224625897028
                        ],
                        "bias": -0.3265565874944234
                    },
                    {
                        "weights": [
                            0.06562976218734051,
                            0.20862027708121933,
                            0.22375859177023028,
                            -0.02382505416151326,
                            -0.8196575723037798,
                            -0.3302213564847625,
                            0.1867012579888505,
                            0.9227288256116524,
                            0.3961307586084877,
                            0.25022599535018464
                        ],
                        "bias": 0.6095148658421716
                    },
                    {
                        "weights": [
                            -0.23301612695797735,
                            0.46362867723908474,
                            0.6063766674233837,
                            0.09883236362426406,
                            0.005179585491772443,
                            -0.7672242952806068,
                            -0.9948836287738889,
                            -0.36769001417370073,
                            0.08643766804158504,
                            -0.9428735108215665
                        ],
                        "bias": -0.4611193330163461
                    },
                    {
                        "weights": [
                            -0.18288808727055783,
                            -0.9390965075494904,
                            -0.20066331974456753,
                            0.27555817632777413,
                            0.1166899911842112,
                            0.6757996037276834,
                            0.7412351430968502,
                            -0.21884192935007496,
                            -0.17929033556204543,
                            0.8559453259164203
                        ],
                        "bias": 0.34615162021322554
                    },
                    {
                        "weights": [
                            -0.6791192114588644,
                            0.7912487051395221,
                            0.8086913040257333,
                            -0.7575313767387399,
                            -0.002781503664165186,
                            -0.1994137700375882,
                            0.14322365404377813,
                            0.6372073048142308,
                            0.40341304279737367,
                            -0.12577985428912775
                        ],
                        "bias": -0.314883512258437
                    },
                    {
                        "weights": [
                            0.6821003122838631,
                            -0.460934345085267,
                            0.8967567389179241,
                            -0.7088051861594198,
                            0.45148335236963466,
                            -0.48798826613989155,
                            -0.43928056999552956,
                            0.6578902774254278,
                            -0.948254684510996,
                            -0.6470181946469873
                        ],
                        "bias": 0.3271311424704657
                    }
                ],
                "length": 10
            },
            {
                "neurons": [
                    {
                        "weights": [
                            0.09331294780193922,
                            -0.635230573503528,
                            0.5184057719093627,
                            -0.6685212193758796,
                            -0.2698461718445948,
                            0.083583219481832,
                            -0.923606427385087,
                            0.7587533913721829,
                            0.9940912946167515,
                            0.5053035901417
                        ],
                        "bias": -0.06171933965891263
                    },
                    {
                        "weights": [
                            -0.059290423408116855,
                            -0.8280372263954339,
                            -0.3776108904219362,
                            0.7413626977223624,
                            0.7116893030120264,
                            0.20166769267380014,
                            0.09448332974255091,
                            0.10390367407133727,
                            0.5367910320678912,
                            0.9439403276557397
                        ],
                        "bias": -0.4347106294851171
                    },
                    {
                        "weights": [
                            -0.8033590387847995,
                            0.2094580179644765,
                            -0.8062349304926764,
                            -0.10124660932037144,
                            -0.2295694264089545,
                            0.22383202351076958,
                            -0.36425240397628866,
                            0.17323001838909158,
                            -0.10398180225250542,
                            0.8517496675287874
                        ],
                        "bias": -0.7996000892009836
                    },
                    {
                        "weights": [
                            -0.3271498425043433,
                            0.7403076073651567,
                            0.6349426150267525,
                            -0.6869418252393964,
                            -0.7147186120714097,
                            0.5224303736200988,
                            -0.5182555057568756,
                            -0.3817632940293125,
                            0.4135224282721317,
                            -0.6899826858317992
                        ],
                        "bias": 0.2537432311091392
                    },
                    {
                        "weights": [
                            0.9388003704840473,
                            0.11320103704743856,
                            -0.24632833321936043,
                            -0.25537331282036346,
                            -0.37987293271021194,
                            0.11629405506048895,
                            -0.06039649827871618,
                            0.4523957514255359,
                            0.360000952816645,
                            -0.2509757800850563
                        ],
                        "bias": 0.9504622024546632
                    },
                    {
                        "weights": [
                            0.4483058618964273,
                            -0.45000170883217483,
                            -0.32069404985192396,
                            -0.7886443030125316,
                            0.02669162915953116,
                            0.9178081575006054,
                            -0.056182370640692314,
                            -0.6037262090943687,
                            0.9724592473929081,
                            -0.37254294886783956
                        ],
                        "bias": 0.9325738015264828
                    },
                    {
                        "weights": [
                            -0.1212911571913402,
                            -0.6995052196930078,
                            0.047186750300759694,
                            -0.02979786583362687,
                            -0.958119392884204,
                            -0.2802595744595575,
                            -0.3385386338093921,
                            0.648389542900442,
                            -0.14297177278803885,
                            -0.005109131257109434
                        ],
                        "bias": -0.7222481820353821
                    },
                    {
                        "weights": [
                            -0.8333617185593913,
                            0.24074208530921481,
                            -0.42760854703147366,
                            0.32554662064405226,
                            -0.6406822678911406,
                            -0.3303933573171649,
                            0.5212470842077648,
                            -0.12036850340480965,
                            0.2138247875891448,
                            -0.3281541483370187
                        ],
                        "bias": 0.924303744585145
                    },
                    {
                        "weights": [
                            0.7075654889152352,
                            0.37640742164332597,
                            0.10904953562930264,
                            -0.9747139821710222,
                            -0.9154778680817819,
                            -0.07505762620150613,
                            0.7419218144001569,
                            0.059048458109765445,
                            0.46312520116837064,
                            0.5242390630995171
                        ],
                        "bias": -0.3924459187341338
                    },
                    {
                        "weights": [
                            0.5908634264698995,
                            -0.09115806031549001,
                            0.08090381853558704,
                            -0.10470806379654274,
                            -0.08593307643704295,
                            0.10718382348194333,
                            0.09120784986897346,
                            -0.5787426941123963,
                            0.4776425393221708,
                            -0.8261776874162894
                        ],
                        "bias": 0.7343420140795647
                    }
                ],
                "length": 10
            },
            {
                "neurons": [
                    {
                        "weights": [
                            -0.6287103920849173,
                            0.9601282030904694,
                            -0.06428035846758373,
                            0.5326271737492969,
                            0.5148190130031332,
                            -0.5572399521300775,
                            0.43739683805746177,
                            0.3484742974771271,
                            0.5536870637203459,
                            -0.009233455563890436
                        ],
                        "bias": -0.457632319591718
                    },
                    {
                        "weights": [
                            0.793668187579827,
                            -0.992925203088517,
                            -0.2108670468914331,
                            0.3311044718286633,
                            0.030943703453880422,
                            -0.9623043115445042,
                            -0.20703938384678255,
                            0.5257286158436909,
                            -0.02302864638616442,
                            0.9611442734055695
                        ],
                        "bias": -0.5300825795553337
                    },
                    {
                        "weights": [
                            0.22358552872111348,
                            -0.20927431083922832,
                            -0.11219393457643445,
                            -0.10143937955631999,
                            -0.4577483462084031,
                            -0.3102208542177647,
                            0.6464030292098255,
                            -0.6456490385576039,
                            0.2041474336582194,
                            -0.9400816701167474
                        ],
                        "bias": 0.44768625430209097
                    },
                    {
                        "weights": [
                            -0.715719964573424,
                            0.0633753356082365,
                            0.2854838454697566,
                            0.19903295295054235,
                            0.32571401099159725,
                            0.6578383194174331,
                            0.34561152916361526,
                            -0.715127143548685,
                            -0.6345713971666034,
                            -0.9147222038789573
                        ],
                        "bias": 0.5003748811100455
                    },
                    {
                        "weights": [
                            -0.7235687234700934,
                            0.466935275342963,
                            -0.21848416637509316,
                            0.548562312480851,
                            0.9591005677225486,
                            -0.7146403561848593,
                            0.3633771992979189,
                            0.7752398040566555,
                            -0.776399298429191,
                            -0.8575649432648833
                        ],
                        "bias": 0.801587524555641
                    },
                    {
                        "weights": [
                            -0.15136278080429522,
                            0.668339904456208,
                            0.550331949595031,
                            -0.7375459201666932,
                            0.9773290408200426,
                            -0.40119777606416496,
                            0.48114324749192505,
                            -0.7410741298533001,
                            -0.987117859461466,
                            0.3342405653459337
                        ],
                        "bias": -0.9591014277191303
                    },
                    {
                        "weights": [
                            0.9225732257003871,
                            0.5461044284090286,
                            0.7567026197644777,
                            -0.15852968531452816,
                            0.4791262654859305,
                            0.48061047065677753,
                            -0.47231596395612785,
                            -0.3090656637234015,
                            0.1816271662398381,
                            0.3568569150597378
                        ],
                        "bias": 0.6171167842822096
                    },
                    {
                        "weights": [
                            -0.5386708079173266,
                            -0.03184599576857794,
                            0.16890688752096716,
                            0.6544635870660134,
                            -0.5966261718634751,
                            -0.5409705986758255,
                            0.9077298616202838,
                            -0.2633799158758996,
                            -0.413405685291818,
                            0.8919659008795371
                        ],
                        "bias": -0.07390992706882371
                    },
                    {
                        "weights": [
                            0.6902709994754908,
                            0.17130543082481675,
                            0.42417645080726296,
                            -0.8836948449999187,
                            0.47177339046609656,
                            -0.3371207952972535,
                            0.1611803733824424,
                            0.5235013994199442,
                            0.0993852271753135,
                            -0.9467455657010808
                        ],
                        "bias": -0.49638141670425573
                    },
                    {
                        "weights": [
                            -0.9698404963260951,
                            0.6986389157889008,
                            0.1696332236983309,
                            0.4105369973337196,
                            0.532071803813069,
                            0.9774252302410296,
                            -0.3710020989903351,
                            0.35545086942319504,
                            -0.03133522904998598,
                            0.8075826632445198
                        ],
                        "bias": -0.7074883737625826
                    }
                ],
                "length": 10
            },
            {
                "neurons": [
                    {
                        "weights": [
                            -0.34043475927156686,
                            -0.7272663367108054,
                            0.6864456248914266,
                            0.7462499539286744,
                            -0.8508238538620785,
                            -0.8818009460941074,
                            -0.8842730346032748,
                            0.6125795390398816,
                            -0.6397271317976272,
                            -0.023436876522747507
                        ],
                        "bias": 0.15289927943946813
                    },
                    {
                        "weights": [
                            -0.8267172053343699,
                            -0.684024112812762,
                            0.7898199216253121,
                            -0.7667627775085002,
                            -0.5865555292342903,
                            -0.4813841773898777,
                            0.8337549233765333,
                            -0.46802737116555626,
                            0.7970314702638632,
                            -0.5588830463662859
                        ],
                        "bias": 0.6498235465848616
                    },
                    {
                        "weights": [
                            0.4688368305591748,
                            0.02668894317346071,
                            0.3363009881128076,
                            -0.9510814713885272,
                            0.6108253927916263,
                            0.35071716135042164,
                            0.10414765740027021,
                            -0.3816734714574297,
                            -0.8762107364242739,
                            0.5486081901687243
                        ],
                        "bias": 0.42133412846869
                    },
                    {
                        "weights": [
                            -0.31220509485336456,
                            -0.47614039594139235,
                            -0.176979435270191,
                            -0.7060012668780888,
                            -0.14087864658025073,
                            -0.7219029853041161,
                            -0.8561069108393573,
                            0.8648002343714878,
                            -0.2678716399815966,
                            -0.5921271972371844
                        ],
                        "bias": -0.07970244048665376
                    },
                    {
                        "weights": [
                            -0.07884313689219358,
                            -0.42512951068610105,
                            -0.1353155795339882,
                            -0.6519322286265194,
                            -0.33949611459770046,
                            -0.23122236655976147,
                            -0.4786094535925598,
                            -0.25175654970458994,
                            -0.6827873681868535,
                            -0.3394133711035827
                        ],
                        "bias": 0.34177321403787997
                    },
                    {
                        "weights": [
                            0.4958447428720889,
                            0.1720157453498634,
                            0.7016899442665898,
                            -0.874376207822221,
                            -0.2370727878170995,
                            0.5818156560826302,
                            0.3980190988419534,
                            -0.98003995975674,
                            -0.8380168333832829,
                            0.8714713991849594
                        ],
                        "bias": -0.020751475078950143
                    },
                    {
                        "weights": [
                            -0.10148853634242316,
                            -0.47057614699822903,
                            -0.9114558141910811,
                            -0.12733050516264166,
                            -0.33892340914164,
                            -0.09311120284301655,
                            0.5520031211303746,
                            0.28182484831779764,
                            -0.2923767043629242,
                            -0.8798062932790045
                        ],
                        "bias": 0.29154834002309316
                    },
                    {
                        "weights": [
                            -0.23031198807686337,
                            -0.45926432730188593,
                            -0.24993007658608501,
                            0.4988321316675506,
                            0.988736898949131,
                            -0.10076708877242146,
                            -0.5605979658033164,
                            -0.4680549956878999,
                            -0.7277330468020893,
                            0.9408484982665319
                        ],
                        "bias": 0.845291310700476
                    },
                    {
                        "weights": [
                            0.6926470001423897,
                            0.7636873843112719,
                            -0.7504841921906271,
                            0.6212950215786912,
                            -0.10399302581741132,
                            0.7202359149457234,
                            0.5039504598891849,
                            -0.08743705554274128,
                            0.7630534971987204,
                            -0.9688576249415652
                        ],
                        "bias": -0.5813186325716342
                    },
                    {
                        "weights": [
                            -0.539098735876935,
                            0.5253621980320105,
                            -0.17627726431961666,
                            -0.835216344074597,
                            0.518770871797487,
                            -0.08327079763996204,
                            -0.38405058358809163,
                            0.18451611336120255,
                            0.6076891613264728,
                            -0.7443839358791051
                        ],
                        "bias": -0.5232148474861011
                    }
                ],
                "length": 10
            },
            {
                "neurons": [
                    {
                        "weights": [
                            0.5253804748189734,
                            -0.5940085667078543,
                            0.23104940108650251,
                            -0.10831788529156183,
                            -0.47182353197928273,
                            0.12590781007130292,
                            -0.7812803308711633,
                            -0.9503248802166946,
                            -0.9389719717035743,
                            -0.8463988134273883
                        ],
                        "bias": 0.11586007814984578
                    },
                    {
                        "weights": [
                            0.9903470519624351,
                            0.8392592381642618,
                            0.3999144198570308,
                            -0.42951272302463406,
                            -0.06805788214746422,
                            -0.6235484942887395,
                            0.06917877470748324,
                            -0.6224471250072443,
                            0.08543758317950712,
                            -0.39593172824788936
                        ],
                        "bias": -0.08895316628393046
                    },
                    {
                        "weights": [
                            0.13370369632568546,
                            0.2619004529667548,
                            0.9091891692680776,
                            0.4443275753661826,
                            0.5114010700864244,
                            -0.4999153077048344,
                            0.6982396470011087,
                            0.8839841862027886,
                            0.3519040396883413,
                            0.3911986185692089
                        ],
                        "bias": -0.6363611433541567
                    },
                    {
                        "weights": [
                            0.3215778979746349,
                            0.23407491423979487,
                            -0.8160121111880541,
                            -0.8313423097857973,
                            -0.02537381755626389,
                            0.8386923093800993,
                            -0.0550589715955736,
                            0.907848216234951,
                            -0.7464671910710183,
                            -0.1471737088336511
                        ],
                        "bias": -0.1444879895111688
                    },
                    {
                        "weights": [
                            0.7359368764683374,
                            0.9141803721301132,
                            -0.9367038876118441,
                            -0.7422888596589456,
                            -0.2909258733111617,
                            0.9060875268362063,
                            -0.6922727689540937,
                            0.11310991168737394,
                            0.22216944900585278,
                            -0.46239391821243725
                        ],
                        "bias": -0.3824214913534463
                    },
                    {
                        "weights": [
                            0.055304740231822525,
                            0.2503283028414127,
                            -0.28345310999011164,
                            -0.6174584677412704,
                            -0.3459683620753726,
                            -0.504277381857847,
                            0.10230919892217205,
                            -0.7221370767984567,
                            -0.23312239663152634,
                            0.4977653008497427
                        ],
                        "bias": -0.6922817232428788
                    },
                    {
                        "weights": [
                            -0.8054733126551048,
                            0.5492070707728365,
                            -0.9486291778991338,
                            -0.9777594189813992,
                            -0.9696350026330818,
                            -0.9240138451489626,
                            0.1793946294802713,
                            -0.01367166539507414,
                            0.7540576534334587,
                            -0.3050036968739531
                        ],
                        "bias": 0.4318424266284113
                    },
                    {
                        "weights": [
                            -0.7292397901627279,
                            0.2716444392114217,
                            0.5178383012743868,
                            0.8934894975403349,
                            0.6675631752294515,
                            0.8943440516837724,
                            -0.2168380588196135,
                            0.7746385236984421,
                            -0.9717992502058506,
                            0.371416404092729
                        ],
                        "bias": 0.7172373270128596
                    },
                    {
                        "weights": [
                            0.9434812196632232,
                            -0.9827257096428983,
                            -0.36435087429169566,
                            -0.9804968078760072,
                            0.20446152336089018,
                            -0.3655198129046273,
                            0.38017403679443507,
                            0.3222876273790558,
                            0.8962671564145157,
                            0.5684110105276776
                        ],
                        "bias": -0.28915668379988313
                    },
                    {
                        "weights": [
                            0.5493084106393991,
                            0.08474021113296981,
                            0.580339318955593,
                            0.019640626458547583,
                            -0.25650594394416437,
                            -0.4951330151295634,
                            -0.12309993845738632,
                            0.7219912826952344,
                            -0.5826545718602723,
                            -0.8858833540196307
                        ],
                        "bias": -0.06026857887508941
                    }
                ],
                "length": 10
            },
            {
                "neurons": [
                    {
                        "weights": [
                            0.17486638989140002,
                            -0.08093220804898538,
                            -0.731440840615242,
                            0.22000808634477043,
                            -0.44579220495863736,
                            -0.2435324843572968,
                            0.7675663867126448,
                            0.7655168502252174,
                            -0.3902470340852624,
                            -0.7302418821812087
                        ],
                        "bias": -0.3395608817460549
                    },
                    {
                        "weights": [
                            -0.7314897458594807,
                            0.8210888326848951,
                            0.9838492463337842,
                            0.959622366482455,
                            0.05500710028117095,
                            0.8554433739101794,
                            0.27781982159283825,
                            0.2917914201170533,
                            0.3342167549469133,
                            -0.8926684836479322
                        ],
                        "bias": 0.27204914237419064
                    },
                    {
                        "weights": [
                            -0.8170927223142415,
                            -0.9507618676598464,
                            -0.5707699881535748,
                            0.6736929179456397,
                            -0.24152695958300097,
                            -0.39156604296558295,
                            -0.6534700387291734,
                            -0.5062123848531483,
                            -0.028843060944810706,
                            -0.4035277225642935
                        ],
                        "bias": 0.2745296995601465
                    },
                    {
                        "weights": [
                            -0.47609304154469445,
                            -0.14039631238900752,
                            -0.503238899059099,
                            -0.05754633882004723,
                            0.5576962235690095,
                            0.8371823624777357,
                            0.7771634600953257,
                            -0.7204095911173534,
                            -0.38196097346351343,
                            -0.6288768618152047
                        ],
                        "bias": -0.9805938727947032
                    },
                    {
                        "weights": [
                            -0.9962552469835808,
                            -0.372344525324279,
                            0.5765956881241123,
                            -0.14381409803963274,
                            0.4693665730846257,
                            -0.1777723499185091,
                            0.4107795671987311,
                            -0.3000930508267423,
                            0.38423689843415176,
                            -0.8120873116793046
                        ],
                        "bias": 0.11002348228836922
                    },
                    {
                        "weights": [
                            0.09285394938862712,
                            -0.15773063597643988,
                            0.03547034101169011,
                            -0.0749274257777588,
                            0.7084782498918509,
                            0.9691777981715799,
                            0.7335886911288072,
                            -0.7050490340594193,
                            -0.6403034122914408,
                            -0.9298446148727308
                        ],
                        "bias": -0.7259420061339932
                    },
                    {
                        "weights": [
                            -0.6541536329526083,
                            0.3820012704438638,
                            -0.1483428612025801,
                            0.8626256469164206,
                            -0.869457822422999,
                            -0.17163763488987627,
                            -0.8835092891411642,
                            0.9454492609170948,
                            0.33564910023287986,
                            0.754756140904749
                        ],
                        "bias": 0.8145818251231176
                    },
                    {
                        "weights": [
                            -0.903783095494801,
                            0.045862369597889474,
                            0.8955093577325857,
                            0.9886213633790686,
                            0.024725808766004498,
                            -0.690199052890843,
                            -0.3499724942014093,
                            0.032196030534846765,
                            0.5597186242751149,
                            0.40812896893322304
                        ],
                        "bias": -0.6099675791570647
                    },
                    {
                        "weights": [
                            0.6570734401818608,
                            0.9308246385236898,
                            -0.08454386324587615,
                            -0.3644943653467996,
                            0.023227369924291086,
                            -0.47938118780836847,
                            0.31360779003652084,
                            -0.3729458499989573,
                            -0.7233827458137767,
                            0.9362579630543781
                        ],
                        "bias": 0.26607699840581556
                    },
                    {
                        "weights": [
                            0.8211612615823654,
                            0.6115695977347675,
                            -0.21844190048367684,
                            -0.7213925031071937,
                            -0.2940277773955351,
                            -0.1545998847503267,
                            0.22774855355090162,
                            -0.37977463151314805,
                            0.843785820776523,
                            0.05976465788502239
                        ],
                        "bias": 0.8126159279958449
                    }
                ],
                "length": 10
            },
            {
                "neurons": [
                    {
                        "weights": [
                            -0.6987693395729775,
                            0.9952644240377735,
                            -0.11947449169006452,
                            -0.4873493180527626,
                            -0.2839423617830248,
                            -0.09837712969916534,
                            0.08975544916269795,
                            0.9103698847539994,
                            0.3807007812462331,
                            0.45982241528182444
                        ],
                        "bias": -0.31307906257913865
                    },
                    {
                        "weights": [
                            -0.4539017485106094,
                            0.8567629492110349,
                            -0.21666102480680882,
                            0.5942042524720459,
                            0.22520141731961618,
                            -0.916352664668578,
                            -0.9463797651883568,
                            0.7056803314273743,
                            0.8048108178585456,
                            -0.34497322281723686
                        ],
                        "bias": 0.8407897669795081
                    },
                    {
                        "weights": [
                            0.5677284017281481,
                            0.7804577813153508,
                            0.3724478528641264,
                            0.8245216959753374,
                            0.1723093541064995,
                            0.039080853135387894,
                            -0.9571039467583964,
                            0.5057078011097842,
                            0.6818404072669304,
                            -0.15904580749896868
                        ],
                        "bias": -0.7898197935843778
                    },
                    {
                        "weights": [
                            0.5688670771645257,
                            -0.20062101541254185,
                            0.10990408116661854,
                            0.6904197187268837,
                            0.8453833409415135,
                            0.9851021268327791,
                            -0.019206658322260317,
                            -0.197734857743181,
                            0.4406458468771153,
                            -0.8986664245035965
                        ],
                        "bias": 0.675561288933697
                    },
                    {
                        "weights": [
                            -0.7213358544747634,
                            0.08391467261958452,
                            -0.9424544141693194,
                            0.6248574872552464,
                            -0.8460748539463616,
                            -0.6815087901896537,
                            -0.11075394354228552,
                            -0.9081350985631034,
                            -0.8062204393897334,
                            0.595877140099281
                        ],
                        "bias": -0.9007135106572284
                    },
                    {
                        "weights": [
                            -0.4906054265970474,
                            0.7152253740090226,
                            0.7058084615599365,
                            0.5908953645015702,
                            0.3071448119775182,
                            -0.330072349683308,
                            0.29708798656871105,
                            0.9655122834496268,
                            0.6308668975944347,
                            -0.7492151155148221
                        ],
                        "bias": -0.5070877264965525
                    },
                    {
                        "weights": [
                            -0.9572484313067289,
                            -0.2015418210551072,
                            0.9531184683618508,
                            0.04563190984166621,
                            -0.8729764405470928,
                            0.8515051542030792,
                            -0.3795893901635288,
                            -0.9483681572162792,
                            -0.21119423487856825,
                            -0.5139092539166012
                        ],
                        "bias": -0.576365047249668
                    },
                    {
                        "weights": [
                            0.6922496960558564,
                            -0.6845293668178478,
                            0.09526598154890031,
                            0.29214358441958455,
                            0.7584592776856867,
                            0.8645867508426301,
                            -0.36372414342421266,
                            0.76494225691665,
                            0.2581219836815809,
                            0.5478426283082425
                        ],
                        "bias": -0.3911793016510836
                    },
                    {
                        "weights": [
                            0.8568330194207734,
                            -0.23143445200878232,
                            -0.30046967577577144,
                            0.9399687682547269,
                            -0.09269980530039401,
                            0.6188729435887204,
                            -0.03672687379861017,
                            0.6269809694783957,
                            0.9773975220429088,
                            0.9835352457588449
                        ],
                        "bias": -0.979934597838531
                    },
                    {
                        "weights": [
                            -0.842125577940682,
                            -0.053827087279977315,
                            0.4318053372420565,
                            0.5824077174380176,
                            -0.35176463500674227,
                            0.07617189149269654,
                            0.8799565244531717,
                            -0.15277955953230826,
                            -0.4832113096863724,
                            -0.4751221114102513
                        ],
                        "bias": 0.4391722015931838
                    }
                ],
                "length": 10
            },
            {
                "neurons": [
                    {
                        "weights": [
                            0.7593851073104652,
                            -0.012826260844513548,
                            -0.5527828574774303,
                            0.6174429733569069,
                            -0.35281571291622194,
                            -0.37730292750906336,
                            0.5388183235976383,
                            -0.7045272155037474,
                            -0.6641932019330472,
                            0.7488963165757376
                        ],
                        "bias": -0.28023425009321157
                    },
                    {
                        "weights": [
                            -0.9350756260446922,
                            0.3195743491307539,
                            0.6733249337682492,
                            -0.5227069222618925,
                            -0.04039273976947522,
                            0.13745280202317578,
                            0.014977792884960817,
                            -0.9505421909036997,
                            0.10116578200966142,
                            -0.3503470779389066
                        ],
                        "bias": -0.3114438829852051
                    },
                    {
                        "weights": [
                            0.6530222412490172,
                            0.28220134539457353,
                            -0.8725291715459946,
                            -0.9488843206583228,
                            -0.17417800479415435,
                            0.6222430771299992,
                            -0.3381416921957996,
                            -0.38323167909262335,
                            0.19271958147331913,
                            -0.09001812139682563
                        ],
                        "bias": -0.3994275154138409
                    },
                    {
                        "weights": [
                            0.4211419649956136,
                            0.8910331538616174,
                            -0.37158463194855207,
                            -0.9648528936182919,
                            -0.664157272387121,
                            -0.49473919143517064,
                            -0.6453079514094557,
                            0.27571816602862675,
                            0.5835018796942768,
                            -0.5691856454420277
                        ],
                        "bias": 0.34538561188922334
                    },
                    {
                        "weights": [
                            0.7117605517541059,
                            -0.9611830536592954,
                            -0.8615389332828152,
                            -0.5904256988941463,
                            -0.34818313138833235,
                            0.47932538011537207,
                            0.19695984479667117,
                            -0.8443922479434016,
                            0.6195147685467841,
                            0.05657729097294162
                        ],
                        "bias": 0.6028156734453569
                    },
                    {
                        "weights": [
                            -0.721423805507541,
                            0.7559755675500155,
                            0.9770608530219709,
                            -0.945024226927129,
                            -0.07272778762307497,
                            0.49394507566476076,
                            -0.12474734195917692,
                            0.7521377051879654,
                            0.058337471657425644,
                            -0.9440146981682598
                        ],
                        "bias": 0.2160343712549988
                    },
                    {
                        "weights": [
                            0.8472777094749888,
                            -0.038196275933450874,
                            0.4815893571759633,
                            -0.569215787940853,
                            0.5105379334358477,
                            -0.08151542775798526,
                            0.05040602640030367,
                            0.5056927682367249,
                            -0.909027265916339,
                            -0.6912820519864815
                        ],
                        "bias": 0.2689674219031206
                    },
                    {
                        "weights": [
                            -0.4532055833892523,
                            -0.22378056600551788,
                            -0.5887610744498788,
                            0.7498308494761585,
                            0.6486452150846398,
                            -0.10954773702934784,
                            0.3436935031893422,
                            -0.3655189171451976,
                            -0.8957250196832605,
                            -0.6974359798913352
                        ],
                        "bias": -0.2478086236834578
                    },
                    {
                        "weights": [
                            0.18578930963770013,
                            -0.9204039678450935,
                            -0.5757327864632777,
                            0.9762887363659878,
                            0.3637441137913624,
                            -0.605702787636565,
                            0.903751238573685,
                            -0.010882676297801153,
                            -0.240143555712095,
                            0.6539787765796174
                        ],
                        "bias": -0.1774763440083349
                    },
                    {
                        "weights": [
                            0.26099742721314567,
                            0.1243583725929096,
                            0.4613963566288666,
                            0.36144366362037594,
                            -0.5939161416962853,
                            -0.5501988789397263,
                            0.34498349414919627,
                            0.6965919254101949,
                            0.8076769284681442,
                            -0.6439666563145676
                        ],
                        "bias": 0.9947441347356627
                    }
                ],
                "length": 10
            },
            {
                "neurons": [
                    {
                        "weights": [
                            -0.4214280203279914,
                            -0.22816120496419567,
                            0.6622430749454793,
                            -0.37278637773134826,
                            -0.9340108512005836,
                            0.6740476027980715,
                            -0.06731875861051906,
                            0.6962767767067843,
                            -0.7629473952895895,
                            0.060835659973927925
                        ],
                        "bias": 0.27614817923953616
                    },
                    {
                        "weights": [
                            -0.8278814190802548,
                            0.8295874101011391,
                            -0.15515957768426136,
                            0.7777455798394808,
                            0.8259466645187215,
                            -0.34763017882716585,
                            0.8878017176008068,
                            0.8469415440172778,
                            0.35487453700400384,
                            -0.7606367174038282
                        ],
                        "bias": -0.5719087875142135
                    },
                    {
                        "weights": [
                            -0.7524974287334893,
                            -0.05452909882757462,
                            -0.45405074647527854,
                            -0.6346225569715678,
                            -0.16478919815153903,
                            0.3325660067972642,
                            -0.16238601942594344,
                            0.9077561400711169,
                            -0.4085431502203227,
                            0.5390225606804349
                        ],
                        "bias": -0.9424536930672598
                    },
                    {
                        "weights": [
                            -0.6125534763852063,
                            0.9147764901803386,
                            0.7055084992271663,
                            0.0032510004964421135,
                            0.8459433823716045,
                            -0.6967064635855915,
                            -0.6701622300971697,
                            0.971352801421784,
                            -0.61127712607926,
                            -0.8628273344571182
                        ],
                        "bias": -0.0810918856116809
                    },
                    {
                        "weights": [
                            -0.05152229446466827,
                            0.8948133500209241,
                            -0.789169653250821,
                            -0.9424636520837073,
                            0.8860041916259427,
                            0.4971614569341751,
                            0.3354308345776045,
                            -0.01787056682233845,
                            -0.9661004961828177,
                            -0.10699652537926507
                        ],
                        "bias": 0.4802750621120626
                    },
                    {
                        "weights": [
                            0.9321923031426094,
                            -0.48668960843973763,
                            -0.360054039338809,
                            -0.19595898062379025,
                            -0.5629177084733112,
                            0.5521580201664911,
                            -0.8707223219567135,
                            -0.9489882433306271,
                            0.45121137778514564,
                            0.9990037089219745
                        ],
                        "bias": -0.22672102890708556
                    },
                    {
                        "weights": [
                            -0.0789843687937537,
                            -0.4157952814726613,
                            -0.24128356741337198,
                            -0.7638627980957544,
                            0.9600786024521466,
                            -0.5681178983141055,
                            -0.17788514064393413,
                            0.7289198666766026,
                            0.9528103596671094,
                            -0.606369950943562
                        ],
                        "bias": 0.4207467918939334
                    },
                    {
                        "weights": [
                            0.9550386695571067,
                            -0.16400841398840926,
                            0.8706308587567944,
                            0.8787649758525848,
                            -0.5484041806543889,
                            0.03333504306847468,
                            -0.04912525019728209,
                            -0.8801195745679413,
                            0.5823132362255645,
                            0.9452131364300305
                        ],
                        "bias": -0.41142260958013654
                    },
                    {
                        "weights": [
                            -0.9415884503088188,
                            0.2021397750759386,
                            0.19889283908079447,
                            0.8243076588552891,
                            -0.9301804377742624,
                            0.3903132235592637,
                            -0.1434064314286254,
                            0.49265179351749544,
                            -0.2641607406385582,
                            0.06494531914582824
                        ],
                        "bias": -0.5903730335587336
                    },
                    {
                        "weights": [
                            -0.8522842699466435,
                            0.7955920108883774,
                            0.006841532762245528,
                            0.983626984825902,
                            0.9869145185961428,
                            0.10682190777192768,
                            -0.0037112119853495162,
                            0.9720883502420472,
                            -0.7841323387881831,
                            0.39990170755254995
                        ],
                        "bias": -0.5638461395416943
                    }
                ],
                "length": 10
            },
            {
                "neurons": [
                    {
                        "weights": [
                            0.10106011494766931,
                            -0.7474793686227472,
                            -0.07421234786507447,
                            0.11375614289513991,
                            0.14146480902949965,
                            -0.7572255101723464,
                            0.08046603879586711,
                            0.0076453887350946825,
                            -0.22342719713728987,
                            0.8292646498633081
                        ],
                        "bias": 0.8117690825827057
                    },
                    {
                        "weights": [
                            -0.505755460299784,
                            0.7684061098310728,
                            0.22969704912472566,
                            -0.04035591529022664,
                            -0.02129135005440519,
                            -0.7083053265030419,
                            0.3424584751685782,
                            -0.8926333158829636,
                            -0.7635663224765119,
                            -0.4548662104606116
                        ],
                        "bias": -0.8991385645544012
                    },
                    {
                        "weights": [
                            0.5650550270632133,
                            -0.797430080128227,
                            -0.4548941660028549,
                            0.5634144732832969,
                            -0.895653843412193,
                            0.7722537886568939,
                            0.33416468396760357,
                            0.7674929295965243,
                            -0.3493985871388976,
                            0.23999647774214705
                        ],
                        "bias": -0.9766166888692456
                    },
                    {
                        "weights": [
                            -0.004968363263745168,
                            0.7995372605452071,
                            0.6003053987971738,
                            0.8022777551702647,
                            0.2149924504448868,
                            0.0612261247721575,
                            0.8736986997820888,
                            0.3951775679234346,
                            -0.39027379146189434,
                            -0.23669299747105366
                        ],
                        "bias": 0.6051082616124104
                    },
                    {
                        "weights": [
                            -0.8046250608246488,
                            0.6547065544457251,
                            -0.7951209983203344,
                            -0.5446217174261947,
                            0.08223025031556319,
                            0.9232016269977588,
                            0.8418818930478353,
                            0.8541040278322576,
                            -0.6774377377288676,
                            -0.8609989082312373
                        ],
                        "bias": 0.21275823238908753
                    },
                    {
                        "weights": [
                            0.029088537025137473,
                            -0.5497117017948066,
                            0.8739477002817746,
                            0.03258569755836116,
                            -0.8519851034349821,
                            0.33766442339855396,
                            -0.9834438005184554,
                            0.1438797072511293,
                            0.8062351860821186,
                            0.31878706588090755
                        ],
                        "bias": 0.4433051349963746
                    },
                    {
                        "weights": [
                            -0.7825621076462967,
                            -0.37203469169638814,
                            -0.16487642999944563,
                            -0.1260883013302776,
                            -0.5808031106671756,
                            -0.2367259899376175,
                            0.05003948741551256,
                            0.8216366907520298,
                            -0.41540476158515927,
                            -0.09838370923864526
                        ],
                        "bias": -0.6543044114830214
                    },
                    {
                        "weights": [
                            -0.2588490883524168,
                            -0.9783064629092628,
                            0.11545487015890332,
                            -0.954217305532211,
                            0.4383721826884164,
                            0.8828218698061097,
                            -0.8814915956765113,
                            -0.7196293811046566,
                            -0.5287851815651274,
                            0.19969285115231417
                        ],
                        "bias": -0.8277205976721482
                    },
                    {
                        "weights": [
                            0.45476910489309197,
                            -0.8002790508903219,
                            -0.8238242369512856,
                            0.41316979750310634,
                            -0.3722796568504112,
                            -0.7241824195149984,
                            0.2506658611863244,
                            -0.05308986229573032,
                            0.3741410884622125,
                            -0.41563997035098943
                        ],
                        "bias": 0.5280061720792932
                    },
                    {
                        "weights": [
                            0.9351491235201281,
                            0.7765276694587031,
                            -0.019133946528259393,
                            -0.4691205349670011,
                            0.3838046932296968,
                            0.32020100409672136,
                            0.9164807615594939,
                            0.03360339439800297,
                            0.633970886614144,
                            0.15417045990434963
                        ],
                        "bias": -0.9304461648834415
                    }
                ],
                "length": 10
            }
        ],
        "outputLayer": {
            "neurons": [
                {
                    "weights": [
                        0.17588063165867718,
                        0.1918503912567049,
                        0.5480427222047501,
                        0.10224028280511144,
                        -0.05744428598708984,
                        0.25310476667928117,
                        0.8115401855937843,
                        -0.12634583530977062,
                        0.3196671315016093,
                        0.5629172466759047
                    ],
                    "bias": 0.6486483976219477
                },
                {
                    "weights": [
                        -0.6608659248022279,
                        0.38931109163580513,
                        0.15136147466480399,
                        0.8837780538763262,
                        0.367297840551589,
                        0.790433342746758,
                        0.8973802858455526,
                        -0.35931938333520064,
                        0.31981302071465567,
                        0.027850502631156404
                    ],
                    "bias": 0.08688209576106631
                },
                {
                    "weights": [
                        0.11317583175047763,
                        -0.590651884728921,
                        -0.14458064045465235,
                        -0.7569693867102187,
                        0.705713667154374,
                        0.8678162492416717,
                        0.184014233577114,
                        -0.2601289393588615,
                        -0.6424267543577815,
                        -0.2779330768520878
                    ],
                    "bias": 0.6711442457422052
                },
                {
                    "weights": [
                        -0.11370670960995244,
                        0.586301544097841,
                        0.8200379186846265,
                        -0.2472485865916354,
                        0.875903241980106,
                        0.14305794370178315,
                        0.5590699753861186,
                        -0.5152107665285848,
                        0.7644102800196457,
                        -0.44259343245053606
                    ],
                    "bias": -0.3503927862687837
                }
            ],
            "length": 4
        }
    },
    {
        "inputLayer": {
            "neurons": [
                {
                    "weights": [
                        0.32657231580839663,
                        0.21695501971050457,
                        0.03250639711410419,
                        0.582454880124424,
                        -0.1234721554538134,
                        -0.2966349416221685,
                        0.868729059611201,
                        0.07130485408379972,
                        0.43575401774793177,
                        0.44782531978861373,
                        0.9475357456694857,
                        -0.7883066283451059,
                        -0.29474598906496374,
                        0.4822547406934421,
                        0.9271161717644456,
                        0.3146548004279688,
                        0.5407935640167174,
                        -0.5448710105856831
                    ],
                    "bias": -0.026386296266879716
                },
                {
                    "weights": [
                        0.8459509081503629,
                        -0.8963004498274327,
                        -0.7679798633444497,
                        0.8642995341998385,
                        0.5195632442591578,
                        -0.1082245427898414,
                        0.02222399645272266,
                        -0.3038864937560415,
                        0.6722042688948711,
                        -0.2218480291383973,
                        -0.5600341430394162,
                        0.41870592378377514,
                        -0.40770130781724134,
                        -0.7452888797762562,
                        -0.2034726005566725,
                        -0.09123225395021817,
                        -0.7901213062164822,
                        -0.4368545649526898
                    ],
                    "bias": 0.13404451153910135
                },
                {
                    "weights": [
                        -0.9611938601636667,
                        -0.44923408217177085,
                        0.03746861802578061,
                        0.945654209470062,
                        0.7507721463680939,
                        -0.09034623439226919,
                        0.0351162106098839,
                        0.13445744024883854,
                        0.5386163757438815,
                        -0.5876628449046359,
                        0.13545927533717905,
                        0.1794887067840496,
                        -0.5240697308743574,
                        0.4465067565516163,
                        0.9084592922747059,
                        -0.05088229097668573,
                        -0.4599423929319981,
                        -0.36604131993324374
                    ],
                    "bias": 0.9041799618441135
                },
                {
                    "weights": [
                        -0.6477141590000302,
                        0.8385935878263775,
                        -0.762223478435283,
                        0.6395655021962654,
                        0.729658859633439,
                        -0.3720258801720784,
                        -0.7855897932693219,
                        -0.49187778485526157,
                        -0.917894049570539,
                        0.8615242594900709,
                        0.6776316635980468,
                        0.3748184656755922,
                        0.6026825200610895,
                        0.8889199673091956,
                        0.9721841221764225,
                        -0.9985651843321028,
                        -0.5772362255852084,
                        0.6900791957978536
                    ],
                    "bias": 0.1664518129958361
                },
                {
                    "weights": [
                        -0.30384085157013985,
                        -0.27375588057834666,
                        0.9311056013697516,
                        -0.7330886032956967,
                        -0.8985462542902127,
                        0.6897241981887154,
                        -0.09709557224875476,
                        -0.948991614053369,
                        -0.1350331049101121,
                        0.014204958341206497,
                        -0.26014216073387675,
                        0.5413162952005894,
                        -0.8107417786827169,
                        -0.6409318591255382,
                        0.36779608845073475,
                        -0.08692122416138126,
                        0.0138905886977565,
                        0.6620021179730842
                    ],
                    "bias": 0.19223939517780342
                },
                {
                    "weights": [
                        0.5665658374499765,
                        -0.1914262990645037,
                        -0.6435064055415365,
                        -0.10054654441890776,
                        0.38575194764646814,
                        0.12076051272899546,
                        -0.5183129276166709,
                        0.5092767365180622,
                        -0.5062447155534207,
                        -0.836219091979278,
                        -0.3397194154036174,
                        -0.10749931418284042,
                        0.9751343377002459,
                        -0.36742308914737776,
                        -0.023684307122328274,
                        -0.27786888146711575,
                        0.9564311159389074,
                        0.4357614682731463
                    ],
                    "bias": -0.4413692774458817
                },
                {
                    "weights": [
                        -0.4596239953103016,
                        0.140257621996551,
                        0.24279577638470418,
                        0.11676752573889293,
                        0.6007947596046532,
                        0.15134807051646426,
                        -0.6720298619355412,
                        -0.5401257272141169,
                        0.06262203708539893,
                        0.33475332014726344,
                        0.8192107174590011,
                        -0.8997761468969498,
                        -0.37739952304795077,
                        0.9172081258231943,
                        -0.6147216451104716,
                        -0.8927252799746557,
                        -0.8837229739516974,
                        -0.5340785449576777
                    ],
                    "bias": 0.6096156869774689
                },
                {
                    "weights": [
                        -0.036886923721756615,
                        0.8523466154256751,
                        -0.6694973147701582,
                        0.9183199879470452,
                        0.06943949232436952,
                        -0.8388296572597576,
                        -0.34826998490479233,
                        -0.9365014285640125,
                        0.4151375129888417,
                        0.12355976069763885,
                        0.46573889388946377,
                        -0.8941003738305098,
                        -0.21519689037998746,
                        -0.7092394113501022,
                        -0.4578125438217795,
                        -0.4899224926637813,
                        0.23422398589652693,
                        0.08655961569902537
                    ],
                    "bias": -0.4386626606846227
                },
                {
                    "weights": [
                        0.45861344443641716,
                        -0.3174238427388607,
                        0.03424344357016951,
                        0.3027259013738377,
                        -0.8668241018082328,
                        -0.22784165536678858,
                        0.2771532094485223,
                        0.01439410491773363,
                        0.06836716312038504,
                        0.2888523768013178,
                        -0.7061254888362192,
                        0.8686653211066069,
                        -0.9177406428684929,
                        0.03375730095034535,
                        0.4119568415265815,
                        -0.9255310954722147,
                        -0.7663467816484248,
                        -0.705440951669553
                    ],
                    "bias": -0.9535844147918777
                },
                {
                    "weights": [
                        -0.05695895117592564,
                        0.17378077314528406,
                        -0.74857001132728,
                        0.6133569409813708,
                        0.864993572310738,
                        -0.6380612715785676,
                        0.21105488756311996,
                        0.7783623551617969,
                        -0.827302591204121,
                        0.026391378469757365,
                        0.46934751552872433,
                        0.09251372948432746,
                        0.26196207689298245,
                        -0.1483983329313534,
                        0.9277442044350088,
                        -0.2337800193728008,
                        0.9401091872091805,
                        0.9438975775553848
                    ],
                    "bias": 0.08492510254487762
                }
            ],
            "length": 10
        },
        "layers": [
            {
                "neurons": [
                    {
                        "weights": [
                            0.5749639026909206,
                            -0.440994058967771,
                            0.8722532705299193,
                            -0.5530353625143722,
                            -0.9961469555929763,
                            0.9258350876980004,
                            -0.6707277625303223,
                            0.8819356377043468,
                            -0.030405842826099594,
                            0.03948713276351712
                        ],
                        "bias": -0.3372317959390987
                    },
                    {
                        "weights": [
                            -0.5971346218034006,
                            -0.2038421045005605,
                            -0.5854906109485665,
                            -0.06851550204398604,
                            -0.7429753813693014,
                            -0.19010563151651572,
                            -0.35533259270270623,
                            -0.5503594757642416,
                            -0.17641448752394617,
                            -0.4002458787217009
                        ],
                        "bias": -0.18266568935236438
                    },
                    {
                        "weights": [
                            0.462182936285481,
                            0.24839721437043782,
                            0.764848177340077,
                            -0.9004534608093506,
                            -0.4963587101797686,
                            0.9657589712568699,
                            -0.24887565168992465,
                            0.32208709652788725,
                            -0.004770824230063031,
                            0.17901259724755958
                        ],
                        "bias": -0.4147013581642207
                    },
                    {
                        "weights": [
                            -0.11592928368481248,
                            -0.6434629147929192,
                            0.05472322883449787,
                            0.2524337870336102,
                            -0.45096459888664353,
                            -0.9578898219237428,
                            -0.48553490360506313,
                            0.7803556093447348,
                            -0.13156371090750052,
                            0.37806492734834496
                        ],
                        "bias": 0.38073643408196367
                    },
                    {
                        "weights": [
                            -0.4501113190951478,
                            0.15070042766958003,
                            0.6267478513247366,
                            0.22461220594173748,
                            -0.8465553826048717,
                            0.5144155758757187,
                            0.28695260619488394,
                            -0.5412229598895759,
                            -0.8108011426373265,
                            0.4589556680930649
                        ],
                        "bias": 0.47845396626895353
                    },
                    {
                        "weights": [
                            0.6654151746196486,
                            0.06933944398446368,
                            -0.9712926462496212,
                            -0.452287959547506,
                            -0.857112564154658,
                            -0.15312522251803395,
                            -0.20503523243626431,
                            -0.9984431177580915,
                            0.06267927397696815,
                            -0.9050420484816901
                        ],
                        "bias": 0.8184600568337395
                    },
                    {
                        "weights": [
                            -0.8428855913078623,
                            0.5328567920631491,
                            -0.9093671183171921,
                            0.4286316572124089,
                            -0.1723165915267888,
                            -0.7582603079577364,
                            0.26154609627963055,
                            0.6982275013174195,
                            0.36662026381428214,
                            -0.9162818221172926
                        ],
                        "bias": 0.12498642119144887
                    },
                    {
                        "weights": [
                            -0.6003973344334688,
                            -0.37805884128935263,
                            0.8683322850569066,
                            0.5008831924165957,
                            -0.7106981182051249,
                            0.6411874806843263,
                            -0.4774482939712261,
                            -0.2683072561894029,
                            -0.47594276408693803,
                            0.7024821707408062
                        ],
                        "bias": -0.5736888472051709
                    },
                    {
                        "weights": [
                            0.13862037146528783,
                            0.1605028434487017,
                            -0.14173450234120888,
                            -0.49677330886617477,
                            -0.5311758353476637,
                            0.5945171568993151,
                            -0.04085909308167279,
                            0.3454628241178339,
                            0.9604375772867708,
                            0.393696521129427
                        ],
                        "bias": 0.3971166984786716
                    },
                    {
                        "weights": [
                            0.317943236101516,
                            -0.6693065031938019,
                            -0.2362628251864074,
                            0.6026510062712165,
                            -0.8952909395783624,
                            0.6144230504350281,
                            -0.08315641563533127,
                            -0.062092121736738504,
                            -0.01931036932628083,
                            -0.4796706968326534
                        ],
                        "bias": 0.09828013565650107
                    }
                ],
                "length": 10
            },
            {
                "neurons": [
                    {
                        "weights": [
                            0.9705888959391333,
                            -0.30484843896524816,
                            -0.6422904645450087,
                            -0.01334976081352024,
                            -0.8201510268027006,
                            -0.030999402254478836,
                            0.893410587065063,
                            -0.36112716832707736,
                            -0.18479423618858348,
                            0.6523976122257857
                        ],
                        "bias": -0.2667008910730828
                    },
                    {
                        "weights": [
                            0.28053133772975003,
                            0.5522066684646361,
                            -0.725318604679299,
                            -0.2442910038153019,
                            0.6342587624123432,
                            -0.6868554116183332,
                            -0.7905121111162963,
                            0.07528250981572016,
                            0.27534179417323346,
                            0.4612828656971901
                        ],
                        "bias": 0.5481835584645207
                    },
                    {
                        "weights": [
                            -0.349021039767345,
                            -0.19761456027162394,
                            -0.4598847769459029,
                            0.3178280696462361,
                            0.7027836334611868,
                            0.8100046133195744,
                            -0.431024917813023,
                            0.12512236786372544,
                            -0.5141544576020314,
                            -0.36325907734585394
                        ],
                        "bias": -0.4961778295400199
                    },
                    {
                        "weights": [
                            -0.3245542065850031,
                            0.30889440347316155,
                            0.2975834234806254,
                            -0.7368504701296659,
                            0.2068593779250847,
                            0.859840473027832,
                            -0.7782973273792173,
                            0.2112034348804115,
                            0.5757575769470271,
                            -0.4009666162607586
                        ],
                        "bias": 0.9514740914793096
                    },
                    {
                        "weights": [
                            -0.742764865939896,
                            0.6507176812057054,
                            -0.6221738420599456,
                            0.6449864372578973,
                            -0.1307672135843969,
                            0.3178560932945469,
                            -0.7291076432430097,
                            -0.887604590150092,
                            -0.37185347391123913,
                            0.382663472551275
                        ],
                        "bias": -0.5758381603886655
                    },
                    {
                        "weights": [
                            0.012319990133432546,
                            -0.32572670458145647,
                            0.9298022099484975,
                            0.736761211429275,
                            0.8527931611959849,
                            -0.40165531640758445,
                            -0.6758285679352602,
                            0.016267754129342782,
                            0.29613925381564354,
                            0.9942638508180393
                        ],
                        "bias": 0.9513540504033167
                    },
                    {
                        "weights": [
                            0.030278182053068425,
                            -0.6981658343778674,
                            0.013971839606274905,
                            0.3020651356822217,
                            0.6058759493116954,
                            -0.6402415585039167,
                            -0.4456287273639268,
                            0.34207696019498934,
                            0.9020152374060368,
                            -0.44651767761115635
                        ],
                        "bias": 0.2092530135234547
                    },
                    {
                        "weights": [
                            0.8607605537230592,
                            -0.008273447980717163,
                            0.6516450368932063,
                            0.6033450073000737,
                            -0.6660441859405999,
                            -0.6978953469721478,
                            0.8407709370737015,
                            -0.20322974697848317,
                            -0.30044821658387244,
                            -0.0025603139275129916
                        ],
                        "bias": 0.5473326329487538
                    },
                    {
                        "weights": [
                            0.9334871004775576,
                            -0.2555860159087995,
                            0.48664166638045536,
                            0.6359746906868788,
                            -0.2388272152604154,
                            -0.28336526853869226,
                            -0.3295802036118629,
                            0.6620239865434827,
                            0.4369214088661908,
                            -0.391926245278853
                        ],
                        "bias": -0.70987605767675
                    },
                    {
                        "weights": [
                            0.14877279232841545,
